{"learner":{"attributes":{"scikit_learn":"{\"_estimator_type\": \"regressor\"}"},"feature_names":[],"feature_types":[],"gradient_booster":{"model":{"cats":{"enc":[],"feature_segments":[],"sorted_idx":[]},"gbtree_model_param":{"num_parallel_tree":"1","num_trees":"50"},"iteration_indptr":[0,1,2,3,4,5,6,7,8,9,10,11,12,13,14,15,16,17,18,19,20,21,22,23,24,25,26,27,28,29,30,31,32,33,34,35,36,37,38,39,40,41,42,43,44,45,46,47,48,49,50],"tree_info":[0,0,0,0,0,0,0,0,0,0,0,0,0,0,0,0,0,0,0,0,0,0,0,0,0,0,0,0,0,0,0,0,0,0,0,0,0,0,0,0,0,0,0,0,0,0,0,0,0,0],"trees":[{"base_weights":[7.2355886E-7,-8.6470474E1,6.948521E1,-1.7182753E2,-2.9028214E1,2.173996E1,1.4277922E2,-2.045876E1,-7.877398E0,-6.408635E0,2.6472E0,-1.3389791E0,9.2581625E0,4.7365146E0,1.6266666E1],"categories":[],"categories_nodes":[],"categories_segments":[],"categories_sizes":[],"default_left":[0,0,0,0,0,0,0,0,0,0,0,0,0,0,0],"id":0,"left_children":[1,3,5,7,9,11,13,-1,-1,-1,-1,-1,-1,-1,-1],"loss_changes":[1.2137005E6,4.3629138E5,3.8883344E5,9.3627625E4,1.0871186E5,1.729565E5,7.578706E4,0E0,0E0,0E0,0E0,0E0,0E0,0E0,0E0],"parents":[2147483647,0,0,1,1,2,2,3,3,4,4,5,5,6,6],"right_children":[2,4,6,8,10,12,14,-1,-1,-1,-1,-1,-1,-1,-1],"split_conditions":[-2.4903604E-1,-2.4606249E-1,2.1319664E-1,-5.426738E-1,9.5312506E-1,8.2718325E-1,1.5579048E-2,-2.045876E1,-7.877398E0,-6.408635E0,2.6472E0,-1.3389791E0,9.2581625E0,4.7365146E0,1.6266666E1],"split_indices":[3,7,7,3,7,3,3,0,0,0,0,0,0,0,0],"split_type":[0,0,0,0,0,0,0,0,0,0,0,0,0,0,0],"sum_hessian":[2E2,8.9E1,1.11E2,3.5E1,5.4E1,6.8E1,4.3E1,2.5E1,1E1,3.3E1,2.1E1,4.6E1,2.2E1,8E0,3.5E1],"tree_param":{"num_deleted":"0","num_feature":"10","num_nodes":"15","size_leaf_vector":"1"}},{"base_weights":[-1.5797673E-2,-9.431951E1,5.2214073E1,-1.5615953E2,-1.6503746E1,1.4097579E1,1.1922623E2,-1.8900152E1,-1.0551923E1,-3.608532E0,7.762755E0,-1.5754477E0,8.517861E0,3.7123737E0,1.5293262E1],"categories":[],"categories_nodes":[],"categories_segments":[],"categories_sizes":[],"default_left":[0,0,0,0,0,0,0,0,0,0,0,0,0,0,0],"id":1,"left_children":[1,3,5,7,9,11,13,-1,-1,-1,-1,-1,-1,-1,-1],"loss_changes":[9.9494444E5,3.4389594E5,3.3037403E5,4.6581875E4,6.36281E4,1.7958281E5,1.2438944E5,0E0,0E0,0E0,0E0,0E0,0E0,0E0,0E0],"parents":[2147483647,0,0,1,1,2,2,3,3,4,4,5,5,6,6],"right_children":[2,4,6,8,10,12,14,-1,-1,-1,-1,-1,-1,-1,-1],"split_conditions":[-4.1187698E-1,2.2468473E-1,3.514482E-1,-1.0025294E0,1.4511436E0,8.2718325E-1,1.5579048E-2,-1.8900152E1,-1.0551923E1,-3.608532E0,7.762755E0,-1.5754477E0,8.517861E0,3.7123737E0,1.5293262E1],"split_indices":[3,7,7,3,1,3,3,0,0,0,0,0,0,0,0],"split_type":[0,0,0,0,0,0,0,0,0,0,0,0,0,0,0],"sum_hessian":[2E2,7.1E1,1.29E2,3.9E1,3.2E1,8.3E1,4.6E1,2.2E1,1.7E1,2.7E1,5E0,5.9E1,2.4E1,1.4E1,3.2E1],"tree_param":{"num_deleted":"0","num_feature":"10","num_nodes":"15","size_leaf_vector":"1"}},{"base_weights":[-1.0982759E-2,-7.0953026E1,5.6996117E1,-1.4295885E2,-2.2531898E1,1.6512848E1,1.1472183E2,-1.9140375E1,-9.463273E0,-5.2068477E0,2.4139717E0,-2.1251698E0,7.3247423E0,7.940094E0,1.7030447E1],"categories":[],"categories_nodes":[],"categories_segments":[],"categories_sizes":[],"default_left":[0,0,0,0,0,0,0,0,0,0,0,0,0,0,0],"id":2,"left_children":[1,3,5,7,9,11,13,-1,-1,-1,-1,-1,-1,-1,-1],"loss_changes":[8.169284E5,3.105731E5,2.5984131E5,6.61685E4,7.707551E4,1.4510783E5,7.6786125E4,0E0,0E0,0E0,0E0,0E0,0E0,0E0,0E0],"parents":[2147483647,0,0,1,1,2,2,3,3,4,4,5,5,6,6],"right_children":[2,4,6,8,10,12,14,-1,-1,-1,-1,-1,-1,-1,-1],"split_conditions":[-2.4903604E-1,-2.4606249E-1,1.8186626E-1,-1.0025294E0,9.5312506E-1,1.3296968E-1,3.8406545E-1,-1.9140375E1,-9.463273E0,-5.2068477E0,2.4139717E0,-2.1251698E0,7.3247423E0,7.940094E0,1.7030447E1],"split_indices":[3,7,7,3,7,1,6,0,0,0,0,0,0,0,0],"split_type":[0,0,0,0,0,0,0,0,0,0,0,0,0,0,0],"sum_hessian":[2E2,8.9E1,1.11E2,3.5E1,5.4E1,6.6E1,4.5E1,1.6E1,1.9E1,3.3E1,2.1E1,4E1,2.6E1,2.9E1,1.6E1],"tree_param":{"num_deleted":"0","num_feature":"10","num_nodes":"15","size_leaf_vector":"1"}},{"base_weights":[-1.5986295E-2,-7.825057E1,4.3314064E1,-1.1442361E2,1.504696E1,3.5891924E0,8.818991E1,-1.4767438E1,-7.549306E0,-6.1809707E-1,6.9146953E0,-2.4938211E0,6.6964355E0,6.041578E0,1.5118281E1],"categories":[],"categories_nodes":[],"categories_segments":[],"categories_sizes":[],"default_left":[0,0,0,0,0,0,0,0,0,0,0,0,0,0,0],"id":3,"left_children":[1,3,5,7,9,11,13,-1,-1,-1,-1,-1,-1,-1,-1],"loss_changes":[6.8476094E5,2.4471128E5,2.3143283E5,5.6164062E4,2.4544441E4,1.2822499E5,9.7590125E4,0E0,0E0,0E0,0E0,0E0,0E0,0E0,0E0],"parents":[2147483647,0,0,1,1,2,2,3,3,4,4,5,5,6,6],"right_children":[2,4,6,8,10,12,14,-1,-1,-1,-1,-1,-1,-1,-1],"split_conditions":[-4.1187698E-1,9.4955415E-1,8.243975E-2,-3.7220678E-1,1.4511436E0,8.2718325E-1,5.866938E-1,-1.4767438E1,-7.549306E0,-6.1809707E-1,6.9146953E0,-2.4938211E0,6.6964355E0,6.041578E0,1.5118281E1],"split_indices":[3,7,7,7,1,3,6,0,0,0,0,0,0,0,0],"split_type":[0,0,0,0,0,0,0,0,0,0,0,0,0,0,0],"sum_hessian":[2E2,7.1E1,1.29E2,5.1E1,2E1,6.9E1,6E1,2.6E1,2.5E1,1.5E1,5E0,4.8E1,2.1E1,4.3E1,1.7E1],"tree_param":{"num_deleted":"0","num_feature":"10","num_nodes":"15","size_leaf_vector":"1"}},{"base_weights":[3.209235E-2,-5.2462704E1,5.3576466E1,-1.1653387E2,-1.5749132E1,2.5003706E1,1.2266827E2,-1.603397E1,-7.552278E0,-3.853932E0,2.079497E0,-9.0912783E-1,8.946593E0,5.799785E0,1.4060895E1],"categories":[],"categories_nodes":[],"categories_segments":[],"categories_sizes":[],"default_left":[0,0,0,0,0,0,0,0,0,0,0,0,0,0,0],"id":4,"left_children":[1,3,5,7,9,11,13,-1,-1,-1,-1,-1,-1,-1,-1],"loss_changes":[5.677818E5,2.380974E5,1.9434719E5,5.4362062E4,5.576932E4,1.5905772E5,2.5491688E4,0E0,0E0,0E0,0E0,0E0,0E0,0E0,0E0],"parents":[2147483647,0,0,1,1,2,2,3,3,4,4,5,5,6,6],"right_children":[2,4,6,8,10,12,14,-1,-1,-1,-1,-1,-1,-1,-1],"split_conditions":[-8.071658E-2,-2.4606249E-1,5.5979043E-1,-1.0025294E0,9.5312506E-1,3.231677E-1,-6.2481856E-1,-1.603397E1,-7.552278E0,-3.853932E0,2.079497E0,-9.0912783E-1,8.946593E0,5.799785E0,1.4060895E1],"split_indices":[3,7,7,3,7,1,1,0,0,0,0,0,0,0,0],"split_type":[0,0,0,0,0,0,0,0,0,0,0,0,0,0,0],"sum_hessian":[2E2,1.01E2,9.9E1,3.6E1,6.5E1,7.1E1,2.8E1,1.6E1,2E1,4E1,2.5E1,4.7E1,2.4E1,7E0,2.1E1],"tree_param":{"num_deleted":"0","num_feature":"10","num_nodes":"15","size_leaf_vector":"1"}},{"base_weights":[4.1506894E-2,-7.2346825E1,3.2850307E1,-1.1392771E2,-1.630187E1,1.0077628E1,9.3112495E1,-1.3295481E1,-4.20737E0,-3.9141605E0,2.8723814E0,-2.6002057E0,4.5269675E0,1.5706226E0,1.2019667E1],"categories":[],"categories_nodes":[],"categories_segments":[],"categories_sizes":[],"default_left":[0,0,0,0,0,0,0,0,0,0,0,0,0,0,0],"id":5,"left_children":[1,3,5,7,9,11,13,-1,-1,-1,-1,-1,-1,-1,-1],"loss_changes":[4.797465E5,1.449579E5,1.8981575E5,4.3624312E4,2.9918785E4,1.30688305E5,7.777856E4,0E0,0E0,0E0,0E0,0E0,0E0,0E0,0E0],"parents":[2147483647,0,0,1,1,2,2,3,3,4,4,5,5,6,6],"right_children":[2,4,6,8,10,12,14,-1,-1,-1,-1,-1,-1,-1,-1],"split_conditions":[-5.112157E-1,2.2468473E-1,8.8365996E-1,6.324077E-1,6.3278186E-1,-3.6025392E-3,-4.8274353E-1,-1.3295481E1,-4.20737E0,-3.9141605E0,2.8723814E0,-2.6002057E0,4.5269675E0,1.5706226E0,1.2019667E1],"split_indices":[3,7,3,1,1,7,7,0,0,0,0,0,0,0,0],"split_type":[0,0,0,0,0,0,0,0,0,0,0,0,0,0,0],"sum_hessian":[2E2,6.2E1,1.38E2,3.5E1,2.7E1,1.01E2,3.7E1,2.7E1,8E0,1.8E1,9E0,5E1,5.1E1,1E1,2.7E1],"tree_param":{"num_deleted":"0","num_feature":"10","num_nodes":"15","size_leaf_vector":"1"}},{"base_weights":[2.2292938E-2,-4.365156E1,4.45694E1,-9.694617E1,-1.3112894E1,-1.3886654E1,6.982038E1,-1.3433929E1,-6.2059064E0,-3.9606893E0,1.2987542E0,-3.5288093E0,4.2348876E0,5.633142E0,1.6731836E1],"categories":[],"categories_nodes":[],"categories_segments":[],"categories_sizes":[],"default_left":[0,0,0,0,0,0,0,0,0,0,0,0,0,0,0],"id":6,"left_children":[1,3,5,7,9,11,13,-1,-1,-1,-1,-1,-1,-1,-1],"loss_changes":[3.9299984E5,1.6473845E5,1.4857681E5,3.9930938E4,4.615372E4,3.8803562E4,8.263494E4,0E0,0E0,0E0,0E0,0E0,0E0,0E0,0E0],"parents":[2147483647,0,0,1,1,2,2,3,3,4,4,5,5,6,6],"right_children":[2,4,6,8,10,12,14,-1,-1,-1,-1,-1,-1,-1,-1],"split_conditions":[-8.071658E-2,-2.4606249E-1,-4.4618344E-1,-1.0025294E0,-6.0709114E-3,2.7996862E-1,1.8467073E0,-1.3433929E1,-6.2059064E0,-3.9606893E0,1.2987542E0,-3.5288093E0,4.2348876E0,5.633142E0,1.6731836E1],"split_indices":[3,7,7,3,1,1,3,0,0,0,0,0,0,0,0],"split_type":[0,0,0,0,0,0,0,0,0,0,0,0,0,0,0],"sum_hessian":[2E2,1.01E2,9.9E1,3.6E1,6.5E1,3E1,6.9E1,1.6E1,2E1,3.2E1,3.3E1,2.2E1,8E0,6.2E1,7E0],"tree_param":{"num_deleted":"0","num_feature":"10","num_nodes":"15","size_leaf_vector":"1"}},{"base_weights":[2.3891706E-2,-6.0332577E1,2.737953E1,-9.4920845E1,-1.3707213E1,8.155598E0,7.826009E1,-1.6199919E1,-7.3143344E0,-2.6412237E0,5.001834E0,-6.7721957E-1,7.819487E0,1.4643204E0,1.0363575E1],"categories":[],"categories_nodes":[],"categories_segments":[],"categories_sizes":[],"default_left":[0,0,0,0,0,0,0,0,0,0,0,0,0,0,0],"id":7,"left_children":[1,3,5,7,9,11,13,-1,-1,-1,-1,-1,-1,-1,-1],"loss_changes":[3.335209E5,1.0029841E5,1.3532106E5,4.0739562E4,2.3990863E4,1.071738E5,5.982661E4,0E0,0E0,0E0,0E0,0E0,0E0,0E0,0E0],"parents":[2147483647,0,0,1,1,2,2,3,3,4,4,5,5,6,6],"right_children":[2,4,6,8,10,12,14,-1,-1,-1,-1,-1,-1,-1,-1],"split_conditions":[-5.112157E-1,2.2468473E-1,8.8365996E-1,-9.232333E-1,1.4511436E0,1.1950467E0,-6.459642E-1,-1.6199919E1,-7.3143344E0,-2.6412237E0,5.001834E0,-6.7721957E-1,7.819487E0,1.4643204E0,1.0363575E1],"split_indices":[3,7,3,6,1,7,1,0,0,0,0,0,0,0,0],"split_type":[0,0,0,0,0,0,0,0,0,0,0,0,0,0,0],"sum_hessian":[2E2,6.2E1,1.38E2,3.5E1,2.7E1,1.01E2,3.7E1,7E0,2.8E1,2.3E1,4E0,8.4E1,1.7E1,1.1E1,2.6E1],"tree_param":{"num_deleted":"0","num_feature":"10","num_nodes":"15","size_leaf_vector":"1"}},{"base_weights":[1.0638977E-2,-5.4635094E1,2.4778051E1,-7.596612E1,7.552747E0,-3.7584755E1,3.87838E1,-1.4265953E1,-5.862748E0,-2.0368822E0,2.9134727E0,-4.588694E0,4.1360965E0,1.6872683E0,8.048793E0],"categories":[],"categories_nodes":[],"categories_segments":[],"categories_sizes":[],"default_left":[0,0,0,0,0,0,0,0,0,0,0,0,0,0,0],"id":8,"left_children":[1,3,5,7,9,11,13,-1,-1,-1,-1,-1,-1,-1,-1],"loss_changes":[2.7339384E5,8.414517E4,1.228655E5,4.598575E4,1.0837685E4,1.8938895E4,1.028133E5,0E0,0E0,0E0,0E0,0E0,0E0,0E0,0E0],"parents":[2147483647,0,0,1,1,2,2,3,3,4,4,5,5,6,6],"right_children":[2,4,6,8,10,12,14,-1,-1,-1,-1,-1,-1,-1,-1],"split_conditions":[-5.112157E-1,9.4955415E-1,-6.4927757E-1,-9.232333E-1,-1.1583647E0,1.5739868E0,6.33919E-1,-1.4265953E1,-5.862748E0,-2.0368822E0,2.9134727E0,-4.588694E0,4.1360965E0,1.6872683E0,8.048793E0],"split_indices":[3,7,7,6,3,3,3,0,0,0,0,0,0,0,0],"split_type":[0,0,0,0,0,0,0,0,0,0,0,0,0,0,0],"sum_hessian":[2E2,6.2E1,1.38E2,4.6E1,1.6E1,2.5E1,1.13E2,8E0,3.8E1,7E0,9E0,2.3E1,2E0,7.5E1,3.8E1],"tree_param":{"num_deleted":"0","num_feature":"10","num_nodes":"15","size_leaf_vector":"1"}},{"base_weights":[-4.0020436E-2,-3.2094646E1,3.535405E1,-8.199424E1,-1.1318569E1,1.2929718E1,9.2181786E1,-9.806204E0,-3.844568E0,-3.5003033E0,1.204882E0,-1.3630947E0,6.1284156E0,2.9455173E0,1.0870105E1],"categories":[],"categories_nodes":[],"categories_segments":[],"categories_sizes":[],"default_left":[0,0,0,0,0,0,0,0,0,0,0,0,0,0,0],"id":9,"left_children":[1,3,5,7,9,11,13,-1,-1,-1,-1,-1,-1,-1,-1],"loss_changes":[2.2917795E5,1.0896403E5,1.2114321E5,1.7921547E4,4.24835E4,9.073818E4,2.4775516E4,0E0,0E0,0E0,0E0,0E0,0E0,0E0,0E0],"parents":[2147483647,0,0,1,1,2,2,3,3,4,4,5,5,6,6],"right_children":[2,4,6,8,10,12,14,-1,-1,-1,-1,-1,-1,-1,-1],"split_conditions":[2.1003842E-2,-4.4550252E-1,5.5979043E-1,-5.426738E-1,-6.0709114E-3,2.7996862E-1,-9.269305E-1,-9.806204E0,-3.844568E0,-3.5003033E0,1.204882E0,-1.3630947E0,6.1284156E0,2.9455173E0,1.0870105E1],"split_indices":[3,7,7,3,1,1,6,0,0,0,0,0,0,0,0],"split_type":[0,0,0,0,0,0,0,0,0,0,0,0,0,0,0],"sum_hessian":[2E2,1.05E2,9.5E1,3E1,7.5E1,6.9E1,2.6E1,2.1E1,9E0,3.7E1,3.8E1,4.5E1,2.4E1,6E0,2E1],"tree_param":{"num_deleted":"0","num_feature":"10","num_nodes":"15","size_leaf_vector":"1"}},{"base_weights":[-2.2909744E-2,-5.547466E1,1.72609E1,-7.505841E1,-7.386511E0,1.052878E1,1.24552986E2,-9.623788E0,-3.344251E0,-1.7195778E0,3.7582479E0,4.3007255E-1,1.1742513E1,4.5009646E0,1.408497E1],"categories":[],"categories_nodes":[],"categories_segments":[],"categories_sizes":[],"default_left":[0,0,0,0,0,0,0,0,0,0,0,0,0,0,0],"id":10,"left_children":[1,3,5,7,9,11,13,-1,-1,-1,-1,-1,-1,-1,-1],"loss_changes":[1.9359945E5,4.4649406E4,1.0992331E5,2.6749234E4,7.2629517E3,9.66954E4,5.3270625E3,0E0,0E0,0E0,0E0,0E0,0E0,0E0,0E0],"parents":[2147483647,0,0,1,1,2,2,3,3,4,4,5,5,6,6],"right_children":[2,4,6,8,10,12,14,-1,-1,-1,-1,-1,-1,-1,-1],"split_conditions":[-7.673476E-1,6.324077E-1,1.8467073E0,1.2637958E-1,7.783611E-1,1.7275431E0,-9.6697617E-1,-9.623788E0,-3.344251E0,-1.7195778E0,3.7582479E0,4.3007255E-1,1.1742513E1,4.5009646E0,1.408497E1],"split_indices":[3,1,3,7,6,7,1,0,0,0,0,0,0,0,0],"split_type":[0,0,0,0,0,0,0,0,0,0,0,0,0,0,0],"sum_hessian":[2E2,4.7E1,1.53E2,3.3E1,1.4E1,1.45E2,8E0,2.1E1,1.2E1,1.2E1,2E0,1.38E2,7E0,2E0,6E0],"tree_param":{"num_deleted":"0","num_feature":"10","num_nodes":"15","size_leaf_vector":"1"}},{"base_weights":[7.8034535E-2,-2.6968708E1,2.9941334E1,-6.957856E1,-9.233524E0,8.429678E0,7.47745E1,-1.1362334E1,-5.4462876E0,-2.999545E0,1.1232802E0,-2.9417503E0,2.8021848E0,3.0473096E0,9.761661E0],"categories":[],"categories_nodes":[],"categories_segments":[],"categories_sizes":[],"default_left":[0,0,0,0,0,0,0,0,0,0,0,0,0,0,0],"id":11,"left_children":[1,3,5,7,9,11,13,-1,-1,-1,-1,-1,-1,-1,-1],"loss_changes":[1.6315619E5,7.946107E4,9.195549E4,1.4450516E4,3.2630879E4,4.9763887E4,2.8395375E4,0E0,0E0,0E0,0E0,0E0,0E0,0E0,0E0],"parents":[2147483647,0,0,1,1,2,2,3,3,4,4,5,5,6,6],"right_children":[2,4,6,8,10,12,14,-1,-1,-1,-1,-1,-1,-1,-1],"split_conditions":[2.1003842E-2,-4.4550252E-1,5.1934654E-1,-7.904745E-1,-6.0709114E-3,-4.4618344E-1,-1.9236097E-1,-1.1362334E1,-5.4462876E0,-2.999545E0,1.1232802E0,-2.9417503E0,2.8021848E0,3.0473096E0,9.761661E0],"split_indices":[3,7,6,6,1,7,7,0,0,0,0,0,0,0,0],"split_type":[0,0,0,0,0,0,0,0,0,0,0,0,0,0,0],"sum_hessian":[2E2,1.05E2,9.5E1,3E1,7.5E1,6.5E1,3E1,6E0,2.4E1,3.7E1,3.8E1,2.2E1,4.3E1,1.1E1,1.9E1],"tree_param":{"num_deleted":"0","num_feature":"10","num_nodes":"15","size_leaf_vector":"1"}},{"base_weights":[4.030354E-2,-4.373588E1,1.6012423E1,-6.2697807E1,1.222301E0,3.516949E0,6.1198612E1,-9.318351E0,-4.3117905E0,-1.2866467E0,3.7608635E0,-1.2494241E0,3.988919E0,3.4246287E-1,7.7238345E0],"categories":[],"categories_nodes":[],"categories_segments":[],"categories_sizes":[],"default_left":[0,0,0,0,0,0,0,0,0,0,0,0,0,0,0],"id":12,"left_children":[1,3,5,7,9,11,13,-1,-1,-1,-1,-1,-1,-1,-1],"loss_changes":[1.412392E5,4.611129E4,8.3348945E4,1.8664578E4,9.198746E3,6.8634836E4,2.9389234E4,0E0,0E0,0E0,0E0,0E0,0E0,0E0,0E0],"parents":[2147483647,0,0,1,1,2,2,3,3,4,4,5,5,6,6],"right_children":[2,4,6,8,10,12,14,-1,-1,-1,-1,-1,-1,-1,-1],"split_conditions":[-7.143514E-1,6.324077E-1,7.9348874E-1,-5.503051E-1,1.3054788E0,5.5979043E-1,-5.956613E-1,-9.318351E0,-4.3117905E0,-1.2866467E0,3.7608635E0,-1.2494241E0,3.988919E0,3.4246287E-1,7.7238345E0],"split_indices":[3,1,1,7,7,7,7,0,0,0,0,0,0,0,0],"split_type":[0,0,0,0,0,0,0,0,0,0,0,0,0,0,0],"sum_hessian":[2E2,5.3E1,1.47E2,3.7E1,1.6E1,1.16E2,3.1E1,1.3E1,2.4E1,1.2E1,4E0,8.1E1,3.5E1,7E0,2.4E1],"tree_param":{"num_deleted":"0","num_feature":"10","num_nodes":"15","size_leaf_vector":"1"}},{"base_weights":[3.4531016E-2,-1.4440734E1,4.4038647E1,-6.2184174E1,-2.1908379E0,-2.311628E0,6.2127964E1,-9.817978E0,-4.299598E0,-1.0068402E0,5.4673686E0,-2.5089703E0,3.60371E0,1.4424051E0,8.254073E0],"categories":[],"categories_nodes":[],"categories_segments":[],"categories_sizes":[],"default_left":[0,0,0,0,0,0,0,0,0,0,0,0,0,0,0],"id":13,"left_children":[1,3,5,7,9,11,13,-1,-1,-1,-1,-1,-1,-1,-1],"loss_changes":[1.28667164E5,8.876129E4,4.206585E4,1.7190086E4,5.5200855E4,1.40068125E4,3.386511E4,0E0,0E0,0E0,0E0,0E0,0E0,0E0,0E0],"parents":[2147483647,0,0,1,1,2,2,3,3,4,4,5,5,6,6],"right_children":[2,4,6,8,10,12,14,-1,-1,-1,-1,-1,-1,-1,-1],"split_conditions":[6.33919E-1,-6.435182E-1,-5.765104E-1,-4.4651496E-1,1.5231241E0,4.4460267E-1,-6.3738716E-1,-9.817978E0,-4.299598E0,-1.0068402E0,5.4673686E0,-2.5089703E0,3.60371E0,1.4424051E0,8.254073E0],"split_indices":[3,7,7,6,7,0,1,0,0,0,0,0,0,0,0],"split_type":[0,0,0,0,0,0,0,0,0,0,0,0,0,0,0],"sum_hessian":[2E2,1.51E2,4.9E1,3E1,1.21E2,1.4E1,3.5E1,9E0,2.1E1,1.07E2,1.4E1,9E0,5E0,1.1E1,2.4E1],"tree_param":{"num_deleted":"0","num_feature":"10","num_nodes":"15","size_leaf_vector":"1"}},{"base_weights":[3.6720365E-2,-4.1443516E1,1.2965386E1,-5.587416E1,-5.971151E0,2.0226715E0,5.4621277E1,-7.1425247E0,-2.5258927E0,-1.4278224E0,3.201655E0,-1.12054E0,3.5601978E0,1.8158087E-1,6.6737323E0],"categories":[],"categories_nodes":[],"categories_segments":[],"categories_sizes":[],"default_left":[0,0,0,0,0,0,0,0,0,0,0,0,0,0,0],"id":14,"left_children":[1,3,5,7,9,11,13,-1,-1,-1,-1,-1,-1,-1,-1],"loss_changes":[1.0833044E5,2.423704E4,7.008711E4,1.4383281E4,5.1906377E3,5.503424E4,2.0352203E4,0E0,0E0,0E0,0E0,0E0,0E0,0E0,0E0],"parents":[2147483647,0,0,1,1,2,2,3,3,4,4,5,5,6,6],"right_children":[2,4,6,8,10,12,14,-1,-1,-1,-1,-1,-1,-1,-1],"split_conditions":[-7.673476E-1,6.324077E-1,8.696059E-1,1.2637958E-1,7.783611E-1,6.215719E-1,-6.022121E-1,-7.1425247E0,-2.5258927E0,-1.4278224E0,3.201655E0,-1.12054E0,3.5601978E0,1.8158087E-1,6.6737323E0],"split_indices":[3,1,1,7,6,7,7,0,0,0,0,0,0,0,0],"split_type":[0,0,0,0,0,0,0,0,0,0,0,0,0,0,0],"sum_hessian":[2E2,4.7E1,1.53E2,3.3E1,1.4E1,1.22E2,3.1E1,2.1E1,1.2E1,1.2E1,2E0,8.8E1,3.4E1,6E0,2.5E1],"tree_param":{"num_deleted":"0","num_feature":"10","num_nodes":"15","size_leaf_vector":"1"}},{"base_weights":[4.001523E-2,-1.251601E1,3.8209534E1,-5.6865402E1,-2.4816184E0,2.5237171E1,9.450172E1,-7.690371E0,-6.0174626E-1,-8.9110243E-1,5.8804536E0,-2.3478444E0,3.7390213E0,2.2626576E0,1.0065779E1],"categories":[],"categories_nodes":[],"categories_segments":[],"categories_sizes":[],"default_left":[0,0,0,0,0,0,0,0,0,0,0,0,0,0,0],"id":15,"left_children":[1,3,5,7,9,11,13,-1,-1,-1,-1,-1,-1,-1,-1],"loss_changes":[9.680898E4,6.75018E4,3.4127164E4,2.8066617E4,4.97782E4,2.5743664E4,1.7046797E3,0E0,0E0,0E0,0E0,0E0,0E0,0E0,0E0],"parents":[2147483647,0,0,1,1,2,2,3,3,4,4,5,5,6,6],"right_children":[2,4,6,8,10,12,14,-1,-1,-1,-1,-1,-1,-1,-1],"split_conditions":[6.33919E-1,-7.904745E-1,1.8467073E0,5.365099E-1,1.502357E0,-8.084936E-1,-1.3793192E0,-7.690371E0,-6.0174626E-1,-8.9110243E-1,5.8804536E0,-2.3478444E0,3.7390213E0,2.2626576E0,1.0065779E1],"split_indices":[3,6,3,7,7,7,1,0,0,0,0,0,0,0,0],"split_type":[0,0,0,0,0,0,0,0,0,0,0,0,0,0,0],"sum_hessian":[2E2,1.51E2,4.9E1,2.7E1,1.24E2,4.1E1,8E0,1.9E1,8E0,1.13E2,1.1E1,8E0,3.3E1,1E0,7E0],"tree_param":{"num_deleted":"0","num_feature":"10","num_nodes":"15","size_leaf_vector":"1"}},{"base_weights":[8.783868E-2,-4.7558495E1,8.724964E0,-6.541663E1,-2.120099E1,-4.7648495E1,1.6085123E1,-9.089937E0,-4.0936775E0,-3.5047634E0,-9.614231E-1,-6.0318623E0,-2.1103475E0,-1.4363767E0,2.9024973E0],"categories":[],"categories_nodes":[],"categories_segments":[],"categories_sizes":[],"default_left":[0,0,0,0,0,0,0,0,0,0,0,0,0,0,0],"id":16,"left_children":[1,3,5,7,9,11,13,-1,-1,-1,-1,-1,-1,-1,-1],"loss_changes":[8.313194E4,1.32046875E4,7.171735E4,7.5075156E3,1.9091724E3,5.4536445E3,6.030552E4,0E0,0E0,0E0,0E0,0E0,0E0,0E0,0E0],"parents":[2147483647,0,0,1,1,2,2,3,3,4,4,5,5,6,6],"right_children":[2,4,6,8,10,12,14,-1,-1,-1,-1,-1,-1,-1,-1],"split_conditions":[-1.1583647E0,1.2637958E-1,-9.815087E-1,-1.0444922E-1,-1.5947031E0,3.885786E-1,-5.816809E-1,-9.089937E0,-4.0936775E0,-3.5047634E0,-9.614231E-1,-6.0318623E0,-2.1103475E0,-1.4363767E0,2.9024973E0],"split_indices":[3,7,7,6,3,6,1,0,0,0,0,0,0,0,0],"split_type":[0,0,0,0,0,0,0,0,0,0,0,0,0,0,0],"sum_hessian":[2E2,3E1,1.7E2,1.7E1,1.3E1,1.9E1,1.51E2,7E0,1E1,5E0,8E0,1.2E1,7E0,4.5E1,1.06E2],"tree_param":{"num_deleted":"0","num_feature":"10","num_nodes":"15","size_leaf_vector":"1"}},{"base_weights":[-4.1969184E-2,-1.1197025E1,3.3870243E1,-4.774023E1,-1.8196785E0,2.2149096E1,8.4805565E1,-5.7843165E0,-4.8382798E-1,-3.9706886E0,6.4509976E-1,-1.8840302E0,3.2347786E0,2.2213438E0,8.985291E0],"categories":[],"categories_nodes":[],"categories_segments":[],"categories_sizes":[],"default_left":[0,0,0,0,0,0,0,0,0,0,0,0,0,0,0],"id":17,"left_children":[1,3,5,7,9,11,13,-1,-1,-1,-1,-1,-1,-1,-1],"loss_changes":[7.641607E4,5.2000227E4,2.7972648E4,1.3156641E4,3.8485195E4,1.8167047E4,8.473711E2,0E0,0E0,0E0,0E0,0E0,0E0,0E0,0E0],"parents":[2147483647,0,0,1,1,2,2,3,3,4,4,5,5,6,6],"right_children":[2,4,6,8,10,12,14,-1,-1,-1,-1,-1,-1,-1,-1],"split_conditions":[6.33919E-1,-6.435182E-1,1.8467073E0,5.38756E-1,-7.9252076E-1,-8.084936E-1,-1.3793192E0,-5.7843165E0,-4.8382798E-1,-3.9706886E0,6.4509976E-1,-1.8840302E0,3.2347786E0,2.2213438E0,8.985291E0],"split_indices":[3,7,3,1,6,7,1,0,0,0,0,0,0,0,0],"split_type":[0,0,0,0,0,0,0,0,0,0,0,0,0,0,0],"sum_hessian":[2E2,1.51E2,4.9E1,3E1,1.21E2,4.1E1,8E0,2.4E1,6E0,2.1E1,1E2,8E0,3.3E1,1E0,7E0],"tree_param":{"num_deleted":"0","num_feature":"10","num_nodes":"15","size_leaf_vector":"1"}},{"base_weights":[-2.302783E-2,-1.5074819E1,2.1557528E1,-3.9297363E1,-2.3128052E0,8.749408E0,5.895534E1,-8.486228E0,-2.7420404E0,-6.490769E-1,6.08192E0,-1.1506007E0,3.2893894E0,1.8768637E0,7.034065E0],"categories":[],"categories_nodes":[],"categories_segments":[],"categories_sizes":[],"default_left":[0,0,0,0,0,0,0,0,0,0,0,0,0,0,0],"id":18,"left_children":[1,3,5,7,9,11,13,-1,-1,-1,-1,-1,-1,-1,-1],"loss_changes":[6.5615E4,3.66954E4,3.9240812E4,1.9861113E4,2.1232059E4,3.118904E4,8.288094E3,0E0,0E0,0E0,0E0,0E0,0E0,0E0,0E0],"parents":[2147483647,0,0,1,1,2,2,3,3,4,4,5,5,6,6],"right_children":[2,4,6,8,10,12,14,-1,-1,-1,-1,-1,-1,-1,-1],"split_conditions":[1.8468031E-1,-2.4606249E-1,5.655096E-1,-8.28995E-1,2.143944E0,7.543364E-2,-6.2481856E-1,-8.486228E0,-2.7420404E0,-6.490769E-1,6.08192E0,-1.1506007E0,3.2893894E0,1.8768637E0,7.034065E0],"split_indices":[3,7,7,6,7,1,1,0,0,0,0,0,0,0,0],"split_type":[0,0,0,0,0,0,0,0,0,0,0,0,0,0,0],"sum_hessian":[2E2,1.18E2,8.2E1,4E1,7.8E1,6.2E1,2E1,7E0,3.3E1,7.4E1,4E0,3.4E1,2.8E1,5E0,1.5E1],"tree_param":{"num_deleted":"0","num_feature":"10","num_nodes":"15","size_leaf_vector":"1"}},{"base_weights":[5.4162843E-3,-3.9607674E1,7.1867056E0,-5.3009766E1,-1.9547298E1,-3.7741608E1,1.3051044E1,-8.064368E0,-3.6177976E0,-8.630999E-1,-3.2663865E0,-5.8691835E0,-2.1945958E0,-5.381888E-1,2.927475E0],"categories":[],"categories_nodes":[],"categories_segments":[],"categories_sizes":[],"default_left":[0,0,0,0,0,0,0,0,0,0,0,0,0,0,0],"id":19,"left_children":[1,3,5,7,9,11,13,-1,-1,-1,-1,-1,-1,-1,-1],"loss_changes":[5.746373E4,7.2981836E3,4.554677E4,5.4547812E3,1.7226597E3,5.3303984E3,4.5613227E4,0E0,0E0,0E0,0E0,0E0,0E0,0E0,0E0],"parents":[2147483647,0,0,1,1,2,2,3,3,4,4,5,5,6,6],"right_children":[2,4,6,8,10,12,14,-1,-1,-1,-1,-1,-1,-1,-1],"split_conditions":[-1.1583647E0,1.2637958E-1,-9.815087E-1,-9.232333E-1,6.7481947E-1,-1.51937E0,-1.5309849E-2,-8.064368E0,-3.6177976E0,-8.630999E-1,-3.2663865E0,-5.8691835E0,-2.1945958E0,-5.381888E-1,2.927475E0],"split_indices":[3,7,7,6,9,7,6,0,0,0,0,0,0,0,0],"split_type":[0,0,0,0,0,0,0,0,0,0,0,0,0,0,0],"sum_hessian":[2E2,3E1,1.7E2,1.7E1,1.3E1,1.9E1,1.51E2,5E0,1.2E1,8E0,5E0,7E0,1.2E1,7.1E1,8E1],"tree_param":{"num_deleted":"0","num_feature":"10","num_nodes":"15","size_leaf_vector":"1"}},{"base_weights":[-1.0202188E-1,-4.8541255E0,5.514756E1,-3.9808636E1,2.6676466E0,1.9664932E1,6.9488304E1,-5.430858E0,-1.0279071E-1,-3.2183817E-1,4.731866E0,-1.4491389E0,2.9394474E0,2.6518672E0,7.60906E0],"categories":[],"categories_nodes":[],"categories_segments":[],"categories_sizes":[],"default_left":[0,0,0,0,0,0,0,0,0,0,0,0,0,0,0],"id":20,"left_children":[1,3,5,7,9,11,13,-1,-1,-1,-1,-1,-1,-1,-1],"loss_changes":[5.3040594E4,4.900929E4,6.775078E3,1.8500676E4,4.062612E4,2.4199187E3,1.1028555E3,0E0,0E0,0E0,0E0,0E0,0E0,0E0,0E0],"parents":[2147483647,0,0,1,1,2,2,3,3,4,4,5,5,6,6],"right_children":[2,4,6,8,10,12,14,-1,-1,-1,-1,-1,-1,-1,-1],"split_conditions":[1.3956838E0,-7.904745E-1,-4.3449622E-1,5.365099E-1,1.3054788E0,-1.1978779E0,-1.3719012E0,-5.430858E0,-1.0279071E-1,-3.2183817E-1,4.731866E0,-1.4491389E0,2.9394474E0,2.6518672E0,7.60906E0],"split_indices":[3,6,7,7,7,0,1,0,0,0,0,0,0,0,0],"split_type":[0,0,0,0,0,0,0,0,0,0,0,0,0,0,0],"sum_hessian":[2E2,1.85E2,1.5E1,3.2E1,1.53E2,5E0,1E1,2.3E1,9E0,1.36E2,1.7E1,1E0,4E0,2E0,8E0],"tree_param":{"num_deleted":"0","num_feature":"10","num_nodes":"15","size_leaf_vector":"1"}},{"base_weights":[-3.894588E-2,-7.449417E0,3.1944113E1,-1.3028586E1,3.1162477E1,-2.0106728E1,4.04399E1,-3.8590412E0,-4.776836E-1,-1.311541E-1,4.7493167E0,1.9107491E0,-3.1771069E0,2.2985713E0,5.985254E0],"categories":[],"categories_nodes":[],"categories_segments":[],"categories_sizes":[],"default_left":[0,0,0,0,0,0,0,0,0,0,0,0,0,0,0],"id":21,"left_children":[1,3,5,7,9,11,13,-1,-1,-1,-1,-1,-1,-1,-1],"loss_changes":[4.787688E4,3.5735258E4,1.76172E4,3.018955E4,1.1199078E4,3.351514E3,9.805699E3,0E0,0E0,0E0,0E0,0E0,0E0,0E0,0E0],"parents":[2147483647,0,0,1,1,2,2,3,3,4,4,5,5,6,6],"right_children":[2,4,6,8,10,12,14,-1,-1,-1,-1,-1,-1,-1,-1],"split_conditions":[8.8365996E-1,1.3054788E0,-1.2295496E0,-4.4651496E-1,-2.6888868E-1,-1.3793192E0,1.3686316E0,-3.8590412E0,-4.776836E-1,-1.311541E-1,4.7493167E0,1.9107491E0,-3.1771069E0,2.2985713E0,5.985254E0],"split_indices":[3,7,6,6,1,1,3,0,0,0,0,0,0,0,0],"split_type":[0,0,0,0,0,0,0,0,0,0,0,0,0,0,0],"sum_hessian":[2E2,1.63E2,3.7E1,1.43E2,2E1,5E0,3.2E1,3.4E1,1.09E2,7E0,1.3E1,1E0,4E0,1.8E1,1.4E1],"tree_param":{"num_deleted":"0","num_feature":"10","num_nodes":"15","size_leaf_vector":"1"}},{"base_weights":[1.2611678E-3,-7.18268E0,3.002642E1,-3.0633951E1,1.7458062E0,-1.9661402E0,3.590283E1,-5.181939E0,-2.1359873E0,-3.5242972E-1,4.152332E0,-1.0248117E0,1.2492536E0,1.4886192E0,4.720347E0],"categories":[],"categories_nodes":[],"categories_segments":[],"categories_sizes":[],"default_left":[0,0,0,0,0,0,0,0,0,0,0,0,0,0,0],"id":22,"left_children":[1,3,5,7,9,11,13,-1,-1,-1,-1,-1,-1,-1,-1],"loss_changes":[4.3571164E4,3.418313E4,7.4026445E3,7.734543E3,2.5092498E4,9.6625E2,7.134871E3,0E0,0E0,0E0,0E0,0E0,0E0,0E0,0E0],"parents":[2147483647,0,0,1,1,2,2,3,3,4,4,5,5,6,6],"right_children":[2,4,6,8,10,12,14,-1,-1,-1,-1,-1,-1,-1,-1],"split_conditions":[8.696059E-1,-7.143514E-1,-9.193846E-1,-1.5702248E0,1.1966314E0,3.613956E-1,-2.3415338E-1,-5.181939E0,-2.1359873E0,-3.5242972E-1,4.152332E0,-1.0248117E0,1.2492536E0,1.4886192E0,4.720347E0],"split_indices":[1,3,3,3,6,6,7,0,0,0,0,0,0,0,0],"split_type":[0,0,0,0,0,0,0,0,0,0,0,0,0,0,0],"sum_hessian":[2E2,1.62E2,3.8E1,4.4E1,1.18E2,6E0,3.2E1,1.2E1,3.2E1,1.05E2,1.3E1,4E0,2E0,1.2E1,2E1],"tree_param":{"num_deleted":"0","num_feature":"10","num_nodes":"15","size_leaf_vector":"1"}},{"base_weights":[1.5639644E-2,-1.0712537E1,1.7070488E1,-1.8369379E1,1.6195547E1,-4.987107E0,2.1362885E1,-5.361876E0,-1.1777693E0,-4.3038678E-1,2.9713042E0,-1.9160498E0,2.656512E0],"categories":[],"categories_nodes":[],"categories_segments":[],"categories_sizes":[],"default_left":[0,0,0,0,0,0,0,0,0,0,0,0,0],"id":23,"left_children":[1,3,5,7,9,-1,11,-1,-1,-1,-1,-1,-1],"loss_changes":[3.695932E4,2.584534E4,2.3477879E4,2.1906725E4,7.886701E3,0E0,1.6109102E4,0E0,0E0,0E0,0E0,0E0,0E0],"parents":[2147483647,0,0,1,1,2,2,3,3,4,4,6,6],"right_children":[2,4,6,8,10,-1,12,-1,-1,-1,-1,-1,-1],"split_conditions":[2.482206E-1,1.03754E0,-1.2221278E0,-8.28995E-1,-2.6888868E-1,-4.987107E0,-1.2295496E0,-5.361876E0,-1.1777693E0,-4.3038678E-1,2.9713042E0,-1.9160498E0,2.656512E0],"split_indices":[3,7,7,6,1,0,6,0,0,0,0,0,0],"split_type":[0,0,0,0,0,0,0,0,0,0,0,0,0],"sum_hessian":[2E2,1.23E2,7.7E1,9.6E1,2.7E1,4E0,7.3E1,1.4E1,8.2E1,1.1E1,1.6E1,8E0,6.5E1],"tree_param":{"num_deleted":"0","num_feature":"10","num_nodes":"13","size_leaf_vector":"1"}},{"base_weights":[-2.6945634E-2,-2.4382006E1,6.559812E0,-4.341737E1,-1.4686102E1,-1.393995E1,1.5028211E1,-4.963818E0,-1.5455798E0,-5.214785E0,-6.917069E-1,-1.7387087E0,2.7463539E0,-2.8814504E-1,2.7367404E0],"categories":[],"categories_nodes":[],"categories_segments":[],"categories_sizes":[],"default_left":[0,0,0,0,0,0,0,0,0,0,0,0,0,0,0],"id":24,"left_children":[1,3,5,7,9,11,13,-1,-1,-1,-1,-1,-1,-1,-1],"loss_changes":[3.2404537E4,7.298666E3,2.7811916E4,1.6680137E3,8.370537E3,7.1855137E3,2.5050812E4,0E0,0E0,0E0,0E0,0E0,0E0,0E0,0E0],"parents":[2147483647,0,0,1,1,2,2,3,3,4,4,5,5,6,6],"right_children":[2,4,6,8,10,12,14,-1,-1,-1,-1,-1,-1,-1,-1],"split_conditions":[-8.911922E-1,-1.5702248E0,-5.816809E-1,2.673923E-1,-1.4480139E0,1.5739868E0,-1.8047991E-1,-4.963818E0,-1.5455798E0,-5.214785E0,-6.917069E-1,-1.7387087E0,2.7463539E0,-2.8814504E-1,2.7367404E0],"split_indices":[3,3,1,8,1,3,7,0,0,0,0,0,0,0,0],"split_type":[0,0,0,0,0,0,0,0,0,0,0,0,0,0,0],"sum_hessian":[2E2,4.2E1,1.58E2,1.3E1,2.9E1,4.6E1,1.12E2,1E1,3E0,4E0,2.5E1,4.3E1,3E0,4.6E1,6.6E1],"tree_param":{"num_deleted":"0","num_feature":"10","num_nodes":"15","size_leaf_vector":"1"}},{"base_weights":[-6.882622E-2,-5.983535E0,2.4653387E1,-1.953479E1,4.17148E0,1.8180944E1,5.164442E1,-2.7182727E0,9.441837E-2,3.4459643E-2,6.0241675E0,1.1011947E0,3.607472E0,6.2716866E0,1.5975546E0],"categories":[],"categories_nodes":[],"categories_segments":[],"categories_sizes":[],"default_left":[0,0,0,0,0,0,0,0,0,0,0,0,0,0,0],"id":25,"left_children":[1,3,5,7,9,11,13,-1,-1,-1,-1,-1,-1,-1,-1],"loss_changes":[2.9538678E4,2.2512441E4,5.8742754E3,1.0989195E4,2.0149209E4,3.835999E3,1.7626543E3,0E0,0E0,0E0,0E0,0E0,0E0,0E0,0E0],"parents":[2147483647,0,0,1,1,2,2,3,3,4,4,5,5,6,6],"right_children":[2,4,6,8,10,12,14,-1,-1,-1,-1,-1,-1,-1,-1],"split_conditions":[8.696059E-1,-1.1232805E-1,1.0800481E0,6.2284994E-1,1.4412733E0,1.03754E0,-8.9725435E-1,-2.7182727E0,9.441837E-2,3.4459643E-2,6.0241675E0,1.1011947E0,3.607472E0,6.2716866E0,1.5975546E0],"split_indices":[1,7,3,3,6,7,9,0,0,0,0,0,0,0,0],"split_type":[0,0,0,0,0,0,0,0,0,0,0,0,0,0,0],"sum_hessian":[2E2,1.62E2,3.8E1,6.9E1,9.3E1,3.2E1,6E0,5E1,1.9E1,8.8E1,5E0,2.4E1,8E0,4E0,2E0],"tree_param":{"num_deleted":"0","num_feature":"10","num_nodes":"15","size_leaf_vector":"1"}},{"base_weights":[1.772173E-2,-2.7391193E0,4.7884895E1,-1.7362576E1,6.865379E0,1.7359422E0,5.273951E1,-2.6295497E0,3.087735E-1,-2.4717233E0,1.2538325E0,1.0556259E0,5.669288E0],"categories":[],"categories_nodes":[],"categories_segments":[],"categories_sizes":[],"default_left":[0,0,0,0,0,0,0,0,0,0,0,0,0],"id":26,"left_children":[1,3,5,7,9,-1,11,-1,-1,-1,-1,-1,-1],"loss_changes":[2.665556E4,2.6945334E4,7.1455664E2,1.3964955E4,2.1093223E4,0E0,9.024297E2,0E0,0E0,0E0,0E0,0E0,0E0],"parents":[2147483647,0,0,1,1,2,2,3,3,4,4,6,6],"right_children":[2,4,6,8,10,-1,12,-1,-1,-1,-1,-1,-1],"split_conditions":[1.6391168E0,-7.160126E-2,1.8467073E0,8.125258E-1,-9.815087E-1,1.7359422E0,-9.993022E-1,-2.6295497E0,3.087735E-1,-2.4717233E0,1.2538325E0,1.0556259E0,5.669288E0],"split_indices":[3,6,3,7,7,0,2,0,0,0,0,0,0],"split_type":[0,0,0,0,0,0,0,0,0,0,0,0,0],"sum_hessian":[2E2,1.9E2,1E1,7.5E1,1.15E2,2E0,8E0,5.2E1,2.3E1,1.7E1,9.8E1,1E0,7E0],"tree_param":{"num_deleted":"0","num_feature":"10","num_nodes":"13","size_leaf_vector":"1"}},{"base_weights":[4.0438112E-2,-9.174991E0,1.3252433E1,-3.329574E1,-4.259091E0,5.0251412E0,3.7303238E1,-4.4514427E0,3.002739E-2,-6.597827E-1,4.1496463E0,-4.1722045E0,8.9015955E-1,1.2151068E0,4.4403853E0],"categories":[],"categories_nodes":[],"categories_segments":[],"categories_sizes":[],"default_left":[0,0,0,0,0,0,0,0,0,0,0,0,0,0,0],"id":27,"left_children":[1,3,5,7,9,11,13,-1,-1,-1,-1,-1,-1,-1,-1],"loss_changes":[2.4594184E4,1.3968636E4,1.6236004E4,7.5514297E3,1.0974804E4,1.178783E4,3.210959E3,0E0,0E0,0E0,0E0,0E0,0E0,0E0,0E0],"parents":[2147483647,0,0,1,1,2,2,3,3,4,4,5,5,6,6],"right_children":[2,4,6,8,10,12,14,-1,-1,-1,-1,-1,-1,-1,-1],"split_conditions":[1.8468031E-1,-7.539646E-1,5.655096E-1,5.38756E-1,2.143944E0,-1.2221278E0,-9.269305E-1,-4.4514427E0,3.002739E-2,-6.597827E-1,4.1496463E0,-4.1722045E0,8.9015955E-1,1.2151068E0,4.4403853E0],"split_indices":[3,7,7,1,7,7,6,0,0,0,0,0,0,0,0],"split_type":[0,0,0,0,0,0,0,0,0,0,0,0,0,0,0],"sum_hessian":[2E2,1.18E2,8.2E1,1.9E1,9.9E1,6.2E1,2E1,1.4E1,5E0,9.5E1,4E0,4E0,5.8E1,5E0,1.5E1],"tree_param":{"num_deleted":"0","num_feature":"10","num_nodes":"15","size_leaf_vector":"1"}},{"base_weights":[4.356859E-2,-2.6172155E1,4.2619405E0,-1.3223984E1,-3.817576E1,-1.1932628E1,1.1073774E1,-3.2156456E0,-5.4210313E-2,-4.4209733E0,-1.3145982E-1,-1.4405683E0,2.1345453E0,-2.091874E0,1.5710871E0],"categories":[],"categories_nodes":[],"categories_segments":[],"categories_sizes":[],"default_left":[0,0,0,0,0,0,0,0,0,0,0,0,0,0,0],"id":28,"left_children":[1,3,5,7,9,11,13,-1,-1,-1,-1,-1,-1,-1,-1],"loss_changes":[2.2339666E4,3.8470547E3,1.9326898E4,3.5840579E3,3.055752E3,4.5870195E3,1.8575994E4,0E0,0E0,0E0,0E0,0E0,0E0,0E0,0E0],"parents":[2147483647,0,0,1,1,2,2,3,3,4,4,5,5,6,6],"right_children":[2,4,6,8,10,12,14,-1,-1,-1,-1,-1,-1,-1,-1],"split_conditions":[-1.2208437E0,1.3074058E-1,-5.816809E-1,-1.6163106E0,7.796605E-1,1.5739868E0,-9.815087E-1,-3.2156456E0,-5.4210313E-2,-4.4209733E0,-1.3145982E-1,-1.4405683E0,2.1345453E0,-2.091874E0,1.5710871E0],"split_indices":[3,0,1,3,4,3,7,0,0,0,0,0,0,0,0],"split_type":[0,0,0,0,0,0,0,0,0,0,0,0,0,0,0],"sum_hessian":[2E2,2.7E1,1.73E2,1.4E1,1.3E1,5.1E1,1.22E2,5E0,9E0,1.1E1,2E0,4.8E1,3E0,1.5E1,1.07E2],"tree_param":{"num_deleted":"0","num_feature":"10","num_nodes":"15","size_leaf_vector":"1"}},{"base_weights":[1.1555022E-3,-2.8825285E0,3.352391E1,-1.643266E1,5.6260967E0,1.1105847E1,4.2704315E1,-2.4378476E0,1.5553191E-1,1.9745779E-1,3.997004E0,-4.0216294E-1,1.9674994E0,8.7978214E-1,4.521518E0],"categories":[],"categories_nodes":[],"categories_segments":[],"categories_sizes":[],"default_left":[0,0,0,0,0,0,0,0,0,0,0,0,0,0,0],"id":29,"left_children":[1,3,5,7,9,11,13,-1,-1,-1,-1,-1,-1,-1,-1],"loss_changes":[1.952711E4,2.1536943E4,2.8186426E3,1.0328816E4,1.4342942E4,8.569029E2,5.386875E2,0E0,0E0,0E0,0E0,0E0,0E0,0E0,0E0],"parents":[2147483647,0,0,1,1,2,2,3,3,4,4,5,5,6,6],"right_children":[2,4,6,8,10,12,14,-1,-1,-1,-1,-1,-1,-1,-1],"split_conditions":[1.3956838E0,-7.160126E-2,-4.3449622E-1,8.125258E-1,1.3043402E0,-7.737892E-1,-9.993022E-1,-2.4378476E0,1.5553191E-1,1.9745779E-1,3.997004E0,-4.0216294E-1,1.9674994E0,8.7978214E-1,4.521518E0],"split_indices":[3,6,7,7,7,2,2,0,0,0,0,0,0,0,0],"split_type":[0,0,0,0,0,0,0,0,0,0,0,0,0,0,0],"sum_hessian":[2E2,1.85E2,1.5E1,7.1E1,1.14E2,5E0,1E1,4.9E1,2.2E1,1.04E2,1E1,2E0,3E0,1E0,9E0],"tree_param":{"num_deleted":"0","num_feature":"10","num_nodes":"15","size_leaf_vector":"1"}},{"base_weights":[4.5212734E-2,-1.8185577E1,4.975268E0,-3.967366E1,-1.29052925E1,-1.0402525E1,1.13273115E1,-4.2148724E0,-1.1174105E0,-3.9925458E0,-8.280102E-1,-1.517661E0,8.7792456E-1,-1.6024092E0,1.5043235E0],"categories":[],"categories_nodes":[],"categories_segments":[],"categories_sizes":[],"default_left":[0,0,0,0,0,0,0,0,0,0,0,0,0,0,0],"id":30,"left_children":[1,3,5,7,9,11,13,-1,-1,-1,-1,-1,-1,-1,-1],"loss_changes":[1.8156117E4,4.366916E3,1.5649019E4,9.333203E1,4.1684556E3,4.4372817E3,1.1725891E4,0E0,0E0,0E0,0E0,0E0,0E0,0E0,0E0],"parents":[2147483647,0,0,1,1,2,2,3,3,4,4,5,5,6,6],"right_children":[2,4,6,8,10,12,14,-1,-1,-1,-1,-1,-1,-1,-1],"split_conditions":[-8.911922E-1,-1.7607628E0,-5.816809E-1,8.5765964E-1,-1.4480139E0,1.0225705E0,-9.815087E-1,-4.2148724E0,-1.1174105E0,-3.9925458E0,-8.280102E-1,-1.517661E0,8.7792456E-1,-1.6024092E0,1.5043235E0],"split_indices":[3,3,1,1,1,7,7,0,0,0,0,0,0,0,0],"split_type":[0,0,0,0,0,0,0,0,0,0,0,0,0,0,0],"sum_hessian":[2E2,4.2E1,1.58E2,7E0,3.5E1,4.6E1,1.12E2,6E0,1E0,4E0,3.1E1,3.7E1,9E0,1.3E1,9.9E1],"tree_param":{"num_deleted":"0","num_feature":"10","num_nodes":"15","size_leaf_vector":"1"}},{"base_weights":[-1.3490971E-2,-1.9065847E1,4.2589374E0,-2.7970388E1,1.8161476E0,1.3897952E0,3.769892E1,-3.2499359E0,5.063781E-1,-4.1853052E-1,1.4865379E0,-1.9549492E-1,2.6583986E0,1.0963591E0,4.462316E0],"categories":[],"categories_nodes":[],"categories_segments":[],"categories_sizes":[],"default_left":[0,0,0,0,0,0,0,0,0,0,0,0,0,0,0],"id":31,"left_children":[1,3,5,7,9,11,13,-1,-1,-1,-1,-1,-1,-1,-1],"loss_changes":[1.6442562E4,6.930748E3,1.5778376E4,4.0544473E3,1.0019884E3,1.2944994E4,1.9173535E3,0E0,0E0,0E0,0E0,0E0,0E0,0E0,0E0],"parents":[2147483647,0,0,1,1,2,2,3,3,4,4,5,5,6,6],"right_children":[2,4,6,8,10,12,14,-1,-1,-1,-1,-1,-1,-1,-1],"split_conditions":[-7.904745E-1,5.365099E-1,1.3686316E0,9.1915417E-1,5.3891003E-1,1.3054788E0,-4.3449622E-1,-3.2499359E0,5.063781E-1,-4.1853052E-1,1.4865379E0,-1.9549492E-1,2.6583986E0,1.0963591E0,4.462316E0],"split_indices":[6,7,3,4,3,7,7,0,0,0,0,0,0,0,0],"split_type":[0,0,0,0,0,0,0,0,0,0,0,0,0,0,0],"sum_hessian":[2E2,3.6E1,1.64E2,2.5E1,1.1E1,1.52E2,1.2E1,2.2E1,3E0,8E0,3E0,1.35E2,1.7E1,3E0,9E0],"tree_param":{"num_deleted":"0","num_feature":"10","num_nodes":"15","size_leaf_vector":"1"}},{"base_weights":[1.9431021E-2,-3.1652733E1,2.3778932E0,-4.4627213E0,-1.6343472E1,-2.9979607E1,4.952905E0,-2.8559315E0,-3.302105E-1,3.0210113E-2,-3.2332208E0,-3.5312665E0,6.8408316E-1],"categories":[],"categories_nodes":[],"categories_segments":[],"categories_sizes":[],"default_left":[0,0,0,0,0,0,0,0,0,0,0,0,0],"id":32,"left_children":[1,3,5,-1,7,9,11,-1,-1,-1,-1,-1,-1],"loss_changes":[1.5089484E4,2.0514521E3,1.5812825E4,0E0,1.1801843E3,1.0071377E3,1.3544793E4,0E0,0E0,0E0,0E0,0E0,0E0],"parents":[2147483647,0,0,1,1,2,2,4,4,5,5,6,6],"right_children":[2,4,6,-1,8,10,12,-1,-1,-1,-1,-1,-1],"split_conditions":[-1.3985676E0,1.2637958E-1,-1.5702248E0,-4.4627213E0,-5.55477E-2,-2.1528907E0,-1.51937E0,-2.8559315E0,-3.302105E-1,3.0210113E-2,-3.2332208E0,-3.5312665E0,6.8408316E-1],"split_indices":[1,7,3,0,0,0,7,0,0,0,0,0,0],"split_type":[0,0,0,0,0,0,0,0,0,0,0,0,0],"sum_hessian":[2E2,1.3E1,1.87E2,6E0,7E0,1.3E1,1.74E2,3E0,4E0,1E0,1.2E1,7E0,1.67E2],"tree_param":{"num_deleted":"0","num_feature":"10","num_nodes":"13","size_leaf_vector":"1"}},{"base_weights":[-5.066608E-2,-5.204256E0,1.3724396E1,-7.0240664E0,3.2195396E1,5.9860975E-1,2.5471699E1,-1.5077308E0,1.1281053E-1,3.912997E0,9.9059725E-1,-9.6263534E-1,1.418201E0,2.920322E0,6.30034E-1],"categories":[],"categories_nodes":[],"categories_segments":[],"categories_sizes":[],"default_left":[0,0,0,0,0,0,0,0,0,0,0,0,0,0,0],"id":33,"left_children":[1,3,5,7,9,11,13,-1,-1,-1,-1,-1,-1,-1,-1],"loss_changes":[1.434062E4,1.0231004E4,8.465345E3,9.273857E3,6.94353E2,3.886545E3,1.8906211E3,0E0,0E0,0E0,0E0,0E0,0E0,0E0,0E0],"parents":[2147483647,0,0,1,1,2,2,3,3,4,4,5,5,6,6],"right_children":[2,4,6,8,10,12,14,-1,-1,-1,-1,-1,-1,-1,-1],"split_conditions":[5.708905E-1,1.6391168E0,5.9218433E-2,-2.4354592E-2,1.1883932E0,-5.9525356E-2,6.078965E-1,-1.5077308E0,1.1281053E-1,3.912997E0,9.9059725E-1,-9.6263534E-1,1.418201E0,2.920322E0,6.30034E-1],"split_indices":[6,3,3,1,0,9,2,0,0,0,0,0,0,0,0],"split_type":[0,0,0,0,0,0,0,0,0,0,0,0,0,0,0],"sum_hessian":[2E2,1.46E2,5.4E1,1.4E2,6E0,2.6E1,2.8E1,7E1,7E1,4E0,2E0,1.5E1,1.1E1,2.3E1,5E0],"tree_param":{"num_deleted":"0","num_feature":"10","num_nodes":"15","size_leaf_vector":"1"}},{"base_weights":[-8.21287E-3,-4.534053E0,1.37505045E1,-1.1449145E1,4.897674E0,6.414019E0,3.4137886E1,-3.0453174E0,-7.127042E-1,-1.9684025E0,8.6930704E-1,-1.7527071E0,9.7461194E-1,6.036369E-1,3.869849E0],"categories":[],"categories_nodes":[],"categories_segments":[],"categories_sizes":[],"default_left":[0,0,0,0,0,0,0,0,0,0,0,0,0,0,0],"id":34,"left_children":[1,3,5,7,9,11,13,-1,-1,-1,-1,-1,-1,-1,-1],"loss_changes":[1.2578565E4,9.969706E3,7.259625E3,7.01105E3,6.2354395E3,3.2022378E3,1.4324805E3,0E0,0E0,0E0,0E0,0E0,0E0,0E0,0E0],"parents":[2147483647,0,0,1,1,2,2,3,3,4,4,5,5,6,6],"right_children":[2,4,6,8,10,12,14,-1,-1,-1,-1,-1,-1,-1,-1],"split_conditions":[6.33919E-1,1.335409E-1,5.655096E-1,-8.874922E-1,-9.8962814E-1,-1.2295496E0,-1.0923128E0,-3.0453174E0,-7.127042E-1,-1.9684025E0,8.6930704E-1,-1.7527071E0,9.7461194E-1,6.036369E-1,3.869849E0],"split_indices":[3,6,7,8,7,6,1,0,0,0,0,0,0,0,0],"split_type":[0,0,0,0,0,0,0,0,0,0,0,0,0,0,0],"sum_hessian":[2E2,1.51E2,4.9E1,8.7E1,6.4E1,3.7E1,1.2E1,1.5E1,7.2E1,8E0,5.6E1,4E0,3.3E1,2E0,1E1],"tree_param":{"num_deleted":"0","num_feature":"10","num_nodes":"15","size_leaf_vector":"1"}},{"base_weights":[-1.3170611E-2,-3.714229E0,1.5455693E1,-5.7425976E0,2.7894068E1,-5.2483716E0,1.7971827E1,-3.790215E0,-4.1827366E-1,-2.1043541E0,3.566975E0,1.414182E-1,-1.0161469E0,1.2772654E0,3.6943853E0],"categories":[],"categories_nodes":[],"categories_segments":[],"categories_sizes":[],"default_left":[0,0,0,0,0,0,0,0,0,0,0,0,0,0,0],"id":35,"left_children":[1,3,5,7,9,11,13,-1,-1,-1,-1,-1,-1,-1,-1],"loss_changes":[1.1564891E4,1.0610648E4,2.1259941E3,7.566789E3,4.555851E3,1.7803903E2,2.9804883E3,0E0,0E0,0E0,0E0,0E0,0E0,0E0,0E0],"parents":[2147483647,0,0,1,1,2,2,3,3,4,4,5,5,6,6],"right_children":[2,4,6,8,10,12,14,-1,-1,-1,-1,-1,-1,-1,-1],"split_conditions":[8.696059E-1,1.5307509E0,-1.0700848E0,-1.51937E0,-7.043437E-1,1.4027944E0,1.1794401E0,-3.790215E0,-4.1827366E-1,-2.1043541E0,3.566975E0,1.414182E-1,-1.0161469E0,1.2772654E0,3.6943853E0],"split_indices":[1,6,3,7,1,1,7,0,0,0,0,0,0,0,0],"split_type":[0,0,0,0,0,0,0,0,0,0,0,0,0,0,0],"sum_hessian":[2E2,1.62E2,3.8E1,1.53E2,9E0,4E0,3.4E1,6E0,1.47E2,1E0,8E0,2E0,2E0,2.8E1,6E0],"tree_param":{"num_deleted":"0","num_feature":"10","num_nodes":"15","size_leaf_vector":"1"}},{"base_weights":[-5.1314807E-3,-2.7226814E1,2.0220425E0,-3.9085186E0,-1.3447389E1,-2.4608952E1,4.1409674E0,-2.4250684E0,-2.115275E-1,-3.5824668E0,-1.6540197E0,1.788261E-1,2.5902107E0],"categories":[],"categories_nodes":[],"categories_segments":[],"categories_sizes":[],"default_left":[0,0,0,0,0,0,0,0,0,0,0,0,0],"id":36,"left_children":[1,3,5,-1,7,9,11,-1,-1,-1,-1,-1,-1],"loss_changes":[1.11468545E4,1.7620273E3,1.0710572E4,0E0,9.280963E2,6.744082E2,8.913256E3,0E0,0E0,0E0,0E0,0E0,0E0],"parents":[2147483647,0,0,1,1,2,2,4,4,5,5,6,6],"right_children":[2,4,6,-1,8,10,12,-1,-1,-1,-1,-1,-1],"split_conditions":[-1.3985676E0,1.2637958E-1,-1.5702248E0,-3.9085186E0,-5.55477E-2,-1.9520878E0,1.5231241E0,-2.4250684E0,-2.115275E-1,-3.5824668E0,-1.6540197E0,1.788261E-1,2.5902107E0],"split_indices":[1,7,3,0,0,3,7,0,0,0,0,0,0],"split_type":[0,0,0,0,0,0,0,0,0,0,0,0,0],"sum_hessian":[2E2,1.3E1,1.87E2,6E0,7E0,1.3E1,1.74E2,3E0,4E0,4E0,9E0,1.58E2,1.6E1],"tree_param":{"num_deleted":"0","num_feature":"10","num_nodes":"13","size_leaf_vector":"1"}},{"base_weights":[-4.9457535E-2,-1.5231256E1,3.3552456E0,-2.2011726E1,7.2903347E-1,-1.6839365E1,6.098649E0,-2.5405376E0,3.0046842E-1,-1.0510113E0,5.6432056E-1,-3.5517788E0,-6.297341E-1,-8.95816E-2,1.5859722E0],"categories":[],"categories_nodes":[],"categories_segments":[],"categories_sizes":[],"default_left":[0,0,0,0,0,0,0,0,0,0,0,0,0,0,0],"id":37,"left_children":[1,3,5,7,9,11,13,-1,-1,-1,-1,-1,-1,-1,-1],"loss_changes":[1.0440697E4,4.020123E3,9.244023E3,2.2836533E3,7.220839E2,3.7145E3,9.982135E3,0E0,0E0,0E0,0E0,0E0,0E0,0E0,0E0],"parents":[2147483647,0,0,1,1,2,2,3,3,4,4,5,5,6,6],"right_children":[2,4,6,8,10,12,14,-1,-1,-1,-1,-1,-1,-1,-1],"split_conditions":[-7.904745E-1,5.365099E-1,-9.815087E-1,9.1915417E-1,-2.5004652E-1,-2.2096418E-1,1.1092259E-1,-2.5405376E0,3.0046842E-1,-1.0510113E0,5.6432056E-1,-3.5517788E0,-6.297341E-1,-8.95816E-2,1.5859722E0],"split_indices":[6,7,7,4,5,8,3,0,0,0,0,0,0,0,0],"split_type":[0,0,0,0,0,0,0,0,0,0,0,0,0,0,0],"sum_hessian":[2E2,3.6E1,1.64E2,2.5E1,1.1E1,1.9E1,1.45E2,2.2E1,3E0,3E0,8E0,6E0,1.3E1,8.5E1,6E1],"tree_param":{"num_deleted":"0","num_feature":"10","num_nodes":"15","size_leaf_vector":"1"}},{"base_weights":[-7.143618E-2,-2.4235634E1,1.7284054E0,-3.8360505E0,-1.4749636E1,-2.757262E1,3.1838543E0,2.3896283E-2,-1.8526658E0,-3.3361294E0,9.3683857E-1,-2.2237024E0,4.970048E-1],"categories":[],"categories_nodes":[],"categories_segments":[],"categories_sizes":[],"default_left":[0,0,0,0,0,0,0,0,0,0,0,0,0],"id":38,"left_children":[1,3,5,-1,7,9,11,-1,-1,-1,-1,-1,-1],"loss_changes":[8.783727E3,1.3100352E3,8.105263E3,0E0,5.705498E2,2.2370962E3,8.283708E3,0E0,0E0,0E0,0E0,0E0,0E0],"parents":[2147483647,0,0,1,1,2,2,4,4,5,5,6,6],"right_children":[2,4,6,-1,8,10,12,-1,-1,-1,-1,-1,-1],"split_conditions":[-1.3985676E0,-5.518581E-1,-1.51937E0,-3.8360505E0,-9.983854E-1,5.38756E-1,-1.5947031E0,2.3896283E-2,-1.8526658E0,-3.3361294E0,9.3683857E-1,-2.2237024E0,4.970048E-1],"split_indices":[1,6,7,0,2,1,3,0,0,0,0,0,0],"split_type":[0,0,0,0,0,0,0,0,0,0,0,0,0],"sum_hessian":[2E2,1.3E1,1.87E2,4E0,9E0,8E0,1.79E2,2E0,7E0,7E0,1E0,1.1E1,1.68E2],"tree_param":{"num_deleted":"0","num_feature":"10","num_nodes":"13","size_leaf_vector":"1"}},{"base_weights":[-1.13003455E-1,-1.3589875E1,2.9097679E0,-1.9413279E1,1.5998523E-1,8.7253284E-1,2.6662628E1,-3.3513227E0,-1.2454706E0,-1.0094607E0,4.6998057E-1,-1.6017948E-1,1.951898E0,6.7217E-2,3.1327062E0],"categories":[],"categories_nodes":[],"categories_segments":[],"categories_sizes":[],"default_left":[0,0,0,0,0,0,0,0,0,0,0,0,0,0,0],"id":39,"left_children":[1,3,5,7,9,11,13,-1,-1,-1,-1,-1,-1,-1,-1],"loss_changes":[8.227781E3,2.965732E3,7.9611123E3,2.1336064E3,6.0609076E2,7.0902905E3,1.5549424E3,0E0,0E0,0E0,0E0,0E0,0E0,0E0,0E0],"parents":[2147483647,0,0,1,1,2,2,3,3,4,4,5,5,6,6],"right_children":[2,4,6,8,10,12,14,-1,-1,-1,-1,-1,-1,-1,-1],"split_conditions":[-7.904745E-1,5.365099E-1,1.3686316E0,-5.182702E-1,-2.5004652E-1,1.3054788E0,-9.993022E-1,-3.3513227E0,-1.2454706E0,-1.0094607E0,4.6998057E-1,-1.6017948E-1,1.951898E0,6.7217E-2,3.1327062E0],"split_indices":[6,7,3,4,5,7,2,0,0,0,0,0,0,0,0],"split_type":[0,0,0,0,0,0,0,0,0,0,0,0,0,0,0],"sum_hessian":[2E2,3.6E1,1.64E2,2.5E1,1.1E1,1.52E2,1.2E1,7E0,1.8E1,3E0,8E0,1.35E2,1.7E1,2E0,1E1],"tree_param":{"num_deleted":"0","num_feature":"10","num_nodes":"15","size_leaf_vector":"1"}},{"base_weights":[-1.02422215E-1,-2.1077874E0,1.8151522E1,-6.2598467E0,8.392742E0,-1.0061333E1,2.1845245E1,-9.2185515E-1,7.3151535E-1,-1.2026918E0,1.0344942E0,5.483055E-2,-1.5640305E0,1.180873E0,3.2914798E0],"categories":[],"categories_nodes":[],"categories_segments":[],"categories_sizes":[],"default_left":[0,0,0,0,0,0,0,0,0,0,0,0,0,0,0],"id":40,"left_children":[1,3,5,7,9,11,13,-1,-1,-1,-1,-1,-1,-1,-1],"loss_changes":[7.39603E3,7.987523E3,2.304003E3,5.328975E3,2.1973064E3,1.8614828E2,1.6111133E3,0E0,0E0,0E0,0E0,0E0,0E0,0E0,0E0],"parents":[2147483647,0,0,1,1,2,2,3,3,4,4,5,5,6,6],"right_children":[2,4,6,8,10,12,14,-1,-1,-1,-1,-1,-1,-1,-1],"split_conditions":[1.1966314E0,6.3278186E-1,-7.043437E-1,1.0225705E0,-1.484898E0,5.5148536E-1,-1.7018463E-1,-9.2185515E-1,7.3151535E-1,-1.2026918E0,1.0344942E0,5.483055E-2,-1.5640305E0,1.180873E0,3.2914798E0],"split_indices":[6,1,1,7,3,0,7,0,0,0,0,0,0,0,0],"split_type":[0,0,0,0,0,0,0,0,0,0,0,0,0,0,0],"sum_hessian":[2E2,1.81E2,1.9E1,1.3E2,5.1E1,2E0,1.7E1,1.07E2,2.3E1,4E0,4.7E1,1E0,1E0,1E1,7E0],"tree_param":{"num_deleted":"0","num_feature":"10","num_nodes":"15","size_leaf_vector":"1"}},{"base_weights":[-7.92221E-2,-4.1854296E0,8.576618E0,-1.1098128E1,2.396772E0,-2.282311E0,1.1009766E1,-2.0321207E0,-4.36452E-1,-4.627783E-1,1.0177251E0,8.712115E-1,3.0619543E0],"categories":[],"categories_nodes":[],"categories_segments":[],"categories_sizes":[],"default_left":[0,0,0,0,0,0,0,0,0,0,0,0,0],"id":41,"left_children":[1,3,5,7,9,-1,11,-1,-1,-1,-1,-1,-1],"loss_changes":[7.1799746E3,6.260205E3,5.217289E3,4.0723174E3,3.9275608E3,0E0,2.4816792E3,0E0,0E0,0E0,0E0,0E0,0E0],"parents":[2147483647,0,0,1,1,2,2,3,3,4,4,6,6],"right_children":[2,4,6,8,10,-1,12,-1,-1,-1,-1,-1,-1],"split_conditions":[4.283071E-1,2.4219457E-2,-1.2221278E0,-5.558467E-2,8.182936E-2,-2.282311E0,2.0060928E0,-2.0321207E0,-4.36452E-1,-4.627783E-1,1.0177251E0,8.712115E-1,3.0619543E0],"split_indices":[3,6,7,9,7,0,3,0,0,0,0,0,0],"split_type":[0,0,0,0,0,0,0,0,0,0,0,0,0],"sum_hessian":[2E2,1.36E2,6.4E1,6.6E1,7E1,4E0,6E1,2.7E1,3.9E1,3.7E1,3.3E1,5.5E1,5E0],"tree_param":{"num_deleted":"0","num_feature":"10","num_nodes":"13","size_leaf_vector":"1"}},{"base_weights":[-7.260686E-2,-2.031753E1,1.43538E0,-3.162596E0,-1.2631561E1,-1.784172E1,2.9693458E0,-1.0818482E-3,-1.5785395E0,-2.8163915E0,-1.0896451E0,9.91254E-2,1.915835E0],"categories":[],"categories_nodes":[],"categories_segments":[],"categories_sizes":[],"default_left":[0,0,0,0,0,0,0,0,0,0,0,0,0],"id":42,"left_children":[1,3,5,-1,7,9,11,-1,-1,-1,-1,-1,-1],"loss_changes":[6.165508E3,8.173423E2,5.612216E3,0E0,3.9786646E2,6.967793E2,5.5850933E3,0E0,0E0,0E0,0E0,0E0,0E0],"parents":[2147483647,0,0,1,1,2,2,4,4,5,5,6,6],"right_children":[2,4,6,-1,8,10,12,-1,-1,-1,-1,-1,-1],"split_conditions":[-1.3985676E0,-5.518581E-1,-1.5702248E0,-3.162596E0,-9.983854E-1,-1.9520878E0,1.105526E0,-1.0818482E-3,-1.5785395E0,-2.8163915E0,-1.0896451E0,9.91254E-2,1.915835E0],"split_indices":[1,6,3,0,2,3,6,0,0,0,0,0,0],"split_type":[0,0,0,0,0,0,0,0,0,0,0,0,0],"sum_hessian":[2E2,1.3E1,1.87E2,4E0,9E0,1.3E1,1.74E2,2E0,7E0,4E0,9E0,1.56E2,1.8E1],"tree_param":{"num_deleted":"0","num_feature":"10","num_nodes":"13","size_leaf_vector":"1"}},{"base_weights":[-9.834748E-2,-1.1356751E1,2.4268603E0,-1.3978841E1,8.2203865E0,-9.194533E0,5.4018645E0,-1.6479988E0,3.3235836E-1,-3.018858E-1,1.1784912E0,-2.2268772E0,-2.8190684E-1,-4.829995E-2,1.2259378E0],"categories":[],"categories_nodes":[],"categories_segments":[],"categories_sizes":[],"default_left":[0,0,0,0,0,0,0,0,0,0,0,0,0,0,0],"id":43,"left_children":[1,3,5,7,9,11,13,-1,-1,-1,-1,-1,-1,-1,-1],"loss_changes":[5.741953E3,2.0142329E3,5.7543267E3,1.4828774E3,2.3588983E2,2.7712708E3,5.3328525E3,0E0,0E0,0E0,0E0,0E0,0E0,0E0,0E0],"parents":[2147483647,0,0,1,1,2,2,3,3,4,4,5,5,6,6],"right_children":[2,4,6,8,10,12,14,-1,-1,-1,-1,-1,-1,-1,-1],"split_conditions":[-7.904745E-1,1.3956838E0,-6.435182E-1,1.5231241E0,-1.1978779E0,-5.2575505E-1,2.1003842E-2,-1.6479988E0,3.3235836E-1,-3.018858E-1,1.1784912E0,-2.2268772E0,-2.8190684E-1,-4.829995E-2,1.2259378E0],"split_indices":[6,3,7,7,0,4,3,0,0,0,0,0,0,0,0],"split_type":[0,0,0,0,0,0,0,0,0,0,0,0,0,0,0],"sum_hessian":[2E2,3.6E1,1.64E2,3.2E1,4E0,3.3E1,1.31E2,2.8E1,4E0,1E0,3E0,1E1,2.3E1,7.1E1,6E1],"tree_param":{"num_deleted":"0","num_feature":"10","num_nodes":"15","size_leaf_vector":"1"}},{"base_weights":[-9.731931E-2,-1.6665215E0,1.5948821E1,-9.717679E0,1.4938298E0,4.890166E0,2.6464125E1,-1.9614042E0,-3.4254086E-1,-7.8901015E-3,2.084631E0,2.0350074E-2,1.5757884E0,5.750234E-1,3.1560917E0],"categories":[],"categories_nodes":[],"categories_segments":[],"categories_sizes":[],"default_left":[0,0,0,0,0,0,0,0,0,0,0,0,0,0,0],"id":44,"left_children":[1,3,5,7,9,11,13,-1,-1,-1,-1,-1,-1,-1,-1],"loss_changes":[5.0876865E3,4.6963022E3,1.9637183E3,3.1708853E3,4.0496648E3,5.0612677E2,7.68687E2,0E0,0E0,0E0,0E0,0E0,0E0,0E0,0E0],"parents":[2147483647,0,0,1,1,2,2,3,3,4,4,5,5,6,6],"right_children":[2,4,6,8,10,12,14,-1,-1,-1,-1,-1,-1,-1,-1],"split_conditions":[1.54211E0,-3.0777824E-1,-2.4125765E-1,-5.182702E-1,1.247742E0,2.143944E0,-6.763923E-1,-1.9614042E0,-3.4254086E-1,-7.8901015E-3,2.084631E0,2.0350074E-2,1.5757884E0,5.750234E-1,3.1560917E0],"split_indices":[7,6,3,4,3,7,2,0,0,0,0,0,0,0,0],"split_type":[0,0,0,0,0,0,0,0,0,0,0,0,0,0,0],"sum_hessian":[2E2,1.83E2,1.7E1,5.1E1,1.32E2,9E0,8E0,1.9E1,3.2E1,1.23E2,9E0,7E0,2E0,2E0,6E0],"tree_param":{"num_deleted":"0","num_feature":"10","num_nodes":"15","size_leaf_vector":"1"}},{"base_weights":[-6.2214565E-2,-1.7846684E1,1.2624918E0,-2.0426743E1,-1.5775579E0,-2.1424091E1,2.389807E0,-2.223001E0,-2.9540254E-2,4.0664673E-3,-2.4070016E-1,-2.60541E0,7.807991E-1,-1.6322278E0,3.704335E-1],"categories":[],"categories_nodes":[],"categories_segments":[],"categories_sizes":[],"default_left":[0,0,0,0,0,0,0,0,0,0,0,0,0,0,0],"id":45,"left_children":[1,3,5,7,9,11,13,-1,-1,-1,-1,-1,-1,-1,-1],"loss_changes":[4.7579307E3,5.554302E2,4.859286E3,4.2905908E2,4.1245537E0,1.4215337E3,4.4880234E3,0E0,0E0,0E0,0E0,0E0,0E0,0E0,0E0],"parents":[2147483647,0,0,1,1,2,2,3,3,4,4,5,5,6,6],"right_children":[2,4,6,8,10,12,14,-1,-1,-1,-1,-1,-1,-1,-1],"split_conditions":[-1.3985676E0,1.2969946E0,-1.51937E0,8.949244E-1,5.5148536E-1,5.38756E-1,-1.5947031E0,-2.223001E0,-2.9540254E-2,4.0664673E-3,-2.4070016E-1,-2.60541E0,7.807991E-1,-1.6322278E0,3.704335E-1],"split_indices":[1,7,7,4,0,1,3,0,0,0,0,0,0,0,0],"split_type":[0,0,0,0,0,0,0,0,0,0,0,0,0,0,0],"sum_hessian":[2E2,1.3E1,1.87E2,1.1E1,2E0,8E0,1.79E2,1E1,1E0,1E0,1E0,7E0,1E0,1.1E1,1.68E2],"tree_param":{"num_deleted":"0","num_feature":"10","num_nodes":"15","size_leaf_vector":"1"}},{"base_weights":[-8.37322E-2,-2.3239675E0,9.586855E0,-8.348677E0,1.923499E0,-5.4438224E0,1.3156486E1,-1.6933883E0,-3.2809767E-1,-1.1204463E-2,1.9643933E0,3.863144E-3,-6.2325495E-1,-2.1360496E-1,1.7705811E0],"categories":[],"categories_nodes":[],"categories_segments":[],"categories_sizes":[],"default_left":[0,0,0,0,0,0,0,0,0,0,0,0,0,0,0],"id":46,"left_children":[1,3,5,7,9,11,13,-1,-1,-1,-1,-1,-1,-1,-1],"loss_changes":[4.376822E3,4.212778E3,2.1104724E3,2.9029336E3,3.5010605E3,3.4834015E1,2.1945117E3,0E0,0E0,0E0,0E0,0E0,0E0,0E0,0E0],"parents":[2147483647,0,0,1,1,2,2,3,3,4,4,5,5,6,6],"right_children":[2,4,6,8,10,12,14,-1,-1,-1,-1,-1,-1,-1,-1],"split_conditions":[1.0309995E0,-7.78372E-2,-1.0708925E0,-2.3894805E-1,1.35624E0,-2.0674422E0,-1.0399059E0,-1.6933883E0,-3.2809767E-1,-1.1204463E-2,1.9643933E0,3.863144E-3,-6.2325495E-1,-2.1360496E-1,1.7705811E0],"split_indices":[7,4,1,1,3,1,3,0,0,0,0,0,0,0,0],"split_type":[0,0,0,0,0,0,0,0,0,0,0,0,0,0,0],"sum_hessian":[2E2,1.63E2,3.7E1,6.7E1,9.6E1,7E0,3E1,2.4E1,4.3E1,8.7E1,9E0,1E0,6E0,7E0,2.3E1],"tree_param":{"num_deleted":"0","num_feature":"10","num_nodes":"15","size_leaf_vector":"1"}},{"base_weights":[-7.103438E-2,-2.8809226E0,7.0781727E0,-4.241399E0,2.0947405E1,-8.90974E-1,8.452916E0,-7.5497216E-1,2.763574E-1,-1.0815293E0,2.7029977E0,5.48384E-1,1.8140272E0],"categories":[],"categories_nodes":[],"categories_segments":[],"categories_sizes":[],"default_left":[0,0,0,0,0,0,0,0,0,0,0,0,0],"id":47,"left_children":[1,3,5,7,9,-1,11,-1,-1,-1,-1,-1,-1],"loss_changes":[4.0581748E3,4.7894375E3,1.3281321E3,3.2189749E3,1.8379275E3,0E0,1.4249341E3,0E0,0E0,0E0,0E0,0E0,0E0],"parents":[2147483647,0,0,1,1,2,2,3,3,4,4,6,6],"right_children":[2,4,6,8,10,-1,12,-1,-1,-1,-1,-1,-1],"split_conditions":[6.3278186E-1,1.5307509E0,-1.484898E0,4.1278094E-1,-7.043437E-1,-8.90974E-1,9.9626684E-1,-7.5497216E-1,2.763574E-1,-1.0815293E0,2.7029977E0,5.48384E-1,1.8140272E0],"split_indices":[1,6,3,3,1,0,7,0,0,0,0,0,0],"split_type":[0,0,0,0,0,0,0,0,0,0,0,0,0],"sum_hessian":[2E2,1.44E2,5.6E1,1.37E2,7E0,4E0,5.2E1,9.3E1,4.4E1,1E0,6E0,4.1E1,1.1E1],"tree_param":{"num_deleted":"0","num_feature":"10","num_nodes":"13","size_leaf_vector":"1"}},{"base_weights":[-5.0924186E-2,-8.144672E-1,2.489997E1,-4.6633997E0,5.068064E0,5.66565E-1,2.7613704E0,-7.071407E-1,5.162937E-1,-3.7952572E-1,1.010743E0],"categories":[],"categories_nodes":[],"categories_segments":[],"categories_sizes":[],"default_left":[0,0,0,0,0,0,0,0,0,0,0],"id":48,"left_children":[1,3,5,7,9,-1,-1,-1,-1,-1,-1],"loss_changes":[3.849547E3,4.461362E3,1.5673145E2,2.8522742E3,3.52227E3,0E0,0E0,0E0,0E0,0E0,0E0],"parents":[2147483647,0,0,1,1,2,2,3,3,4,4],"right_children":[2,4,6,8,10,-1,-1,-1,-1,-1,-1],"split_conditions":[2.0060928E0,3.0805054E-1,-1.3793192E0,1.03754E0,-3.1526923E-1,5.66565E-1,2.7613704E0,-7.071407E-1,5.162937E-1,-3.7952572E-1,1.010743E0],"split_indices":[3,6,1,7,7,0,0,0,0,0,0],"split_type":[0,0,0,0,0,0,0,0,0,0,0],"sum_hessian":[2E2,1.95E2,5E0,1.18E2,7.7E1,1E0,4E0,9.5E1,2.3E1,2.8E1,4.9E1],"tree_param":{"num_deleted":"0","num_feature":"10","num_nodes":"11","size_leaf_vector":"1"}},{"base_weights":[-2.7084153E-2,-9.359865E0,1.8618542E0,-1.1645419E1,6.22543E0,-1.4367132E1,3.0904274E0,-1.7311658E0,-4.8250708E-1,-3.648667E-1,9.606121E-1,-1.7007555E0,7.338764E-1,-9.5835E-1,4.5965716E-1],"categories":[],"categories_nodes":[],"categories_segments":[],"categories_sizes":[],"default_left":[0,0,0,0,0,0,0,0,0,0,0,0,0,0,0],"id":49,"left_children":[1,3,5,7,9,11,13,-1,-1,-1,-1,-1,-1,-1,-1],"loss_changes":[3.5608652E3,1.2836128E3,3.3940679E3,1.0758416E3,2.0195592E2,8.125674E2,3.0409868E3,0E0,0E0,0E0,0E0,0E0,0E0,0E0,0E0],"parents":[2147483647,0,0,1,1,2,2,3,3,4,4,5,5,6,6],"right_children":[2,4,6,8,10,12,14,-1,-1,-1,-1,-1,-1,-1,-1],"split_conditions":[-8.28995E-1,1.3956838E0,-1.2221278E0,-5.558467E-2,-1.1978779E0,1.6155828E0,-1.3312329E0,-1.7311658E0,-4.8250708E-1,-3.648667E-1,9.606121E-1,-1.7007555E0,7.338764E-1,-9.5835E-1,4.5965716E-1],"split_indices":[6,3,7,9,0,9,3,0,0,0,0,0,0,0,0],"split_type":[0,0,0,0,0,0,0,0,0,0,0,0,0,0,0],"sum_hessian":[2E2,3.3E1,1.67E2,2.9E1,4E0,1.1E1,1.56E2,1.5E1,1.4E1,1E0,3E0,1E1,1E0,1.6E1,1.4E2],"tree_param":{"num_deleted":"0","num_feature":"10","num_nodes":"15","size_leaf_vector":"1"}}]},"name":"gbtree"},"learner_model_param":{"base_score":"[6.637375E0]","boost_from_average":"1","num_class":"0","num_feature":"10","num_target":"1"},"objective":{"name":"reg:squarederror","reg_loss_param":{"scale_pos_weight":"1"}}},"version":[3,2,0]}