{"learner":{"attributes":{"scikit_learn":"{\"_estimator_type\": \"classifier\"}"},"feature_names":[],"feature_types":[],"gradient_booster":{"model":{"cats":{"enc":[],"feature_segments":[],"sorted_idx":[]},"gbtree_model_param":{"num_parallel_tree":"1","num_trees":"90"},"iteration_indptr":[0,3,6,9,12,15,18,21,24,27,30,33,36,39,42,45,48,51,54,57,60,63,66,69,72,75,78,81,84,87,90],"tree_info":[0,1,2,0,1,2,0,1,2,0,1,2,0,1,2,0,1,2,0,1,2,0,1,2,0,1,2,0,1,2,0,1,2,0,1,2,0,1,2,0,1,2,0,1,2,0,1,2,0,1,2,0,1,2,0,1,2,0,1,2,0,1,2,0,1,2,0,1,2,0,1,2,0,1,2,0,1,2,0,1,2,0,1,2,0,1,2,0,1,2],"trees":[{"base_weights":[-6.6015424E-8,-4.8719823E-1,7.88855E-1,-2.855758E-2,-6.908735E-1,-6.746732E-2,1.1861719E0,-4.8871864E-2,1.00764446E-1,-7.0719704E-2,-1.934405E-2,1.3173823E-1,-3.1093273E-2],"categories":[],"categories_nodes":[],"categories_segments":[],"categories_sizes":[],"default_left":[0,0,0,0,0,0,0,0,0,0,0,0,0],"id":0,"left_children":[1,3,5,7,9,-1,11,-1,-1,-1,-1,-1,-1],"loss_changes":[5.122078E1,7.6765785E0,3.038846E1,1.3070728E1,3.2611084E-1,0E0,8.342079E0,0E0,0E0,0E0,0E0,0E0,0E0],"parents":[2147483647,0,0,1,1,2,2,3,3,4,4,6,6],"right_children":[2,4,6,8,10,-1,12,-1,-1,-1,-1,-1,-1],"split_conditions":[5.297555E-2,-1.0893368E0,-5.9361555E-2,8.922466E-1,-3.310996E-2,-6.746732E-2,1.1286197E0,-4.8871864E-2,1.00764446E-1,-7.0719704E-2,-1.934405E-2,1.3173823E-1,-3.1093273E-2],"split_indices":[2,1,3,6,2,0,1,0,0,0,0,0,0],"split_type":[0,0,0,0,0,0,0,0,0,0,0,0,0],"sum_hessian":[1.3127333E2,8.1389465E1,4.988387E1,2.537951E1,5.6009956E1,1.0501867E1,3.9382E1,1.794069E1,7.4388223E0,5.3822067E1,2.1878889E0,3.6318954E1,3.0630445E0],"tree_param":{"num_deleted":"0","num_feature":"10","num_nodes":"13","size_leaf_vector":"1"}},{"base_weights":[5.800511E-8,-6.8086123E-1,8.2970715E-1,-7.1993314E-2,5.867201E-2,1.9472513E-1,1.1247395E0,9.78146E-2,-3.8204085E-2,4.4485945E-2,1.2323667E-1],"categories":[],"categories_nodes":[],"categories_segments":[],"categories_sizes":[],"default_left":[0,0,0,0,0,0,0,0,0,0,0],"id":1,"left_children":[1,3,5,-1,-1,7,9,-1,-1,-1,-1],"loss_changes":[7.719004E1,4.1394844E0,1.1318897E1,0E0,0E0,9.748324E0,2.5134163E0,0E0,0E0,0E0,0E0],"parents":[2147483647,0,0,1,1,2,2,5,5,6,6],"right_children":[2,4,6,-1,-1,8,10,-1,-1,-1,-1],"split_conditions":[-1.11699365E-1,3.5135021E0,-4.7593076E-2,-7.1993314E-2,5.867201E-2,-2.6490304E0,-1.6768429E0,9.78146E-2,-3.8204085E-2,4.4485945E-2,1.2323667E-1],"split_indices":[0,3,1,0,0,7,3,0,0,0,0],"split_type":[0,0,0,0,0,0,0,0,0,0,0],"sum_hessian":[1.3464E2,7.4052E1,6.0588E1,7.22568E1,1.7952E0,1.97472E1,4.08408E1,8.0784E0,1.16688E1,6.2832E0,3.45576E1],"tree_param":{"num_deleted":"0","num_feature":"10","num_nodes":"11","size_leaf_vector":"1"}},{"base_weights":[5.1218375E-8,7.564117E-1,-4.8022872E-1,1.1719084E0,-4.847333E-1,1.012343E0,-6.633525E-1,1.286207E-1,-5.2063644E-2,2.6631404E-2,-6.8690285E-2,1.3028394E-1,-4.3163624E-2,-3.54183E-2,-7.251578E-2],"categories":[],"categories_nodes":[],"categories_segments":[],"categories_sizes":[],"default_left":[0,0,0,0,0,0,0,0,0,0,0,0,0,0,0],"id":2,"left_children":[1,3,5,7,9,11,13,-1,-1,-1,-1,-1,-1,-1,-1],"loss_changes":[4.9399666E1,2.7802126E1,2.3407444E1,8.380405E0,2.301492E0,4.5415516E0,1.1704826E0,0E0,0E0,0E0,0E0,0E0,0E0,0E0,0E0],"parents":[2147483647,0,0,1,1,2,2,3,3,4,4,5,5,6,6],"right_children":[2,4,6,8,10,12,14,-1,-1,-1,-1,-1,-1,-1,-1],"split_conditions":[-3.382552E-1,1.0508646E0,-1.6818099E0,1.2293998E0,-1.9886988E0,9.485015E-1,-3.0766708E-1,1.286207E-1,-5.2063644E-2,2.6631404E-2,-6.8690285E-2,1.3028394E-1,-4.3163624E-2,-3.54183E-2,-7.251578E-2],"split_indices":[3,0,6,6,2,2,6,0,0,0,0,0,0,0,0],"split_type":[0,0,0,0,0,0,0,0,0,0,0,0,0,0,0],"sum_hessian":[1.3399333E2,5.1810753E1,8.218257E1,3.8858067E1,1.2952688E1,8.486244E0,7.369633E1,3.6624844E1,2.233222E0,2.6798666E0,1.0272821E1,7.146311E0,1.3399333E0,1.3399333E1,6.0296997E1],"tree_param":{"num_deleted":"0","num_feature":"10","num_nodes":"15","size_leaf_vector":"1"}},{"base_weights":[-5.421305E-4,-4.6471813E-1,7.063311E-1,-2.2502933E-2,-6.6708434E-1,-6.530281E-2,1.0457674E0,-4.6448454E-2,9.070887E-2,-6.83402E-2,-1.834569E-2,1.15429096E-1,-2.9147467E-2],"categories":[],"categories_nodes":[],"categories_segments":[],"categories_sizes":[],"default_left":[0,0,0,0,0,0,0,0,0,0,0,0,0],"id":3,"left_children":[1,3,5,7,9,-1,11,-1,-1,-1,-1,-1,-1],"loss_changes":[4.357341E1,7.158497E0,2.4971378E1,1.1186438E1,3.083439E-1,0E0,6.5049553E0,0E0,0E0,0E0,0E0,0E0,0E0],"parents":[2147483647,0,0,1,1,2,2,3,3,4,4,6,6],"right_children":[2,4,6,8,10,-1,12,-1,-1,-1,-1,-1,-1],"split_conditions":[5.297555E-2,-1.0893368E0,-5.9361555E-2,8.922466E-1,-3.310996E-2,-6.530281E-2,1.1286197E0,-4.6448454E-2,9.070887E-2,-6.83402E-2,-1.834569E-2,1.15429096E-1,-2.9147467E-2],"split_indices":[2,1,3,6,2,0,1,0,0,0,0,0,0],"split_type":[0,0,0,0,0,0,0,0,0,0,0,0,0],"sum_hessian":[1.307994E2,7.9160416E1,5.163898E1,2.5201254E1,5.395916E1,1.0133388E1,4.1505592E1,1.74194E1,7.781855E0,5.17984E1,2.1607575E0,3.8516598E1,2.9889927E0],"tree_param":{"num_deleted":"0","num_feature":"10","num_nodes":"13","size_leaf_vector":"1"}},{"base_weights":[8.684022E-4,-6.529871E-1,7.4494654E-1,-6.920104E-2,5.4185E-2,-1.7943631E-1,8.995484E-1,-5.3532828E-2,8.964079E-2,6.2226173E-2,1.1939212E-1],"categories":[],"categories_nodes":[],"categories_segments":[],"categories_sizes":[],"default_left":[0,0,0,0,0,0,0,0,0,0,0],"id":4,"left_children":[1,3,5,-1,-1,7,9,-1,-1,-1,-1],"loss_changes":[6.618061E1,3.7509346E0,9.254021E0,0E0,0E0,4.289593E0,3.7198753E0,0E0,0E0,0E0,0E0],"parents":[2147483647,0,0,1,1,2,2,5,5,6,6],"right_children":[2,4,6,-1,-1,8,10,-1,-1,-1,-1],"split_conditions":[-1.11699365E-1,3.5135021E0,-9.688032E-1,-6.920104E-2,5.4185E-2,7.2480893E-1,1.0508646E0,-5.3532828E-2,8.964079E-2,6.2226173E-2,1.1939212E-1],"split_indices":[0,3,1,0,0,3,0,0,0,0,0],"split_type":[0,0,0,0,0,0,0,0,0,0,0],"sum_hessian":[1.3402882E2,7.140468E1,6.262414E1,6.9553894E1,1.8507885E0,8.950058E0,5.3674084E1,7.1028337E0,1.8472245E0,2.9242624E1,2.443146E1],"tree_param":{"num_deleted":"0","num_feature":"10","num_nodes":"11","size_leaf_vector":"1"}},{"base_weights":[-3.4059602E-4,6.7819655E-1,-4.5645818E-1,1.0368037E0,-4.660494E-1,9.167036E-1,-6.369359E-1,1.1343997E-1,-5.0474018E-2,2.6200343E-2,-6.678702E-2,1.1699748E-1,-4.163628E-2,-3.3401802E-2,-6.986838E-2],"categories":[],"categories_nodes":[],"categories_segments":[],"categories_sizes":[],"default_left":[0,0,0,0,0,0,0,0,0,0,0,0,0,0,0],"id":5,"left_children":[1,3,5,7,9,11,13,-1,-1,-1,-1,-1,-1,-1,-1],"loss_changes":[4.1929214E1,2.283021E1,2.0661816E1,6.857601E0,2.185821E0,3.8030443E0,1.1170101E0,0E0,0E0,0E0,0E0,0E0,0E0,0E0,0E0],"parents":[2147483647,0,0,1,1,2,2,3,3,4,4,5,5,6,6],"right_children":[2,4,6,8,10,12,14,-1,-1,-1,-1,-1,-1,-1,-1],"split_conditions":[-3.382552E-1,1.0508646E0,-1.6818099E0,1.2293998E0,-1.9886988E0,9.485015E-1,-3.0766708E-1,1.1343997E-1,-5.0474018E-2,2.6200343E-2,-6.678702E-2,1.1699748E-1,-4.163628E-2,-3.3401802E-2,-6.986838E-2],"split_indices":[3,0,6,6,2,2,6,0,0,0,0,0,0,0,0],"split_type":[0,0,0,0,0,0,0,0,0,0,0,0,0,0,0],"sum_hessian":[1.3347697E2,5.346042E1,8.0016556E1,4.0775314E1,1.2685105E1,8.82121E0,7.119535E1,3.8595905E1,2.17941E0,2.6884675E0,9.996638E0,7.5156446E0,1.3055652E0,1.3140612E1,5.8054737E1],"tree_param":{"num_deleted":"0","num_feature":"10","num_nodes":"15","size_leaf_vector":"1"}},{"base_weights":[-1.1493157E-3,-4.4445628E-1,6.4096534E-1,-1.7703664E-2,-6.4561707E-1,-6.303938E-2,9.353871E-1,-4.4142883E-2,8.213731E-2,-6.621508E-2,-1.7116271E-2,1.0294657E-1,-2.8034052E-2],"categories":[],"categories_nodes":[],"categories_segments":[],"categories_sizes":[],"default_left":[0,0,0,0,0,0,0,0,0,0,0,0,0],"id":6,"left_children":[1,3,5,7,9,-1,11,-1,-1,-1,-1,-1,-1],"loss_changes":[3.7400433E1,6.661009E0,2.0676409E1,9.581223E0,3.0083275E-1,0E0,5.318165E0,0E0,0E0,0E0,0E0,0E0,0E0],"parents":[2147483647,0,0,1,1,2,2,3,3,4,4,6,6],"right_children":[2,4,6,8,10,-1,12,-1,-1,-1,-1,-1,-1],"split_conditions":[5.297555E-2,-1.0893368E0,-5.9361555E-2,8.922466E-1,-3.310996E-2,-6.303938E-2,1.1286197E0,-4.4142883E-2,8.213731E-2,-6.621508E-2,-1.7116271E-2,1.0294657E-1,-2.8034052E-2],"split_indices":[2,1,3,6,2,0,1,0,0,0,0,0,0],"split_type":[0,0,0,0,0,0,0,0,0,0,0,0,0],"sum_hessian":[1.2938835E2,7.672577E1,5.266257E1,2.4928724E1,5.1797047E1,9.687839E0,4.297473E1,1.6878942E1,8.049783E0,4.9670525E1,2.126523E0,4.003022E1,2.9445126E0],"tree_param":{"num_deleted":"0","num_feature":"10","num_nodes":"13","size_leaf_vector":"1"}},{"base_weights":[1.6406471E-3,-6.281689E-1,6.75643E-1,-6.6722594E-2,5.0199557E-2,1.8225265E-1,9.1460186E-1,-2.0656131E-2,9.5067345E-2,3.3517007E-2,1.0096586E-1],"categories":[],"categories_nodes":[],"categories_segments":[],"categories_sizes":[],"default_left":[0,0,0,0,0,0,0,0,0,0,0],"id":7,"left_children":[1,3,5,-1,-1,7,9,-1,-1,-1,-1],"loss_changes":[5.711075E1,3.404974E0,7.4953995E0,0E0,0E0,6.9049773E0,2.059414E0,0E0,0E0,0E0,0E0],"parents":[2147483647,0,0,1,1,2,2,5,5,6,6],"right_children":[2,4,6,-1,-1,8,10,-1,-1,-1,-1],"split_conditions":[-1.11699365E-1,3.5135021E0,5.9608426E-2,-6.6722594E-2,5.0199557E-2,1.4847783E0,-1.6768429E0,-2.0656131E-2,9.5067345E-2,3.3517007E-2,1.0096586E-1],"split_indices":[0,3,1,0,0,0,3,0,0,0,0],"split_type":[0,0,0,0,0,0,0,0,0,0,0],"sum_hessian":[1.3253886E2,6.855079E1,6.3988068E1,6.665684E1,1.8939507E0,2.1453873E1,4.2534195E1,1.4731204E1,6.7226686E0,6.63227E0,3.5901924E1],"tree_param":{"num_deleted":"0","num_feature":"10","num_nodes":"11","size_leaf_vector":"1"}},{"base_weights":[-5.2050664E-4,6.203168E-1,-4.3662935E-1,-4.1338852E-1,9.5114225E-1,8.4071857E-1,-6.1424434E-1,1.2548487E-2,-5.82466E-2,1.0396933E-1,-4.8963036E-2,1.0664058E-1,-4.015523E-2,-3.158815E-2,-6.7641E-2],"categories":[],"categories_nodes":[],"categories_segments":[],"categories_sizes":[],"default_left":[0,0,0,0,0,0,0,0,0,0,0,0,0,0,0],"id":8,"left_children":[1,3,5,7,9,11,13,-1,-1,-1,-1,-1,-1,-1,-1],"loss_changes":[3.6284386E1,1.9303013E1,1.8375397E1,1.3580616E0,5.892063E0,3.2407122E0,1.0788536E0,0E0,0E0,0E0,0E0,0E0,0E0,0E0,0E0],"parents":[2147483647,0,0,1,1,2,2,3,3,4,4,5,5,6,6],"right_children":[2,4,6,8,10,12,14,-1,-1,-1,-1,-1,-1,-1,-1],"split_conditions":[-3.382552E-1,-1.7505639E0,-1.6818099E0,-2.0560215E0,1.2293998E0,9.485015E-1,-3.0766708E-1,1.2548487E-2,-5.82466E-2,1.0396933E-1,-4.8963036E-2,1.0664058E-1,-4.015523E-2,-3.158815E-2,-6.7641E-2],"split_indices":[3,9,6,2,6,2,6,0,0,0,0,0,0,0,0],"split_type":[0,0,0,0,0,0,0,0,0,0,0,0,0,0,0],"sum_hessian":[1.3201268E2,5.4295753E1,7.771693E1,1.3103296E1,4.1192455E1,9.031561E0,6.868536E1,3.1909914E0,9.912305E0,3.9069584E1,2.1228707E0,7.7628307E0,1.26873E0,1.2891951E1,5.579341E1],"tree_param":{"num_deleted":"0","num_feature":"10","num_nodes":"15","size_leaf_vector":"1"}},{"base_weights":[-1.7209485E-3,-4.2623648E-1,5.8894086E-1,-1.3112251E-2,-6.264903E-1,-6.1021876E-2,8.496637E-1,-4.194531E-2,7.5047836E-2,-6.433151E-2,-1.6004577E-2,9.318434E-2,-2.6144067E-2],"categories":[],"categories_nodes":[],"categories_segments":[],"categories_sizes":[],"default_left":[0,0,0,0,0,0,0,0,0,0,0,0,0],"id":9,"left_children":[1,3,5,7,9,-1,11,-1,-1,-1,-1,-1,-1],"loss_changes":[3.2396976E1,6.2107325E0,1.741081E1,8.2465105E0,2.9420662E-1,0E0,4.3341904E0,0E0,0E0,0E0,0E0,0E0,0E0],"parents":[2147483647,0,0,1,1,2,2,3,3,4,4,6,6],"right_children":[2,4,6,8,10,-1,12,-1,-1,-1,-1,-1,-1],"split_conditions":[5.297555E-2,-1.0893368E0,-5.9361555E-2,8.922466E-1,-3.310996E-2,-6.1021876E-2,1.1286197E0,-4.194531E-2,7.5047836E-2,-6.433151E-2,-1.6004577E-2,9.318434E-2,-2.6144067E-2],"split_indices":[2,1,3,6,2,0,1,0,0,0,0,0,0],"split_type":[0,0,0,0,0,0,0,0,0,0,0,0,0],"sum_hessian":[1.27201706E2,7.417188E1,5.3029823E1,2.4563265E1,4.9608616E1,9.231284E0,4.3798542E1,1.63261E1,8.237166E0,4.751553E1,2.0930874E0,4.0932423E1,2.8661165E0],"tree_param":{"num_deleted":"0","num_feature":"10","num_nodes":"13","size_leaf_vector":"1"}},{"base_weights":[2.4309305E-3,-6.0614246E-1,6.190517E-1,-6.452909E-2,4.6635505E-2,-1.5570498E-1,7.399266E-1,-5.0705235E-2,8.4231794E-2,5.0575E-2,9.862889E-2],"categories":[],"categories_nodes":[],"categories_segments":[],"categories_sizes":[],"default_left":[0,0,0,0,0,0,0,0,0,0,0],"id":10,"left_children":[1,3,5,-1,-1,7,9,-1,-1,-1,-1],"loss_changes":[4.9647358E1,3.096714E0,6.269266E0,0E0,0E0,3.8266742E0,2.790762E0,0E0,0E0,0E0,0E0],"parents":[2147483647,0,0,1,1,2,2,5,5,6,6],"right_children":[2,4,6,-1,-1,8,10,-1,-1,-1,-1],"split_conditions":[-1.11699365E-1,3.5135021E0,-9.688032E-1,-6.452909E-2,4.6635505E-2,7.2480893E-1,1.0508646E0,-5.0705235E-2,8.4231794E-2,5.0575E-2,9.862889E-2],"split_indices":[0,3,1,0,0,3,0,0,0,0,0],"split_type":[0,0,0,0,0,0,0,0,0,0,0],"sum_hessian":[1.3030164E2,6.55873E1,6.471434E1,6.3661835E1,1.9254644E0,8.69499E0,5.6019352E1,6.794851E0,1.9001392E0,3.0285103E1,2.573425E1],"tree_param":{"num_deleted":"0","num_feature":"10","num_nodes":"11","size_leaf_vector":"1"}},{"base_weights":[-7.533809E-4,5.683346E-1,-4.176268E-1,8.5633314E-1,-4.32882E-1,7.793094E-1,-5.925237E-1,9.337488E-2,-4.7451403E-2,2.5313416E-2,-6.35264E-2,9.839922E-2,-3.8725723E-2,-2.9708544E-2,-6.556505E-2],"categories":[],"categories_nodes":[],"categories_segments":[],"categories_sizes":[],"default_left":[0,0,0,0,0,0,0,0,0,0,0,0,0,0,0],"id":11,"left_children":[1,3,5,7,9,11,13,-1,-1,-1,-1,-1,-1,-1,-1],"loss_changes":[3.127283E1,1.6441975E1,1.6389355E1,4.937233E0,1.9816613E0,2.8003535E0,1.0538864E0,0E0,0E0,0E0,0E0,0E0,0E0,0E0,0E0],"parents":[2147483647,0,0,1,1,2,2,3,3,4,4,5,5,6,6],"right_children":[2,4,6,8,10,12,14,-1,-1,-1,-1,-1,-1,-1,-1],"split_conditions":[-3.382552E-1,1.0508646E0,-1.6818099E0,1.2293998E0,-1.9886988E0,9.485015E-1,-3.0766708E-1,9.337488E-2,-4.7451403E-2,2.5313416E-2,-6.35264E-2,9.839922E-2,-3.8725723E-2,-2.9708544E-2,-6.556505E-2],"split_indices":[3,0,6,6,2,2,6,0,0,0,0,0,0,0,0],"split_type":[0,0,0,0,0,0,0,0,0,0,0,0,0,0,0],"sum_hessian":[1.298202E2,5.4735542E1,7.508466E1,4.2620518E1,1.2115024E1,9.13206E0,6.595261E1,4.055954E1,2.060977E0,2.7027414E0,9.412283E0,7.902086E0,1.2299743E0,1.2615818E1,5.333679E1],"tree_param":{"num_deleted":"0","num_feature":"10","num_nodes":"15","size_leaf_vector":"1"}},{"base_weights":[-2.3112176E-3,-4.090546E-1,5.442701E-1,-8.204647E-3,-6.0876554E-1,-5.9191037E-2,7.7814484E-1,-3.9773572E-2,6.9054104E-2,-6.260586E-2,-1.4759307E-2,8.526001E-2,-2.506265E-2],"categories":[],"categories_nodes":[],"categories_segments":[],"categories_sizes":[],"default_left":[0,0,0,0,0,0,0,0,0,0,0,0,0],"id":12,"left_children":[1,3,5,7,9,-1,11,-1,-1,-1,-1,-1,-1],"loss_changes":[2.8094568E1,5.7949696E0,1.4788145E1,7.1081953E0,2.9314613E-1,0E0,3.6718063E0,0E0,0E0,0E0,0E0,0E0,0E0],"parents":[2147483647,0,0,1,1,2,2,3,3,4,4,6,6],"right_children":[2,4,6,8,10,-1,12,-1,-1,-1,-1,-1,-1],"split_conditions":[5.297555E-2,-1.0893368E0,-5.9361555E-2,8.922466E-1,-3.310996E-2,-5.9191037E-2,1.1286197E0,-3.9773572E-2,6.9054104E-2,-6.260586E-2,-1.4759307E-2,8.526001E-2,-2.506265E-2],"split_indices":[2,1,3,6,2,0,1,0,0,0,0,0,0],"split_type":[0,0,0,0,0,0,0,0,0,0,0,0,0],"sum_hessian":[1.2436947E2,7.145053E1,5.2918938E1,2.4106413E1,4.734412E1,8.772177E0,4.414676E1,1.5754505E1,8.351908E0,4.528836E1,2.0557587E0,4.1327045E1,2.8197162E0],"tree_param":{"num_deleted":"0","num_feature":"10","num_nodes":"13","size_leaf_vector":"1"}},{"base_weights":[2.9460182E-3,-5.8601135E-1,5.7002765E-1,-6.253218E-2,4.3431025E-2,1.5031514E-1,7.6753545E-1,7.29652E-2,-2.745588E-2,2.5585696E-2,8.5253075E-2],"categories":[],"categories_nodes":[],"categories_segments":[],"categories_sizes":[],"default_left":[0,0,0,0,0,0,0,0,0,0,0],"id":13,"left_children":[1,3,5,-1,-1,7,9,-1,-1,-1,-1],"loss_changes":[4.3238766E1,2.8188763E0,5.351942E0,0E0,0E0,5.7012725E0,1.7217617E0,0E0,0E0,0E0,0E0],"parents":[2147483647,0,0,1,1,2,2,5,5,6,6],"right_children":[2,4,6,-1,-1,8,10,-1,-1,-1,-1],"split_conditions":[-1.11699365E-1,3.5135021E0,5.9608426E-2,-6.253218E-2,4.3431025E-2,-2.6490304E0,-1.6768429E0,7.29652E-2,-2.745588E-2,2.5585696E-2,8.5253075E-2],"split_indices":[0,3,1,0,0,7,3,0,0,0,0],"split_type":[0,0,0,0,0,0,0,0,0,0,0],"sum_hessian":[1.2746229E2,6.250879E1,6.49535E1,6.0562595E1,1.9461901E0,2.1348364E1,4.3605137E1,8.72883E0,1.2619534E1,6.7827406E0,3.6822395E1],"tree_param":{"num_deleted":"0","num_feature":"10","num_nodes":"11","size_leaf_vector":"1"}},{"base_weights":[-6.9324067E-4,5.2898836E-1,-4.0127274E-1,-3.9136997E-1,8.0684E-1,6.541217E-1,-5.860055E-1,-6.432252E-2,-2.2027022E-3,8.79912E-2,-4.605131E-2,9.389735E-2,-4.5960873E-2,-3.1518847E-2,-6.377277E-2],"categories":[],"categories_nodes":[],"categories_segments":[],"categories_sizes":[],"default_left":[0,0,0,0,0,0,0,0,0,0,0,0,0,0,0],"id":14,"left_children":[1,3,5,7,9,11,13,-1,-1,-1,-1,-1,-1,-1,-1],"loss_changes":[2.7358427E1,1.4514379E1,1.4696967E1,1.2461376E0,4.3850155E0,4.0509834E0,6.815548E-1,0E0,0E0,0E0,0E0,0E0,0E0,0E0,0E0],"parents":[2147483647,0,0,1,1,2,2,3,3,4,4,5,5,6,6],"right_children":[2,4,6,8,10,12,14,-1,-1,-1,-1,-1,-1,-1,-1],"split_conditions":[-3.382552E-1,-1.7505639E0,-1.6069418E0,2.1416892E-1,1.2293998E0,9.485015E-1,-3.0766708E-1,-6.432252E-2,-2.2027022E-3,8.79912E-2,-4.605131E-2,9.389735E-2,-4.5960873E-2,-3.1518847E-2,-6.377277E-2],"split_indices":[3,9,6,6,6,2,6,0,0,0,0,0,0,0,0],"split_type":[0,0,0,0,0,0,0,0,0,0,0,0,0,0,0],"sum_hessian":[1.2693953E2,5.4523365E1,7.241617E1,1.2548626E1,4.197474E1,1.0408809E1,6.200736E1,7.020087E0,5.5285397E0,3.997557E1,1.9991707E0,8.413781E0,1.9950279E0,1.1081036E1,5.0926323E1],"tree_param":{"num_deleted":"0","num_feature":"10","num_nodes":"15","size_leaf_vector":"1"}},{"base_weights":[-2.705189E-3,-3.9304268E-1,5.070525E-1,-3.1756386E-3,-5.9248E-1,-5.762049E-2,7.203068E-1,-3.7680592E-2,6.3982874E-2,-6.1027177E-2,-1.3660932E-2,7.875783E-2,-2.3266213E-2],"categories":[],"categories_nodes":[],"categories_segments":[],"categories_sizes":[],"default_left":[0,0,0,0,0,0,0,0,0,0,0,0,0],"id":15,"left_children":[1,3,5,7,9,-1,11,-1,-1,-1,-1,-1,-1],"loss_changes":[2.4481224E1,5.4156704E0,1.2741249E1,6.1476703E0,2.9045486E-1,0E0,3.069746E0,0E0,0E0,0E0,0E0,0E0,0E0],"parents":[2147483647,0,0,1,1,2,2,3,3,4,4,6,6],"right_children":[2,4,6,8,10,-1,12,-1,-1,-1,-1,-1,-1],"split_conditions":[5.297555E-2,-1.0893368E0,-5.9361555E-2,8.922466E-1,-3.310996E-2,-5.762049E-2,1.1286197E0,-3.7680592E-2,6.3982874E-2,-6.1027177E-2,-1.3660932E-2,7.875783E-2,-2.3266213E-2],"split_indices":[2,1,3,6,2,0,1,0,0,0,0,0,0],"split_type":[0,0,0,0,0,0,0,0,0,0,0,0,0],"sum_hessian":[1.2103353E2,6.86755E1,5.2358036E1,2.3585556E1,4.5089943E1,8.332071E0,4.4025963E1,1.5179312E1,8.406244E0,4.30703E1,2.0196428E0,4.1285137E1,2.7408247E0],"tree_param":{"num_deleted":"0","num_feature":"10","num_nodes":"13","size_leaf_vector":"1"}},{"base_weights":[3.581738E-3,-5.6782496E-1,5.2863204E-1,-6.0733665E-2,4.053211E-2,1.208166E-1,7.0073366E-1,6.771887E-2,-3.449039E-2,2.3536688E-2,7.753237E-2],"categories":[],"categories_nodes":[],"categories_segments":[],"categories_sizes":[],"default_left":[0,0,0,0,0,0,0,0,0,0,0],"id":16,"left_children":[1,3,5,-1,-1,7,9,-1,-1,-1,-1],"loss_changes":[3.7851147E1,2.5692596E0,4.529703E0,0E0,0E0,5.6022635E0,1.415142E0,0E0,0E0,0E0,0E0],"parents":[2147483647,0,0,1,1,2,2,5,5,6,6],"right_children":[2,4,6,-1,-1,8,10,-1,-1,-1,-1],"split_conditions":[-1.11699365E-1,3.5135021E0,-4.7593076E-2,-6.0733665E-2,4.053211E-2,-2.6490304E0,-1.6768429E0,6.771887E-2,-3.449039E-2,2.3536688E-2,7.753237E-2],"split_indices":[0,3,1,0,0,7,3,0,0,0,0],"split_type":[0,0,0,0,0,0,0,0,0,0,0],"sum_hessian":[1.24162704E2,5.941764E1,6.474506E1,5.7460533E1,1.9571095E0,1.9719454E1,4.5025608E1,8.778349E0,1.0941104E1,6.7939095E0,3.8231697E1],"tree_param":{"num_deleted":"0","num_feature":"10","num_nodes":"11","size_leaf_vector":"1"}},{"base_weights":[-9.4837433E-4,4.9009115E-1,-3.8511014E-1,-3.772568E-1,7.479536E-1,6.168978E-1,-5.6720954E-1,-6.30116E-2,-1.3309558E-3,8.1537955E-2,-4.4676285E-2,8.806612E-2,-4.436067E-2,-2.9556101E-2,-6.2059212E-2],"categories":[],"categories_nodes":[],"categories_segments":[],"categories_sizes":[],"default_left":[0,0,0,0,0,0,0,0,0,0,0,0,0,0,0],"id":17,"left_children":[1,3,5,7,9,11,13,-1,-1,-1,-1,-1,-1,-1,-1],"loss_changes":[2.3693819E1,1.2613187E1,1.320823E1,1.215543E0,3.8147774E0,3.556098E0,6.888828E-1,0E0,0E0,0E0,0E0,0E0,0E0,0E0,0E0],"parents":[2147483647,0,0,1,1,2,2,3,3,4,4,5,5,6,6],"right_children":[2,4,6,8,10,12,14,-1,-1,-1,-1,-1,-1,-1,-1],"split_conditions":[-3.382552E-1,-1.7505639E0,-1.6069418E0,2.1416892E-1,1.2293998E0,9.485015E-1,-3.0766708E-1,-6.30116E-2,-1.3309558E-3,8.1537955E-2,-4.4676285E-2,8.806612E-2,-4.436067E-2,-2.9556101E-2,-6.2059212E-2],"split_indices":[3,9,6,6,6,2,6,0,0,0,0,0,0,0,0],"split_type":[0,0,0,0,0,0,0,0,0,0,0,0,0,0,0],"sum_hessian":[1.2360376E2,5.4133728E1,6.947003E1,1.2299622E1,4.1834106E1,1.0316339E1,5.915369E1,6.8258767E0,5.4737444E0,3.9899803E1,1.9343041E0,8.39737E0,1.9189689E0,1.0788874E1,4.836482E1],"tree_param":{"num_deleted":"0","num_feature":"10","num_nodes":"15","size_leaf_vector":"1"}},{"base_weights":[-3.084606E-3,-3.78008E-1,4.747601E-1,1.4828587E-3,-5.773714E-1,-5.6211628E-2,6.71333E-1,-3.5666086E-2,5.9551984E-2,-5.9573907E-2,-1.262595E-2,7.193895E-2,-4.086962E-2],"categories":[],"categories_nodes":[],"categories_segments":[],"categories_sizes":[],"default_left":[0,0,0,0,0,0,0,0,0,0,0,0,0],"id":18,"left_children":[1,3,5,7,9,-1,11,-1,-1,-1,-1,-1,-1],"loss_changes":[2.1374546E1,5.0584087E0,1.1069236E1,5.322851E0,2.879362E-1,0E0,2.6064014E0,0E0,0E0,0E0,0E0,0E0,0E0],"parents":[2147483647,0,0,1,1,2,2,3,3,4,4,6,6],"right_children":[2,4,6,8,10,-1,12,-1,-1,-1,-1,-1,-1],"split_conditions":[5.297555E-2,-1.0893368E0,-5.9361555E-2,8.922466E-1,-3.310996E-2,-5.6211628E-2,1.6518208E0,-3.5666086E-2,5.9551984E-2,-5.9573907E-2,-1.262595E-2,7.193895E-2,-4.086962E-2],"split_indices":[2,1,3,6,2,0,1,0,0,0,0,0,0],"split_type":[0,0,0,0,0,0,0,0,0,0,0,0,0],"sum_hessian":[1.1730574E2,6.584881E1,5.1456932E1,2.302086E1,4.2827946E1,7.904255E0,4.3552677E1,1.4611322E1,8.409538E0,4.084431E1,1.9836352E0,4.2017025E1,1.535652E0],"tree_param":{"num_deleted":"0","num_feature":"10","num_nodes":"13","size_leaf_vector":"1"}},{"base_weights":[4.100463E-3,-5.5120397E-1,4.928481E-1,-5.909587E-2,3.7897028E-2,2.6013225E-1,7.740967E-1,-3.1519897E-2,7.337489E-2,2.6065936E-2,8.1106834E-2],"categories":[],"categories_nodes":[],"categories_segments":[],"categories_sizes":[],"default_left":[0,0,0,0,0,0,0,0,0,0,0],"id":19,"left_children":[1,3,5,-1,-1,7,9,-1,-1,-1,-1],"loss_changes":[3.3237976E1,2.3440819E0,4.0616245E0,0E0,0E0,1.0353491E1,3.3879852E-1,0E0,0E0,0E0,0E0],"parents":[2147483647,0,0,1,1,2,2,5,5,6,6],"right_children":[2,4,6,-1,-1,8,10,-1,-1,-1,-1],"split_conditions":[-1.11699365E-1,3.5135021E0,1.0508646E0,-5.909587E-2,3.7897028E-2,7.428412E-1,-9.762493E-1,-3.1519897E-2,7.337489E-2,2.6065936E-2,8.1106834E-2],"split_indices":[0,3,0,0,0,3,1,0,0,0,0],"split_type":[0,0,0,0,0,0,0,0,0,0,0],"sum_hessian":[1.20465965E2,5.6333397E1,6.413257E1,5.4374176E1,1.9592233E0,3.6147587E1,2.7984978E1,1.6472237E1,1.9675352E1,2.420531E0,2.5564447E1],"tree_param":{"num_deleted":"0","num_feature":"10","num_nodes":"11","size_leaf_vector":"1"}},{"base_weights":[-1.1015736E-3,4.5679125E-1,-3.702562E-1,6.912869E-1,-3.974746E-1,5.85659E-1,-5.4977065E-1,7.528908E-2,-4.337016E-2,2.6877347E-2,-6.0753834E-2,8.323324E-2,-4.2839512E-2,-2.7679427E-2,-6.0507435E-2],"categories":[],"categories_nodes":[],"categories_segments":[],"categories_sizes":[],"default_left":[0,0,0,0,0,0,0,0,0,0,0,0,0,0,0],"id":20,"left_children":[1,3,5,7,9,11,13,-1,-1,-1,-1,-1,-1,-1,-1],"loss_changes":[2.0598646E1,1.1171117E1,1.1899302E1,3.3096352E0,1.891767E0,3.1458445E0,6.9779396E-1,0E0,0E0,0E0,0E0,0E0,0E0,0E0,0E0],"parents":[2147483647,0,0,1,1,2,2,3,3,4,4,5,5,6,6],"right_children":[2,4,6,8,10,12,14,-1,-1,-1,-1,-1,-1,-1,-1],"split_conditions":[-3.382552E-1,1.0508646E0,-1.6069418E0,1.2293998E0,-1.9886988E0,9.485015E-1,-3.0766708E-1,7.528908E-2,-4.337016E-2,2.6877347E-2,-6.0753834E-2,8.323324E-2,-4.2839512E-2,-2.7679427E-2,-6.0507435E-2],"split_indices":[3,0,6,6,2,2,6,0,0,0,0,0,0,0,0],"split_type":[0,0,0,0,0,0,0,0,0,0,0,0,0,0,0],"sum_hessian":[1.1986094E2,5.3394253E1,6.646668E1,4.204398E1,1.1350275E1,1.015086E1,5.6315826E1,4.017478E1,1.8691951E0,2.6538174E0,8.696458E0,8.308888E0,1.841972E0,1.0498876E1,4.581695E1],"tree_param":{"num_deleted":"0","num_feature":"10","num_nodes":"15","size_leaf_vector":"1"}},{"base_weights":[-3.2780957E-3,-4.411845E-1,3.744456E-1,-1.1205171E-1,-6.04784E-2,-4.7393844E-1,5.429392E-1,-4.998487E-2,4.945221E-2,1.6288755E-2,-5.5816032E-2,6.398766E-2,-3.6424126E-2],"categories":[],"categories_nodes":[],"categories_segments":[],"categories_sizes":[],"default_left":[0,0,0,0,0,0,0,0,0,0,0,0,0],"id":21,"left_children":[1,3,5,7,-1,9,11,-1,-1,-1,-1,-1,-1],"loss_changes":[1.9077627E1,2.8081417E0,9.1098175E0,4.7072973E0,0E0,6.699188E-1,4.8176365E0,0E0,0E0,0E0,0E0,0E0,0E0],"parents":[2147483647,0,0,1,1,2,2,3,3,5,5,6,6],"right_children":[2,4,6,8,-1,10,12,-1,-1,-1,-1,-1,-1],"split_conditions":[-4.8375857E-1,-1.2473251E0,-5.080854E-1,8.922466E-1,-6.04784E-2,-2.6614602E0,1.1286197E0,-4.998487E-2,4.945221E-2,1.6288755E-2,-5.5816032E-2,6.398766E-2,-3.6424126E-2],"split_indices":[2,1,3,6,0,5,1,0,0,0,0,0,0],"split_type":[0,0,0,0,0,0,0,0,0,0,0,0,0],"sum_hessian":[1.1333831E2,5.2409916E1,6.09284E1,1.796084E1,3.4449074E1,9.79528E0,5.1133118E1,1.106358E1,6.897261E0,1.0350373E0,8.760243E0,4.6462944E1,4.670173E0],"tree_param":{"num_deleted":"0","num_feature":"10","num_nodes":"13","size_leaf_vector":"1"}},{"base_weights":[4.503686E-3,-5.357066E-1,4.6155316E-1,-5.7574075E-2,3.5479724E-2,1.6467293E-1,6.579013E-1,-5.6428112E-2,6.896924E-2,8.737655E-2,5.0829437E-2],"categories":[],"categories_nodes":[],"categories_segments":[],"categories_sizes":[],"default_left":[0,0,0,0,0,0,0,0,0,0,0],"id":22,"left_children":[1,3,5,-1,-1,7,9,-1,-1,-1,-1],"loss_changes":[2.9236492E1,2.139142E0,3.6304102E0,0E0,0E0,1.0671421E1,7.9184914E-1,0E0,0E0,0E0,0E0],"parents":[2147483647,0,0,1,1,2,2,5,5,6,6],"right_children":[2,4,6,-1,-1,8,10,-1,-1,-1,-1],"split_conditions":[-1.11699365E-1,3.5135021E0,7.8439903E-1,-5.7574075E-2,3.5479724E-2,8.596811E-1,2.1416892E-1,-5.6428112E-2,6.896924E-2,8.737655E-2,5.0829437E-2],"split_indices":[0,3,0,0,0,3,6,0,0,0,0],"split_type":[0,0,0,0,0,0,0,0,0,0,0],"sum_hessian":[1.1641153E2,5.3273155E1,6.313838E1,5.131946E1,1.9536924E0,2.5866566E1,3.7271812E1,1.0798626E1,1.5067941E1,1.3275917E1,2.3995895E1],"tree_param":{"num_deleted":"0","num_feature":"10","num_nodes":"11","size_leaf_vector":"1"}},{"base_weights":[-1.3189804E-3,4.3008035E-1,-3.5715717E-1,-3.602842E-1,6.6211647E-1,5.5900484E-1,-5.340264E-1,-6.20251E-2,2.2224351E-4,7.219609E-2,-4.2117048E-2,7.917457E-2,-4.1409474E-2,-2.6359055E-2,-5.908496E-2],"categories":[],"categories_nodes":[],"categories_segments":[],"categories_sizes":[],"default_left":[0,0,0,0,0,0,0,0,0,0,0,0,0,0,0],"id":23,"left_children":[1,3,5,7,9,11,13,-1,-1,-1,-1,-1,-1,-1,-1],"loss_changes":[1.8073315E1,9.998484E0,1.0752711E1,1.2006446E0,2.9940014E0,2.8028798E0,6.831083E-1,0E0,0E0,0E0,0E0,0E0,0E0,0E0,0E0],"parents":[2147483647,0,0,1,1,2,2,3,3,4,4,5,5,6,6],"right_children":[2,4,6,8,10,12,14,-1,-1,-1,-1,-1,-1,-1,-1],"split_conditions":[-3.382552E-1,-1.7505639E0,-1.6069418E0,2.1416892E-1,1.2293998E0,9.485015E-1,-3.0766708E-1,-6.20251E-2,2.2224351E-4,7.219609E-2,-4.2117048E-2,7.917457E-2,-4.1409474E-2,-2.6359055E-2,-5.908496E-2],"split_indices":[3,9,6,6,6,2,6,0,0,0,0,0,0,0,0],"split_type":[0,0,0,0,0,0,0,0,0,0,0,0,0,0,0],"sum_hessian":[1.15734406E2,5.2218647E1,6.351576E1,1.1725699E1,4.049295E1,9.928213E0,5.3587543E1,6.4145703E0,5.311129E0,3.8689175E1,1.8037741E0,8.162352E0,1.7658616E0,1.0283688E1,4.3303856E1],"tree_param":{"num_deleted":"0","num_feature":"10","num_nodes":"15","size_leaf_vector":"1"}},{"base_weights":[-3.8292941E-3,-4.2831507E-1,3.5340452E-1,-1.02483496E-1,-5.9362184E-2,-4.5687154E-1,5.087571E-1,-4.8190184E-2,4.6493657E-2,1.592057E-2,-5.437538E-2,5.987203E-2,-3.4683764E-2],"categories":[],"categories_nodes":[],"categories_segments":[],"categories_sizes":[],"default_left":[0,0,0,0,0,0,0,0,0,0,0,0,0],"id":24,"left_children":[1,3,5,7,-1,9,11,-1,-1,-1,-1,-1,-1],"loss_changes":[1.6877457E1,2.6784763E0,7.840903E0,4.169524E0,0E0,6.352689E-1,4.1480036E0,0E0,0E0,0E0,0E0,0E0,0E0],"parents":[2147483647,0,0,1,1,2,2,3,3,5,5,6,6],"right_children":[2,4,6,8,-1,10,12,-1,-1,-1,-1,-1,-1],"split_conditions":[-4.8375857E-1,-1.2473251E0,-5.080854E-1,8.922466E-1,-5.9362184E-2,-2.6614602E0,1.1286197E0,-4.8190184E-2,4.6493657E-2,1.592057E-2,-5.437538E-2,5.987203E-2,-3.4683764E-2],"split_indices":[2,1,3,6,0,5,1,0,0,0,0,0,0],"split_type":[0,0,0,0,0,0,0,0,0,0,0,0,0],"sum_hessian":[1.09300804E2,4.9857853E1,5.9442947E1,1.7326344E1,3.2531513E1,9.251067E0,5.019188E1,1.0473628E1,6.8527155E0,1.0405011E0,8.2105665E0,4.5688137E1,4.503742E0],"tree_param":{"num_deleted":"0","num_feature":"10","num_nodes":"13","size_leaf_vector":"1"}},{"base_weights":[5.355628E-3,-5.214224E-1,4.3430948E-1,-5.617655E-2,3.330266E-2,2.2305965E-1,6.8986815E-1,-4.6515297E-2,5.4724086E-2,3.7285294E-2,7.629125E-2],"categories":[],"categories_nodes":[],"categories_segments":[],"categories_sizes":[],"default_left":[0,0,0,0,0,0,0,0,0,0,0],"id":25,"left_children":[1,3,5,-1,-1,7,9,-1,-1,-1,-1],"loss_changes":[2.5841002E1,1.9565372E0,3.2486534E0,0E0,0E0,8.282267E0,3.6493015E-1,0E0,0E0,0E0,0E0],"parents":[2147483647,0,0,1,1,2,2,5,5,6,6],"right_children":[2,4,6,-1,-1,8,10,-1,-1,-1,-1],"split_conditions":[-1.11699365E-1,3.5135021E0,1.0508646E0,-5.617655E-2,3.330266E-2,1.2053877E-1,-1.9886988E0,-4.6515297E-2,5.4724086E-2,3.7285294E-2,7.629125E-2],"split_indices":[0,3,0,0,0,3,2,0,0,0,0],"split_type":[0,0,0,0,0,0,0,0,0,0,0],"sum_hessian":[1.12357E2,5.0331585E1,6.2025417E1,4.838941E1,1.9421793E0,3.498169E1,2.7043728E1,1.1062329E1,2.3919361E1,6.2074823E0,2.0836245E1],"tree_param":{"num_deleted":"0","num_feature":"10","num_nodes":"11","size_leaf_vector":"1"}},{"base_weights":[-1.641963E-3,4.064502E-1,-3.4477648E-1,-3.3979988E-1,6.24264E-1,5.3721076E-1,-5.190933E-1,-6.0187608E-2,1.1478815E-3,6.811815E-2,-4.0913194E-2,7.588698E-2,-4.0090106E-2,-2.4687504E-2,-5.7823952E-2],"categories":[],"categories_nodes":[],"categories_segments":[],"categories_sizes":[],"default_left":[0,0,0,0,0,0,0,0,0,0,0,0,0,0,0],"id":26,"left_children":[1,3,5,7,9,11,13,-1,-1,-1,-1,-1,-1,-1,-1],"loss_changes":[1.5893825E1,8.639345E0,9.758164E0,1.1449062E0,2.6599312E0,2.5221725E0,6.943159E-1,0E0,0E0,0E0,0E0,0E0,0E0,0E0,0E0],"parents":[2147483647,0,0,1,1,2,2,3,3,4,4,5,5,6,6],"right_children":[2,4,6,8,10,12,14,-1,-1,-1,-1,-1,-1,-1,-1],"split_conditions":[-3.382552E-1,-1.7505639E0,-1.6069418E0,2.1416892E-1,1.2293998E0,9.485015E-1,-3.0766708E-1,-6.0187608E-2,1.1478815E-3,6.811815E-2,-4.0913194E-2,7.588698E-2,-4.0090106E-2,-2.4687504E-2,-5.7823952E-2],"split_indices":[3,9,6,6,6,2,6,0,0,0,0,0,0,0,0],"split_type":[0,0,0,0,0,0,0,0,0,0,0,0,0,0,0],"sum_hessian":[1.1150185E2,5.0845924E1,6.0655922E1,1.1361236E1,3.9484688E1,9.666204E0,5.0989716E1,6.098203E0,5.2630324E0,3.7746517E1,1.7381724E0,7.973319E0,1.6928858E0,1.0024825E1,4.096489E1],"tree_param":{"num_deleted":"0","num_feature":"10","num_nodes":"15","size_leaf_vector":"1"}},{"base_weights":[-3.7956838E-3,-4.1630656E-1,3.351755E-1,-9.3952104E-2,-5.8333874E-2,-4.4115928E-1,4.794219E-1,-4.6490368E-2,4.3772772E-2,1.5695099E-2,-5.3083856E-2,5.5903118E-2,-4.0430404E-2],"categories":[],"categories_nodes":[],"categories_segments":[],"categories_sizes":[],"default_left":[0,0,0,0,0,0,0,0,0,0,0,0,0],"id":27,"left_children":[1,3,5,7,-1,9,11,-1,-1,-1,-1,-1,-1],"loss_changes":[1.4988123E1,2.5482903E0,6.8012023E0,3.6929986E0,0E0,6.0581946E-1,3.7509718E0,0E0,0E0,0E0,0E0,0E0,0E0],"parents":[2147483647,0,0,1,1,2,2,3,3,5,5,6,6],"right_children":[2,4,6,8,-1,10,12,-1,-1,-1,-1,-1,-1],"split_conditions":[-4.8375857E-1,-1.2473251E0,-5.080854E-1,8.922466E-1,-5.8333874E-2,-2.6614602E0,1.4377993E0,-4.6490368E-2,4.3772772E-2,1.5695099E-2,-5.3083856E-2,5.5903118E-2,-4.0430404E-2],"split_indices":[2,1,3,6,0,5,7,0,0,0,0,0,0],"split_type":[0,0,0,0,0,0,0,0,0,0,0,0,0],"sum_hessian":[1.0519081E2,4.734553E1,5.7845276E1,1.6692757E1,3.0652775E1,8.7412815E0,4.9103992E1,9.906567E0,6.78619E0,1.0419466E0,7.699335E0,4.5383133E1,3.7208626E0],"tree_param":{"num_deleted":"0","num_feature":"10","num_nodes":"13","size_leaf_vector":"1"}},{"base_weights":[6.113055E-3,-5.080739E-1,4.1011143E-1,-5.487465E-1,3.1291615E-2,1.3289627E-1,5.9221053E-1,-4.1127067E-2,-5.875991E-2,-5.467531E-2,6.160311E-2,7.997685E-2,4.481562E-2],"categories":[],"categories_nodes":[],"categories_segments":[],"categories_sizes":[],"default_left":[0,0,0,0,0,0,0,0,0,0,0,0,0],"id":28,"left_children":[1,3,5,7,-1,9,11,-1,-1,-1,-1,-1,-1],"loss_changes":[2.2885971E1,1.790556E0,3.035345E0,7.0028305E-3,0E0,8.7908535E0,7.461281E-1,0E0,0E0,0E0,0E0,0E0,0E0],"parents":[2147483647,0,0,1,1,2,2,3,3,5,5,6,6],"right_children":[2,4,6,8,-1,10,12,-1,-1,-1,-1,-1,-1],"split_conditions":[-1.11699365E-1,3.5135021E0,7.8439903E-1,-1.8841375E0,3.1291615E-2,8.596811E-1,2.1416892E-1,-4.1127067E-2,-5.875991E-2,-5.467531E-2,6.160311E-2,7.997685E-2,4.481562E-2],"split_indices":[0,3,0,0,0,3,6,0,0,0,0,0,0],"split_type":[0,0,0,0,0,0,0,0,0,0,0,0,0],"sum_hessian":[1.0816828E2,4.748032E1,6.0687965E1,4.5555084E1,1.9252356E0,2.4746063E1,3.5941902E1,1.2590461E1,3.2964622E1,1.0227235E1,1.4518828E1,1.2860394E1,2.3081507E1],"tree_param":{"num_deleted":"0","num_feature":"10","num_nodes":"13","size_leaf_vector":"1"}},{"base_weights":[-2.4446743E-3,4.1741073E-1,-3.059832E-1,5.806814E-1,-5.600637E-2,5.378166E-1,-4.7952604E-1,6.447945E-2,-2.7634883E-2,7.336288E-2,-3.8833257E-2,-1.6895141E-2,-5.7133075E-2],"categories":[],"categories_nodes":[],"categories_segments":[],"categories_sizes":[],"default_left":[0,0,0,0,0,0,0,0,0,0,0,0,0],"id":29,"left_children":[1,3,5,7,-1,9,11,-1,-1,-1,-1,-1,-1],"loss_changes":[1.3905171E1,7.6322117E0,9.530506E0,2.3608446E0,0E0,2.3292897E0,1.4160175E0,0E0,0E0,0E0,0E0,0E0,0E0],"parents":[2147483647,0,0,1,1,2,2,3,3,5,5,6,6],"right_children":[2,4,6,8,-1,10,12,-1,-1,-1,-1,-1,-1],"split_conditions":[-5.591637E-1,1.4847783E0,-1.6069418E0,1.5334833E0,-5.600637E-2,9.485015E-1,-1.9843903E-1,6.447945E-2,-2.7634883E-2,7.336288E-2,-3.8833257E-2,-1.6895141E-2,-5.7133075E-2],"split_indices":[3,0,6,1,0,2,6,0,0,0,0,0,0],"split_type":[0,0,0,0,0,0,0,0,0,0,0,0,0],"sum_hessian":[1.07107376E2,4.47852E1,6.2322174E1,3.872309E1,6.062104E0,1.0273132E1,5.204904E1,3.625831E1,2.464786E0,8.651789E0,1.6213434E0,1.2523262E1,3.9525784E1],"tree_param":{"num_deleted":"0","num_feature":"10","num_nodes":"13","size_leaf_vector":"1"}},{"base_weights":[-3.8289144E-3,-2.120662E-1,6.2290734E-1,1.3654013E-1,-5.189433E-1,-3.9325986E-2,7.199548E-2,-3.025197E-2,4.4464216E-2,-2.7384868E-2,-5.9568286E-2],"categories":[],"categories_nodes":[],"categories_segments":[],"categories_sizes":[],"default_left":[0,0,0,0,0,0,0,0,0,0,0],"id":30,"left_children":[1,3,5,7,9,-1,-1,-1,-1,-1,-1],"loss_changes":[1.3465577E1,8.354408E0,2.8208437E0,5.1454673E0,6.1532974E-1,0E0,0E0,0E0,0E0,0E0,0E0],"parents":[2147483647,0,0,1,1,2,2,3,3,4,4],"right_children":[2,4,6,8,10,-1,-1,-1,-1,-1,-1],"split_conditions":[1.005089E0,-7.146575E-1,-5.080854E-1,-9.2749286E-1,4.186412E-4,-3.9325986E-2,7.199548E-2,-3.025197E-2,4.4464216E-2,-2.7384868E-2,-5.9568286E-2],"split_indices":[2,1,3,2,1,0,0,0,0,0,0],"split_type":[0,0,0,0,0,0,0,0,0,0,0],"sum_hessian":[1.0116454E2,7.643135E1,2.4733189E1,3.6042664E1,4.0388687E1,1.8900931E0,2.2843096E1,1.4870138E1,2.1172527E1,1.0719798E1,2.9668888E1],"tree_param":{"num_deleted":"0","num_feature":"10","num_nodes":"11","size_leaf_vector":"1"}},{"base_weights":[6.6338545E-3,-4.9569976E-1,3.8835996E-1,-5.366444E-1,2.9389579E-2,2.367932E-1,7.0524544E-1,-3.9495725E-2,-5.773282E-2,-1.349255E-2,6.031971E-2,7.343548E-2,1.9804148E-2],"categories":[],"categories_nodes":[],"categories_segments":[],"categories_sizes":[],"default_left":[0,0,0,0,0,0,0,0,0,0,0,0,0],"id":31,"left_children":[1,3,5,7,-1,9,11,-1,-1,-1,-1,-1,-1],"loss_changes":[2.0331034E1,1.6379919E0,2.7260942E0,2.494049E-2,0E0,5.8361034E0,1.3484955E-1,0E0,0E0,0E0,0E0,0E0,0E0],"parents":[2147483647,0,0,1,1,2,2,3,3,5,5,6,6],"right_children":[2,4,6,8,-1,10,12,-1,-1,-1,-1,-1,-1],"split_conditions":[-1.11699365E-1,3.5135021E0,1.4847783E0,-1.8841375E0,2.9389579E-2,7.428412E-1,3.009431E0,-3.9495725E-2,-5.773282E-2,-1.349255E-2,6.031971E-2,7.343548E-2,1.9804148E-2],"split_indices":[0,3,0,0,0,3,6,0,0,0,0,0,0],"split_type":[0,0,0,0,0,0,0,0,0,0,0,0,0],"sum_hessian":[1.0402278E2,4.4786835E1,5.9235943E1,4.288346E1,1.9033748E0,4.125221E1,1.7983736E1,1.1955315E1,3.0928144E1,2.0791191E1,2.0461016E1,1.6584097E1,1.3996398E0],"tree_param":{"num_deleted":"0","num_feature":"10","num_nodes":"13","size_leaf_vector":"1"}},{"base_weights":[-2.9448627E-3,3.6511198E-1,-3.2255858E-1,-3.1377676E-1,5.642234E-1,4.964642E-1,-4.9128962E-1,-5.8150735E-2,2.7277812E-3,6.193645E-2,-3.9724138E-2,7.018845E-2,-3.7861746E-2,-2.1776577E-2,-5.5533987E-2],"categories":[],"categories_nodes":[],"categories_segments":[],"categories_sizes":[],"default_left":[0,0,0,0,0,0,0,0,0,0,0,0,0,0,0],"id":32,"left_children":[1,3,5,7,9,11,13,-1,-1,-1,-1,-1,-1,-1,-1],"loss_changes":[1.2322324E1,6.75855E0,7.99102E0,1.0827581E0,2.2609062E0,2.0765753E0,7.022238E-1,0E0,0E0,0E0,0E0,0E0,0E0,0E0,0E0],"parents":[2147483647,0,0,1,1,2,2,3,3,4,4,5,5,6,6],"right_children":[2,4,6,8,10,12,14,-1,-1,-1,-1,-1,-1,-1,-1],"split_conditions":[-3.382552E-1,-1.7505639E0,-1.6069418E0,2.1416892E-1,1.2293998E0,9.485015E-1,-3.0766708E-1,-5.8150735E-2,2.7277812E-3,6.193645E-2,-3.9724138E-2,7.018845E-2,-3.7861746E-2,-2.1776577E-2,-5.5533987E-2],"split_indices":[3,9,6,6,6,2,6,0,0,0,0,0,0,0,0],"split_type":[0,0,0,0,0,0,0,0,0,0,0,0,0,0,0],"sum_hessian":[1.0274845E2,4.768899E1,5.5059456E1,1.0684233E1,3.700476E1,9.073624E0,4.5985832E1,5.590566E0,5.0936666E0,3.5334118E1,1.6706415E0,7.50888E0,1.5647441E0,9.560034E0,3.64258E1],"tree_param":{"num_deleted":"0","num_feature":"10","num_nodes":"15","size_leaf_vector":"1"}},{"base_weights":[-3.7198272E-3,-2.04633E-1,5.992736E-1,1.3014355E-1,-5.0661284E-1,-3.8147762E-2,6.925058E-1,-2.8551985E-2,4.1738536E-2,-2.6076376E-2,-5.854289E-2,4.0838882E-2,7.4149065E-2],"categories":[],"categories_nodes":[],"categories_segments":[],"categories_sizes":[],"default_left":[0,0,0,0,0,0,0,0,0,0,0,0,0],"id":33,"left_children":[1,3,5,7,9,-1,11,-1,-1,-1,-1,-1,-1],"loss_changes":[1.2019769E1,7.587953E0,2.5315857E0,4.427206E0,6.092968E-1,0E0,1.7281532E-2,0E0,0E0,0E0,0E0,0E0,0E0],"parents":[2147483647,0,0,1,1,2,2,3,3,4,4,6,6],"right_children":[2,4,6,8,10,-1,12,-1,-1,-1,-1,-1,-1],"split_conditions":[1.005089E0,-7.146575E-1,-5.080854E-1,-9.2749286E-1,4.186412E-4,-3.8147762E-2,-1.029678E0,-2.8551985E-2,4.1738536E-2,-2.6076376E-2,-5.854289E-2,4.0838882E-2,7.4149065E-2],"split_indices":[2,1,3,2,1,0,1,0,0,0,0,0,0],"split_type":[0,0,0,0,0,0,0,0,0,0,0,0,0],"sum_hessian":[9.720226E1,7.340491E1,2.379736E1,3.508192E1,3.8322983E1,1.7974523E0,2.1999907E1,1.4338656E1,2.0743263E1,1.0349267E1,2.7973717E1,4.608306E0,1.7391602E1],"tree_param":{"num_deleted":"0","num_feature":"10","num_nodes":"13","size_leaf_vector":"1"}},{"base_weights":[6.083409E-3,-4.8374337E-1,3.6575246E-1,-5.250035E-1,2.7680641E-2,1.0029266E-1,5.3990304E-1,-3.7696935E-2,-5.6811746E-2,-5.333964E-2,5.5387516E-2,2.940309E-2,6.5080345E-2],"categories":[],"categories_nodes":[],"categories_segments":[],"categories_sizes":[],"default_left":[0,0,0,0,0,0,0,0,0,0,0,0,0],"id":34,"left_children":[1,3,5,7,-1,9,11,-1,-1,-1,-1,-1,-1],"loss_changes":[1.7944395E1,1.4987593E0,2.6605225E0,4.9144745E-2,0E0,7.334694E0,7.69289E-1,0E0,0E0,0E0,0E0,0E0,0E0],"parents":[2147483647,0,0,1,1,2,2,3,3,5,5,6,6],"right_children":[2,4,6,8,-1,10,12,-1,-1,-1,-1,-1,-1],"split_conditions":[-1.11699365E-1,3.5135021E0,7.8439903E-1,-1.8841375E0,2.7680641E-2,8.596811E-1,-2.1005507E0,-3.7696935E-2,-5.6811746E-2,-5.333964E-2,5.5387516E-2,2.940309E-2,6.5080345E-2],"split_indices":[0,3,0,0,0,3,5,0,0,0,0,0,0],"split_type":[0,0,0,0,0,0,0,0,0,0,0,0,0],"sum_hessian":[9.985094E1,4.212995E1,5.7720985E1,4.0255764E1,1.8741853E0,2.3490318E1,3.4230667E1,1.1277477E1,2.8978287E1,9.726166E0,1.3764153E1,1.1775359E1,2.2455309E1],"tree_param":{"num_deleted":"0","num_feature":"10","num_nodes":"13","size_leaf_vector":"1"}},{"base_weights":[-2.4914362E-3,3.7988228E-1,-2.8731677E-1,5.282445E-1,-5.3571004E-2,4.958593E-1,-4.534142E-1,5.9153E-2,-2.7638435E-2,6.761402E-2,-3.643624E-2,-1.4619762E-2,-5.5040147E-2],"categories":[],"categories_nodes":[],"categories_segments":[],"categories_sizes":[],"default_left":[0,0,0,0,0,0,0,0,0,0,0,0,0],"id":35,"left_children":[1,3,5,7,-1,9,11,-1,-1,-1,-1,-1,-1],"loss_changes":[1.0959812E1,6.11896E0,7.726429E0,2.0717688E0,0E0,1.8852499E0,1.3527145E0,0E0,0E0,0E0,0E0,0E0,0E0],"parents":[2147483647,0,0,1,1,2,2,3,3,5,5,6,6],"right_children":[2,4,6,8,-1,10,12,-1,-1,-1,-1,-1,-1],"split_conditions":[-5.591637E-1,1.4847783E0,-1.6069418E0,1.5334833E0,-5.3571004E-2,9.485015E-1,-1.9843903E-1,5.9153E-2,-2.7638435E-2,6.761402E-2,-3.643624E-2,-1.4619762E-2,-5.5040147E-2],"split_indices":[3,0,6,1,0,2,6,0,0,0,0,0,0],"split_type":[0,0,0,0,0,0,0,0,0,0,0,0,0],"sum_hessian":[9.8629906E1,4.196235E1,5.6667557E1,3.647501E1,5.4873385E0,9.567921E0,4.7099636E1,3.4060898E1,2.4141107E0,8.087067E0,1.4808536E0,1.190303E1,3.519661E1],"tree_param":{"num_deleted":"0","num_feature":"10","num_nodes":"13","size_leaf_vector":"1"}},{"base_weights":[-3.0572552E-3,-1.9700971E-1,5.777255E-1,1.2500066E-1,-4.9467584E-1,-3.7180945E-2,6.681867E-1,-2.66659E-2,3.9262E-2,-2.4797779E-2,-5.758663E-2,3.8408015E-2,7.17698E-2],"categories":[],"categories_nodes":[],"categories_segments":[],"categories_sizes":[],"default_left":[0,0,0,0,0,0,0,0,0,0,0,0,0],"id":36,"left_children":[1,3,5,7,9,-1,11,-1,-1,-1,-1,-1,-1],"loss_changes":[1.0737444E1,6.9100933E0,2.2983332E0,3.7856257E0,6.0486794E-1,0E0,3.5868645E-2,0E0,0E0,0E0,0E0,0E0,0E0],"parents":[2147483647,0,0,1,1,2,2,3,3,4,4,6,6],"right_children":[2,4,6,8,10,-1,12,-1,-1,-1,-1,-1,-1],"split_conditions":[1.005089E0,-7.146575E-1,-5.080854E-1,-9.2749286E-1,4.186412E-4,-3.7180945E-2,-1.029678E0,-2.66659E-2,3.9262E-2,-2.4797779E-2,-5.758663E-2,3.8408015E-2,7.17698E-2],"split_indices":[2,1,3,2,1,0,1,0,0,0,0,0,0],"split_type":[0,0,0,0,0,0,0,0,0,0,0,0,0],"sum_hessian":[9.33113E1,7.044648E1,2.2864822E1,3.411812E1,3.632836E1,1.7183056E0,2.1146517E1,1.3850932E1,2.0267187E1,9.999387E0,2.6328974E1,4.437954E0,1.6708563E1],"tree_param":{"num_deleted":"0","num_feature":"10","num_nodes":"13","size_leaf_vector":"1"}},{"base_weights":[4.5529315E-3,-4.723748E-1,3.4405214E-1,-5.139465E-1,2.6127595E-2,1.5426947E-1,5.7834244E-1,-3.595306E-2,-5.596329E-2,-4.4130694E-2,4.383091E-2,2.7626788E-2,6.5356195E-2],"categories":[],"categories_nodes":[],"categories_segments":[],"categories_sizes":[],"default_left":[0,0,0,0,0,0,0,0,0,0,0,0,0],"id":37,"left_children":[1,3,5,7,-1,9,11,-1,-1,-1,-1,-1,-1],"loss_changes":[1.5810212E1,1.3727856E0,2.4466863E0,7.228756E-2,0E0,5.7544484E0,3.9111614E-1,0E0,0E0,0E0,0E0,0E0,0E0],"parents":[2147483647,0,0,1,1,2,2,3,3,5,5,6,6],"right_children":[2,4,6,8,-1,10,12,-1,-1,-1,-1,-1,-1],"split_conditions":[-1.11699365E-1,3.5135021E0,1.0508646E0,-1.8841375E0,2.6127595E-2,1.2053877E-1,-1.9886988E0,-3.595306E-2,-5.596329E-2,-4.4130694E-2,4.383091E-2,2.7626788E-2,6.5356195E-2],"split_indices":[0,3,0,0,0,3,2,0,0,0,0,0,0],"split_type":[0,0,0,0,0,0,0,0,0,0,0,0,0],"sum_hessian":[9.564044E1,3.9607925E1,5.6032516E1,3.776734E1,1.840586E0,3.18729E1,2.4159615E1,1.0647913E1,2.7119429E1,1.0113388E1,2.1759512E1,5.7482014E0,1.8411413E1],"tree_param":{"num_deleted":"0","num_feature":"10","num_nodes":"13","size_leaf_vector":"1"}},{"base_weights":[-1.5865531E-3,3.6525962E-1,-2.787287E-1,5.061518E-1,-5.2169103E-2,4.7910088E-1,-4.4087613E-1,-4.167703E-2,5.552381E-2,6.507665E-2,-3.5004996E-2,-1.3425221E-2,-5.4115392E-2],"categories":[],"categories_nodes":[],"categories_segments":[],"categories_sizes":[],"default_left":[0,0,0,0,0,0,0,0,0,0,0,0,0],"id":38,"left_children":[1,3,5,7,-1,9,11,-1,-1,-1,-1,-1,-1],"loss_changes":[9.820601E0,5.4590106E0,6.972264E0,1.8795519E0,0E0,1.6763389E0,1.3369589E0,0E0,0E0,0E0,0E0,0E0,0E0],"parents":[2147483647,0,0,1,1,2,2,3,3,5,5,6,6],"right_children":[2,4,6,8,-1,10,12,-1,-1,-1,-1,-1,-1],"split_conditions":[-5.591637E-1,1.4847783E0,-1.6069418E0,-2.971473E0,-5.2169103E-2,9.485015E-1,-1.9843903E-1,-4.167703E-2,5.552381E-2,6.507665E-2,-3.5004996E-2,-1.3425221E-2,-5.4115392E-2],"split_indices":[3,0,6,9,0,2,6,0,0,0,0,0,0],"split_type":[0,0,0,0,0,0,0,0,0,0,0,0,0],"sum_hessian":[9.4592926E1,4.0571495E1,5.402143E1,3.538062E1,5.1908784E0,9.176841E0,4.484459E1,1.4084442E0,3.397217E1,7.781017E0,1.3958242E0,1.1627982E1,3.3216606E1],"tree_param":{"num_deleted":"0","num_feature":"10","num_nodes":"13","size_leaf_vector":"1"}},{"base_weights":[-1.9201086E-3,-3.700596E-1,2.869776E-1,-5.0864607E-2,-5.5344373E-2,-4.932157E-2,3.961842E-1,-5.0838687E-2,3.2529384E-2,4.7361907E-2,-3.7484653E-2],"categories":[],"categories_nodes":[],"categories_segments":[],"categories_sizes":[],"default_left":[0,0,0,0,0,0,0,0,0,0,0],"id":39,"left_children":[1,3,5,7,-1,-1,9,-1,-1,-1,-1],"loss_changes":[9.735033E0,2.3275933E0,4.565453E0,2.8821585E0,0E0,0E0,2.8969069E0,0E0,0E0,0E0,0E0],"parents":[2147483647,0,0,1,1,2,2,3,3,6,6],"right_children":[2,4,6,8,-1,-1,10,-1,-1,-1,-1],"split_conditions":[-4.8375857E-1,-1.2473251E0,-1.224254E0,1.8857987E-1,-5.5344373E-2,-4.932157E-2,1.4377993E0,-5.0838687E-2,3.2529384E-2,4.7361907E-2,-3.7484653E-2],"split_indices":[2,1,3,6,0,0,7,0,0,0,0],"split_type":[0,0,0,0,0,0,0,0,0,0,0],"sum_hessian":[8.953515E1,3.924486E1,5.0290283E1,1.47859955E1,2.4458868E1,5.7432246E0,4.454706E1,6.5128636E0,8.273132E0,4.0832016E1,3.715041E0],"tree_param":{"num_deleted":"0","num_feature":"10","num_nodes":"11","size_leaf_vector":"1"}},{"base_weights":[3.2857284E-3,-4.6160445E-1,3.247816E-1,-5.0346035E-1,2.4686128E-2,7.1068965E-2,4.9172983E-1,-3.4235176E-2,-5.5192288E-2,-5.7103552E-2,4.6980336E-2,7.050873E-2,3.432565E-2],"categories":[],"categories_nodes":[],"categories_segments":[],"categories_sizes":[],"default_left":[0,0,0,0,0,0,0,0,0,0,0,0,0],"id":40,"left_children":[1,3,5,7,-1,9,11,-1,-1,-1,-1,-1,-1],"loss_changes":[1.3976705E1,1.2580614E0,2.3064256E0,9.548569E-2,0E0,6.1843143E0,8.087406E-1,0E0,0E0,0E0,0E0,0E0,0E0],"parents":[2147483647,0,0,1,1,2,2,3,3,5,5,6,6],"right_children":[2,4,6,8,-1,10,12,-1,-1,-1,-1,-1,-1],"split_conditions":[-1.11699365E-1,3.5135021E0,7.8439903E-1,-1.8841375E0,2.4686128E-2,7.428412E-1,2.1416892E-1,-3.4235176E-2,-5.5192288E-2,-5.7103552E-2,4.6980336E-2,7.050873E-2,3.432565E-2],"split_indices":[0,3,0,0,0,3,6,0,0,0,0,0,0],"split_type":[0,0,0,0,0,0,0,0,0,0,0,0,0],"sum_hessian":[9.151143E1,3.7234177E1,5.427725E1,3.5430332E1,1.803847E0,2.21069E1,3.217035E1,1.0057956E1,2.5372375E1,8.30338E0,1.380352E1,1.1662426E1,2.0507923E1],"tree_param":{"num_deleted":"0","num_feature":"10","num_nodes":"13","size_leaf_vector":"1"}},{"base_weights":[-1.4202996E-3,3.2009783E-1,-2.9534554E-1,-2.874113E-1,5.008403E-1,4.473191E-1,-4.5422018E-1,-5.630469E-2,4.5499457E-3,5.5816468E-2,-3.9736103E-2,6.2432356E-2,-3.3627845E-2,-2.377994E-2,-5.562212E-2],"categories":[],"categories_nodes":[],"categories_segments":[],"categories_sizes":[],"default_left":[0,0,0,0,0,0,0,0,0,0,0,0,0,0,0],"id":41,"left_children":[1,3,5,7,9,11,13,-1,-1,-1,-1,-1,-1,-1,-1],"loss_changes":[8.752928E0,5.001233E0,5.9120913E0,1.0146852E0,1.9959879E0,1.4624689E0,7.585516E-1,0E0,0E0,0E0,0E0,0E0,0E0,0E0,0E0],"parents":[2147483647,0,0,1,1,2,2,3,3,4,4,5,5,6,6],"right_children":[2,4,6,8,10,12,14,-1,-1,-1,-1,-1,-1,-1,-1],"split_conditions":[-3.382552E-1,-1.7505639E0,-1.6069418E0,2.1416892E-1,1.2293998E0,9.485015E-1,3.2304212E-1,-5.630469E-2,4.5499457E-3,5.5816468E-2,-3.9736103E-2,6.2432356E-2,-3.3627845E-2,-2.377994E-2,-5.562212E-2],"split_indices":[3,9,6,6,6,2,6,0,0,0,0,0,0,0,0],"split_type":[0,0,0,0,0,0,0,0,0,0,0,0,0,0,0],"sum_hessian":[9.062094E1,4.3236485E1,4.7384453E1,9.778604E0,3.3457882E1,8.030425E0,3.9354027E1,4.9712996E0,4.807304E0,3.1806524E1,1.6513587E0,6.7165127E0,1.3139129E0,1.3673534E1,2.5680492E1],"tree_param":{"num_deleted":"0","num_feature":"10","num_nodes":"15","size_leaf_vector":"1"}},{"base_weights":[-2.4020565E-3,-1.8745174E-1,5.4864776E-1,1.1743597E-1,-4.7843382E-1,-3.483318E-2,6.324903E-1,-2.2000974E-2,3.9440375E-2,-2.287985E-2,-5.625505E-2,3.24612E-2,6.828176E-2],"categories":[],"categories_nodes":[],"categories_segments":[],"categories_sizes":[],"default_left":[0,0,0,0,0,0,0,0,0,0,0,0,0],"id":42,"left_children":[1,3,5,7,9,-1,11,-1,-1,-1,-1,-1,-1],"loss_changes":[8.949082E0,5.8838673E0,1.8795991E0,3.1598566E0,5.81203E-1,0E0,9.6494675E-2,0E0,0E0,0E0,0E0,0E0,0E0],"parents":[2147483647,0,0,1,1,2,2,3,3,4,4,6,6],"right_children":[2,4,6,8,10,-1,12,-1,-1,-1,-1,-1,-1],"split_conditions":[1.005089E0,-7.146575E-1,-5.080854E-1,4.3028057E-1,4.186412E-4,-3.483318E-2,-6.7570806E-1,-2.2000974E-2,3.9440375E-2,-2.287985E-2,-5.625505E-2,3.24612E-2,6.828176E-2],"split_indices":[2,1,3,6,1,0,4,0,0,0,0,0,0],"split_type":[0,0,0,0,0,0,0,0,0,0,0,0,0],"sum_hessian":[8.575198E1,6.468855E1,2.106343E1,3.1880718E1,3.280784E1,1.5308809E0,1.9532549E1,1.4464021E1,1.7416698E1,9.206243E0,2.3601597E1,3.7910094E0,1.574154E1],"tree_param":{"num_deleted":"0","num_feature":"10","num_nodes":"13","size_leaf_vector":"1"}},{"base_weights":[4.023888E-3,-4.5130256E-1,3.0992E-1,-4.9337235E-1,2.321117E-2,1.7031518E-1,6.1327446E-1,-3.267261E-2,-5.4458518E-2,-1.4874156E-2,5.0242644E-2,6.458811E-2,1.4231229E-2],"categories":[],"categories_nodes":[],"categories_segments":[],"categories_sizes":[],"default_left":[0,0,0,0,0,0,0,0,0,0,0,0,0],"id":43,"left_children":[1,3,5,7,-1,9,11,-1,-1,-1,-1,-1,-1],"loss_changes":[1.24821825E1,1.1500263E0,2.1653762E0,1.1435509E-1,0E0,4.1108103E0,1.6157913E-1,0E0,0E0,0E0,0E0,0E0,0E0],"parents":[2147483647,0,0,1,1,2,2,3,3,5,5,6,6],"right_children":[2,4,6,8,-1,10,12,-1,-1,-1,-1,-1,-1],"split_conditions":[-1.11699365E-1,3.5135021E0,1.4847783E0,-1.8841375E0,2.321117E-2,7.428412E-1,3.009431E0,-3.267261E-2,-5.4458518E-2,-1.4874156E-2,5.0242644E-2,6.458811E-2,1.4231229E-2],"split_indices":[0,3,0,0,0,3,6,0,0,0,0,0,0],"split_type":[0,0,0,0,0,0,0,0,0,0,0,0,0],"sum_hessian":[8.761347E1,3.5016323E1,5.259715E1,3.3247726E1,1.7685944E0,3.7089745E1,1.55074005E1,9.550433E0,2.3697292E1,1.919826E1,1.7891487E1,1.4155922E1,1.3514789E0],"tree_param":{"num_deleted":"0","num_feature":"10","num_nodes":"13","size_leaf_vector":"1"}},{"base_weights":[-1.6930567E-3,3.3657116E-1,-2.6273677E-1,4.6760967E-1,-5.0225943E-2,4.48961E-1,-4.1736192E-1,5.30319E-2,-2.7643535E-2,6.1021984E-2,-3.2821573E-2,-1.1261738E-2,-5.2383136E-2],"categories":[],"categories_nodes":[],"categories_segments":[],"categories_sizes":[],"default_left":[0,0,0,0,0,0,0,0,0,0,0,0,0],"id":44,"left_children":[1,3,5,7,-1,9,11,-1,-1,-1,-1,-1,-1],"loss_changes":[7.817197E0,4.473662E0,5.6857233E0,1.7269502E0,0E0,1.3782963E0,1.2896037E0,0E0,0E0,0E0,0E0,0E0,0E0],"parents":[2147483647,0,0,1,1,2,2,3,3,5,5,6,6],"right_children":[2,4,6,8,-1,10,12,-1,-1,-1,-1,-1,-1],"split_conditions":[-5.591637E-1,1.4847783E0,-1.6069418E0,1.5334833E0,-5.0225943E-2,9.485015E-1,-1.9843903E-1,5.30319E-2,-2.7643535E-2,6.1021984E-2,-3.2821573E-2,-1.1261738E-2,-5.2383136E-2],"split_indices":[3,0,6,1,0,2,6,0,0,0,0,0,0],"split_type":[0,0,0,0,0,0,0,0,0,0,0,0,0],"sum_hessian":[8.652679E1,3.7562904E1,4.8963882E1,3.2870552E1,4.692351E0,8.399537E0,4.0564342E1,3.0580433E1,2.29012E0,7.1340876E0,1.2654499E0,1.1035495E1,2.9528849E1],"tree_param":{"num_deleted":"0","num_feature":"10","num_nodes":"13","size_leaf_vector":"1"}},{"base_weights":[-1.3216983E-3,-1.8046707E-1,5.33299E-1,1.1414172E-1,-4.6812248E-1,-3.4000304E-2,6.1588216E-1,-3.57324E-2,2.9609537E-2,-2.1736292E-2,-5.5491596E-2,3.0858636E-2,6.712601E-2],"categories":[],"categories_nodes":[],"categories_segments":[],"categories_sizes":[],"default_left":[0,0,0,0,0,0,0,0,0,0,0,0,0],"id":45,"left_children":[1,3,5,7,9,-1,11,-1,-1,-1,-1,-1,-1],"loss_changes":[8.060271E0,5.3949957E0,1.7328105E0,2.846014E0,5.7774496E-1,0E0,1.2731981E-1,0E0,0E0,0E0,0E0,0E0,0E0],"parents":[2147483647,0,0,1,1,2,2,3,3,4,4,6,6],"right_children":[2,4,6,8,10,-1,12,-1,-1,-1,-1,-1,-1],"split_conditions":[1.005089E0,-7.146575E-1,-5.080854E-1,-1.2029101E0,4.186412E-4,-3.4000304E-2,-1.029678E0,-3.57324E-2,2.9609537E-2,-2.1736292E-2,-5.5491596E-2,3.0858636E-2,6.712601E-2],"split_indices":[2,1,3,3,1,0,1,0,0,0,0,0,0],"split_type":[0,0,0,0,0,0,0,0,0,0,0,0,0],"sum_hessian":[8.215366E1,6.203041E1,2.0123253E1,3.0942822E1,3.108759E1,1.4692363E0,1.8654016E1,8.348067E0,2.2594753E1,8.894471E0,2.219312E1,3.851908E0,1.4802108E1],"tree_param":{"num_deleted":"0","num_feature":"10","num_nodes":"13","size_leaf_vector":"1"}},{"base_weights":[3.2474275E-3,-4.4138852E-1,2.9377997E-1,-4.8368174E-1,2.1960989E-2,4.6503134E-2,4.5665425E-1,-3.1049674E-2,-5.379633E-2,-5.1542975E-2,4.606277E-2,2.0435868E-2,5.7558294E-2],"categories":[],"categories_nodes":[],"categories_segments":[],"categories_sizes":[],"default_left":[0,0,0,0,0,0,0,0,0,0,0,0,0],"id":46,"left_children":[1,3,5,7,-1,9,11,-1,-1,-1,-1,-1,-1],"loss_changes":[1.1086553E1,1.0544505E0,2.068997E0,1.3558865E-1,0E0,5.2925563E0,8.178191E-1,0E0,0E0,0E0,0E0,0E0,0E0],"parents":[2147483647,0,0,1,1,2,2,3,3,5,5,6,6],"right_children":[2,4,6,8,-1,10,12,-1,-1,-1,-1,-1,-1],"split_conditions":[-1.11699365E-1,3.5135021E0,7.8439903E-1,-1.8841375E0,2.1960989E-2,8.596811E-1,-2.1005507E0,-3.1049674E-2,-5.379633E-2,-5.1542975E-2,4.606277E-2,2.0435868E-2,5.7558294E-2],"split_indices":[0,3,0,0,0,3,5,0,0,0,0,0,0],"split_type":[0,0,0,0,0,0,0,0,0,0,0,0,0],"sum_hessian":[8.3817924E1,3.2918957E1,5.0898968E1,3.1191462E1,1.7274933E0,2.0722876E1,3.0176094E1,9.04704E0,2.2144423E1,8.688574E0,1.2034302E1,1.0538348E1,1.9637745E1],"tree_param":{"num_deleted":"0","num_feature":"10","num_nodes":"13","size_leaf_vector":"1"}},{"base_weights":[-1.9751552E-3,3.2283247E-1,-2.5583065E-1,4.462262E-1,-4.882641E-2,4.348919E-1,-4.060467E-1,5.0913226E-2,-2.747761E-2,5.9064683E-2,-3.1616386E-2,-1.0602243E-2,-5.1567536E-2],"categories":[],"categories_nodes":[],"categories_segments":[],"categories_sizes":[],"default_left":[0,0,0,0,0,0,0,0,0,0,0,0,0],"id":47,"left_children":[1,3,5,7,-1,9,11,-1,-1,-1,-1,-1,-1],"loss_changes":[6.992985E0,3.9418597E0,5.115491E0,1.6283631E0,0E0,1.2378896E0,1.2483048E0,0E0,0E0,0E0,0E0,0E0,0E0],"parents":[2147483647,0,0,1,1,2,2,3,3,5,5,6,6],"right_children":[2,4,6,8,-1,10,12,-1,-1,-1,-1,-1,-1],"split_conditions":[-5.591637E-1,1.4847783E0,-1.6069418E0,1.5334833E0,-4.882641E-2,9.485015E-1,-1.9843903E-1,5.0913226E-2,-2.747761E-2,5.9064683E-2,-3.1616386E-2,-1.0602243E-2,-5.1567536E-2],"split_indices":[3,0,6,1,0,2,6,0,0,0,0,0,0],"split_type":[0,0,0,0,0,0,0,0,0,0,0,0,0],"sum_hessian":[8.280888E1,3.6208485E1,4.6600403E1,3.1817822E1,4.3906617E0,7.9856634E0,3.861474E1,2.953482E1,2.2830012E0,6.79093E0,1.1947337E0,1.086025E1,2.775449E1],"tree_param":{"num_deleted":"0","num_feature":"10","num_nodes":"13","size_leaf_vector":"1"}},{"base_weights":[-7.6946255E-4,-3.4446868E-1,2.6383778E-1,-3.3762284E-2,-5.3676087E-2,-4.651186E-2,3.6068875E-1,-4.8423942E-2,3.050345E-2,4.287424E-2,-3.382502E-2],"categories":[],"categories_nodes":[],"categories_segments":[],"categories_sizes":[],"default_left":[0,0,0,0,0,0,0,0,0,0,0],"id":48,"left_children":[1,3,5,7,-1,-1,9,-1,-1,-1,-1],"loss_changes":[7.3348494E0,2.0778723E0,3.385038E0,2.35742E0,0E0,0E0,2.0851693E0,0E0,0E0,0E0,0E0],"parents":[2147483647,0,0,1,1,2,2,3,3,6,6],"right_children":[2,4,6,8,-1,-1,10,-1,-1,-1,-1],"split_conditions":[-4.8375857E-1,-1.2473251E0,-1.224254E0,1.8857987E-1,-5.3676087E-2,-4.651186E-2,1.4377993E0,-4.8423942E-2,3.050345E-2,4.287424E-2,-3.382502E-2],"split_indices":[2,1,3,6,0,0,7,0,0,0,0],"split_type":[0,0,0,0,0,0,0,0,0,0,0],"sum_hessian":[7.865189E1,3.4081505E1,4.4570385E1,1.3478492E1,2.0603012E1,4.7812805E0,3.9789104E1,5.601385E0,7.8771067E0,3.6610985E1,3.1781228E0],"tree_param":{"num_deleted":"0","num_feature":"10","num_nodes":"11","size_leaf_vector":"1"}},{"base_weights":[2.2412045E-3,-4.3157285E-1,2.7822828E-1,-4.7407952E-1,2.079807E-2,1.4377199E-1,5.7926995E-1,-2.9377183E-2,-5.3175252E-2,-1.5095024E-2,4.640531E-2,6.1276432E-2,1.304043E-2],"categories":[],"categories_nodes":[],"categories_segments":[],"categories_sizes":[],"default_left":[0,0,0,0,0,0,0,0,0,0,0,0,0],"id":49,"left_children":[1,3,5,7,-1,9,11,-1,-1,-1,-1,-1,-1],"loss_changes":[9.830639E0,9.665661E-1,1.9477701E0,1.5827847E-1,0E0,3.4697535E0,1.4804459E-1,0E0,0E0,0E0,0E0,0E0,0E0],"parents":[2147483647,0,0,1,1,2,2,3,3,5,5,6,6],"right_children":[2,4,6,8,-1,10,12,-1,-1,-1,-1,-1,-1],"split_conditions":[-1.11699365E-1,3.5135021E0,1.4847783E0,-1.8841375E0,2.079807E-2,7.428412E-1,3.009431E0,-2.9377183E-2,-5.3175252E-2,-1.5095024E-2,4.640531E-2,6.1276432E-2,1.304043E-2],"split_indices":[0,3,0,0,0,3,6,0,0,0,0,0,0],"split_type":[0,0,0,0,0,0,0,0,0,0,0,0,0],"sum_hessian":[8.010582E1,3.0927795E1,4.9178024E1,2.9242954E1,1.6848414E0,3.501612E1,1.4161905E1,8.563609E0,2.0679346E1,1.851101E1,1.650511E1,1.2838738E1,1.3231666E0],"tree_param":{"num_deleted":"0","num_feature":"10","num_nodes":"13","size_leaf_vector":"1"}},{"base_weights":[-1.5027103E-3,3.985774E-1,-1.9674253E-1,5.215764E-1,-4.403555E-2,4.431104E-1,-3.528498E-1,5.6976397E-2,-1.304396E-2,5.8711953E-2,-3.3436414E-2,-1.2268237E-2,-5.4394748E-2],"categories":[],"categories_nodes":[],"categories_segments":[],"categories_sizes":[],"default_left":[0,0,0,0,0,0,0,0,0,0,0,0,0],"id":50,"left_children":[1,3,5,7,-1,9,11,-1,-1,-1,-1,-1,-1],"loss_changes":[6.3412743E0,2.9771194E0,5.6053915E0,8.182864E-1,0E0,1.443856E0,1.886631E0,0E0,0E0,0E0,0E0,0E0,0E0],"parents":[2147483647,0,0,1,1,2,2,3,3,5,5,6,6],"right_children":[2,4,6,8,-1,10,12,-1,-1,-1,-1,-1,-1],"split_conditions":[-1.2186971E0,1.4847783E0,-1.3255485E0,1.5334833E0,-4.403555E-2,9.485015E-1,4.3028057E-1,5.6976397E-2,-1.304396E-2,5.8711953E-2,-3.3436414E-2,-1.2268237E-2,-5.4394748E-2],"split_indices":[3,0,6,1,0,2,6,0,0,0,0,0,0],"split_type":[0,0,0,0,0,0,0,0,0,0,0,0,0],"sum_hessian":[7.917835E1,2.5625599E1,5.3552753E1,2.2678856E1,2.9467444E0,1.014243E1,4.3410324E1,2.1235582E1,1.4432738E0,8.76395E0,1.3784806E0,2.043699E1,2.2973333E1],"tree_param":{"num_deleted":"0","num_feature":"10","num_nodes":"13","size_leaf_vector":"1"}},{"base_weights":[-5.194744E-4,-1.7223956E-1,5.098064E-1,1.0807092E-1,-4.5417407E-1,-3.245292E-2,5.8989924E-1,-1.9945376E-2,3.539477E-2,-1.998358E-2,-5.442199E-2,2.6663542E-2,6.49435E-2],"categories":[],"categories_nodes":[],"categories_segments":[],"categories_sizes":[],"default_left":[0,0,0,0,0,0,0,0,0,0,0,0,0],"id":51,"left_children":[1,3,5,7,9,-1,11,-1,-1,-1,-1,-1,-1],"loss_changes":[6.774603E0,4.620172E0,1.4920979E0,2.3247442E0,5.560684E-1,0E0,1.7545366E-1,0E0,0E0,0E0,0E0,0E0,0E0],"parents":[2147483647,0,0,1,1,2,2,3,3,4,4,6,6],"right_children":[2,4,6,8,10,-1,12,-1,-1,-1,-1,-1,-1],"split_conditions":[1.005089E0,-7.146575E-1,-5.080854E-1,4.3028057E-1,4.186412E-4,-3.245292E-2,-1.029678E0,-1.9945376E-2,3.539477E-2,-1.998358E-2,-5.442199E-2,2.6663542E-2,6.49435E-2],"split_indices":[2,1,3,6,1,0,1,0,0,0,0,0,0],"split_type":[0,0,0,0,0,0,0,0,0,0,0,0,0],"sum_hessian":[7.5304344E1,5.684051E1,1.8463835E1,2.8811579E1,2.8028934E1,1.3498981E0,1.7113935E1,1.2884897E1,1.5926681E1,8.170444E0,1.9858492E1,3.5137498E0,1.3600186E1],"tree_param":{"num_deleted":"0","num_feature":"10","num_nodes":"13","size_leaf_vector":"1"}},{"base_weights":[2.5556185E-3,-4.2164096E-1,2.6493677E-1,-4.644772E-1,1.9691491E-2,2.273125E-2,4.255237E-1,-2.7801288E-2,-5.2560907E-2,-5.0647616E-2,4.2372227E-2,6.502708E-2,2.6687576E-2],"categories":[],"categories_nodes":[],"categories_segments":[],"categories_sizes":[],"default_left":[0,0,0,0,0,0,0,0,0,0,0,0,0],"id":52,"left_children":[1,3,5,7,-1,9,11,-1,-1,-1,-1,-1,-1],"loss_changes":[8.755183E0,8.880482E-1,1.8804228E0,1.7776537E-1,0E0,4.5500855E0,8.663335E-1,0E0,0E0,0E0,0E0,0E0,0E0],"parents":[2147483647,0,0,1,1,2,2,3,3,5,5,6,6],"right_children":[2,4,6,8,-1,10,12,-1,-1,-1,-1,-1,-1],"split_conditions":[-1.11699365E-1,3.5135021E0,7.8439903E-1,-1.8841375E0,1.9691491E-2,8.596811E-1,2.1416892E-1,-2.7801288E-2,-5.2560907E-2,-5.0647616E-2,4.2372227E-2,6.502708E-2,2.6687576E-2],"split_indices":[0,3,0,0,0,3,6,0,0,0,0,0,0],"split_type":[0,0,0,0,0,0,0,0,0,0,0,0,0],"sum_hessian":[7.665843E1,2.906367E1,4.759476E1,2.7414268E1,1.6493996E0,1.9430391E1,2.816437E1,8.13837E0,1.9275898E1,8.262674E0,1.1167716E1,1.0372061E1,1.7792309E1],"tree_param":{"num_deleted":"0","num_feature":"10","num_nodes":"13","size_leaf_vector":"1"}},{"base_weights":[-2.0727671E-3,3.8454342E-1,-1.906631E-1,5.0204843E-1,-4.2736202E-2,4.3071756E-1,-3.413579E-1,-3.8108114E-2,5.6032967E-2,5.733916E-2,-3.262217E-2,-1.1581435E-2,-5.3741004E-2],"categories":[],"categories_nodes":[],"categories_segments":[],"categories_sizes":[],"default_left":[0,0,0,0,0,0,0,0,0,0,0,0,0],"id":53,"left_children":[1,3,5,7,-1,9,11,-1,-1,-1,-1,-1,-1],"loss_changes":[5.660224E0,2.642966E0,5.0322614E0,1.3816857E0,0E0,1.3344995E0,1.8190751E0,0E0,0E0,0E0,0E0,0E0,0E0],"parents":[2147483647,0,0,1,1,2,2,3,3,5,5,6,6],"right_children":[2,4,6,8,-1,10,12,-1,-1,-1,-1,-1,-1],"split_conditions":[-1.2186971E0,1.4847783E0,-1.3255485E0,-2.971473E0,-4.2736202E-2,9.485015E-1,4.3028057E-1,-3.8108114E-2,5.6032967E-2,5.733916E-2,-3.262217E-2,-1.1581435E-2,-5.3741004E-2],"split_indices":[3,0,6,9,0,2,6,0,0,0,0,0,0],"split_type":[0,0,0,0,0,0,0,0,0,0,0,0,0],"sum_hessian":[7.5625244E1,2.4454239E1,5.117101E1,2.169589E1,2.758349E0,9.624942E0,4.1546066E1,1.0002682E0,2.0695621E1,8.3025055E0,1.3224369E0,2.0059649E1,2.1486416E1],"tree_param":{"num_deleted":"0","num_feature":"10","num_nodes":"13","size_leaf_vector":"1"}},{"base_weights":[-1.11355555E-4,-1.6711146E-1,4.9848488E-1,1.0292803E-1,-4.447625E-1,-3.1454552E-2,5.765521E-1,-2.1092085E-2,3.175943E-2,-1.8971322E-2,-5.37734E-2,2.3945238E-2,6.3558206E-2],"categories":[],"categories_nodes":[],"categories_segments":[],"categories_sizes":[],"default_left":[0,0,0,0,0,0,0,0,0,0,0,0,0],"id":54,"left_children":[1,3,5,7,9,-1,11,-1,-1,-1,-1,-1,-1],"loss_changes":[6.1698904E0,4.207495E0,1.3613858E0,2.0175066E0,5.513916E-1,0E0,1.9237709E-1,0E0,0E0,0E0,0E0,0E0,0E0],"parents":[2147483647,0,0,1,1,2,2,3,3,4,4,6,6],"right_children":[2,4,6,8,10,-1,12,-1,-1,-1,-1,-1,-1],"split_conditions":[1.005089E0,-7.146575E-1,-5.080854E-1,-9.2749286E-1,4.186412E-4,-3.1454552E-2,-6.7570806E-1,-2.1092085E-2,3.175943E-2,-1.8971322E-2,-5.37734E-2,2.3945238E-2,6.3558206E-2],"split_indices":[2,1,3,2,1,0,4,0,0,0,0,0,0],"split_type":[0,0,0,0,0,0,0,0,0,0,0,0,0],"sum_hessian":[7.209846E1,5.4506767E1,1.7591692E1,2.7951159E1,2.655561E1,1.2757932E0,1.6315899E1,1.135997E1,1.6591188E1,7.906422E0,1.8649189E1,3.184838E0,1.313106E1],"tree_param":{"num_deleted":"0","num_feature":"10","num_nodes":"13","size_leaf_vector":"1"}},{"base_weights":[1.7108481E-3,-4.12161E-1,2.51432E-1,-4.5529136E-1,1.8772831E-2,1.2221479E-1,5.511739E-1,-2.6189571E-2,-5.20149E-2,-1.5178961E-2,4.3244235E-2,5.85724E-2,1.2178606E-2],"categories":[],"categories_nodes":[],"categories_segments":[],"categories_sizes":[],"default_left":[0,0,0,0,0,0,0,0,0,0,0,0,0],"id":55,"left_children":[1,3,5,7,-1,9,11,-1,-1,-1,-1,-1,-1],"loss_changes":[7.7798147E0,8.184304E-1,1.750834E0,1.9893503E-1,0E0,2.9631796E0,1.3422632E-1,0E0,0E0,0E0,0E0,0E0,0E0],"parents":[2147483647,0,0,1,1,2,2,3,3,5,5,6,6],"right_children":[2,4,6,8,-1,10,12,-1,-1,-1,-1,-1,-1],"split_conditions":[-1.11699365E-1,3.5135021E0,1.4847783E0,-1.8841375E0,1.8772831E-2,7.428412E-1,3.009431E0,-2.6189571E-2,-5.20149E-2,-1.5178961E-2,4.3244235E-2,5.85724E-2,1.2178606E-2],"split_indices":[0,3,0,0,0,3,6,0,0,0,0,0,0],"split_type":[0,0,0,0,0,0,0,0,0,0,0,0,0],"sum_hessian":[7.327184E1,2.7328632E1,4.594321E1,2.5720446E1,1.6081878E0,3.308721E1,1.2855996E1,7.724668E0,1.7995777E1,1.7840523E1,1.5246691E1,1.1561616E1,1.2943802E0],"tree_param":{"num_deleted":"0","num_feature":"10","num_nodes":"13","size_leaf_vector":"1"}},{"base_weights":[-1.6224098E-3,3.7598908E-1,-1.856184E-1,4.8911119E-1,-4.1515958E-2,4.2090878E-1,-3.308539E-1,5.397142E-2,-1.402463E-2,5.590384E-2,-3.1356584E-2,-1.0751189E-2,-5.3202387E-2],"categories":[],"categories_nodes":[],"categories_segments":[],"categories_sizes":[],"default_left":[0,0,0,0,0,0,0,0,0,0,0,0,0],"id":56,"left_children":[1,3,5,7,-1,9,11,-1,-1,-1,-1,-1,-1],"loss_changes":[5.1628513E0,2.381985E0,4.5399427E0,7.686901E-1,0E0,1.1991029E0,1.7788801E0,0E0,0E0,0E0,0E0,0E0,0E0],"parents":[2147483647,0,0,1,1,2,2,3,3,5,5,6,6],"right_children":[2,4,6,8,-1,10,12,-1,-1,-1,-1,-1,-1],"split_conditions":[-1.2186971E0,1.4847783E0,-1.3255485E0,1.5334833E0,-4.1515958E-2,9.485015E-1,4.3028057E-1,5.397142E-2,-1.402463E-2,5.590384E-2,-3.1356584E-2,-1.0751189E-2,-5.3202387E-2],"split_indices":[3,0,6,1,0,2,6,0,0,0,0,0,0],"split_type":[0,0,0,0,0,0,0,0,0,0,0,0,0],"sum_hessian":[7.2303604E1,2.3346521E1,4.8957085E1,2.075994E1,2.5865817E0,9.091477E0,3.9865604E1,1.934681E1,1.4131305E0,7.8533835E0,1.238094E0,1.9618864E1,2.0246742E1],"tree_param":{"num_deleted":"0","num_feature":"10","num_nodes":"13","size_leaf_vector":"1"}},{"base_weights":[1.004312E-3,-1.5360825E-1,5.1270694E-1,9.3358085E-2,-4.3782672E-1,7.7182025E-2,6.241834E-2,-1.9383484E-2,3.3045556E-2,-4.8747405E-2,-4.7735036E-3,4.1652404E-2,-3.0771127E-2],"categories":[],"categories_nodes":[],"categories_segments":[],"categories_sizes":[],"default_left":[0,0,0,0,0,0,0,0,0,0,0,0,0],"id":57,"left_children":[1,3,5,7,9,11,-1,-1,-1,-1,-1,-1,-1],"loss_changes":[5.6200223E0,3.8703861E0,7.5207233E-1,2.107924E0,4.7139025E-1,7.1594286E-1,0E0,0E0,0E0,0E0,0E0,0E0,0E0],"parents":[2147483647,0,0,1,1,2,2,3,3,4,4,5,5],"right_children":[2,4,6,8,10,12,-1,-1,-1,-1,-1,-1,-1],"split_conditions":[1.1568747E0,-5.0107795E-1,1.4699637E0,4.3028057E-1,2.3339174E0,-7.9471254E-1,6.241834E-2,-1.9383484E-2,3.3045556E-2,-4.8747405E-2,-4.7735036E-3,4.1652404E-2,-3.0771127E-2],"split_indices":[2,1,3,6,6,5,0,0,0,0,0,0,0],"split_type":[0,0,0,0,0,0,0,0,0,0,0,0,0],"sum_hessian":[6.904007E1,5.3557354E1,1.5482713E1,2.9015984E1,2.454137E1,3.5002043E0,1.1982509E1,1.3204285E1,1.58117E1,2.154915E1,2.9922209E0,1.8165014E0,1.683703E0],"tree_param":{"num_deleted":"0","num_feature":"10","num_nodes":"13","size_leaf_vector":"1"}},{"base_weights":[2.2730246E-4,-3.8013318E-1,2.5049156E-1,-4.3610212E-1,2.493463E-2,6.0146837E-3,3.9580637E-1,-4.575717E-2,4.026282E-3,-4.621326E-2,3.6392666E-2,6.273274E-2,2.3178542E-2],"categories":[],"categories_nodes":[],"categories_segments":[],"categories_sizes":[],"default_left":[0,0,0,0,0,0,0,0,0,0,0,0,0],"id":58,"left_children":[1,3,5,7,-1,9,11,-1,-1,-1,-1,-1,-1],"loss_changes":[6.8577585E0,1.1160159E0,1.5412896E0,2.9067183E-1,0E0,3.05253E0,8.8891697E-1,0E0,0E0,0E0,0E0,0E0,0E0],"parents":[2147483647,0,0,1,1,2,2,3,3,5,5,6,6],"right_children":[2,4,6,8,-1,10,12,-1,-1,-1,-1,-1,-1],"split_conditions":[-1.15920445E-2,3.5135021E0,7.8439903E-1,1.524813E0,2.493463E-2,8.596811E-1,2.1416892E-1,-4.575717E-2,4.026282E-3,-4.621326E-2,3.6392666E-2,6.273274E-2,2.3178542E-2],"split_indices":[0,3,0,1,0,3,6,0,0,0,0,0,0],"split_type":[0,0,0,0,0,0,0,0,0,0,0,0,0],"sum_hessian":[7.004206E1,2.7590347E1,4.245171E1,2.5619629E1,1.9707181E0,1.6214281E1,2.623743E1,2.455251E1,1.0671195E0,6.899099E0,9.315182E0,9.708659E0,1.6528772E1],"tree_param":{"num_deleted":"0","num_feature":"10","num_nodes":"13","size_leaf_vector":"1"}},{"base_weights":[-1.2311841E-3,2.1807261E-1,-3.028639E-1,3.1857637E-1,-4.659635E-2,4.0745643E-1,-4.5844018E-1,3.820129E-2,-4.2259637E-2,4.8684638E-2,1.5243021E-3,-2.337536E-2,-5.2439976E-2],"categories":[],"categories_nodes":[],"categories_segments":[],"categories_sizes":[],"default_left":[0,0,0,0,0,0,0,0,0,0,0,0,0],"id":59,"left_children":[1,3,5,7,-1,9,11,-1,-1,-1,-1,-1,-1],"loss_changes":[4.7129426E0,2.984776E0,3.50117E0,1.8806541E0,0E0,1.7685586E-1,2.4901915E-1,0E0,0E0,0E0,0E0,0E0,0E0],"parents":[2147483647,0,0,1,1,2,2,3,3,5,5,6,6],"right_children":[2,4,6,8,-1,10,12,-1,-1,-1,-1,-1,-1],"split_conditions":[1.2053877E-1,1.4847783E0,-1.6818099E0,1.5387182E0,-4.659635E-2,7.5601476E-1,7.428412E-1,3.820129E-2,-4.2259637E-2,4.8684638E-2,1.5243021E-3,-2.337536E-2,-5.2439976E-2],"split_indices":[3,0,6,6,0,2,3,0,0,0,0,0,0],"split_type":[0,0,0,0,0,0,0,0,0,0,0,0,0],"sum_hessian":[6.924872E1,4.02568E1,2.8991913E1,3.5565517E1,4.691285E0,4.918109E0,2.4073805E1,3.320786E1,2.357658E0,3.8895297E0,1.0285794E0,6.494535E0,1.757927E1],"tree_param":{"num_deleted":"0","num_feature":"10","num_nodes":"13","size_leaf_vector":"1"}},{"base_weights":[9.640961E-4,-3.1699723E-1,2.4357371E-1,-1.9179355E-2,-5.1930863E-2,-4.3149035E-2,3.2827958E-1,-4.5647487E-2,2.7543757E-2,6.737946E-2,1.7555412E-2],"categories":[],"categories_nodes":[],"categories_segments":[],"categories_sizes":[],"default_left":[0,0,0,0,0,0,0,0,0,0,0],"id":60,"left_children":[1,3,5,7,-1,-1,9,-1,-1,-1,-1],"loss_changes":[5.259996E0,1.7682011E0,2.3531141E0,1.7975564E0,0E0,0E0,1.7249525E0,0E0,0E0,0E0,0E0],"parents":[2147483647,0,0,1,1,2,2,3,3,6,6],"right_children":[2,4,6,8,-1,-1,10,-1,-1,-1,-1],"split_conditions":[-4.8375857E-1,-1.2473251E0,-1.224254E0,1.8857987E-1,-5.1930863E-2,-4.3149035E-2,-1.7357653E0,-4.5647487E-2,2.7543757E-2,6.737946E-2,1.7555412E-2],"split_indices":[2,1,3,6,0,0,5,0,0,0,0],"split_type":[0,0,0,0,0,0,0,0,0,0,0],"sum_hessian":[6.61863E1,2.8512085E1,3.7674217E1,1.1976523E1,1.653556E1,3.7438211E0,3.3930397E1,4.5997696E0,7.376754E0,9.354855E0,2.4575544E1],"tree_param":{"num_deleted":"0","num_feature":"10","num_nodes":"11","size_leaf_vector":"1"}},{"base_weights":[8.289724E-4,-2.343414E-1,3.81184E-1,-4.6624294E-1,1.3245212E-1,1.15583755E-1,5.1486427E-1,-5.2606292E-2,2.2956451E-2,5.5224843E-2,-5.623431E-2,5.062133E-2,-2.8168568E-2,8.319817E-3,6.0308736E-2],"categories":[],"categories_nodes":[],"categories_segments":[],"categories_sizes":[],"default_left":[0,0,0,0,0,0,0,0,0,0,0,0,0,0,0],"id":61,"left_children":[1,3,5,7,9,11,13,-1,-1,-1,-1,-1,-1,-1,-1],"loss_changes":[6.183839E0,3.695689E0,8.7827873E-1,1.2194123E0,5.36434E0,1.715E0,6.078987E-1,0E0,0E0,0E0,0E0,0E0,0E0,0E0,0E0],"parents":[2147483647,0,0,1,1,2,2,3,3,4,4,5,5,6,6],"right_children":[2,4,6,8,10,12,14,-1,-1,-1,-1,-1,-1,-1,-1],"split_conditions":[7.8439903E-1,1.2882304E0,-2.1005507E0,2.0113568E0,1.7744101E0,-2.6663573E0,-1.6544383E0,-5.2606292E-2,2.2956451E-2,5.5224843E-2,-5.623431E-2,5.062133E-2,-2.8168568E-2,8.319817E-3,6.0308736E-2],"split_indices":[0,3,5,1,2,9,3,0,0,0,0,0,0,0,0],"split_type":[0,0,0,0,0,0,0,0,0,0,0,0,0,0,0],"sum_hessian":[6.7134514E1,4.172202E1,2.541249E1,2.5395094E1,1.6326925E1,9.132457E0,1.6280035E1,2.3609308E1,1.7857859E0,1.0305494E1,6.0214314E0,4.4664383E0,4.6660185E0,3.0923839E0,1.3187651E1],"tree_param":{"num_deleted":"0","num_feature":"10","num_nodes":"15","size_leaf_vector":"1"}},{"base_weights":[-1.7994783E-3,3.5968417E-1,-1.7909476E-1,5.0851417E-1,-1.9544159E-1,6.25115E-2,-5.227996E-2,5.7350505E-2,-1.6750865E-4,3.7348893E-2,-4.5041658E-2,2.5821809E-2,-4.4250138E-2],"categories":[],"categories_nodes":[],"categories_segments":[],"categories_sizes":[],"default_left":[0,0,0,0,0,0,0,0,0,0,0,0,0],"id":62,"left_children":[1,3,5,7,9,11,-1,-1,-1,-1,-1,-1,-1],"loss_changes":[4.38303E0,1.958853E0,3.8424292E0,5.986538E-1,9.6326816E-1,2.8651607E0,0E0,0E0,0E0,0E0,0E0,0E0,0E0],"parents":[2147483647,0,0,1,1,2,2,3,3,4,4,5,5],"right_children":[2,4,6,8,10,12,-1,-1,-1,-1,-1,-1,-1],"split_conditions":[-1.2186971E0,9.8762506E-1,4.3028057E-1,8.922466E-1,-1.7365375E0,9.485015E-1,-5.227996E-2,5.7350505E-2,-1.6750865E-4,3.7348893E-2,-4.5041658E-2,2.5821809E-2,-4.4250138E-2],"split_indices":[3,0,6,6,2,2,0,0,0,0,0,0,0],"split_type":[0,0,0,0,0,0,0,0,0,0,0,0,0],"sum_hessian":[6.638424E1,2.1506453E1,4.487779E1,1.7025784E1,4.4806695E0,2.6833431E1,1.8044355E1,1.4991921E1,2.0338619E0,1.2427938E0,3.237876E0,1.9691223E1,7.142208E0],"tree_param":{"num_deleted":"0","num_feature":"10","num_nodes":"13","size_leaf_vector":"1"}},{"base_weights":[-3.1777815E-4,-1.2440215E-1,5.766422E-1,1.6942288E-1,-3.3281228E-1,1.5313037E-2,6.03858E-2,-2.481008E-2,4.0670257E-2,6.3097286E-3,-4.539681E-2],"categories":[],"categories_nodes":[],"categories_segments":[],"categories_sizes":[],"default_left":[0,0,0,0,0,0,0,0,0,0,0],"id":63,"left_children":[1,3,5,7,9,-1,-1,-1,-1,-1,-1],"loss_changes":[4.6702204E0,3.3438835E0,4.061842E-2,2.3735979E0,1.551362E0,0E0,0E0,0E0,0E0,0E0,0E0],"parents":[2147483647,0,0,1,1,2,2,3,3,4,4],"right_children":[2,4,6,8,10,-1,-1,-1,-1,-1,-1],"split_conditions":[1.7744101E0,-1.0893368E0,1.6021962E0,1.8857987E-1,-2.392113E0,1.5313037E-2,6.03858E-2,-2.481008E-2,4.0670257E-2,6.3097286E-3,-4.539681E-2],"split_indices":[2,1,3,6,5,0,0,0,0,0,0],"split_type":[0,0,0,0,0,0,0,0,0,0,0],"sum_hessian":[6.3232082E1,5.2685596E1,1.0546487E1,2.1940317E1,3.0745277E1,1.0369381E0,9.509549E0,7.933939E0,1.4006377E1,7.316344E0,2.3428934E1],"tree_param":{"num_deleted":"0","num_feature":"10","num_nodes":"11","size_leaf_vector":"1"}},{"base_weights":[1.4462353E-3,-2.659243E-1,3.1732157E-1,-4.5894873E-1,8.4125094E-2,7.842913E-2,4.5588315E-1,-5.04584E-2,1.5299975E-2,5.1398158E-2,-4.9700927E-2,3.2270376E-2,-5.492536E-2,7.2258557E-3,5.243749E-2],"categories":[],"categories_nodes":[],"categories_segments":[],"categories_sizes":[],"default_left":[0,0,0,0,0,0,0,0,0,0,0,0,0,0,0],"id":64,"left_children":[1,3,5,7,9,11,13,-1,-1,-1,-1,-1,-1,-1,-1],"loss_changes":[5.571915E0,2.4530509E0,9.652877E-1,7.2474957E-1,3.6392584E0,2.0646079E0,4.5956016E-1,0E0,0E0,0E0,0E0,0E0,0E0,0E0,0E0],"parents":[2147483647,0,0,1,1,2,2,3,3,4,4,5,5,6,6],"right_children":[2,4,6,8,10,12,14,-1,-1,-1,-1,-1,-1,-1,-1],"split_conditions":[4.7214097E-1,1.4042335E0,-2.1005507E0,2.0113568E0,1.7744101E0,-2.3427327E0,-1.6544383E0,-5.04584E-2,1.5299975E-2,5.1398158E-2,-4.9700927E-2,3.2270376E-2,-5.492536E-2,7.2258557E-3,5.243749E-2],"split_indices":[0,3,5,1,2,5,3,0,0,0,0,0,0,0,0],"split_type":[0,0,0,0,0,0,0,0,0,0,0,0,0,0,0],"sum_hessian":[6.397523E1,3.4733463E1,2.9241768E1,2.2187643E1,1.254582E1,1.1309393E1,1.7932375E1,2.0811127E1,1.3765165E0,7.277969E0,5.267851E0,8.490885E0,2.818508E0,3.0279152E0,1.4904459E1],"tree_param":{"num_deleted":"0","num_feature":"10","num_nodes":"15","size_leaf_vector":"1"}},{"base_weights":[-1.1431159E-3,3.5031426E-1,-1.719302E-1,-4.2782027E-2,4.4457167E-1,1.3397503E-1,-4.3510577E-1,5.1549483E-2,-3.19869E-2,3.4624264E-2,-3.4654886E-2,-1.6476637E-2,-5.171379E-2],"categories":[],"categories_nodes":[],"categories_segments":[],"categories_sizes":[],"default_left":[0,0,0,0,0,0,0,0,0,0,0,0,0],"id":65,"left_children":[1,3,5,-1,7,9,11,-1,-1,-1,-1,-1,-1],"loss_changes":[3.9227617E0,1.7578039E0,3.5986838E0,0E0,1.2250535E0,2.27236E0,4.442482E-1,0E0,0E0,0E0,0E0,0E0,0E0],"parents":[2147483647,0,0,1,1,2,2,4,4,5,5,6,6],"right_children":[2,4,6,-1,8,10,12,-1,-1,-1,-1,-1,-1],"split_conditions":[-1.2186971E0,-2.719733E0,-1.9843903E-1,-4.2782027E-2,1.4847783E0,7.5601476E-1,4.3028057E-1,5.1549483E-2,-3.19869E-2,3.4624264E-2,-3.4654886E-2,-1.6476637E-2,-5.171379E-2],"split_indices":[3,9,6,0,0,2,6,0,0,0,0,0,0],"split_type":[0,0,0,0,0,0,0,0,0,0,0,0,0],"sum_hessian":[6.3349384E1,2.0373081E1,4.2976303E1,1.8188509E0,1.8554232E1,2.010174E1,2.2874565E1,1.7276968E1,1.2772622E0,1.41365E1,5.965239E0,6.0255933E0,1.684897E1],"tree_param":{"num_deleted":"0","num_feature":"10","num_nodes":"13","size_leaf_vector":"1"}},{"base_weights":[-6.964559E-5,-3.0420595E-1,2.278466E-1,-1.6165523E-2,-5.0983198E-2,-4.161657E-2,3.069563E-1,-4.4026297E-2,2.5094498E-2,6.504305E-2,1.5309192E-2],"categories":[],"categories_nodes":[],"categories_segments":[],"categories_sizes":[],"default_left":[0,0,0,0,0,0,0,0,0,0,0],"id":66,"left_children":[1,3,5,7,-1,-1,9,-1,-1,-1,-1],"loss_changes":[4.3369136E0,1.579164E0,1.9498646E0,1.4920845E0,0E0,0E0,1.6141636E0,0E0,0E0,0E0,0E0],"parents":[2147483647,0,0,1,1,2,2,3,3,6,6],"right_children":[2,4,6,8,-1,-1,10,-1,-1,-1,-1],"split_conditions":[-4.8375857E-1,-1.2473251E0,-1.224254E0,1.8857987E-1,-5.0983198E-2,-4.161657E-2,-1.7357653E0,-4.4026297E-2,2.5094498E-2,6.504305E-2,1.5309192E-2],"split_indices":[2,1,3,6,0,0,5,0,0,0,0],"split_type":[0,0,0,0,0,0,0,0,0,0,0],"sum_hessian":[6.0565914E1,2.5801334E1,3.476458E1,1.1196259E1,1.4605076E1,3.3371396E0,3.142744E1,4.0761766E0,7.1200814E0,8.724433E0,2.2703007E1],"tree_param":{"num_deleted":"0","num_feature":"10","num_nodes":"11","size_leaf_vector":"1"}},{"base_weights":[2.1086244E-3,-2.2440946E-1,3.5759035E-1,-4.5199993E-1,1.2952633E-1,5.9304982E-2,1.8968081E-1,-5.1273763E-2,2.1172263E-2,5.2404642E-2,-5.403399E-2,-3.1632215E-2,4.459977E-2],"categories":[],"categories_nodes":[],"categories_segments":[],"categories_sizes":[],"default_left":[0,0,0,0,0,0,0,0,0,0,0,0,0],"id":67,"left_children":[1,3,5,7,9,-1,11,-1,-1,-1,-1,-1,-1],"loss_changes":[5.086767E0,3.1671052E0,8.5948014E-1,1.0643859E0,4.4799495E0,0E0,2.193018E0,0E0,0E0,0E0,0E0,0E0,0E0],"parents":[2147483647,0,0,1,1,2,2,3,3,4,4,6,6],"right_children":[2,4,6,8,10,-1,12,-1,-1,-1,-1,-1,-1],"split_conditions":[7.8439903E-1,1.2882304E0,2.1416892E-1,2.0113568E0,1.7744101E0,5.9304982E-2,-6.630057E-1,-5.1273763E-2,2.1172263E-2,5.2404642E-2,-5.403399E-2,-3.1632215E-2,4.459977E-2],"split_indices":[0,3,6,1,2,0,3,0,0,0,0,0,0],"split_type":[0,0,0,0,0,0,0,0,0,0,0,0,0],"sum_hessian":[6.117501E1,3.759051E1,2.35845E1,2.2710175E1,1.4880335E1,8.763493E0,1.4821007E1,2.1014597E1,1.6955782E0,9.5018635E0,5.3784714E0,4.9045935E0,9.916412E0],"tree_param":{"num_deleted":"0","num_feature":"10","num_nodes":"13","size_leaf_vector":"1"}},{"base_weights":[-2.059498E-3,3.395731E-1,-1.676991E-1,4.847317E-1,-1.8054342E-1,3.9817473E-1,-3.0221996E-1,5.541856E-2,-1.0088694E-3,3.534963E-2,-4.3450695E-2,5.0791215E-2,-8.575738E-3,-1.0082064E-2,-5.117913E-2],"categories":[],"categories_nodes":[],"categories_segments":[],"categories_sizes":[],"default_left":[0,0,0,0,0,0,0,0,0,0,0,0,0,0,0],"id":68,"left_children":[1,3,5,7,9,11,13,-1,-1,-1,-1,-1,-1,-1,-1],"loss_changes":[3.5414393E0,1.6305127E0,3.3280683E0,5.6403494E-1,8.5721165E-1,4.9628055E-1,1.4093914E0,0E0,0E0,0E0,0E0,0E0,0E0,0E0,0E0],"parents":[2147483647,0,0,1,1,2,2,3,3,4,4,5,5,6,6],"right_children":[2,4,6,8,10,12,14,-1,-1,-1,-1,-1,-1,-1,-1],"split_conditions":[-1.2186971E0,9.8762506E-1,-1.3255485E0,8.922466E-1,-1.7365375E0,7.5601476E-1,4.3028057E-1,5.541856E-2,-1.0088694E-3,3.534963E-2,-4.3450695E-2,5.0791215E-2,-8.575738E-3,-1.0082064E-2,-5.117913E-2],"split_indices":[3,0,6,6,2,2,6,0,0,0,0,0,0,0,0],"split_type":[0,0,0,0,0,0,0,0,0,0,0,0,0,0,0],"sum_hessian":[6.0576668E1,1.9437222E1,4.1139446E1,1.5249336E1,4.1878843E0,7.5249853E0,3.361446E1,1.3267161E1,1.9821749E0,1.2233922E0,2.9644923E0,6.0936294E0,1.4313562E0,1.7896702E1,1.5717759E1],"tree_param":{"num_deleted":"0","num_feature":"10","num_nodes":"15","size_leaf_vector":"1"}},{"base_weights":[-8.5399966E-5,-1.1918654E-1,5.5432167E-2,1.630237E-1,-3.2301718E-1,-2.3065576E-2,3.8161527E-2,6.4107478E-3,-4.441587E-2],"categories":[],"categories_nodes":[],"categories_segments":[],"categories_sizes":[],"default_left":[0,0,0,0,0,0,0,0,0],"id":69,"left_children":[1,3,-1,5,7,-1,-1,-1,-1],"loss_changes":[3.958949E0,2.8916116E0,0E0,1.9263148E0,1.3880816E0,0E0,0E0,0E0,0E0],"parents":[2147483647,0,0,1,1,3,3,4,4],"right_children":[2,4,-1,6,8,-1,-1,-1,-1],"split_conditions":[1.7744101E0,-1.0893368E0,5.5432167E-2,1.8857987E-1,-2.392113E0,-2.3065576E-2,3.8161527E-2,6.4107478E-3,-4.441587E-2],"split_indices":[2,1,0,6,5,0,0,0,0],"split_type":[0,0,0,0,0,0,0,0,0],"sum_hessian":[5.7955795E1,4.8353268E1,9.602528E0,2.0361834E1,2.7991434E1,7.2498307E0,1.3112003E1,6.783766E0,2.1207668E1],"tree_param":{"num_deleted":"0","num_feature":"10","num_nodes":"9","size_leaf_vector":"1"}},{"base_weights":[1.3818144E-3,-2.1981083E-1,3.445106E-1,-4.4501108E-1,1.2562145E-1,5.8002587E-2,1.7730266E-1,-5.059716E-2,2.0221496E-2,5.110697E-2,-5.3042214E-2,-3.0881057E-2,4.3238483E-2],"categories":[],"categories_nodes":[],"categories_segments":[],"categories_sizes":[],"default_left":[0,0,0,0,0,0,0,0,0,0,0,0,0],"id":70,"left_children":[1,3,5,7,9,-1,11,-1,-1,-1,-1,-1,-1],"loss_changes":[4.570618E0,2.9046555E0,8.266363E-1,9.8565054E-1,4.1228375E0,0E0,2.023676E0,0E0,0E0,0E0,0E0,0E0,0E0],"parents":[2147483647,0,0,1,1,2,2,3,3,4,4,6,6],"right_children":[2,4,6,8,10,-1,12,-1,-1,-1,-1,-1,-1],"split_conditions":[7.8439903E-1,1.2882304E0,2.1416892E-1,2.0113568E0,1.7744101E0,5.8002587E-2,-6.630057E-1,-5.059716E-2,2.0221496E-2,5.110697E-2,-5.3042214E-2,-3.0881057E-2,4.3238483E-2],"split_indices":[0,3,6,1,2,0,3,0,0,0,0,0,0],"split_type":[0,0,0,0,0,0,0,0,0,0,0,0,0],"sum_hessian":[5.8223125E1,3.5620388E1,2.2602736E1,2.1388288E1,1.42321E1,8.359438E0,1.4243299E1,1.9746649E1,1.6416401E0,9.104105E0,5.127994E0,4.829338E0,9.41396E0],"tree_param":{"num_deleted":"0","num_feature":"10","num_nodes":"13","size_leaf_vector":"1"}},{"base_weights":[-1.3067076E-3,3.3061042E-1,-1.6040695E-1,-4.10928E-2,4.2434052E-1,5.7286926E-2,-5.0674696E-2,4.933082E-2,-3.0127272E-2,2.3456823E-2,-4.1910604E-2],"categories":[],"categories_nodes":[],"categories_segments":[],"categories_sizes":[],"default_left":[0,0,0,0,0,0,0,0,0,0,0],"id":71,"left_children":[1,3,5,-1,7,9,-1,-1,-1,-1,-1],"loss_changes":[3.1567833E0,1.5207286E0,3.0752869E0,0E0,1.0338485E0,2.2694728E0,0E0,0E0,0E0,0E0,0E0],"parents":[2147483647,0,0,1,1,2,2,4,4,5,5],"right_children":[2,4,6,-1,8,10,-1,-1,-1,-1,-1],"split_conditions":[-1.2186971E0,-2.719733E0,4.3028057E-1,-4.10928E-2,1.4847783E0,9.485015E-1,-5.0674696E-2,4.933082E-2,-3.0127272E-2,2.3456823E-2,-4.1910604E-2],"split_indices":[3,9,6,0,0,2,0,0,0,0,0],"split_type":[0,0,0,0,0,0,0,0,0,0,0],"sum_hessian":[5.777415E1,1.8370777E1,3.9403374E1,1.6817305E0,1.6689047E1,2.4707767E1,1.4695606E1,1.5532841E1,1.1562068E0,1.8376785E1,6.330982E0],"tree_param":{"num_deleted":"0","num_feature":"10","num_nodes":"11","size_leaf_vector":"1"}},{"base_weights":[-2.1047579E-4,-2.9179403E-1,2.148035E-1,-1.3135916E-2,-5.0096173E-2,5.758545E-1,6.9412105E-2,-4.250442E-2,2.3059273E-2,1.0665519E-2,6.3467875E-2,-1.3995933E-2,4.9480807E-2],"categories":[],"categories_nodes":[],"categories_segments":[],"categories_sizes":[],"default_left":[0,0,0,0,0,0,0,0,0,0,0,0,0],"id":72,"left_children":[1,3,5,7,-1,9,11,-1,-1,-1,-1,-1,-1],"loss_changes":[3.6033134E0,1.4152136E0,1.6965772E0,1.2511528E0,0E0,1.9064617E-1,2.2710564E0,0E0,0E0,0E0,0E0,0E0,0E0],"parents":[2147483647,0,0,1,1,2,2,3,3,5,5,6,6],"right_children":[2,4,6,8,-1,10,12,-1,-1,-1,-1,-1,-1],"split_conditions":[-4.8375857E-1,-1.2473251E0,-1.9034907E0,1.8857987E-1,-5.0096173E-2,-2.914878E0,1.7744101E0,-4.250442E-2,2.3059273E-2,1.0665519E-2,6.3467875E-2,-1.3995933E-2,4.9480807E-2],"split_indices":[2,1,5,6,0,9,2,0,0,0,0,0,0],"split_type":[0,0,0,0,0,0,0,0,0,0,0,0,0],"sum_hessian":[5.5474377E1,2.3393295E1,3.208108E1,1.048617E1,1.29071245E1,8.359983E0,2.3721096E1,3.621615E0,6.864555E0,1.2447343E0,7.115249E0,1.6346611E1,7.3744864E0],"tree_param":{"num_deleted":"0","num_feature":"10","num_nodes":"13","size_leaf_vector":"1"}},{"base_weights":[2.749442E-3,-2.152876E-1,3.362841E-1,-4.378458E-1,1.2596595E-1,6.979726E-2,4.7551098E-1,-4.994345E-2,1.9528953E-2,4.9627468E-2,-5.1843893E-2,4.629646E-2,-2.854026E-2,5.4628733E-3,5.6536525E-2],"categories":[],"categories_nodes":[],"categories_segments":[],"categories_sizes":[],"default_left":[0,0,0,0,0,0,0,0,0,0,0,0,0,0,0],"id":73,"left_children":[1,3,5,7,9,11,13,-1,-1,-1,-1,-1,-1,-1,-1],"loss_changes":[4.186342E0,2.6995049E0,8.1097937E-1,9.279947E-1,3.7222764E0,1.386205E0,5.277872E-1,0E0,0E0,0E0,0E0,0E0,0E0,0E0,0E0],"parents":[2147483647,0,0,1,1,2,2,3,3,4,4,5,5,6,6],"right_children":[2,4,6,8,10,12,14,-1,-1,-1,-1,-1,-1,-1,-1],"split_conditions":[7.8439903E-1,1.2882304E0,-2.1005507E0,2.0113568E0,1.7744101E0,-2.6663573E0,-1.6544383E0,-4.994345E-2,1.9528953E-2,4.9627468E-2,-5.1843893E-2,4.629646E-2,-2.854026E-2,5.4628733E-3,5.6536525E-2],"split_indices":[0,3,5,1,2,9,3,0,0,0,0,0,0,0,0],"split_type":[0,0,0,0,0,0,0,0,0,0,0,0,0,0,0],"sum_hessian":[5.5570126E1,3.3817562E1,2.1752563E1,2.0297148E1,1.3520414E1,7.9799266E0,1.3772637E1,1.8690216E1,1.6069314E0,8.732268E0,4.788146E0,3.6435378E0,4.336389E0,2.7059221E0,1.1066715E1],"tree_param":{"num_deleted":"0","num_feature":"10","num_nodes":"15","size_leaf_vector":"1"}},{"base_weights":[-2.5533154E-3,3.958271E-1,-1.293835E-1,-3.603268E-2,4.883111E-1,4.0750608E-1,-2.5909323E-1,5.4649025E-2,-1.0176732E-4,5.01783E-2,-7.073688E-3,-8.395198E-3,-5.066864E-2],"categories":[],"categories_nodes":[],"categories_segments":[],"categories_sizes":[],"default_left":[0,0,0,0,0,0,0,0,0,0,0,0,0],"id":74,"left_children":[1,3,5,-1,7,9,11,-1,-1,-1,-1,-1,-1],"loss_changes":[2.8938444E0,1.1432712E0,3.129882E0,0E0,3.6351633E-1,4.3402255E-1,1.5007238E0,0E0,0E0,0E0,0E0,0E0,0E0],"parents":[2147483647,0,0,1,1,2,2,4,4,5,5,6,6],"right_children":[2,4,6,-1,8,10,12,-1,-1,-1,-1,-1,-1],"split_conditions":[-1.5673835E0,-2.719733E0,-1.3255485E0,-3.603268E-2,1.3219175E0,7.5601476E-1,5.596856E-1,5.4649025E-2,-1.0176732E-4,5.01783E-2,-7.073688E-3,-8.395198E-3,-5.066864E-2],"split_indices":[3,9,6,0,0,2,6,0,0,0,0,0,0],"split_type":[0,0,0,0,0,0,0,0,0,0,0,0,0],"sum_hessian":[5.5260017E1,1.2832264E1,4.2427753E1,1.0828364E0,1.1749427E1,7.839036E0,3.4588715E1,1.0396509E1,1.3529177E0,6.5070643E0,1.3319715E0,2.1042704E1,1.3546013E1],"tree_param":{"num_deleted":"0","num_feature":"10","num_nodes":"13","size_leaf_vector":"1"}},{"base_weights":[-4.5633875E-4,-2.8484967E-1,2.0557326E-1,-1.0812777E-2,-4.9638614E-2,5.586737E-1,6.376078E-2,-4.162608E-2,2.200265E-2,9.092421E-3,6.1453313E-2,-1.365443E-2,4.8215043E-2],"categories":[],"categories_nodes":[],"categories_segments":[],"categories_sizes":[],"default_left":[0,0,0,0,0,0,0,0,0,0,0,0,0],"id":75,"left_children":[1,3,5,7,-1,9,11,-1,-1,-1,-1,-1,-1],"loss_changes":[3.2314217E0,1.3376608E0,1.5658656E0,1.1319054E0,0E0,1.8020296E-1,2.0727243E0,0E0,0E0,0E0,0E0,0E0,0E0],"parents":[2147483647,0,0,1,1,2,2,3,3,5,5,6,6],"right_children":[2,4,6,8,-1,10,12,-1,-1,-1,-1,-1,-1],"split_conditions":[-4.8375857E-1,-1.2473251E0,-1.9034907E0,1.8857987E-1,-4.9638614E-2,-2.3062649E0,1.7744101E0,-4.162608E-2,2.200265E-2,9.092421E-3,6.1453313E-2,-1.365443E-2,4.8215043E-2],"split_indices":[2,1,5,6,0,7,2,0,0,0,0,0,0],"split_type":[0,0,0,0,0,0,0,0,0,0,0,0,0],"sum_hessian":[5.3150494E1,2.216812E1,3.0982374E1,1.0115289E1,1.2052831E1,8.035405E0,2.2946968E1,3.3783233E0,6.736965E0,1.1375606E0,6.897845E0,1.5973337E1,6.9736314E0],"tree_param":{"num_deleted":"0","num_feature":"10","num_nodes":"13","size_leaf_vector":"1"}},{"base_weights":[2.3044704E-3,-2.1193127E-1,3.2573617E-1,-4.32031E-1,1.2548879E-1,5.6099385E-2,1.5658158E-1,-4.8411757E-2,2.6620774E-2,4.8146803E-2,-5.0622415E-2,-3.0103657E-2,4.1052945E-2],"categories":[],"categories_nodes":[],"categories_segments":[],"categories_sizes":[],"default_left":[0,0,0,0,0,0,0,0,0,0,0,0,0],"id":76,"left_children":[1,3,5,7,9,-1,11,-1,-1,-1,-1,-1,-1],"loss_changes":[3.8110287E0,2.5118222E0,7.841613E-1,8.654492E-1,3.3558147E0,0E0,1.7661397E0,0E0,0E0,0E0,0E0,0E0,0E0],"parents":[2147483647,0,0,1,1,2,2,3,3,4,4,6,6],"right_children":[2,4,6,8,10,-1,12,-1,-1,-1,-1,-1,-1],"split_conditions":[7.8439903E-1,1.2882304E0,2.1416892E-1,2.2319105E0,1.7744101E0,5.6099385E-2,-6.630057E-1,-4.8411757E-2,2.6620774E-2,4.8146803E-2,-5.0622415E-2,-3.0103657E-2,4.1052945E-2],"split_indices":[0,3,6,1,2,0,3,0,0,0,0,0,0],"split_type":[0,0,0,0,0,0,0,0,0,0,0,0,0],"sum_hessian":[5.3004337E1,3.2091927E1,2.0912413E1,1.9252857E1,1.2839068E1,7.77818E0,1.31342325E1,1.8201721E1,1.0511367E0,8.3637905E0,4.475278E0,4.621246E0,8.512987E0],"tree_param":{"num_deleted":"0","num_feature":"10","num_nodes":"13","size_leaf_vector":"1"}},{"base_weights":[-1.8507376E-3,3.1409842E-1,-1.5148464E-1,-3.9029516E-2,4.056093E-1,1.22092806E-1,-4.0587527E-1,4.7473483E-2,-2.8899536E-2,3.0843347E-2,-3.1041255E-2,-2.026597E-2,-5.4346323E-2],"categories":[],"categories_nodes":[],"categories_segments":[],"categories_sizes":[],"default_left":[0,0,0,0,0,0,0,0,0,0,0,0,0],"id":77,"left_children":[1,3,5,-1,7,9,11,-1,-1,-1,-1,-1,-1],"loss_changes":[2.5954187E0,1.2957466E0,2.64173E0,0E0,9.105847E-1,1.6040549E0,4.3595386E-1,0E0,0E0,0E0,0E0,0E0,0E0],"parents":[2147483647,0,0,1,1,2,2,4,4,5,5,6,6],"right_children":[2,4,6,-1,8,10,12,-1,-1,-1,-1,-1,-1],"split_conditions":[-1.2186971E0,-2.719733E0,-1.9843903E-1,-3.9029516E-2,1.4847783E0,7.5601476E-1,-1.5155437E0,4.7473483E-2,-2.8899536E-2,3.0843347E-2,-3.1041255E-2,-2.026597E-2,-5.4346323E-2],"split_indices":[3,9,6,0,0,2,5,0,0,0,0,0,0],"split_type":[0,0,0,0,0,0,0,0,0,0,0,0,0],"sum_hessian":[5.289203E1,1.6645744E1,3.6246284E1,1.5384793E0,1.51072645E1,1.7715113E1,1.8531174E1,1.402779E1,1.0794748E0,1.2581406E1,5.1337066E0,8.479708E0,1.0051467E1],"tree_param":{"num_deleted":"0","num_feature":"10","num_nodes":"13","size_leaf_vector":"1"}},{"base_weights":[-7.198705E-4,-1.0686408E-1,5.1438755E-1,1.5901361E-1,-3.0680543E-1,1.5071769E-2,5.4260608E-2,-2.0826686E-2,3.5349466E-2,6.752457E-3,-4.2670283E-2],"categories":[],"categories_nodes":[],"categories_segments":[],"categories_sizes":[],"default_left":[0,0,0,0,0,0,0,0,0,0,0],"id":78,"left_children":[1,3,5,7,9,-1,-1,-1,-1,-1,-1],"loss_changes":[2.8913717E0,2.3793926E0,1.0943413E-2,1.4648082E0,1.1672213E0,0E0,0E0,0E0,0E0,0E0,0E0],"parents":[2147483647,0,0,1,1,2,2,3,3,4,4],"right_children":[2,4,6,8,10,-1,-1,-1,-1,-1,-1],"split_conditions":[1.7744101E0,-1.0893368E0,1.609473E0,1.8857987E-1,-2.392113E0,1.5071769E-2,5.4260608E-2,-2.0826686E-2,3.5349466E-2,6.752457E-3,-4.2670283E-2],"split_indices":[2,1,3,6,5,0,0,0,0,0,0],"split_type":[0,0,0,0,0,0,0,0,0,0,0],"sum_hessian":[5.087686E1,4.2841404E1,8.035458E0,1.847648E1,2.4364925E1,1.0352055E0,7.000252E0,6.3719907E0,1.2104489E1,6.016793E0,1.8348131E1],"tree_param":{"num_deleted":"0","num_feature":"10","num_nodes":"11","size_leaf_vector":"1"}},{"base_weights":[3.4446062E-3,-2.0750877E-1,3.1771487E-1,-4.2451972E-1,1.2439339E-1,4.8576698E-2,4.6082902E-1,-4.8632033E-2,1.8371364E-2,4.6587523E-2,-4.943612E-2,4.430824E-2,-2.8594656E-2,5.8181235E-3,5.4827627E-2],"categories":[],"categories_nodes":[],"categories_segments":[],"categories_sizes":[],"default_left":[0,0,0,0,0,0,0,0,0,0,0,0,0,0,0],"id":79,"left_children":[1,3,5,7,9,11,13,-1,-1,-1,-1,-1,-1,-1,-1],"loss_changes":[3.4887636E0,2.3214638E0,7.9155564E-1,8.137524E-1,3.0248437E0,1.2423508E0,4.497075E-1,0E0,0E0,0E0,0E0,0E0,0E0,0E0,0E0],"parents":[2147483647,0,0,1,1,2,2,3,3,4,4,5,5,6,6],"right_children":[2,4,6,8,10,12,14,-1,-1,-1,-1,-1,-1,-1,-1],"split_conditions":[7.8439903E-1,1.2882304E0,-2.1005507E0,2.0113568E0,1.7744101E0,-2.6663573E0,-1.6544383E0,-4.8632033E-2,1.8371364E-2,4.6587523E-2,-4.943612E-2,4.430824E-2,-2.8594656E-2,5.8181235E-3,5.4827627E-2],"split_indices":[0,3,5,1,2,9,3,0,0,0,0,0,0,0,0],"split_type":[0,0,0,0,0,0,0,0,0,0,0,0,0,0,0],"sum_hessian":[5.0629295E1,3.0497568E1,2.013173E1,1.8271729E1,1.222584E1,7.4537516E0,1.2677977E1,1.6768385E1,1.5033426E0,8.037264E0,4.1885757E0,3.2713296E0,4.182422E0,2.5592632E0,1.0118714E1],"tree_param":{"num_deleted":"0","num_feature":"10","num_nodes":"15","size_leaf_vector":"1"}},{"base_weights":[-2.7215353E-3,3.7753513E-1,-1.2116154E-1,4.725E-1,-2.920422E-2,5.832202E-2,-4.986046E-2,-1.0371807E-2,5.403892E-2,2.0496845E-2,-3.8971636E-2],"categories":[],"categories_nodes":[],"categories_segments":[],"categories_sizes":[],"default_left":[0,0,0,0,0,0,0,0,0,0,0],"id":80,"left_children":[1,3,5,7,-1,9,-1,-1,-1,-1,-1],"loss_changes":[2.3707888E0,9.3305695E-1,2.7470572E0,4.9936867E-1,0E0,1.9252307E0,0E0,0E0,0E0,0E0,0E0],"parents":[2147483647,0,0,1,1,2,2,3,3,5,5],"right_children":[2,4,6,8,-1,10,-1,-1,-1,-1,-1],"split_conditions":[-1.5673835E0,1.4847783E0,5.596856E-1,-2.6095488E0,-2.920422E-2,9.485015E-1,-4.986046E-2,-1.0371807E-2,5.403892E-2,2.0496845E-2,-3.8971636E-2],"split_indices":[3,0,6,9,0,2,0,0,0,0,0],"split_type":[0,0,0,0,0,0,0,0,0,0,0],"sum_hessian":[5.0624554E1,1.1503741E1,3.912081E1,1.0332617E1,1.1711243E0,2.7086153E1,1.2034658E1,1.0334365E0,9.29918E0,2.0815575E1,6.2705784E0],"tree_param":{"num_deleted":"0","num_feature":"10","num_nodes":"11","size_leaf_vector":"1"}},{"base_weights":[-1.3035461E-3,-2.7421406E-1,1.9386593E-1,-9.978591E-3,-4.8817266E-2,5.423356E-1,5.0576303E-2,-4.012625E-2,2.0046955E-2,8.622727E-3,6.0037006E-2,-1.3818048E-2,4.5519568E-2],"categories":[],"categories_nodes":[],"categories_segments":[],"categories_sizes":[],"default_left":[0,0,0,0,0,0,0,0,0,0,0,0,0],"id":81,"left_children":[1,3,5,7,-1,9,11,-1,-1,-1,-1,-1,-1],"loss_changes":[2.7061107E0,1.1926562E0,1.451852E0,9.449222E-1,0E0,1.7400932E-1,1.7504944E0,0E0,0E0,0E0,0E0,0E0,0E0],"parents":[2147483647,0,0,1,1,2,2,3,3,5,5,6,6],"right_children":[2,4,6,8,-1,10,12,-1,-1,-1,-1,-1,-1],"split_conditions":[-4.8375857E-1,-1.2473251E0,-1.9034907E0,1.8857987E-1,-4.8817266E-2,-2.914878E0,9.124065E-1,-4.012625E-2,2.0046955E-2,8.622727E-3,6.0037006E-2,-1.3818048E-2,4.5519568E-2],"split_indices":[2,1,5,6,0,9,9,0,0,0,0,0,0],"split_type":[0,0,0,0,0,0,0,0,0,0,0,0,0],"sum_hessian":[4.8807747E1,2.0181889E1,2.862586E1,9.498289E0,1.0683599E1,7.5295835E0,2.1096277E1,3.0047975E0,6.493492E0,1.1304966E0,6.399087E0,1.4834436E1,6.26184E0],"tree_param":{"num_deleted":"0","num_feature":"10","num_nodes":"13","size_leaf_vector":"1"}},{"base_weights":[4.6815295E-3,-2.0325957E-1,3.1019652E-1,-4.1758052E-1,1.2444154E-1,5.448696E-2,1.3976355E-1,-4.798552E-2,1.7815577E-2,4.519276E-2,-4.8256043E-2,-2.9292632E-2,3.9165165E-2],"categories":[],"categories_nodes":[],"categories_segments":[],"categories_sizes":[],"default_left":[0,0,0,0,0,0,0,0,0,0,0,0,0],"id":82,"left_children":[1,3,5,7,9,-1,11,-1,-1,-1,-1,-1,-1],"loss_changes":[3.204055E0,2.1605713E0,7.4052703E-1,7.67416E-1,2.7310746E0,0E0,1.5504978E0,0E0,0E0,0E0,0E0,0E0,0E0],"parents":[2147483647,0,0,1,1,2,2,3,3,4,4,6,6],"right_children":[2,4,6,8,10,-1,12,-1,-1,-1,-1,-1,-1],"split_conditions":[7.8439903E-1,1.2882304E0,2.1416892E-1,2.0113568E0,1.7744101E0,5.448696E-2,-6.630057E-1,-4.798552E-2,1.7815577E-2,4.519276E-2,-4.8256043E-2,-2.9292632E-2,3.9165165E-2],"split_indices":[0,3,6,1,2,0,3,0,0,0,0,0,0],"split_type":[0,0,0,0,0,0,0,0,0,0,0,0,0],"sum_hessian":[4.8441963E1,2.9022932E1,1.941903E1,1.7381151E1,1.164178E1,7.245527E0,1.2173503E1,1.5912294E1,1.4688576E0,7.7279296E0,3.9138503E0,4.419252E0,7.754251E0],"tree_param":{"num_deleted":"0","num_feature":"10","num_nodes":"13","size_leaf_vector":"1"}},{"base_weights":[-3.35834E-3,3.687847E-1,-1.18191235E-1,4.637576E-1,-2.864292E-2,3.9655623E-1,-2.4057575E-1,-1.0010391E-2,5.3276367E-2,4.8167557E-2,-4.368764E-3,-5.81321E-2,-1.1075313E-2],"categories":[],"categories_nodes":[],"categories_segments":[],"categories_sizes":[],"default_left":[0,0,0,0,0,0,0,0,0,0,0,0,0],"id":83,"left_children":[1,3,5,7,-1,9,11,-1,-1,-1,-1,-1,-1],"loss_changes":[2.1627605E0,8.7560236E-1,2.5304441E0,4.7383094E-1,0E0,3.1342316E-1,1.3445864E0,0E0,0E0,0E0,0E0,0E0,0E0],"parents":[2147483647,0,0,1,1,2,2,3,3,5,5,6,6],"right_children":[2,4,6,8,-1,10,12,-1,-1,-1,-1,-1,-1],"split_conditions":[-1.5673835E0,1.4847783E0,-1.3255485E0,-2.6095488E0,-2.864292E-2,7.5601476E-1,-1.2545005E0,-1.0010391E-2,5.3276367E-2,4.8167557E-2,-4.368764E-3,-5.81321E-2,-1.1075313E-2],"split_indices":[3,0,6,9,0,2,0,0,0,0,0,0,0],"split_type":[0,0,0,0,0,0,0,0,0,0,0,0,0],"sum_hessian":[4.858956E1,1.0936328E1,3.7653236E1,9.807011E0,1.1293168E0,6.8023596E0,3.0850876E1,1.0201906E0,8.78682E0,5.621379E0,1.1809808E0,7.5518184E0,2.3299057E1],"tree_param":{"num_deleted":"0","num_feature":"10","num_nodes":"13","size_leaf_vector":"1"}},{"base_weights":[-2.437943E-3,-1.0322694E-1,4.9475867E-2,1.754634E-1,-2.7817094E-1,-2.7402839E-2,3.6935143E-2,8.841837E-3,-4.4524875E-2],"categories":[],"categories_nodes":[],"categories_segments":[],"categories_sizes":[],"default_left":[0,0,0,0,0,0,0,0,0],"id":84,"left_children":[1,3,-1,5,7,-1,-1,-1,-1],"loss_changes":[2.4462035E0,2.0266688E0,0E0,1.518108E0,1.5895319E0,0E0,0E0,0E0,0E0],"parents":[2147483647,0,0,1,1,3,3,4,4],"right_children":[2,4,-1,6,8,-1,-1,-1,-1],"split_conditions":[1.7744101E0,-1.2931644E0,4.9475867E-2,-1.8068149E0,-2.1663938E0,-2.7402839E-2,3.6935143E-2,8.841837E-3,-4.4524875E-2],"split_indices":[2,1,0,7,5,0,0,0,0],"split_type":[0,0,0,0,0,0,0,0,0],"sum_hessian":[4.6795612E1,3.9567158E1,7.228457E0,1.5257922E1,2.4309235E1,4.473544E0,1.0784378E1,7.758006E0,1.6551228E1],"tree_param":{"num_deleted":"0","num_feature":"10","num_nodes":"9","size_leaf_vector":"1"}},{"base_weights":[5.6647905E-3,-1.9834684E-1,3.0194974E-1,-4.1081926E-1,1.2216898E-1,3.5654847E-2,4.473533E-1,-4.7360767E-2,1.7310902E-2,4.410118E-2,-4.7311265E-2,4.2750366E-2,-2.8008534E-2,5.784285E-3,5.3202637E-2],"categories":[],"categories_nodes":[],"categories_segments":[],"categories_sizes":[],"default_left":[0,0,0,0,0,0,0,0,0,0,0,0,0,0,0],"id":85,"left_children":[1,3,5,7,9,11,13,-1,-1,-1,-1,-1,-1,-1,-1],"loss_changes":[2.9242873E0,2.0024757E0,7.476287E-1,7.2245574E-1,2.5240242E0,1.1158829E0,3.8706112E-1,0E0,0E0,0E0,0E0,0E0,0E0,0E0,0E0],"parents":[2147483647,0,0,1,1,2,2,3,3,4,4,5,5,6,6],"right_children":[2,4,6,8,10,12,14,-1,-1,-1,-1,-1,-1,-1,-1],"split_conditions":[7.8439903E-1,1.2882304E0,-2.1005507E0,2.0113568E0,1.7744101E0,-2.6663573E0,-1.6544383E0,-4.7360767E-2,1.7310902E-2,4.410118E-2,-4.7311265E-2,4.2750366E-2,-2.8008534E-2,5.784285E-3,5.3202637E-2],"split_indices":[0,3,5,1,2,9,3,0,0,0,0,0,0,0,0],"split_type":[0,0,0,0,0,0,0,0,0,0,0,0,0,0,0],"sum_hessian":[4.6388027E1,2.7667614E1,1.8720413E1,1.6468664E1,1.119895E1,7.0514555E0,1.1668958E1,1.504034E1,1.4283231E0,7.461565E0,3.7373848E0,2.9885488E0,4.0629067E0,2.3842287E0,9.284729E0],"tree_param":{"num_deleted":"0","num_feature":"10","num_nodes":"15","size_leaf_vector":"1"}},{"base_weights":[-3.1847428E-3,1.1128993E-1,-3.657149E-1,2.3346402E-1,-3.899836E-1,1.3685609E-2,-4.8267465E-2,2.984264E-2,-5.543841E-2,-8.524469E-3,-4.490609E-2],"categories":[],"categories_nodes":[],"categories_segments":[],"categories_sizes":[],"default_left":[0,0,0,0,0,0,0,0,0,0,0],"id":86,"left_children":[1,3,5,7,9,-1,-1,-1,-1,-1,-1],"loss_changes":[2.0203881E0,2.3583355E0,7.5269115E-1,1.7209215E0,9.9072814E-2,0E0,0E0,0E0,0E0,0E0,0E0],"parents":[2147483647,0,0,1,1,2,2,3,3,4,4],"right_children":[2,4,6,8,10,-1,-1,-1,-1,-1,-1],"split_conditions":[9.942926E-1,9.485015E-1,-1.6544383E0,1.0758435E0,-5.080854E-1,1.3685609E-2,-4.8267465E-2,2.984264E-2,-5.543841E-2,-8.524469E-3,-4.490609E-2],"split_indices":[6,2,3,9,3,0,0,0,0,0,0],"split_type":[0,0,0,0,0,0,0,0,0,0,0],"sum_hessian":[4.6702717E1,3.6021404E1,1.06813135E1,2.9392021E1,6.629382E0,1.9843841E0,8.696929E0,2.7726994E1,1.6650287E0,1.4731832E0,5.156199E0],"tree_param":{"num_deleted":"0","num_feature":"10","num_nodes":"11","size_leaf_vector":"1"}},{"base_weights":[-3.2251352E-3,-2.616824E-1,1.807298E-1,-6.7607807E-3,-4.804436E-2,5.1929015E-1,3.8178623E-2,-3.9169993E-2,1.9495556E-2,8.286523E-3,5.7533838E-2,-1.3906828E-2,4.344051E-2],"categories":[],"categories_nodes":[],"categories_segments":[],"categories_sizes":[],"default_left":[0,0,0,0,0,0,0,0,0,0,0,0,0],"id":87,"left_children":[1,3,5,7,-1,9,11,-1,-1,-1,-1,-1,-1],"loss_changes":[2.2366078E0,1.0872821E0,1.3070247E0,8.5637695E-1,0E0,1.496396E-1,1.4949275E0,0E0,0E0,0E0,0E0,0E0,0E0],"parents":[2147483647,0,0,1,1,2,2,3,3,5,5,6,6],"right_children":[2,4,6,8,-1,10,12,-1,-1,-1,-1,-1,-1],"split_conditions":[-4.8375857E-1,-1.2473251E0,-1.9034907E0,1.8857987E-1,-4.804436E-2,-2.914878E0,9.124065E-1,-3.9169993E-2,1.9495556E-2,8.286523E-3,5.7533838E-2,-1.3906828E-2,4.344051E-2],"split_indices":[2,1,5,6,0,9,9,0,0,0,0,0,0],"split_type":[0,0,0,0,0,0,0,0,0,0,0,0,0],"sum_hessian":[4.504769E1,1.8555136E1,2.6492558E1,9.045431E0,9.509704E0,7.0665665E0,1.9425991E1,2.7863507E0,6.259081E0,1.0863172E0,5.9802494E0,1.3870304E1,5.555687E0],"tree_param":{"num_deleted":"0","num_feature":"10","num_nodes":"13","size_leaf_vector":"1"}},{"base_weights":[6.640407E-3,-1.9492519E-1,2.9425886E-1,-5.173062E-2,1.6954388E-2,5.296867E-2,1.2334055E-1,2.7825061E-2,-3.3515446E-2,-2.8383454E-2,3.723926E-2],"categories":[],"categories_nodes":[],"categories_segments":[],"categories_sizes":[],"default_left":[0,0,0,0,0,0,0,0,0,0,0],"id":88,"left_children":[1,3,5,-1,7,-1,9,-1,-1,-1,-1],"loss_changes":[2.6975768E0,1.8788418E0,7.057893E-1,0E0,1.7022803E0,0E0,1.3638109E0,0E0,0E0,0E0,0E0],"parents":[2147483647,0,0,1,1,2,2,4,4,6,6],"right_children":[2,4,6,-1,8,-1,10,-1,-1,-1,-1],"split_conditions":[7.8439903E-1,2.5643337E-1,2.1416892E-1,-5.173062E-2,6.889736E-1,5.296867E-2,-6.630057E-1,2.7825061E-2,-3.3515446E-2,-2.8383454E-2,3.723926E-2],"split_indices":[0,3,6,0,2,0,3,0,0,0,0],"split_type":[0,0,0,0,0,0,0,0,0,0,0],"sum_hessian":[4.4541428E1,2.6377863E1,1.8163565E1,9.889376E0,1.6488487E1,6.7570906E0,1.1406474E1,9.585184E0,6.9033036E0,4.2759933E0,