tree
version=v4
num_class=1
num_tree_per_iteration=1
label_index=0
max_feature_idx=9
objective=regression
feature_names=Column_0 Column_1 Column_2 Column_3 Column_4 Column_5 Column_6 Column_7 Column_8 Column_9
feature_infos=[-2.7538952537408492:2.6373278850161208] [-2.3278837962292362:3.5000690920559872] [-2.7527692657797678:2.9293744937190036] [-2.9078121909781101:3.742891152887434] [-3.0003161428768754:2.3518673005098214] [-2.5559430143258406:2.8038525753062378] [-3.2059684958076504:3.4157293475602422] [-2.4340890711737431:2.9243080539903201] [-2.6836217667247984:3.0073349901514304] [-3.1262441255005444:2.5946454127955514]
tree_sizes=634 710 709 711 784 555 790 630 639 634 632 636 553 558 639 633 559 477 634 630 715 557 480 480 563 633 560 483 561 481 719 717 484 558 560 562 721 479 485 566

Tree=0
num_leaves=6
num_cat=0
split_feature=4 3 8 6 3
split_gain=1.04957e+06 898468 421873 351698 146151
threshold=-0.74122967417281904 -0.32352994049472356 0.9867836936868476 -0.28887428602458259 -0.082167795040822347
decision_type=8 8 10 8 10
left_child=4 3 -3 -2 -1
right_child=1 2 -4 -5 -6
leaf_value=-25.107936296329527 -24.100852910075783 -2.2501274305884928 9.6882385921175391 -8.482542350724529 -14.07196973310473
leaf_weight=24 21 148 37 46 24
leaf_count=24 21 148 37 46 24
internal_value=-6.03729 -3.45583 0.137546 -13.3778 -19.59
internal_weight=300 252 185 67 48
internal_count=300 252 185 67 48
is_linear=0
shrinkage=1


Tree=1
num_leaves=7
num_cat=0
split_feature=4 3 4 8 8 6
split_gain=926729 572556 493657 283647 256604 72442.4
threshold=0.4061636625491945 -0.13017603670838959 -0.74122967417281904 -0.39770486473413663 0.7406096431783703 -0.079975098095245487
decision_type=10 8 8 8 10 8
left_child=1 3 -3 -1 5 -2
right_child=4 2 -4 -5 -6 -7
leaf_value=-19.87284161940865 1.5223211367925009 -10.218169818605695 3.3593127707640331 -6.3666165535648673 18.412645790793679 8.6980389286490052
leaf_weight=23 24 35 114 48 22 34
leaf_count=23 24 35 114 48 22 34
internal_value=-4.49022e-09 -3.35158 0.169971 -10.7419 9.21684 5.72878
internal_weight=300 220 149 71 80 58
internal_count=300 220 149 71 80 58
is_linear=0
shrinkage=0.1


Tree=2
num_leaves=7
num_cat=0
split_feature=4 6 4 3 0 6
split_gain=752721 565321 408282 268010 231597 122238
threshold=0.24362390656433458 -0.28887428602458259 -1.1090861647607337 -0.24632834055480116 0.2427063346209585 -0.079975098095245487
decision_type=10 8 8 10 8 8
left_child=1 4 -3 5 -1 -2
right_child=3 2 -4 -5 -6 -7
leaf_value=-16.595344938951381 -2.9789178133010865 -11.888842466603156 2.6554824974139533 14.37098584704929 -4.9234404115115895 6.9286976717638256
leaf_weight=34 20 23 120 36 34 33
leaf_count=34 20 23 120 36 34 33
internal_value=-7.18733e-08 -3.2532 0.316185 7.71263 -10.7594 3.18997
internal_weight=300 211 143 89 68 53
internal_count=300 211 143 89 68 53
is_linear=0
shrinkage=0.1


Tree=3
num_leaves=7
num_cat=0
split_feature=8 3 4 4 0 8
split_gain=694272 471132 358950 276037 134597 104510
threshold=0.27909719445894199 -0.58519024637404937 -0.51115059577131794 -0.31543897300659679 -0.57448661313185545 -0.53681672691278948
decision_type=10 8 8 10 10 8
left_child=1 5 -3 4 -2 -1
right_child=3 2 -4 -5 -6 -7
leaf_value=-17.334204854965211 -2.6650656394958498 -8.6522219867241095 2.152023619461835 13.74454572139642 7.8192655262847737 -7.8695255534989501
leaf_weight=20 25 41 123 39 24 28
leaf_count=20 25 41 123 39 24 28
internal_value=1.97291e-08 -3.0994 -0.549038 7.46674 2.47012 -11.8131
internal_weight=300 212 164 88 49 48
internal_count=300 212 164 88 49 48
is_linear=0
shrinkage=0.1


Tree=4
num_leaves=8
num_cat=0
split_feature=6 8 4 8 4 3 6
split_gain=580379 327994 296971 262271 258856 93842.7 81192
threshold=0.34644425320949895 0.22540393050413124 0.18471591968374804 0.32627020686087271 0.48066842477756994 -0.32352994049472356 1.7419899968345944
decision_type=8 8 10 10 10 10 8
left_child=2 6 3 -1 -3 -4 -2
right_child=1 4 5 -5 -6 -7 -8
leaf_value=-10.112937558451787 2.5669442653656009 5.3892761681630068 -1.3751412983598381 1.0062803120448673 18.159900068101429 7.5288408967852591 -4.9825198058424327
leaf_weight=79 28 65 29 29 21 20 29
leaf_count=79 28 65 29 29 21 20 29
internal_value=-1.21196e-09 4.60869 -4.19772 -7.12722 8.50768 2.25914 -1.27401
internal_weight=300 143 157 108 86 49 57
internal_count=300 143 157 108 86 49 57
is_linear=0
shrinkage=0.1


Tree=5
num_leaves=5
num_cat=0
split_feature=8 3 6 3
split_gain=500281 405954 375411 139710
threshold=-0.61599024664634461 0.94479994761693953 -1.0056278974332351 -0.20348558181016144
decision_type=8 10 8 8
left_child=3 2 -2 -1
right_child=1 -3 -4 -5
leaf_value=-14.743240874154228 -10.852308166503907 14.38007824420929 2.1791704263518619 -4.626350803864308
leaf_weight=21 25 24 191 39
leaf_count=21 25 24 191 39
internal_value=-4.85877e-08 2.04182 0.670897 -8.16726
internal_weight=300 240 216 60
internal_count=300 240 216 60
is_linear=0
shrinkage=0.1


Tree=6
num_leaves=8
num_cat=0
split_feature=8 3 6 4 0 0 6
split_gain=440921 333253 234318 195934 91167.3 88407.4 81134.7
threshold=0.27909719445894199 -0.32352994049472356 0.34644425320949895 -0.42089243051423758 -0.57448661313185545 -0.54733550470506653 1.0009797626435482
decision_type=10 8 10 10 10 10 8
left_child=1 5 -3 4 -2 -1 -5
right_child=3 2 -4 6 -6 -7 -8
leaf_value=-12.619059397379559 -2.8206946154435477 -2.0865419603379096 7.3354748936260457 6.4933879647936141 6.0914339845830749 -4.9419344961643219 15.283790167740413
leaf_weight=30 24 118 34 21 22 30 21
leaf_count=30 24 118 34 21 22 30 21
internal_value=-1.3565e-08 -2.46998 0.0210144 5.9504 1.44163 -8.7805 10.8886
internal_weight=300 212 152 88 46 60 42
internal_count=300 212 152 88 46 60 42
is_linear=0
shrinkage=0.1


Tree=7
num_leaves=6
num_cat=0
split_feature=4 3 8 6 0
split_gain=414504 337374 260250 120864 66505.8
threshold=0.4061636625491945 1.074058986590767 0.27909719445894199 0.78439936856729975 -0.38889694723444462
decision_type=10 10 10 8 10
left_child=1 2 -1 4 -2
right_child=3 -3 -4 -5 -6
leaf_value=-5.8329980491746412 0.32812240655223529 9.8133531207130069 2.1248987820641747 11.765723114747267 7.3906542877356216
leaf_weight=141 30 21 58 26 24
leaf_count=141 30 21 58 26 24
internal_value=-1.31776e-08 -2.24149 -3.51361 6.1641 3.46703
internal_weight=300 220 199 80 54
internal_count=300 220 199 80 54
is_linear=0
shrinkage=0.1


Tree=8
num_leaves=6
num_cat=0
split_feature=4 3 8 6 3
split_gain=369386 337239 250604 161987 83215.9
threshold=-0.74122967417281904 -0.30852563835013874 -0.63815567048792399 -0.079975098095245487 -0.082167795040822347
decision_type=8 8 8 8 10
left_child=4 3 -3 -2 -1
right_child=1 2 -4 -5 -6
leaf_value=-12.203790638844174 -11.027092194557191 -4.2337856903672222 5.5140736990074322 -0.8925372772566651 -3.8763336360454561
leaf_weight=24 24 32 150 46 24
leaf_count=24 24 32 150 46 24
internal_value=9.12944e-09 1.53144 3.80016 -4.36724 -8.04006
internal_weight=300 252 182 70 48
internal_count=300 252 182 70 48
is_linear=0
shrinkage=0.1


Tree=9
num_leaves=6
num_cat=0
split_feature=6 0 3 8 6
split_gain=329907 238237 183821 172782 148344
threshold=0.34644425320949895 -0.57448661313185545 0.59751416780385036 -0.32151441940755193 1.1619474211381926
decision_type=8 8 10 10 10
left_child=1 -1 4 -3 -2
right_child=2 3 -4 -5 -6
leaf_value=-10.306466544999019 0.27763221691353152 -3.9994814345041911 11.458278357982635 3.7850426124489829 9.7198832476139074
leaf_weight=36 99 75 24 46 20
leaf_count=36 99 75 24 46 20
internal_value=-2.67227e-08 -3.16485 3.4747 -1.04008 1.86457
internal_weight=300 157 143 121 119
internal_count=300 157 143 121 119
is_linear=0
shrinkage=0.1


Tree=10
num_leaves=6
num_cat=0
split_feature=4 3 6 4 0
split_gain=308955 226698 180083 77032.5 92457.9
threshold=0.4061636625491945 1.074058986590767 0.34644425320949895 1.4577268573389623 0.092050267780656433
decision_type=10 10 8 10 10
left_child=1 2 -1 4 -2
right_child=3 -3 -4 -5 -6
leaf_value=-5.7673668039736352 0.4351829736619382 7.9464735258193251 0.26623449262191096 10.696413135528566 8.5090736555016573
leaf_weight=107 37 21 92 20 23
leaf_count=107 37 21 92 20 23
internal_value=-1.28305e-08 -1.93518 -2.97796 5.32173 3.53017
internal_weight=300 220 199 80 60
internal_count=300 220 199 80 60
is_linear=0
shrinkage=0.1


Tree=11
num_leaves=6
num_cat=0
split_feature=8 3 6 3 6
split_gain=281169 235354 191023 102040 86439.2
threshold=-0.32151441940755193 0.94479994761693953 -0.54171880491423507 -0.58519024637404937 -0.3324874965074483
decision_type=8 10 8 8 10
left_child=3 2 -2 -1 -5
right_child=1 -3 -4 4 -6
leaf_value=-10.676883747360923 -5.3902654158763399 12.007612164815267 2.4497237823562688 -5.2289081563552227 2.6722529673576356
leaf_weight=22 39 21 153 45 20
leaf_count=22 39 21 153 45 20
internal_value=-2.39611e-08 1.95656 0.857226 -4.7902 -2.79778
internal_weight=300 213 192 87 65
internal_count=300 213 192 87 65
is_linear=0
shrinkage=0.1


Tree=12
num_leaves=5
num_cat=0
split_feature=8 4 6 1
split_gain=252629 181025 131014 113772
threshold=0.9867836936868476 0.86855226682931563 0.34644425320949895 0.77527636650653886
decision_type=10 10 10 8
left_child=1 2 -1 -2
right_child=3 -3 -4 -5
leaf_value=-3.7789149139712501 11.485749030113221 4.9791958399308038 2.1610644603768985 1.8465734977722168
leaf_weight=164 24 39 48 25
leaf_count=164 24 39 48 25
internal_value=4.37101e-10 -1.28216 -2.43401 6.5678
internal_weight=300 251 212 49
internal_count=300 251 212 49
is_linear=0
shrinkage=0.1


Tree=13
num_leaves=5
num_cat=0
split_feature=4 3 6 3
split_gain=224378 244793 193120 63500.3
threshold=-0.80640733782026952 -1.2163808340511866 -0.28887428602458259 -0.082167795040822347
decision_type=8 8 8 10
left_child=3 -2 -3 -1
right_child=1 2 -4 -5
leaf_value=-10.184096891983696 -8.691461393107538 -2.1336023333954488 4.0793386819227688 -2.6692742326042871
leaf_weight=23 23 73 159 22
leaf_count=23 23 73 159 22
internal_value=2.13782e-08 1.14886 2.1244 -6.51018
internal_weight=300 255 232 45
internal_count=300 255 232 45
is_linear=0
shrinkage=0.1


Tree=14
num_leaves=6
num_cat=0
split_feature=8 4 0 3 4
split_gain=206070 180679 130025 94762.3 77471.7
threshold=-0.61599024664634461 0.33916472258164948 -0.41884408449262728 -0.27528756048961206 -1.1638030819698384
decision_type=8 10 8 8 10
left_child=4 2 -2 -3 -1
right_child=1 3 -4 -5 -6
leaf_value=-9.9643030079928323 -5.1900490899418683 0.027029725909233096 1.1657808711752295 8.081038503348827 -2.5076486675362837
leaf_weight=22 43 21 128 48 38
leaf_count=22 43 21 128 48 38
internal_value=-8.31485e-09 1.31044 -0.432469 5.62982 -5.24176
internal_weight=300 240 171 69 60
internal_count=300 240 171 69 60
is_linear=0
shrinkage=0.1


Tree=15
num_leaves=6
num_cat=0
split_feature=8 3 0 5 1
split_gain=181197 148394 125242 120809 83275.5
threshold=0.9867836936868476 0.42027340694144677 -0.38889694723444462 -0.1415637870309561 0.77527636650653886
decision_type=10 10 8 8 8
left_child=1 2 -1 -3 -2
right_child=4 3 -4 -5 -6
leaf_value=-6.9613315569317864 9.7697963734467823 -1.8086868133544922 -0.98732420641022767 7.4690695140510801 1.5230827331542969
leaf_weight=46 24 25 148 32 25
leaf_count=46 24 25 148 32 25
internal_value=4.13259e-09 -1.08587 -2.40384 3.39988 5.56229
internal_weight=300 251 194 57 49
internal_count=300 251 194 57 49
is_linear=0
shrinkage=0.1


Tree=16
num_leaves=5
num_cat=0
split_feature=6 3 0 5
split_gain=170822 142543 166161 84557.2
threshold=1.0009797626435482 0.075405796104636671 0.092050267780656433 -0.1415637870309561
decision_type=10 10 10 8
left_child=1 2 -1 -3
right_child=-2 3 -4 -5
leaf_value=-4.9675705880971162 6.9056453943252567 -1.366283188368145 1.4124829124772189 4.7235839919040075
leaf_weight=107 32 38 66 57
leaf_count=107 32 38 66 57
internal_value=-5.67983e-09 -0.824555 -2.53356 2.28764
internal_weight=300 268 173 95
internal_count=300 268 173 95
is_linear=0
shrinkage=0.1


Tree=17
num_leaves=4
num_cat=0
split_feature=4 3 6
split_gain=164255 157894 162000
threshold=-1.2174423863394161 -1.2163808340511866 -1.0056278974332351
decision_type=8 8 8
left_child=-1 -2 -3
right_child=1 2 -4
leaf_value=-7.4404279664710717 -7.1929306224636411 -4.7411230315764747 2.5093896589268034
leaf_weight=27 23 36 214
leaf_count=27 23 36 214
internal_value=-5.126e-09 0.735866 1.46532
internal_weight=300 273 250
internal_count=300 273 250
is_linear=0
shrinkage=0.1


Tree=18
num_leaves=6
num_cat=0
split_feature=4 3 8 4 0
split_gain=149458 114872 97649.4 52717 55737.3
threshold=0.4061636625491945 1.074058986590767 -0.32151441940755193 1.4577268573389623 0.092050267780656433
decision_type=10 10 10 10 10
left_child=1 2 -1 4 -2
right_child=3 -3 -4 -5 -6
leaf_value=-4.0807970818335368 -0.1837215761880617 5.6881937980651855 0.37443205433363996 8.1476094436645514 6.0850722338842314
leaf_weight=110 37 21 89 20 23
leaf_count=110 37 21 89 20 23
internal_value=-1.49099e-08 -1.34596 -2.08826 3.70139 2.21932
internal_weight=300 220 199 80 60
internal_count=300 220 199 80 60
is_linear=0
shrinkage=0.1


Tree=19
num_leaves=6
num_cat=0
split_feature=8 4 0 6 4
split_gain=133164 121841 130486 89127 51277.8
threshold=-0.61599024664634461 0.1073810250233565 -0.82079852410459908 0.4422262798568804 -1.4304774477007705
decision_type=8 8 8 8 10
left_child=4 3 -3 -2 -1
right_child=1 2 -4 -5 -6
leaf_value=-8.1976310253143314 -4.7531861071683918 -4.0180958243707812 4.0121105942615243 1.7000030934951564 -2.0685053874284796
leaf_weight=21 49 24 129 38 39
leaf_count=21 49 24 129 38 39
internal_value=1.17836e-08 1.05342 2.75247 -1.93455 -4.2137
internal_weight=300 240 153 87 60
internal_count=300 240 153 87 60
is_linear=0
shrinkage=0.1


Tree=20
num_leaves=7
num_cat=0
split_feature=3 6 0 7 6 0
split_gain=124712 129872 110074 77325 51573.5 34201.6
threshold=-0.24632834055480116 0.34644425320949895 0.2427063346209585 -0.22858963880640917 -0.079975098095245487 -1.188505028761323
decision_type=8 10 10 8 8 10
left_child=4 2 -2 -3 -1 -6
right_child=1 3 -4 -5 5 -7
leaf_value=-6.7245247402361459 -1.7499954471462651 10.656438434123993 3.8019113486346146 2.4526947226789262 -4.7517238198291691 0.27688045987957405
leaf_weight=28 114 20 52 27 21 38
leaf_count=28 114 20 52 27 21 38
internal_value=-3.94881e-10 1.30306 -0.0108439 5.94365 -3.19025 -1.51296
internal_weight=300 213 166 47 87 59
internal_count=300 213 166 47 87 59
is_linear=0
shrinkage=0.1


Tree=21
num_leaves=5
num_cat=0
split_feature=6 8 3 5
split_gain=117423 140632 117333 38768.4
threshold=-1.4806901807932951 0.9867836936868476 0.42027340694144677 0.81050830385631201
decision_type=8 10 10 8
left_child=-1 2 -2 -3
right_child=1 3 -4 -5
leaf_value=-7.2112048977897274 -1.5942011584462348 3.0371547222137454 3.9092323047318018 8.9440630519390112
leaf_weight=21 185 25 49 20
leaf_count=21 185 25 49 20
internal_value=-1.71339e-08 0.542779 -0.441773 5.66245
internal_weight=300 279 234 45
internal_count=300 279 234 45
is_linear=0
shrinkage=0.1


Tree=22
num_leaves=4
num_cat=0
split_feature=4 6 8
split_gain=102760 93424 111222
threshold=1.4577268573389623 -1.4806901807932951 0.9867836936868476
decision_type=10 8 10
left_child=1 -1 -3
right_child=-2 2 -4
leaf_value=-7.0806407958175983 6.9249201536178591 -0.88293082009167445 4.7921039703415662
leaf_weight=20 20 219 41
leaf_count=20 20 219 41
internal_value=1.13311e-09 -0.494637 0.0119785
internal_weight=300 280 260
internal_count=300 280 260
is_linear=0
shrinkage=0.1


Tree=23
num_leaves=4
num_cat=0
split_feature=4 3 6
split_gain=98203.7 104760 89838.8
threshold=-1.2174423863394161 -1.2163808340511866 -0.54171880491423507
decision_type=8 8 8
left_child=-1 -2 -3
right_child=1 2 -4
leaf_value=-5.7531101619755782 -5.889364862442017 -2.1736247977272409 2.2401083640478276
leaf_weight=27 23 61 189
leaf_count=27 23 61 189
internal_value=6.44724e-09 0.568989 1.16316
internal_weight=300 273 250
internal_count=300 273 250
is_linear=0
shrinkage=0.1


Tree=24
num_leaves=5
num_cat=0
split_feature=6 3 0 8
split_gain=89346.1 85438.2 100297 55977.5
threshold=1.0009797626435482 0.075405796104636671 0.092050267780656433 -0.32151441940755193
decision_type=10 10 10 8
left_child=1 2 -1 -3
right_child=-2 3 -4 -5
leaf_value=-3.8104785403358608 4.9942431658506399 -1.9418110677174161 1.1463295300801597 3.3823639049458865
leaf_weight=107 32 28 66 67
leaf_count=107 32 28 66 67
internal_value=-5.96046e-09 -0.596328 -1.91944 1.81313
internal_weight=300 268 173 95
internal_count=300 268 173 95
is_linear=0
shrinkage=0.1


Tree=25
num_leaves=6
num_cat=0
split_feature=4 3 0 8 1
split_gain=89494.2 69679.7 61090.2 29803.4 25133.6
threshold=0.4061636625491945 1.074058986590767 -0.57448661313185545 0.80365563640050108 0.46138417486985622
decision_type=10 10 8 8 8
left_child=1 2 -1 4 -2
right_child=3 -3 -4 -5 -6
leaf_value=-4.9568953591723783 3.5939305013418199 4.436937388068154 -0.69977599004259672 4.8933792803632592 -1.3041432736949488
leaf_weight=43 20 21 156 38 22
leaf_count=43 20 21 156 38 22
internal_value=3.05908e-09 -1.04153 -1.61966 2.8642 1.02827
internal_weight=300 220 199 80 42
internal_count=300 220 199 80 42
is_linear=0
shrinkage=0.1


Tree=26
num_leaves=5
num_cat=0
split_feature=4 3 8 3
split_gain=77053.7 85077.4 61101.2 29090.9
threshold=-0.74122967417281904 -1.2721176963621386 -0.63815567048792399 -0.15793670651653013
decision_type=8 8 8 10
left_child=3 -2 -3 -1
right_child=1 2 -4 -5
leaf_value=-6.348401240869002 -5.5585557669401169 -2.2127679291225615 2.0019406432383939 -1.4075589572007841
leaf_weight=22 20 42 190 26
leaf_count=22 20 42 190 26
internal_value=-2.111e-08 0.69945 1.23893 -3.67211
internal_weight=300 252 232 48
internal_count=300 252 232 48
is_linear=0
shrinkage=0.1


Tree=27
num_leaves=4
num_cat=0
split_feature=4 6 8
split_gain=73096.5 67383.7 72492.1
threshold=1.4577268573389623 -1.4806901807932951 0.9867836936868476
decision_type=10 8 10
left_child=1 -1 -3
right_child=-2 2 -4
leaf_value=-6.0105063194036488 5.8405207467079165 -0.70940852871496385 3.8721995919579415
leaf_weight=20 20 219 41
leaf_count=20 20 219 41
internal_value=1.34259e-08 -0.41718 0.0130758
internal_weight=300 280 260
internal_count=300 280 260
is_linear=0
shrinkage=0.1


Tree=28
num_leaves=5
num_cat=0
split_feature=6 3 0 5
split_gain=66207 71935.2 67736.9 50316.8
threshold=1.1619474211381926 0.42027340694144677 0.092050267780656433 -0.1415637870309561
decision_type=10 10 10 8
left_child=1 2 -1 -3
right_child=-2 3 -4 -5
leaf_value=-2.7400334937068132 5.1554591510606853 -1.0370696296691895 0.93026897714632328 4.6818369185924533
leaf_weight=130 23 25 82 40
leaf_count=130 23 25 82 40
internal_value=-5.26508e-09 -0.428071 -1.32039 2.48226
internal_weight=300 277 212 65
internal_count=300 277 212 65
is_linear=0
shrinkage=0.1


Tree=29
num_leaves=4
num_cat=0
split_feature=4 3 6
split_gain=61743.5 62040 53524.4
threshold=-1.2174423863394161 -1.2721176963621386 -0.54171880491423507
decision_type=8 8 8
left_child=-1 -2 -3
right_child=1 2 -4
leaf_value=-4.5617806527349689 -4.9105038595199595 -1.705473158105475 1.6948542344383897
leaf_weight=27 20 61 192
leaf_count=27 20 61 192
internal_value=-1.48217e-08 0.451165 0.875012
internal_weight=300 273 253
internal_count=300 273 253
is_linear=0
shrinkage=0.1


Tree=30
num_leaves=7
num_cat=0
split_feature=4 3 7 7 0 0
split_gain=59704.8 48107.2 50945.6 29015.4 37349.3 23760.1
threshold=0.44382071976977583 -0.20348558181016144 -0.60290342001865482 -1.2569590415678664 0.74686013965730258 -0.72121674715762196
decision_type=10 8 8 10 8 10
left_child=1 5 -3 -2 -5 -1
right_child=3 2 -4 4 -6 -7
leaf_value=-5.5241138038635258 -0.3988560380935669 3.4865111259051731 -0.84150912368395303 1.5409366303874601 7.0029465675354006 -1.612693681658768
leaf_weight=25 25 35 122 31 21 41
leaf_count=25 25 35 122 31 21 41
internal_value=9.26852e-09 -0.828966 0.123336 2.40077 3.74675 -3.09429
internal_weight=300 223 157 77 52 66
internal_count=300 223 157 77 52 66
is_linear=0
shrinkage=0.1


Tree=31
num_leaves=7
num_cat=0
split_feature=4 8 0 6 2 0
split_gain=54819.9 91134.9 73083 36233.7 38055.7 19938.9
threshold=-0.22690177231129002 -0.79110714688188111 0.76908915948127177 0.22744529697767771 0.23650425007799145 0.15671413723997527
decision_type=8 8 10 8 10 8
left_child=3 -2 -3 5 -5 -1
right_child=1 2 -4 4 -6 -7
leaf_value=-6.4887325024604792 -4.1480283441082122 0.88126348441646951 6.5188885300247765 2.5870044241348906 -3.3192971047759059 -2.1714987081030142
leaf_weight=20 31 155 27 24 20 23
leaf_count=20 31 155 27 24 20 23
internal_value=-1.508e-08 0.863929 1.71761 -2.11514 -0.0976781 -4.17951
internal_weight=300 213 182 87 44 43
internal_count=300 213 182 87 44 43
is_linear=0
shrinkage=0.1


Tree=32
num_leaves=4
num_cat=0
split_feature=3 6 0
split_gain=50839.7 53155.7 45522.7
threshold=0.94479994761693953 1.1619474211381926 0.092050267780656433
decision_type=10 10 10
left_child=1 2 -1
right_child=-2 -3 -4
leaf_value=-1.9154630150210548 3.7673276271671057 4.380162685258048 0.88648822102495428
leaf_weight=154 32 21 93
leaf_count=154 32 21 93
internal_value=2.33948e-09 -0.44983 -0.860477
internal_weight=300 268 247
internal_count=300 268 247
is_linear=0
shrinkage=0.1


Tree=33
num_leaves=5
num_cat=0
split_feature=6 3 8 8
split_gain=49741.7 65653.6 50328.9 28577.3
threshold=-1.4806901807932951 0.55744914242808641 1.2607171510322226 0.35463695732763106
decision_type=8 10 10 8
left_child=-1 2 -2 -3
right_child=1 3 -4 -5
leaf_value=-4.6934500796454293 -0.8929125104154565 0.925993751961252 3.9495703654984631 5.6460739608468682
leaf_weight=21 203 23 24 29
leaf_count=21 203 23 24 29
internal_value=-4.51754e-09 0.35327 -0.380932 3.55835
internal_weight=300 279 227 52
internal_count=300 279 227 52
is_linear=0
shrinkage=0.1


Tree=34
num_leaves=5
num_cat=0
split_feature=4 3 7 4
split_gain=47636.9 42609.6 49329.6 25530
threshold=1.4577268573389623 -0.20348558181016144 -0.60290342001865482 0.17319969968616453
decision_type=10 8 8 8
left_child=1 3 -3 -1
right_child=-2 2 -4 -5
leaf_value=-4.4513817153871065 4.7149269312620161 3.4147412170063371 -0.38465671484766445 -0.84804819424947109
leaf_weight=32 20 44 153 51
leaf_count=32 20 44 153 51
internal_value=6.67572e-09 -0.33678 0.46394 -2.23729
internal_weight=300 280 197 83
internal_count=300 280 197 83
is_linear=0
shrinkage=0.1


Tree=35
num_leaves=5
num_cat=0
split_feature=6 3 4 5
split_gain=41237.9 50529.5 43562.7 28217.3
threshold=-1.4806901807932951 0.42027340694144677 -0.22690177231129002 -0.1415637870309561
decision_type=8 10 8 8
left_child=-1 2 -2 -3
right_child=1 3 -4 -5
leaf_value=-4.273465999322279 -2.5428068648851836 -0.091712398529052733 0.5384977323886676 4.5487852146751004
leaf_weight=21 65 20 156 38
leaf_count=21 65 20 156 38
internal_value=1.41213e-08 0.321659 -0.367768 2.94861
internal_weight=300 279 221 58
internal_count=300 279 221 58
is_linear=0
shrinkage=0.1


Tree=36
num_leaves=7
num_cat=0
split_feature=0 6 8 9 4 2
split_gain=38069.2 60358.3 50818.9 41548.3 36565.1 24291.8
threshold=-0.57448661313185545 -0.44334835004146828 -0.61599024664634461 -0.49461092139998436 0.1073810250233565 0.48904975379764687
decision_type=8 8 8 10 8 8
left_child=1 -1 5 -3 -4 -2
right_child=2 3 4 -5 -6 -7
leaf_value=-6.5622635637010847 -0.32022975591512831 -3.2949484562873845 -0.54905943747828989 3.0026461904699153 2.3447873078408792 -4.8930356752304807
leaf_weight=21 26 20 68 22 122 21
leaf_count=21 26 20 68 22 122 21
internal_value=-2.66234e-09 -2.18489 0.580794 0.0037916 1.30909 -2.3634
internal_weight=300 63 237 42 190 47
internal_count=300 63 237 42 190 47
is_linear=0
shrinkage=0.1


Tree=37
num_leaves=4
num_cat=0
split_feature=3 5 6
split_gain=37036.2 42435.2 49901.2
threshold=-1.012789910153596 0.994554618647575 0.502534316842013
decision_type=8 10 10
left_child=-1 2 -2
right_child=1 -3 -4
leaf_value=-3.008870538738039 -0.7183858280972496 3.8861287778423681 3.1624453291669492
leaf_weight=36 193 31 40
leaf_count=36 193 31 40
internal_value=3.54151e-09 0.410301 -0.0521487
internal_weight=300 264 233
internal_count=300 264 233
is_linear=0
shrinkage=0.1


Tree=38
num_leaves=4
num_cat=0
split_feature=4 0 7
split_gain=35081.7 33913.6 40072.9
threshold=1.4577268573389623 0.96377916091466043 1.2233172661330911
decision_type=10 10 10
left_child=1 2 -1
right_child=-2 -3 -4
leaf_value=-0.29691027926362085 4.0461688023805626 2.8879871241251629 -4.9636810004711158
leaf_weight=230 20 30 20
leaf_count=230 20 30 20
internal_value=1.84377e-08 -0.289012 -0.670252
internal_weight=300 280 250
internal_count=300 280 250
is_linear=0
shrinkage=0.1


Tree=39
num_leaves=5
num_cat=0
split_feature=8 0 4 5
split_gain=34064.9 34387.5 34016.4 12668.2
threshold=1.3434899338146271 -0.82079852410459908 1.0000000180025095e-35 0.62248813018518878
decision_type=10 8 8 8
left_child=1 3 -3 -1
right_child=-2 2 -4 -5
leaf_value=-4.8293940588831905 3.3212233820131853 -1.6443598086769518 0.95366671507871603 -1.2701546108722688
leaf_weight=20 28 74 158 20
leaf_count=20 28 74 158 20
internal_value=-1.18613e-08 -0.341891 0.124986 -3.04977
internal_weight=300 272 232 40
internal_count=300 272 232 40
is_linear=0
shrinkage=0.1


end of trees

feature_importances:
Column_3=38
Column_4=37
Column_6=36
Column_8=29
Column_0=25
Column_5=7
Column_7=5
Column_1=3
Column_2=2
Column_9=1

parameters:
[boosting: gbdt]
[objective: regression]
[metric: l2]
[tree_learner: serial]
[device_type: cpu]
[data_sample_strategy: bagging]
[data: ]
[valid: ]
[num_iterations: 40]
[learning_rate: 0.1]
[num_leaves: 31]
[num_threads: 16]
[seed: 42]
[deterministic: 0]
[force_col_wise: 0]
[force_row_wise: 0]
[histogram_pool_size: -1]
[max_depth: 3]
[min_data_in_leaf: 20]
[min_sum_hessian_in_leaf: 0.001]
[bagging_fraction: 1]
[pos_bagging_fraction: 1]
[neg_bagging_fraction: 1]
[bagging_freq: 0]
[bagging_seed: 400]
[bagging_by_query: 0]
[feature_fraction: 1]
[feature_fraction_bynode: 1]
[feature_fraction_seed: 30056]
[extra_trees: 0]
[extra_seed: 12879]
[early_stopping_round: 0]
[early_stopping_min_delta: 0]
[first_metric_only: 0]
[max_delta_step: 0]
[lambda_l1: 0]
[lambda_l2: 0]
[linear_lambda: 0]
[min_gain_to_split: 0]
[drop_rate: 0.1]
[max_drop: 50]
[skip_drop: 0.5]
[xgboost_dart_mode: 0]
[uniform_drop: 0]
[drop_seed: 17869]
[top_rate: 0.2]
[other_rate: 0.1]
[min_data_per_group: 100]
[max_cat_threshold: 32]
[cat_l2: 10]
[cat_smooth: 10]
[max_cat_to_onehot: 4]
[top_k: 20]
[monotone_constraints: ]
[monotone_constraints_method: basic]
[monotone_penalty: 0]
[feature_contri: ]
[forcedsplits_filename: ]
[refit_decay_rate: 0.9]
[cegb_tradeoff: 1]
[cegb_penalty_split: 0]
[cegb_penalty_feature_lazy: ]
[cegb_penalty_feature_coupled: ]
[path_smooth: 0]
[interaction_constraints: ]
[verbosity: -1]
[saved_feature_importance_type: 0]
[use_quantized_grad: 0]
[num_grad_quant_bins: 4]
[quant_train_renew_leaf: 0]
[stochastic_rounding: 1]
[linear_tree: 0]
[max_bin: 255]
[max_bin_by_feature: ]
[min_data_in_bin: 3]
[bin_construct_sample_cnt: 200000]
[data_random_seed: 175]
[is_enable_sparse: 1]
[enable_bundle: 1]
[use_missing: 1]
[zero_as_missing: 0]
[feature_pre_filter: 1]
[pre_partition: 0]
[two_round: 0]
[header: 0]
[label_column: ]
[weight_column: ]
[group_column: ]
[ignore_column: ]
[categorical_feature: ]
[forcedbins_filename: ]
[precise_float_parser: 0]
[parser_config_file: ]
[objective_seed: 16083]
[num_class: 1]
[is_unbalance: 0]
[scale_pos_weight: 1]
[sigmoid: 1]
[boost_from_average: 1]
[reg_sqrt: 0]
[alpha: 0.9]
[fair_c: 1]
[poisson_max_delta_step: 0.7]
[tweedie_variance_power: 1.5]
[lambdarank_truncation_level: 30]
[lambdarank_norm: 1]
[label_gain: ]
[lambdarank_position_bias_regularization: 0]
[eval_at: ]
[multi_error_top_k: 1]
[auc_mu_weights: ]
[num_machines: 1]
[local_listen_port: 12400]
[time_out: 120]
[machine_list_filename: ]
[machines: ]
[gpu_platform_id: -1]
[gpu_device_id: -1]
[gpu_use_dp: 0]
[num_gpu: 1]

end of parameters

pandas_categorical:null
