{"learner":{"attributes":{"scikit_learn":"{\"_estimator_type\": \"regressor\"}"},"feature_names":[],"feature_types":[],"gradient_booster":{"model":{"cats":{"enc":[],"feature_segments":[],"sorted_idx":[]},"gbtree_model_param":{"num_parallel_tree":"1","num_trees":"40"},"iteration_indptr":[0,1,2,3,4,5,6,7,8,9,10,11,12,13,14,15,16,17,18,19,20,21,22,23,24,25,26,27,28,29,30,31,32,33,34,35,36,37,38,39,40],"tree_info":[0,0,0,0,0,0,0,0,0,0,0,0,0,0,0,0,0,0,0,0,0,0,0,0,0,0,0,0,0,0,0,0,0,0,0,0,0,0,0,0],"trees":[{"base_weights":[2.2645804E-6,-1.3482559E2,2.5478855E1,-1.8307822E2,-7.894472E1,-7.34345E1,6.0594368E1,-2.2656057E1,-9.519862E0,-1.1152966E1,-1.22443E0,-1.7242493E1,-2.4494853E0,3.4817379E0,1.5509879E1],"categories":[],"categories_nodes":[],"categories_segments":[],"categories_sizes":[],"default_left":[0,1,0,1,1,0,1,0,0,0,0,0,0,0,0],"id":0,"left_children":[1,3,5,7,9,11,13,-1,-1,-1,-1,-1,-1,-1,-1],"loss_changes":[1.0374309E6,1.1497406E5,8.8669156E5,7.3962E4,5.0796703E4,3.2036175E5,4.525752E5,0E0,0E0,0E0,0E0,0E0,0E0,0E0,0E0],"parents":[2147483647,0,0,1,1,2,2,3,3,4,4,5,5,6,6],"right_children":[2,4,6,8,10,12,14,-1,-1,-1,-1,-1,-1,-1,-1],"split_conditions":[-7.5241125E-1,-6.500408E-2,-3.2970273E-1,2.2947976E-1,-4.5622446E-2,-3.0366778E-1,9.482107E-1,-2.2656057E1,-9.519862E0,-1.1152966E1,-1.22443E0,-1.7242493E1,-2.4494853E0,3.4817379E0,1.5509879E1],"split_indices":[4,3,3,0,5,6,8,0,0,0,0,0,0,0,0],"split_type":[0,0,0,0,0,0,0,0,0,0,0,0,0,0,0],"sum_hessian":[3E2,4.7E1,2.53E2,2.4E1,2.3E1,6.6E1,1.87E2,1.5E1,9E0,1.5E1,8E0,2.1E1,4.5E1,1.48E2,3.9E1],"tree_param":{"num_deleted":"0","num_feature":"10","num_nodes":"15","size_leaf_vector":"1"}},{"base_weights":[-1.5034455E-1,-3.4694866E1,9.099906E1,-1.0660318E2,5.2197903E-1,-3.6867023E1,1.13129486E2,-1.8592718E1,-6.0453672E0,-9.987647E0,3.2502706E0,1.3787268E0,-9.826159E0,-2.305331E0,1.3583246E1],"categories":[],"categories_nodes":[],"categories_segments":[],"categories_sizes":[],"default_left":[1,0,0,0,0,0,0,0,0,0,0,0,0,0,0],"id":1,"left_children":[1,3,5,7,9,11,13,-1,-1,-1,-1,-1,-1,-1,-1],"loss_changes":[9.509198E5,5.5464775E5,2.3903844E5,2.5233488E5,4.784469E5,4.178343E4,2.2264588E5,0E0,0E0,0E0,0E0,0E0,0E0,0E0,0E0],"parents":[2147483647,0,0,1,1,2,2,3,3,4,4,5,5,6,6],"right_children":[2,4,6,8,10,12,14,-1,-1,-1,-1,-1,-1,-1,-1],"split_conditions":[3.707219E-1,-1.4204557E-1,-7.565178E-1,-3.6773172E-1,-7.3004806E-1,4.4454655E-1,-1.0401311E0,-1.8592718E1,-6.0453672E0,-9.987647E0,3.2502706E0,1.3787268E0,-9.826159E0,-2.305331E0,1.3583246E1],"split_indices":[4,3,8,8,4,1,3,0,0,0,0,0,0,0,0],"split_type":[0,0,0,0,0,0,0,0,0,0,0,0,0,0,0],"sum_hessian":[3E2,2.18E2,8.2E1,7.1E1,1.47E2,1.2E1,7E1,2.5E1,4.6E1,3.5E1,1.12E2,7E0,5E0,1E1,6E1],"tree_param":{"num_deleted":"0","num_feature":"10","num_nodes":"15","size_leaf_vector":"1"}},{"base_weights":[-2.3014325E-1,-3.1368647E1,8.193326E1,-6.2120064E1,4.4078068E1,4.959902E1,1.6412698E2,-7.822674E0,8.37025E0,-7.0884805E0,6.4178987E0,-3.3830125E0,7.0721054E0,-6.6976647E0,1.8932623E1],"categories":[],"categories_nodes":[],"categories_segments":[],"categories_sizes":[],"default_left":[1,1,1,1,0,0,0,0,0,0,0,0,0,0,0],"id":2,"left_children":[1,3,5,7,9,11,13,-1,-1,-1,-1,-1,-1,-1,-1],"loss_changes":[7.726622E5,5.1083856E5,2.1244625E5,3.7294756E5,1.5244434E5,1.098863E5,1.46624E5,0E0,0E0,0E0,0E0,0E0,0E0,0E0,0E0],"parents":[2147483647,0,0,1,1,2,2,3,3,4,4,5,5,6,6],"right_children":[2,4,6,8,10,12,14,-1,-1,-1,-1,-1,-1,-1,-1],"split_conditions":[3.707219E-1,2.8475556E-1,7.499958E-1,1.0787747E0,-1.0250746E0,-7.565178E-1,-1.7547243E0,-7.822674E0,8.37025E0,-7.0884805E0,6.4178987E0,-3.3830125E0,7.0721054E0,-6.6976647E0,1.8932623E1],"split_indices":[4,8,8,3,6,8,7,0,0,0,0,0,0,0,0],"split_type":[0,0,0,0,0,0,0,0,0,0,0,0,0,0,0],"sum_hessian":[3E2,2.18E2,8.2E1,1.55E2,6.3E1,6E1,2.2E1,1.4E2,1.5E1,9E0,5.4E1,1.2E1,4.8E1,2E0,2E1],"tree_param":{"num_deleted":"0","num_feature":"10","num_nodes":"15","size_leaf_vector":"1"}},{"base_weights":[-1.5463431E-1,-4.522602E1,4.9299767E1,-7.665386E1,2.4191195E1,-2.8340988E1,7.9434105E1,-1.0764051E1,8.532317E-1,-1.4720157E0,7.8626876E0,-1.2064696E1,5.3269714E-1,3.0751882E0,1.29422455E1],"categories":[],"categories_nodes":[],"categories_segments":[],"categories_sizes":[],"default_left":[0,1,0,1,1,0,0,0,0,0,0,0,0,0,0],"id":3,"left_children":[1,3,5,7,9,11,13,-1,-1,-1,-1,-1,-1,-1,-1],"loss_changes":[6.731522E5,3.4655247E5,3.3916128E5,2.8863844E5,1.07065695E5,1.2806059E5,2.4910856E5,0E0,0E0,0E0,0E0,0E0,0E0,0E0,0E0],"parents":[2147483647,0,0,1,1,2,2,3,3,4,4,5,5,6,6],"right_children":[2,4,6,8,10,12,14,-1,-1,-1,-1,-1,-1,-1,-1],"split_conditions":[3.5550982E-1,1.9118218E-1,-2.2984917E-1,3.2974985E-1,-3.2186562E-1,-3.6773172E-1,9.482107E-1,-1.0764051E1,8.532317E-1,-1.4720157E0,7.8626876E0,-1.2064696E1,5.3269714E-1,3.0751882E0,1.29422455E1],"split_indices":[6,4,3,8,3,8,8,0,0,0,0,0,0,0,0],"split_type":[0,0,0,0,0,0,0,0,0,0,0,0,0,0,0],"sum_hessian":[3E2,1.57E2,1.43E2,1.08E2,4.9E1,4E1,1.03E2,7.9E1,2.9E1,2.9E1,2E1,1E1,3E1,5.3E1,5E1],"tree_param":{"num_deleted":"0","num_feature":"10","num_nodes":"15","size_leaf_vector":"1"}},{"base_weights":[-1.3596395E-1,-1.0523723E2,1.826751E1,-1.4894186E2,-5.2775932E1,-4.869908E1,4.881003E1,-6.3315363E0,-1.877979E1,-9.919627E0,-1.3008295E0,-1.3215576E1,-9.081716E-1,-8.23114E0,6.2351985E0],"categories":[],"categories_nodes":[],"categories_segments":[],"categories_sizes":[],"default_left":[0,1,0,1,1,0,0,0,0,0,0,0,0,0,0],"id":4,"left_children":[1,3,5,7,9,11,13,-1,-1,-1,-1,-1,-1,-1,-1],"loss_changes":[5.841252E5,9.531553E4,5.280265E5,6.796006E4,3.9322227E4,2.666128E5,3.1942066E5,0E0,0E0,0E0,0E0,0E0,0E0,0E0,0E0],"parents":[2147483647,0,0,1,1,2,2,3,3,4,4,5,5,6,6],"right_children":[2,4,6,8,10,12,14,-1,-1,-1,-1,-1,-1,-1,-1],"split_conditions":[-8.262091E-1,-6.500408E-2,-2.8637233E-1,-1.1467708E0,-1.3924574E0,-8.852173E-2,-1.205844E0,-6.3315363E0,-1.877979E1,-9.919627E0,-1.3008295E0,-1.3215576E1,-9.081716E-1,-8.23114E0,6.2351985E0],"split_indices":[4,3,6,8,7,3,3,0,0,0,0,0,0,0,0],"split_type":[0,0,0,0,0,0,0,0,0,0,0,0,0,0,0],"sum_hessian":[3E2,4.4E1,2.56E2,2.3E1,2.1E1,8E1,1.76E2,8E0,1.5E1,9E0,1.2E1,2.5E1,5.5E1,1.6E1,1.6E2],"tree_param":{"num_deleted":"0","num_feature":"10","num_nodes":"15","size_leaf_vector":"1"}},{"base_weights":[-2.9662496E-1,-2.6026564E1,6.759679E1,-3.8462425E1,9.963338E1,3.9843994E1,1.3826303E2,-7.4620447E0,3.9411047E-1,-1.0037111E0,1.4735196E1,-8.81335E0,5.0371075E0,5.169801E0,2.0087475E1],"categories":[],"categories_nodes":[],"categories_segments":[],"categories_sizes":[],"default_left":[1,1,1,1,1,0,0,0,0,0,0,0,0,0,0],"id":5,"left_children":[1,3,5,7,9,11,13,-1,-1,-1,-1,-1,-1,-1,-1],"loss_changes":[5.2757425E5,3.4606112E5,1.5726944E5,3.0693962E5,1.0614542E5,8.662035E4,1.1427481E5,0E0,0E0,0E0,0E0,0E0,0E0,0E0,0E0],"parents":[2147483647,0,0,1,1,2,2,3,3,4,4,5,5,6,6],"right_children":[2,4,6,8,10,12,14,-1,-1,-1,-1,-1,-1,-1,-1],"split_conditions":[3.707219E-1,1.0793374E0,7.499958E-1,-3.4315205E-1,-1.1158003E0,-1.2826107E0,6.76629E-1,-7.4620447E0,3.9411047E-1,-1.0037111E0,1.4735196E1,-8.81335E0,5.0371075E0,5.169801E0,2.0087475E1],"split_indices":[4,3,8,8,2,8,6,0,0,0,0,0,0,0,0],"split_type":[0,0,0,0,0,0,0,0,0,0,0,0,0,0,0],"sum_hessian":[3E2,2.18E2,8.2E1,1.99E2,1.9E1,6E1,2.2E1,1.07E2,9.2E1,6E0,1.3E1,4E0,5.6E1,1E1,1.2E1],"tree_param":{"num_deleted":"0","num_feature":"10","num_nodes":"15","size_leaf_vector":"1"}},{"base_weights":[-1.7345917E-1,-6.763179E1,2.21153E1,-1.382881E2,-3.942426E1,-7.3258915E0,7.844945E1,-1.6492773E1,-2.0055695E0,-9.142741E0,-1.9849698E-1,-8.165972E0,1.686426E0,3.5691438E0,1.327336E1],"categories":[],"categories_nodes":[],"categories_segments":[],"categories_sizes":[],"default_left":[0,0,1,1,0,0,1,0,0,0,0,0,0,0,0],"id":6,"left_children":[1,3,5,7,9,11,13,-1,-1,-1,-1,-1,-1,-1,-1],"loss_changes":[4.54068E5,1.4402606E5,3.770643E5,6.2835312E4,1.0690135E5,2.710991E5,1.7630694E5,0E0,0E0,0E0,0E0,0E0,0E0,0E0,0E0],"parents":[2147483647,0,0,1,1,2,2,3,3,4,4,5,5,6,6],"right_children":[2,4,6,8,10,12,14,-1,-1,-1,-1,-1,-1,-1,-1],"split_conditions":[-4.4008142E-1,-5.9131336E-1,1.0963677E-1,2.2785154E-1,-2.8637233E-1,-4.7235814E-1,-2.2984917E-1,-1.6492773E1,-2.0055695E0,-9.142741E0,-1.9849698E-1,-8.165972E0,1.686426E0,3.5691438E0,1.327336E1],"split_indices":[8,3,4,4,6,6,3,0,0,0,0,0,0,0,0],"split_type":[0,0,0,0,0,0,0,0,0,0,0,0,0,0,0],"sum_hessian":[3E2,7.4E1,2.26E2,2E1,5.4E1,1.49E2,7.7E1,1.6E1,4E0,2.2E1,3.2E1,3.6E1,1.13E2,4.4E1,3.3E1],"tree_param":{"num_deleted":"0","num_feature":"10","num_nodes":"15","size_leaf_vector":"1"}},{"base_weights":[-2.1417451E-1,-8.444147E1,1.5703638E1,-1.2003981E2,-4.384147E1,-4.8114803E1,3.8363914E1,-1.5700226E1,-4.889592E0,-8.276319E0,-1.4970894E0,-1.1010249E1,-1.3209815E0,1.9309596E0,1.0620966E1],"categories":[],"categories_nodes":[],"categories_segments":[],"categories_sizes":[],"default_left":[0,1,0,1,1,0,1,0,0,0,0,0,0,0,0],"id":7,"left_children":[1,3,5,7,9,11,13,-1,-1,-1,-1,-1,-1,-1,-1],"loss_changes":[4.0488103E5,6.4111312E4,3.6916634E5,5.806453E4,2.5729574E4,1.4351211E5,2.4098694E5,0E0,0E0,0E0,0E0,0E0,0E0,0E0,0E0],"parents":[2147483647,0,0,1,1,2,2,3,3,4,4,5,5,6,6],"right_children":[2,4,6,8,10,12,14,-1,-1,-1,-1,-1,-1,-1,-1],"split_conditions":[-7.5241125E-1,-6.500408E-2,-3.2970273E-1,2.2947976E-1,-1.3924574E0,-1.04778886E-1,4.862452E-1,-1.5700226E1,-4.889592E0,-8.276319E0,-1.4970894E0,-1.1010249E1,-1.3209815E0,1.9309596E0,1.0620966E1],"split_indices":[4,3,3,0,7,6,6,0,0,0,0,0,0,0,0],"split_type":[0,0,0,0,0,0,0,0,0,0,0,0,0,0,0],"sum_hessian":[3E2,4.7E1,2.53E2,2.4E1,2.3E1,6.6E1,1.87E2,1.5E1,9E0,9E0,1.4E1,2.3E1,4.3E1,1.47E2,4E1],"tree_param":{"num_deleted":"0","num_feature":"10","num_nodes":"15","size_leaf_vector":"1"}},{"base_weights":[-2.9289863E-1,-1.6154842E1,7.597208E1,-2.5332127E1,9.065053E1,2.3198906E1,1.3203914E2,-3.9749563E0,3.8626645E0,-7.622913E-1,1.08441305E1,-7.611779E0,6.6731477E0,2.6371105E0,1.50910635E1],"categories":[],"categories_nodes":[],"categories_segments":[],"categories_sizes":[],"default_left":[1,1,1,1,0,1,0,0,0,0,0,0,0,0,0],"id":8,"left_children":[1,3,5,7,9,11,13,-1,-1,-1,-1,-1,-1,-1,-1],"loss_changes":[3.6535025E5,2.4734214E5,1.5079638E5,2.145454E5,3.5793875E4,1.26137766E5,4.5873125E4,0E0,0E0,0E0,0E0,0E0,0E0,0E0,0E0],"parents":[2147483647,0,0,1,1,2,2,3,3,4,4,5,5,6,6],"right_children":[2,4,6,8,10,12,14,-1,-1,-1,-1,-1,-1,-1,-1],"split_conditions":[9.482107E-1,1.1140476E0,-2.1273297E-1,7.5346303E-1,-8.0739766E-1,-1.2566875E0,-5.790671E-1,-3.9749563E0,3.8626645E0,-7.622913E-1,1.08441305E1,-7.611779E0,6.6731477E0,2.6371105E0,1.50910635E1],"split_indices":[8,6,4,4,0,7,3,0,0,0,0,0,0,0,0],"split_type":[0,0,0,0,0,0,0,0,0,0,0,0,0,0,0],"sum_hessian":[3E2,2.49E2,5.1E1,2.3E2,1.9E1,2.7E1,2.4E1,1.88E2,4.2E1,3E0,1.6E1,8E0,1.9E1,4E0,2E1],"tree_param":{"num_deleted":"0","num_feature":"10","num_nodes":"15","size_leaf_vector":"1"}},{"base_weights":[-1.7470834E-1,-5.740528E1,1.873484E1,-1.08842415E2,-3.1065407E1,6.488967E0,1.2706829E2,-1.3490831E1,-3.8157085E-1,-1.0276463E1,-3.8323936E-1,-1.2792046E1,1.4769504E0,1.5745684E1,1.47246E0],"categories":[],"categories_nodes":[],"categories_segments":[],"categories_sizes":[],"default_left":[0,0,1,1,0,0,1,0,0,0,0,0,0,0,0],"id":9,"left_children":[1,3,5,7,9,11,13,-1,-1,-1,-1,-1,-1,-1,-1],"loss_changes":[3.26819E5,9.823233E4,3.003222E5,6.792559E4,9.918803E4,2.3005064E5,7.6202625E4,0E0,0E0,0E0,0E0,0E0,0E0,0E0,0E0],"parents":[2147483647,0,0,1,1,2,2,3,3,4,4,5,5,6,6],"right_children":[2,4,6,8,10,12,14,-1,-1,-1,-1,-1,-1,-1,-1],"split_conditions":[-4.4008142E-1,-1.9602731E-1,1.0213153E0,2.2785154E-1,-7.516145E-1,-1.5965579E0,7.587252E-1,-1.3490831E1,-3.8157085E-1,-1.0276463E1,-3.8323936E-1,-1.2792046E1,1.4769504E0,1.5745684E1,1.47246E0],"split_indices":[8,3,3,4,5,6,7,0,0,0,0,0,0,0,0],"split_type":[0,0,0,0,0,0,0,0,0,0,0,0,0,0,0],"sum_hessian":[3E2,7.4E1,2.26E2,2.4E1,5E1,2.04E2,2.2E1,1.9E1,5E0,1.3E1,3.7E1,1.1E1,1.93E2,1.7E1,5E0],"tree_param":{"num_deleted":"0","num_feature":"10","num_nodes":"15","size_leaf_vector":"1"}},{"base_weights":[-2.1912843E-1,-7.1377716E1,1.3229027E1,-1.0160495E2,-3.691694E1,-3.680014E1,3.4396557E1,-1.3434054E1,-3.906751E0,-5.779337E0,4.298595E-1,-9.689064E0,-7.2027814E-1,-3.4843986E0,4.970636E0],"categories":[],"categories_nodes":[],"categories_segments":[],"categories_sizes":[],"default_left":[0,1,0,1,1,0,0,0,0,0,0,0,0,0,0],"id":10,"left_children":[1,3,5,7,9,11,13,-1,-1,-1,-1,-1,-1,-1,-1],"loss_changes":[2.8898672E5,4.6248438E4,2.7025022E5,4.5931656E4,2.0898826E4,1.3446966E5,1.9148255E5,0E0,0E0,0E0,0E0,0E0,0E0,0E0,0E0],"parents":[2147483647,0,0,1,1,2,2,3,3,4,4,5,5,6,6],"right_children":[2,4,6,8,10,12,14,-1,-1,-1,-1,-1,-1,-1,-1],"split_conditions":[-7.5241125E-1,-6.500408E-2,-2.499076E-1,2.2947976E-1,-4.5622446E-2,-1.04778886E-1,-6.3724685E-1,-1.3434054E1,-3.906751E0,-5.779337E0,4.298595E-1,-9.689064E0,-7.2027814E-1,-3.4843986E0,4.970636E0],"split_indices":[4,3,3,0,5,6,8,0,0,0,0,0,0,0,0],"split_type":[0,0,0,0,0,0,0,0,0,0,0,0,0,0,0],"sum_hessian":[3E2,4.7E1,2.53E2,2.4E1,2.3E1,7.5E1,1.78E2,1.5E1,9E0,1.5E1,8E0,2.4E1,5.1E1,3.2E1,1.46E2],"tree_param":{"num_deleted":"0","num_feature":"10","num_nodes":"15","size_leaf_vector":"1"}},{"base_weights":[-3.0224288E-1,-2.8475277E1,3.0611935E1,-9.517721E1,-7.29223E0,-9.35254E1,3.9580536E1,-1.0755805E1,8.511858E0,-3.518831E0,3.7377942E0,-1.1934733E1,-2.4955657E0,2.5935767E0,1.1674118E1],"categories":[],"categories_nodes":[],"categories_segments":[],"categories_sizes":[],"default_left":[0,0,0,1,1,1,1,0,0,0,0,0,0,0,0],"id":11,"left_children":[1,3,5,7,9,11,13,-1,-1,-1,-1,-1,-1,-1,-1],"loss_changes":[2.630265E5,2.2255206E5,1.6402252E5,9.397928E4,1.520961E5,1.4727641E4,1.3910553E5,0E0,0E0,0E0,0E0,0E0,0E0,0E0,0E0],"parents":[2147483647,0,0,1,1,2,2,3,3,4,4,5,5,6,6],"right_children":[2,4,6,8,10,12,14,-1,-1,-1,-1,-1,-1,-1,-1],"split_conditions":[3.5550982E-1,-5.657377E-1,-1.233524E0,1.7246459E0,-3.1995735E-1,7.2387326E-1,1.2210721E0,-1.0755805E1,8.511858E0,-3.518831E0,3.7377942E0,-1.1934733E1,-2.4955657E0,2.5935767E0,1.1674118E1],"split_indices":[6,0,3,3,8,4,8,0,0,0,0,0,0,0,0],"split_type":[0,0,0,0,0,0,0,0,0,0,0,0,0,0,0],"sum_hessian":[3E2,1.57E2,1.43E2,3.7E1,1.2E2,9E0,1.34E2,3.5E1,2E0,7.4E1,4.6E1,6E0,3E0,1.15E2,1.9E1],"tree_param":{"num_deleted":"0","num_feature":"10","num_nodes":"15","size_leaf_vector":"1"}},{"base_weights":[-2.792868E-1,-1.7507055E1,4.7531258E1,-2.700284E1,7.004568E1,4.217043E0,7.343545E1,-3.4768136E0,5.9090257E0,-3.3075404E-1,1.0449768E1,-3.7831562E0,7.3946633E0,3.056242E0,1.0602988E1],"categories":[],"categories_nodes":[],"categories_segments":[],"categories_sizes":[],"default_left":[1,1,0,1,1,1,0,0,0,0,0,0,0,0,0],"id":12,"left_children":[1,3,5,7,9,11,13,-1,-1,-1,-1,-1,-1,-1,-1],"loss_changes":[2.487565E5,1.8645823E5,8.9451875E4,1.3643067E5,5.5943258E4,9.36905E4,6.663059E4,0E0,0E0,0E0,0E0,0E0,0E0,0E0,0E0],"parents":[2147483647,0,0,1,1,2,2,3,3,4,4,5,5,6,6],"right_children":[2,4,6,8,10,12,14,-1,-1,-1,-1,-1,-1,-1,-1],"split_conditions":[4.1863996E-1,1.0787747E0,-7.6888385E-3,1.1140476E0,-1.1158003E0,3.3124548E-1,5.567462E-1,-3.4768136E0,5.9090257E0,-3.3075404E-1,1.0449768E1,-3.7831562E0,7.3946633E0,3.056242E0,1.0602988E1],"split_indices":[4,3,6,6,2,7,8,0,0,0,0,0,0,0,0],"split_type":[0,0,0,0,0,0,0,0,0,0,0,0,0,0,0],"sum_hessian":[3E2,2.21E2,7.9E1,2E2,2.1E1,3E1,4.9E1,1.84E2,1.6E1,7E0,1.4E1,1.9E1,1.1E1,2.2E1,2.7E1],"tree_param":{"num_deleted":"0","num_feature":"10","num_nodes":"15","size_leaf_vector":"1"}},{"base_weights":[-1.5228218E-1,-1.7299345E1,3.9607967E1,-2.463068E1,8.762234E1,-3.322353E1,6.059182E1,-7.1250567E0,-1.0453261E0,-9.517475E0,1.0900478E1,-1.3623473E1,2.8013122E0,2.968484E0,9.733205E0],"categories":[],"categories_nodes":[],"categories_segments":[],"categories_sizes":[],"default_left":[1,1,0,0,0,1,1,0,0,0,0,0,0,0,0],"id":13,"left_children":[1,3,5,7,9,11,13,-1,-1,-1,-1,-1,-1,-1,-1],"loss_changes":[2.0589842E5,1.6446275E5,1.4108705E5,1.30123234E5,6.5095594E4,1.3628566E5,7.773334E4,0E0,0E0,0E0,0E0,0E0,0E0,0E0,0E0],"parents":[2147483647,0,0,1,1,2,2,3,3,4,4,5,5,6,6],"right_children":[2,4,6,8,10,12,14,-1,-1,-1,-1,-1,-1,-1,-1],"split_conditions":[2.698422E-1,1.2875398E0,-6.430792E-1,-5.9131336E-1,-1.2566875E0,-7.985359E-1,-2.1273297E-1,-7.1250567E0,-1.0453261E0,-9.517475E0,1.0900478E1,-1.3623473E1,2.8013122E0,2.968484E0,9.733205E0],"split_indices":[8,4,0,3,7,7,4,0,0,0,0,0,0,0,0],"split_type":[0,0,0,0,0,0,0,0,0,0,0,0,0,0,0],"sum_hessian":[3E2,2.1E2,9E1,1.97E2,1.3E1,2E1,7E1,4.5E1,1.52E2,1E0,1.2E1,7E0,1.3E1,3.9E1,3.1E1],"tree_param":{"num_deleted":"0","num_feature":"10","num_nodes":"15","size_leaf_vector":"1"}},{"base_weights":[-1.5335861E-1,-8.873322E0,7.342612E1,-1.7281998E1,7.8035706E1,1.0546845E1,1.0586065E2,-3.8222268E0,1.8413261E0,1.6572073E1,4.623856E0,6.8110576E0,-2.6748838E0,1.404042E1,3.2176883E0],"categories":[],"categories_nodes":[],"categories_segments":[],"categories_sizes":[],"default_left":[1,1,0,1,0,0,1,0,0,0,0,0,0,0,0],"id":14,"left_children":[1,3,5,7,9,11,13,-1,-1,-1,-1,-1,-1,-1,-1],"loss_changes":[1.9377623E5,1.9866189E5,6.414622E4,1.8532847E5,5.9252516E4,2.7584418E4,4.893347E4,0E0,0E0,0E0,0E0,0E0,0E0,0E0,0E0],"parents":[2147483647,0,0,1,1,2,2,3,3,4,4,5,5,6,6],"right_children":[2,4,6,8,10,12,14,-1,-1,-1,-1,-1,-1,-1,-1],"split_conditions":[1.0213153E0,1.1140476E0,-2.8798386E-1,1.4045784E-1,-7.665121E-1,2.0733814E-1,6.5802085E-1,-3.8222268E0,1.8413261E0,1.6572073E1,4.623856E0,6.8110576E0,-2.6748838E0,1.404042E1,3.2176883E0],"split_indices":[3,6,8,0,9,4,7,0,0,0,0,0,0,0,0],"split_type":[0,0,0,0,0,0,0,0,0,0,0,0,0,0,0],"sum_hessian":[3E2,2.69E2,3.1E1,2.46E2,2.3E1,1.1E1,2E1,1.55E2,9.1E1,5E0,1.8E1,4E0,7E0,1.3E1,7E0],"tree_param":{"num_deleted":"0","num_feature":"10","num_nodes":"15","size_leaf_vector":"1"}},{"base_weights":[-3.1083273E-3,-5.8458504E1,1.0232285E1,-8.44639E1,-1.8426708E1,-7.5142715E1,1.8147614E1,-1.1277138E1,-3.9681935E0,-5.430164E0,2.307999E-1,-1.1349734E1,-7.1307635E-1,-2.2101922E0,3.491001E0],"categories":[],"categories_nodes":[],"categories_segments":[],"categories_sizes":[],"default_left":[0,0,0,1,0,0,0,0,0,0,0,0,0,0,0],"id":15,"left_children":[1,3,5,7,9,11,13,-1,-1,-1,-1,-1,-1,-1,-1],"loss_changes":[1.8069067E5,4.529053E4,1.7503688E5,2.9751953E4,1.4258594E4,5.6579297E4,1.5999572E5,0E0,0E0,0E0,0E0,0E0,0E0,0E0,0E0],"parents":[2147483647,0,0,1,1,2,2,3,3,4,4,5,5,6,6],"right_children":[2,4,6,8,10,12,14,-1,-1,-1,-1,-1,-1,-1,-1],"split_conditions":[-8.262091E-1,8.4359896E-1,-1.233524E0,-1.5158512E-1,-2.4225435E-1,1.7217345E0,-3.451351E-1,-1.1277138E1,-3.9681935E0,-5.430164E0,2.307999E-1,-1.1349734E1,-7.1307635E-1,-2.2101922E0,3.491001E0],"split_indices":[4,8,3,3,0,2,6,0,0,0,0,0,0,0,0],"split_type":[0,0,0,0,0,0,0,0,0,0,0,0,0,0,0],"sum_hessian":[3E2,4.4E1,2.56E2,2.6E1,1.8E1,2.1E1,2.35E2,1.5E1,1.1E1,6E0,1.2E1,1.3E1,8E0,6.9E1,1.66E2],"tree_param":{"num_deleted":"0","num_feature":"10","num_nodes":"15","size_leaf_vector":"1"}},{"base_weights":[-1.0654017E-1,-1.4000173E1,3.8449623E1,-2.0109888E1,7.1654564E1,2.4678751E1,1.075242E2,-6.2232127E0,-8.0992585E-1,-5.72005E0,9.587847E0,1.416891E0,1.3091898E1,4.976028E0,1.3740662E1],"categories":[],"categories_nodes":[],"categories_segments":[],"categories_sizes":[],"default_left":[1,1,1,0,0,1,0,0,0,0,0,0,0,0,0],"id":16,"left_children":[1,3,5,7,9,11,13,-1,-1,-1,-1,-1,-1,-1,-1],"loss_changes":[1.6177952E5,1.1761937E5,7.344381E4,1.04726195E5,5.230486E4,7.407163E4,1.560225E4,0E0,0E0,0E0,0E0,0E0,0E0,0E0,0E0],"parents":[2147483647,0,0,1,1,2,2,3,3,4,4,5,5,6,6],"right_children":[2,4,6,8,10,12,14,-1,-1,-1,-1,-1,-1,-1,-1],"split_conditions":[4.1863996E-1,1.264443E0,7.722511E-1,-5.657377E-1,-1.1940243E0,1.4875544E0,-3.1351745E-1,-6.2232127E0,-8.0992585E-1,-5.72005E0,9.587847E0,1.416891E0,1.3091898E1,4.976028E0,1.3740662E1],"split_indices":[4,3,0,0,5,6,3,0,0,0,0,0,0,0,0],"split_type":[0,0,0,0,0,0,0,0,0,0,0,0,0,0,0],"sum_hessian":[3E2,2.21E2,7.9E1,2.07E2,1.4E1,6.7E1,1.2E1,4.5E1,1.62E2,2E0,1.2E1,6.2E1,5E0,5E0,7E0],"tree_param":{"num_deleted":"0","num_feature":"10","num_nodes":"15","size_leaf_vector":"1"}},{"base_weights":[3.9811577E-3,-1.0330214E1,4.9687534E1,-3.575902E1,7.146757E0,-6.628499E1,6.0732845E1,-5.8741255E0,-5.342834E-1,-6.1583285E0,1.8903898E0,-9.459174E0,2.3471017E0,1.808668E0,8.353601E0],"categories":[],"categories_nodes":[],"categories_segments":[],"categories_sizes":[],"default_left":[1,0,0,0,0,1,0,0,0,0,0,0,0,0,0],"id":17,"left_children":[1,3,5,7,9,11,13,-1,-1,-1,-1,-1,-1,-1,-1],"loss_changes":[1.5505858E5,1.113602E5,7.0635234E4,7.09874E4,1.2156642E5,1.4923672E4,4.5167547E4,0E0,0E0,0E0,0E0,0E0,0E0,0E0,0E0],"parents":[2147483647,0,0,1,1,2,2,3,3,4,4,5,5,6,6],"right_children":[2,4,6,8,10,12,14,-1,-1,-1,-1,-1,-1,-1,-1],"split_conditions":[9.482107E-1,1.5194233E-1,-1.7737191E0,3.1485674E-1,-7.843529E-1,3.4495977E-1,1.01433985E-1,-5.8741255E0,-5.342834E-1,-6.1583285E0,1.8903898E0,-9.459174E0,2.3471017E0,1.808668E0,8.353601E0],"split_indices":[8,4,6,6,0,0,5,0,0,0,0,0,0,0,0],"split_type":[0,0,0,0,0,0,0,0,0,0,0,0,0,0,0],"sum_hessian":[3E2,2.49E2,5.1E1,1.01E2,1.48E2,4E0,4.7E1,5.7E1,4.4E1,2.1E1,1.27E2,3E0,1E0,1.7E1,3E1],"tree_param":{"num_deleted":"0","num_feature":"10","num_nodes":"15","size_leaf_vector":"1"}},{"base_weights":[-2.1752711E-2,-3.715021E1,1.2245455E1,-6.7226234E1,-9.153034E0,-3.436855E-1,5.069343E1,-8.580771E0,2.2012417E0,-4.418363E0,2.1516712E0,-4.8359904E0,1.4099866E0,-8.066564E0,5.9650846E0],"categories":[],"categories_nodes":[],"categories_segments":[],"categories_sizes":[],"default_left":[0,1,1,1,0,0,0,0,0,0,0,0,0,0,0],"id":18,"left_children":[1,3,5,7,9,11,13,-1,-1,-1,-1,-1,-1,-1,-1],"loss_changes":[1.3754914E5,6.253796E4,1.0989155E5,6.1583547E4,4.392587E4,1.1996811E5,7.070345E4,0E0,0E0,0E0,0E0,0E0,0E0,0E0,0E0],"parents":[2147483647,0,0,1,1,2,2,3,3,4,4,5,5,6,6],"right_children":[2,4,6,8,10,12,14,-1,-1,-1,-1,-1,-1,-1,-1],"split_conditions":[-4.4008142E-1,-4.4835132E-1,3.897591E-1,3.4987417E-1,7.82744E-1,-4.183818E-1,-1.8344698E0,-8.580771E0,2.2012417E0,-4.418363E0,2.1516712E0,-4.8359904E0,1.4099866E0,-8.066564E0,5.9650846E0],"split_indices":[8,5,3,0,3,0,6,0,0,0,0,0,0,0,0],"split_type":[0,0,0,0,0,0,0,0,0,0,0,0,0,0,0],"sum_hessian":[3E2,7.4E1,2.26E2,3.5E1,3.9E1,1.71E2,5.5E1,2.9E1,6E0,1.8E1,2.1E1,3.9E1,1.32E2,3E0,5.2E1],"tree_param":{"num_deleted":"0","num_feature":"10","num_nodes":"15","size_leaf_vector":"1"}},{"base_weights":[-6.666729E-2,-5.2038395E1,8.09773E0,-8.584557E1,1.2283747E1,-1.8146086E0,5.4466583E1,-9.740512E0,-1.550257E0,-3.4309483E0,5.734151E0,-1.2307748E0,3.723194E0,-1.1756052E0,6.665414E0],"categories":[],"categories_nodes":[],"categories_segments":[],"categories_sizes":[],"default_left":[0,1,1,1,0,1,0,0,0,0,0,0,0,0,0],"id":19,"left_children":[1,3,5,7,9,11,13,-1,-1,-1,-1,-1,-1,-1,-1],"loss_changes":[1.28141055E5,9.021106E4,1.2006064E5,2.0444547E4,3.3458156E4,8.8957945E4,3.7909812E4,0E0,0E0,0E0,0E0,0E0,0E0,0E0,0E0],"parents":[2147483647,0,0,1,1,2,2,3,3,4,4,5,5,6,6],"right_children":[2,4,6,8,10,12,14,-1,-1,-1,-1,-1,-1,-1,-1],"split_conditions":[-9.787919E-1,1.364939E-1,9.482107E-1,8.6702895E-1,5.5615686E-2,4.2503768E-1,-7.8622794E-1,-9.740512E0,-1.550257E0,-3.4309483E0,5.734151E0,-1.2307748E0,3.723194E0,-1.1756052E0,6.665414E0],"split_indices":[6,0,8,4,4,3,3,0,0,0,0,0,0,0,0],"split_type":[0,0,0,0,0,0,0,0,0,0,0,0,0,0,0],"sum_hessian":[3E2,4E1,2.6E2,2.6E1,1.4E1,2.15E2,4.5E1,2.2E1,4E0,7E0,7E0,1.7E2,4.5E1,7E0,3.8E1],"tree_param":{"num_deleted":"0","num_feature":"10","num_nodes":"15","size_leaf_vector":"1"}},{"base_weights":[-6.334097E-2,-6.158655E0,6.46432E1,-2.111755E1,2.1227066E1,-6.1297164E0,8.6181564E1,-4.0125017E0,1.0499414E0,-1.3959068E0,4.3744273E0,2.0906832E0,-3.1633835E0,1.0635814E1,4.3801904E-1],"categories":[],"categories_nodes":[],"categories_segments":[],"categories_sizes":[],"default_left":[1,1,0,1,0,1,1,0,0,0,0,0,0,0,0],"id":20,"left_children":[1,3,5,7,9,11,13,-1,-1,-1,-1,-1,-1,-1,-1],"loss_changes":[1.1911453E5,1.1351445E5,4.0160906E4,1.0799282E5,7.825538E4,5.4881665E3,3.2543594E4,0E0,0E0,0E0,0E0,0E0,0E0,0E0,0E0],"parents":[2147483647,0,0,1,1,2,2,3,3,4,4,5,5,6,6],"right_children":[2,4,6,8,10,12,14,-1,-1,-1,-1,-1,-1,-1,-1],"split_conditions":[1.1140476E0,8.0624826E-2,-8.0739766E-1,1.4045784E-1,-1.421355E-1,-3.2937682E-1,-2.39153E-1,-4.0125017E0,1.0499414E0,-1.3959068E0,4.3744273E0,2.0906832E0,-3.1633835E0,1.0635814E1,4.3801904E-1],"split_indices":[6,3,0,0,5,5,7,0,0,0,0,0,0,0,0],"split_type":[0,0,0,0,0,0,0,0,0,0,0,0,0,0,0],"sum_hessian":[3E2,2.75E2,2.5E1,1.78E2,9.7E1,6E0,1.9E1,1.11E2,6.7E1,3.8E1,5.9E1,3E0,3E0,1.5E1,4E0],"tree_param":{"num_deleted":"0","num_feature":"10","num_nodes":"15","size_leaf_vector":"1"}},{"base_weights":[-2.3727551E-2,-5.9704823E1,6.075157E0,-9.992711E1,-2.7800573E1,-6.079348E1,1.18658085E1,-2.0566413E0,-1.05272045E1,-3.570812E0,4.936009E0,-9.18724E0,-5.6936723E-1,-3.756158E0,2.0506434E0],"categories":[],"categories_nodes":[],"categories_segments":[],"categories_sizes":[],"default_left":[0,1,0,0,1,0,0,0,0,0,0,0,0,0,0],"id":21,"left_children":[1,3,5,7,9,11,13,-1,-1,-1,-1,-1,-1,-1,-1],"loss_changes":[1.0992313E5,3.3153297E4,1.0681773E5,2.9250625E3,1.2135132E4,3.7150633E4,1.08822375E5,0E0,0E0,0E0,0E0,0E0,0E0,0E0,0E0],"parents":[2147483647,0,0,1,1,2,2,3,3,4,4,5,5,6,6],"right_children":[2,4,6,8,10,12,14,-1,-1,-1,-1,-1,-1,-1,-1],"split_conditions":[-1.1921527E0,-1.5158512E-1,-1.233524E0,-1.5765306E0,2.0171154E0,1.7217345E0,-9.787919E-1,-2.0566413E0,-1.05272045E1,-3.570812E0,4.936009E0,-9.18724E0,-5.6936723E-1,-3.756158E0,2.0506434E0],"split_indices":[4,3,3,1,2,2,6,0,0,0,0,0,0,0,0],"split_type":[0,0,0,0,0,0,0,0,0,0,0,0,0,0,0],"sum_hessian":[3E2,2.7E1,2.73E2,1.1E1,1.6E1,2.1E1,2.52E2,1E0,1E1,1.5E1,1E0,1.3E1,8E0,3.7E1,2.15E2],"tree_param":{"num_deleted":"0","num_feature":"10","num_nodes":"15","size_leaf_vector":"1"}},{"base_weights":[-9.670603E-2,-4.514608E0,7.887933E1,-1.07643385E1,4.5429016E1,8.044412E0,1.018206E2,-1.9973129E0,1.9497118E0,1.418991E-1,8.417792E0,-2.139616E0,2.0753596E0,2.8840768E0,1.135325E1],"categories":[],"categories_nodes":[],"categories_segments":[],"categories_sizes":[],"default_left":[1,1,0,1,0,0,0,0,0,0,0,0,0,0,0],"id":22,"left_children":[1,3,5,7,9,11,13,-1,-1,-1,-1,-1,-1,-1,-1],"loss_changes":[1.0537754E5,8.97594E4,2.5181602E4,7.145063E4,5.4451445E4,2.3148752E3,6.982414E3,0E0,0E0,0E0,0E0,0E0,0E0,0E0,0E0],"parents":[2147483647,0,0,1,1,2,2,3,3,4,4,5,5,6,6],"right_children":[2,4,6,8,10,12,14,-1,-1,-1,-1,-1,-1,-1,-1],"split_conditions":[1.5621065E0,1.2590461E0,-9.0516007E-1,3.5550982E-1,1.0432752E-1,-7.843529E-1,-9.77799E-1,-1.9973129E0,1.9497118E0,1.418991E-1,8.417792E0,-2.139616E0,2.0753596E0,2.8840768E0,1.135325E1],"split_indices":[4,8,3,6,5,0,2,0,0,0,0,0,0,0,0],"split_type":[0,0,0,0,0,0,0,0,0,0,0,0,0,0,0],"sum_hessian":[3E2,2.85E2,1.5E1,2.54E2,3.1E1,4E0,1.1E1,1.95E2,5.9E1,1.5E1,1.6E1,1E0,3E0,2E0,9E0],"tree_param":{"num_deleted":"0","num_feature":"10","num_nodes":"15","size_leaf_vector":"1"}},{"base_weights":[-1.1668882E-2,-3.4037373E1,8.778353E0,-1.1371707E1,-6.115383E1,-2.8903416E1,1.8349333E1,-4.442598E0,1.2779995E0,-1.0525517E1,-3.4723976E0,-5.1810207E0,-2.8834143E-1,-1.5395068E0,3.3070009E0],"categories":[],"categories_nodes":[],"categories_segments":[],"categories_sizes":[],"default_left":[0,0,0,0,0,0,0,0,0,0,0,0,0,0,0],"id":23,"left_children":[1,3,5,7,9,11,13,-1,-1,-1,-1,-1,-1,-1,-1],"loss_changes":[9.032388E4,3.7410547E4,8.708672E4,2.8508852E4,2.898171E4,2.9056316E4,9.5883266E4,0E0,0E0,0E0,0E0,0E0,0E0,0E0,0E0],"parents":[2147483647,0,0,1,1,2,2,3,3,4,4,5,5,6,6],"right_children":[2,4,6,8,10,12,14,-1,-1,-1,-1,-1,-1,-1,-1],"split_conditions":[-6.001723E-1,5.081376E-1,-5.410202E-1,-3.0366778E-1,-2.767912E-1,2.324208E-1,-2.499076E-1,-4.442598E0,1.2779995E0,-1.0525517E1,-3.4723976E0,-5.1810207E0,-2.8834143E-1,-1.5395068E0,3.3070009E0],"split_indices":[8,2,4,6,1,6,3,0,0,0,0,0,0,0,0],"split_type":[0,0,0,0,0,0,0,0,0,0,0,0,0,0,0],"sum_hessian":[3E2,6.1E1,2.39E2,3.4E1,2.7E1,4.8E1,1.91E2,1.4E1,2E1,9E0,1.8E1,2.5E1,2.3E1,5.8E1,1.33E2],"tree_param":{"num_deleted":"0","num_feature":"10","num_nodes":"15","size_leaf_vector":"1"}},{"base_weights":[-7.981944E-2,-1.0161941E1,2.7899063E1,-6.1696305E0,-1.1618502E2,1.6669516E1,8.449215E1,-1.1748915E0,4.5931797E0,-1.5625229E1,2.6778516E-1,8.5661584E-1,9.897652E0,2.9927113E0,1.0541804E1],"categories":[],"categories_nodes":[],"categories_segments":[],"categories_sizes":[],"default_left":[1,1,1,1,1,1,0,0,0,0,0,0,0,0,0],"id":24,"left_children":[1,3,5,7,9,11,13,-1,-1,-1,-1,-1,-1,-1,-1],"loss_changes":[8.519154E4,9.325067E4,4.9432742E4,6.3037715E4,3.85185E4,4.450564E4,1.1688836E4,0E0,0E0,0E0,0E0,0E0,0E0,0E0,0E0],"parents":[2147483647,0,0,1,1,2,2,3,3,4,4,5,5,6,6],"right_children":[2,4,6,8,10,12,14,-1,-1,-1,-1,-1,-1,-1,-1],"split_conditions":[4.1863996E-1,1.425334E0,7.722511E-1,1.0787747E0,-4.1271217E-2,1.4875544E0,-1.1785041E0,-1.1748915E0,4.5931797E0,-1.5625229E1,2.6778516E-1,8.5661584E-1,9.897652E0,2.9927113E0,1.0541804E1],"split_indices":[4,7,0,3,4,6,7,0,0,0,0,0,0,0,0],"split_type":[0,0,0,0,0,0,0,0,0,0,0,0,0,0,0],"sum_hessian":[3E2,2.21E2,7.9E1,2.14E2,7E0,6.7E1,1.2E1,1.94E2,2E1,5E0,2E0,6.2E1,5E0,4E0,8E0],"tree_param":{"num_deleted":"0","num_feature":"10","num_nodes":"15","size_leaf_vector":"1"}},{"base_weights":[-3.0808432E-2,-4.042457E0,6.3265804E1,-1.4071021E1,2.0413113E1,5.836395E0,7.9257324E1,-2.316309E0,1.4791217E0,2.4422212E-2,5.0964637E0,-1.9984907E0,1.7287947E0,8.527192E0,5.337677E-2],"categories":[],"categories_nodes":[],"categories_segments":[],"categories_sizes":[],"default_left":[1,1,0,1,1,0,1,0,0,0,0,0,0,0,0],"id":25,"left_children":[1,3,5,7,9,11,13,-1,-1,-1,-1,-1,-1,-1,-1],"loss_changes":[7.6686805E4,6.993944E4,1.6068328E4,5.3350945E4,5.113135E4,1.8239679E3,6.5833594E3,0E0,0E0,0E0,0E0,0E0,0E0,0E0,0E0],"parents":[2147483647,0,0,1,1,2,2,3,3,4,4,5,5,6,6],"right_children":[2,4,6,8,10,12,14,-1,-1,-1,-1,-1,-1,-1,-1],"split_conditions":[1.5536301E0,2.8475556E-1,-9.0516007E-1,3.5550982E-1,-2.3300366E-1,-7.843529E-1,1.8941361E0,-2.316309E0,1.4791217E0,2.4422212E-2,5.0964637E0,-1.9984907E0,1.7287947E0,8.527192E0,5.337677E-2],"split_indices":[4,8,3,6,0,0,2,0,0,0,0,0,0,0,0],"split_type":[0,0,0,0,0,0,0,0,0,0,0,0,0,0,0],"sum_hessian":[3E2,2.83E2,1.7E1,2.01E2,8.2E1,4E0,1.3E1,1.53E2,4.8E1,5E1,3.2E1,1E0,3E0,1.2E1,1E0],"tree_param":{"num_deleted":"0","num_feature":"10","num_nodes":"15","size_leaf_vector":"1"}},{"base_weights":[1.41148325E-2,-3.7953808E1,5.97837E0,-6.590089E1,1.4881189E1,-1.902937E0,4.0115925E1,-7.5401216E0,-9.019208E-1,-2.7149277E0,5.505151E0,-7.9163194E-1,4.8117023E0,-4.3252072E-1,6.3860435E0],"categories":[],"categories_nodes":[],"categories_segments":[],"categories_sizes":[],"default_left":[0,1,1,1,0,1,0,0,0,0,0,0,0,0,0],"id":26,"left_children":[1,3,5,7,9,11,13,-1,-1,-1,-1,-1,-1,-1,-1],"loss_changes":[6.838847E4,6.152063E4,7.0298016E4,1.3910594E4,2.6820266E4,6.4448992E4,5.1982633E4,0E0,0E0,0E0,0E0,0E0,0E0,0E0,0E0],"parents":[2147483647,0,0,1,1,2,2,3,3,4,4,5,5,6,6],"right_children":[2,4,6,8,10,12,14,-1,-1,-1,-1,-1,-1,-1,-1],"split_conditions":[-9.787919E-1,1.364939E-1,5.9267974E-1,8.6702895E-1,5.5615686E-2,1.1140476E0,-1.421355E-1,-7.5401216E0,-9.019208E-1,-2.7149277E0,5.505151E0,-7.9163194E-1,4.8117023E0,-4.3252072E-1,6.3860435E0],"split_indices":[6,0,3,4,4,6,5,0,0,0,0,0,0,0,0],"split_type":[0,0,0,0,0,0,0,0,0,0,0,0,0,0,0],"sum_hessian":[3E2,4E1,2.6E2,2.6E1,1.4E1,2.12E2,4.8E1,2.2E1,4E0,7E0,7E0,1.9E2,2.2E1,1.7E1,3.1E1],"tree_param":{"num_deleted":"0","num_feature":"10","num_nodes":"15","size_leaf_vector":"1"}},{"base_weights":[2.7061041E-2,-5.0844322E1,4.2206626E0,-7.595046E1,-3.351395E0,-3.220152E1,1.1549512E1,-4.5264206E0,-1.1443581E1,-2.2313685E0,9.848698E-1,-7.3818526E0,-1.8958584E0,-4.265699E0,1.6286135E0],"categories":[],"categories_nodes":[],"categories_segments":[],"categories_sizes":[],"default_left":[0,0,0,0,0,0,0,0,0,0,0,0,0,0,0],"id":27,"left_children":[1,3,5,7,9,11,13,-1,-1,-1,-1,-1,-1,-1,-1],"loss_changes":[6.4428227E4,2.7169828E4,7.4846125E4,1.2534719E4,2.4724963E3,2.4503676E4,6.0518816E4,0E0,0E0,0E0,0E0,0E0,0E0,0E0,0E0],"parents":[2147483647,0,0,1,1,2,2,3,3,4,4,5,5,6,6],"right_children":[2,4,6,8,10,12,14,-1,-1,-1,-1,-1,-1,-1,-1],"split_conditions":[-1.233524E0,1.7217345E0,-7.5241125E-1,3.5681584E-1,5.3243655E-1,-1.768737E0,-1.3867052E0,-4.5264206E0,-1.1443581E1,-2.2313685E0,9.848698E-1,-7.3818526E0,-1.8958584E0,-4.265699E0,1.6286135E0],"split_indices":[3,2,4,5,8,4,6,0,0,0,0,0,0,0,0],"split_type":[0,0,0,0,0,0,0,0,0,0,0,0,0,0,0],"sum_hessian":[3E2,2.2E1,2.78E2,1.4E1,8E0,4.6E1,2.32E2,9E0,5E0,3E0,5E0,1E1,3.6E1,1.8E1,2.14E2],"tree_param":{"num_deleted":"0","num_feature":"10","num_nodes":"15","size_leaf_vector":"1"}},{"base_weights":[-7.2427176E-2,-2.7659782E1,7.054608E0,-8.114826E0,-5.2695286E1,-2.1924152E1,1.6410059E1,3.5818596E0,-1.9954569E0,-2.5754662E0,-9.591888E0,-7.5538177E0,-3.565606E-1,4.732378E0,7.3687035E-1],"categories":[],"categories_nodes":[],"categories_segments":[],"categories_sizes":[],"default_left":[0,0,0,0,0,0,0,0,0,0,0,0,0,0,0],"id":28,"left_children":[1,3,5,7,9,11,13,-1,-1,-1,-1,-1,-1,-1,-1],"loss_changes":[5.9376562E4,2.991009E4,6.5426035E4,1.9440518E4,2.8970352E4,5.780292E4,5.0520645E4,0E0,0E0,0E0,0E0,0E0,0E0,0E0,0E0],"parents":[2147483647,0,0,1,1,2,2,3,3,4,4,5,5,6,6],"right_children":[2,4,6,8,10,12,14,-1,-1,-1,-1,-1,-1,-1,-1],"split_conditions":[-6.001723E-1,5.11059E-1,-4.183818E-1,-8.7847346E-1,3.191694E-1,-7.2487843E-1,-5.991251E-1,3.5818596E0,-1.9954569E0,-2.5754662E0,-9.591888E0,-7.5538177E0,-3.565606E-1,4.732378E0,7.3687035E-1],"split_indices":[8,2,0,1,0,6,7,0,0,0,0,0,0,0,0],"split_type":[0,0,0,0,0,0,0,0,0,0,0,0,0,0,0],"sum_hessian":[3E2,6.1E1,2.39E2,3.5E1,2.6E1,5.8E1,1.81E2,7E0,2.8E1,1.7E1,9E0,1.4E1,4.4E1,4E1,1.41E2],"tree_param":{"num_deleted":"0","num_feature":"10","num_nodes":"15","size_leaf_vector":"1"}},{"base_weights":[-1.08447E-1,-3.3992708E0,5.8721806E1,-8.039717E0,3.6467194E1,1.13106985E1,7.9244064E1,-1.2229831E0,3.7274225E0,5.6217055E0,-8.654227E-1,-8.1710416E-1,2.309433E0,1.9409811E0,9.038392E0],"categories":[],"categories_nodes":[],"categories_segments":[],"categories_sizes":[],"default_left":[1,1,0,1,0,1,0,0,0,0,0,0,0,0,0],"id":29,"left_children":[1,3,5,7,9,11,13,-1,-1,-1,-1,-1,-1,-1,-1],"loss_changes":[5.847321E4,5.3202668E4,1.467143E4,4.9252598E4,2.7220758E4,1.5660986E3,5.5776562E3,0E0,0E0,0E0,0E0,0E0,0E0,0E0,0E0],"parents":[2147483647,0,0,1,1,2,2,3,3,4,4,5,5,6,6],"right_children":[2,4,6,8,10,12,14,-1,-1,-1,-1,-1,-1,-1,-1],"split_conditions":[1.5621065E0,1.0213153E0,-3.1351745E-1,1.1140476E0,7.1621954E-1,2.6965395E-1,-9.77799E-1,-1.2229831E0,3.7274225E0,5.6217055E0,-8.654227E-1,-8.1710416E-1,2.309433E0,1.9409811E0,9.038392E0],"split_indices":[4,3,3,6,2,1,2,0,0,0,0,0,0,0,0],"split_type":[0,0,0,0,0,0,0,0,0,0,0,0,0,0,0],"sum_hessian":[3E2,2.85E2,1.5E1,2.56E2,2.9E1,5E0,1E1,2.35E2,2.1E1,2E1,9E0,2E0,3E0,2E0,8E0],"tree_param":{"num_deleted":"0","num_feature":"10","num_nodes":"15","size_leaf_vector":"1"}},{"base_weights":[-3.2046612E-2,-7.8323617E0,2.1614227E1,-4.3750744E0,-9.976791E1,1.2472755E1,7.237651E1,-2.526364E0,4.845062E-1,-1.357813E1,5.514824E-1,6.5125257E-1,8.7461195E0,3.444001E-1,8.581862E0],"categories":[],"categories_nodes":[],"categories_segments":[],"categories_sizes":[],"default_left":[1,1,1,0,1,1,0,0,0,0,0,0,0,0,0],"id":30,"left_children":[1,3,5,7,9,11,13,-1,-1,-1,-1,-1,-1,-1,-1],"loss_changes":[5.0992465E4,7.012567E4,3.622063E4,4.153042E4,3.1081508E4,3.0269836E4,1.0823617E4,0E0,0E0,0E0,0E0,0E0,0E0,0E0,0E0],"parents":[2147483647,0,0,1,1,2,2,3,3,4,4,5,5,6,6],"right_children":[2,4,6,8,10,12,14,-1,-1,-1,-1,-1,-1,-1,-1],"split_conditions":[4.1863996E-1,1.425334E0,8.284581E-1,-1.9602731E-1,-4.1271217E-2,1.7552041E0,-9.0516007E-1,-2.526364E0,4.845062E-1,-1.357813E1,5.514824E-1,6.5125257E-1,8.7461195E0,3.444001E-1,8.581862E0],"split_indices":[4,7,0,3,4,8,3,0,0,0,0,0,0,0,0],"split_type":[0,0,0,0,0,0,0,0,0,0,0,0,0,0,0],"sum_hessian":[3E2,2.21E2,7.9E1,2.14E2,7E0,6.8E1,1.1E1,6.5E1,1.49E2,5E0,2E0,6.4E1,4E0,2E0,9E0],"tree_param":{"num_deleted":"0","num_feature":"10","num_nodes":"15","size_leaf_vector":"1"}},{"base_weights":[-1.8026825E-2,-1.9337658E1,8.183788E0,-2.4021946E1,5.0246025E1,-3.2615875E1,1.5351774E1,-7.2481017E0,-1.7329674E0,1.7983726E0,7.651375E0,-7.6217227E0,-1.2240689E0,6.415867E-1,5.523355E0],"categories":[],"categories_nodes":[],"categories_segments":[],"categories_sizes":[],"default_left":[0,1,0,0,1,1,1,0,0,0,0,0,0,0,0],"id":31,"left_children":[1,3,5,7,9,11,13,-1,-1,-1,-1,-1,-1,-1,-1],"loss_changes":[4.7853527E4,3.05425E4,6.2500414E4,2.630954E4,3.7087412E3,2.7495387E4,6.4150375E4,0E0,0E0,0E0,0E0,0E0,0E0,0E0,0E0],"parents":[2147483647,0,0,1,1,2,2,3,3,4,4,5,5,6,6],"right_children":[2,4,6,8,10,12,14,-1,-1,-1,-1,-1,-1,-1,-1],"split_conditions":[-2.1273297E-1,1.0968492E0,-7.90975E-1,-1.768737E0,-8.4209464E-2,-1.4972737E0,6.945185E-1,-7.2481017E0,-1.7329674E0,1.7983726E0,7.651375E0,-7.6217227E0,-1.2240689E0,6.415867E-1,5.523355E0],"split_indices":[4,3,8,4,1,0,0,0,0,0,0,0,0,0,0],"split_type":[0,0,0,0,0,0,0,0,0,0,0,0,0,0,0],"sum_hessian":[3E2,8.9E1,2.11E2,8.4E1,5E0,3.1E1,1.8E2,9E0,7.5E1,3E0,2E0,9E0,2.2E1,1.48E2,3.2E1],"tree_param":{"num_deleted":"0","num_feature":"10","num_nodes":"15","size_leaf_vector":"1"}},{"base_weights":[-2.3573134E-2,-4.2995687E0,3.483298E1,-8.177734E0,3.9613377E1,-2.834945E0,6.2737503E1,-3.676345E0,-2.6676568E-1,-7.407846E0,4.8554816E0,2.8476183E0,-4.2687116E0,1.2084575E1,9.490987E-1],"categories":[],"categories_nodes":[],"categories_segments":[],"categories_sizes":[],"default_left":[1,1,0,0,0,1,1,0,0,0,0,0,0,0,0],"id":32,"left_children":[1,3,5,7,9,11,13,-1,-1,-1,-1,-1,-1,-1,-1],"loss_changes":[4.5012754E4,4.61351E4,3.4864344E4,3.896428E4,2.596139E4,1.9932812E4,5.7640227E4,0E0,0E0,0E0,0E0,0E0,0E0,0E0,0E0],"parents":[2147483647,0,0,1,1,2,2,3,3,4,4,5,5,6,6],"right_children":[2,4,6,8,10,12,14,-1,-1,-1,-1,-1,-1,-1,-1],"split_conditions":[1.2590461E0,1.2875398E0,1.01433985E-1,-7.4612194E-1,-1.5790263E0,-6.9940425E-2,-3.778525E-1,-3.676345E0,-2.6676568E-1,-7.407846E0,4.8554816E0,2.8476183E0,-4.2687116E0,1.2084575E1,9.490987E-1],"split_indices":[8,4,5,0,8,2,7,0,0,0,0,0,0,0,0],"split_type":[0,0,0,0,0,0,0,0,0,0,0,0,0,0,0],"sum_hessian":[3E2,2.68E2,3.2E1,2.47E2,2.1E1,1.4E1,1.8E1,3.9E1,2.08E2,1E0,2E1,8E0,6E0,8E0,1E1],"tree_param":{"num_deleted":"0","num_feature":"10","num_nodes":"15","size_leaf_vector":"1"}},{"base_weights":[-4.2141713E-3,-4.2006855E1,3.4583843E0,-6.1309605E1,-5.168183E0,-2.950418E0,3.0842154E1,-3.532946E0,-9.4391575E0,-2.2719781E0,3.092243E-1,-1.3363059E0,1.5275887E0,8.36108E0,1.6625938E0],"categories":[],"categories_nodes":[],"categories_segments":[],"categories_sizes":[],"default_left":[0,0,1,0,0,1,0,0,0,0,0,0,0,0,0],"id":33,"left_children":[1,3,5,7,9,11,13,-1,-1,-1,-1,-1,-1,-1,-1],"loss_changes":[4.39222E4,1.6038156E4,4.9054707E4,9.557309E3,1.3751083E3,4.328509E4,3.8368934E4,0E0,0E0,0E0,0E0,0E0,0E0,0E0,0E0],"parents":[2147483647,0,0,1,1,2,2,3,3,4,4,5,5,6,6],"right_children":[2,4,6,8,10,12,14,-1,-1,-1,-1,-1,-1,-1,-1],"split_conditions":[-1.233524E0,1.7217345E0,4.862452E-1,3.5681584E-1,-3.7389994E-1,1.4045784E-1,-7.4029565E-1,-3.532946E0,-9.4391575E0,-2.2719781E0,3.092243E-1,-1.3363059E0,1.5275887E0,8.36108E0,1.6625938E0],"split_indices":[3,2,6,5,6,0,7,0,0,0,0,0,0,0,0],"split_type":[0,0,0,0,0,0,0,0,0,0,0,0,0,0,0],"sum_hessian":[3E2,2.2E1,2.78E2,1.4E1,8E0,2.26E2,5.2E1,9E0,5E0,2E0,6E0,1.44E2,8.2E1,1E1,4.2E1],"tree_param":{"num_deleted":"0","num_feature":"10","num_nodes":"15","size_leaf_vector":"1"}},{"base_weights":[-1.9473908E-2,-6.333715E0,2.130281E1,-1.0533339E1,3.246865E1,-7.824917E0,3.9096897E1,-2.1730363E0,6.996171E-1,6.9132648E0,-6.901061E-1,-2.8321292E0,1.6426665E0,-2.9509284E0,4.4980097E0],"categories":[],"categories_nodes":[],"categories_segments":[],"categories_sizes":[],"default_left":[1,1,0,1,1,1,0,0,0,0,0,0,0,0,0],"id":34,"left_children":[1,3,5,7,9,11,13,-1,-1,-1,-1,-1,-1,-1,-1],"loss_changes":[4.065977E4,3.8310598E4,3.6068727E4,4.156675E4,3.3676453E4,1.3886102E4,1.8683148E4,0E0,0E0,0E0,0E0,0E0,0E0,0E0,0E0],"parents":[2147483647,0,0,1,1,2,2,3,3,4,4,5,5,6,6],"right_children":[2,4,6,8,10,12,14,-1,-1,-1,-1,-1,-1,-1,-1],"split_conditions":[4.2503768E-1,1.1140476E0,-1.421355E-1,7.3143594E-2,-7.4029565E-1,-5.987257E-2,-1.8344698E0,-2.1730363E0,6.996171E-1,6.9132648E0,-6.901061E-1,-2.8321292E0,1.6426665E0,-2.9509284E0,4.4980097E0],"split_indices":[3,6,5,0,7,0,6,0,0,0,0,0,0,0,0],"split_type":[0,0,0,0,0,0,0,0,0,0,0,0,0,0,0],"sum_hessian":[3E2,2.32E2,6.8E1,2.1E2,2.2E1,2.6E1,4.2E1,1.28E2,8.2E1,1.1E1,1.1E1,1.4E1,1.2E1,3E0,3.9E1],"tree_param":{"num_deleted":"0","num_feature":"10","num_nodes":"15","size_leaf_vector":"1"}},{"base_weights":[-5.5926025E-4,-3.7761444E1,3.2593753E0,-6.355421E1,-1.1048011E1,-3.786936E1,6.767441E0,-3.1537843E0,-7.5620165E0,-3.58366E0,1.5318862E0,-5.6799617E0,-4.214596E-1,-8.333582E-1,1.7945448E0],"categories":[],"categories_nodes":[],"categories_segments":[],"categories_sizes":[],"default_left":[0,1,0,0,1,0,0,0,0,0,0,0,0,0,0],"id":35,"left_children":[1,3,5,7,9,11,13,-1,-1,-1,-1,-1,-1,-1,-1],"loss_changes":[3.7175582E4,1.5834176E4,4.036676E4,2.2507969E3,9.045743E3,1.3776664E4,4.353098E4,0E0,0E0,0E0,0E0,0E0,0E0,0E0,0E0],"parents":[2147483647,0,0,1,1,2,2,3,3,4,4,5,5,6,6],"right_children":[2,4,6,8,10,12,14,-1,-1,-1,-1,-1,-1,-1,-1],"split_conditions":[-1.4390866E0,-1.5158512E-1,-1.233524E0,-8.585448E-1,-1.032535E0,1.7217345E0,1.5433553E-1,-3.1537843E0,-7.5620165E0,-3.58366E0,1.5318862E0,-5.6799617E0,-4.214596E-1,-8.333582E-1,1.7945448E0],"split_indices":[4,3,3,3,7,2,6,0,0,0,0,0,0,0,0],"split_type":[0,0,0,0,0,0,0,0,0,0,0,0,0,0,0],"sum_hessian":[3E2,2.3E1,2.77E2,1.1E1,1.2E1,2.1E1,2.56E2,4E0,7E0,6E0,6E0,1.3E1,8E0,1.09E2,1.47E2],"tree_param":{"num_deleted":"0","num_feature":"10","num_nodes":"15","size_leaf_vector":"1"}},{"base_weights":[-5.999759E-2,-1.6430775E1,6.890144E0,-2.0325495E1,4.1482887E1,-2.6490007E1,1.275354E1,-5.95404E0,-1.4898199E0,1.4097288E0,6.416939E0,-6.283378E0,-9.53663E-1,8.545852E-1,7.1299663E0],"categories":[],"categories_nodes":[],"categories_segments":[],"categories_sizes":[],"default_left":[0,1,0,0,1,1,1,0,0,0,0,0,0,0,0],"id":36,"left_children":[1,3,5,7,9,11,13,-1,-1,-1,-1,-1,-1,-1,-1],"loss_changes":[3.4360758E4,2.1143334E4,4.1830703E4,1.7203586E4,2.823086E3,1.9117568E4,4.3978914E4,0E0,0E0,0E0,0E0,0E0,0E0,0E0,0E0],"parents":[2147483647,0,0,1,1,2,2,3,3,4,4,5,5,6,6],"right_children":[2,4,6,8,10,12,14,-1,-1,-1,-1,-1,-1,-1,-1],"split_conditions":[-2.1273297E-1,1.0968492E0,-7.90975E-1,-1.768737E0,-8.4209464E-2,-1.4972737E0,1.1875328E0,-5.95404E0,-1.4898199E0,1.4097288E0,6.416939E0,-6.283378E0,-9.53663E-1,8.545852E-1,7.1299663E0],"split_indices":[4,3,8,4,1,0,0,0,0,0,0,0,0,0,0],"split_type":[0,0,0,0,0,0,0,0,0,0,0,0,0,0,0],"sum_hessian":[3E2,8.9E1,2.11E2,8.4E1,5E0,3.1E1,1.8E2,9E0,7.5E1,3E0,2E0,9E0,2.2E1,1.69E2,1.1E1],"tree_param":{"num_deleted":"0","num_feature":"10","num_nodes":"15","size_leaf_vector":"1"}},{"base_weights":[-5.0241888E-2,-5.966359E0,1.8178474E1,-3.3534925E0,-6.917351E1,-6.4798303E0,3.3328743E1,3.3405206E0,-8.0249923E-1,-1.8992404E0,-1.27151785E1,-1.3039626E0,5.471827E0,-2.558627E0,3.8034122E0],"categories":[],"categories_nodes":[],"categories_segments":[],"categories_sizes":[],"default_left":[1,1,0,0,0,0,0,0,0,0,0,0,0,0,0],"id":37,"left_children":[1,3,5,7,9,11,13,-1,-1,-1,-1,-1,-1,-1,-1],"loss_changes":[3.2569271E4,3.742265E4,2.786088E4,3.8046094E4,2.3769812E4,1.2355469E4,1.3725152E4,0E0,0E0,0E0,0E0,0E0,0E0,0E0,0E0],"parents":[2147483647,0,0,1,1,2,2,3,3,4,4,5,5,6,6],"right_children":[2,4,6,8,10,12,14,-1,-1,-1,-1,-1,-1,-1,-1],"split_conditions":[3.897591E-1,1.4619756E0,-1.421355E-1,-9.509418E-1,1.1713934E0,2.5108113E0,-1.8344698E0,3.3405206E0,-8.0249923E-1,-1.8992404E0,-1.27151785E1,-1.3039626E0,5.471827E0,-2.558627E0,3.8034122E0],"split_indices":[3,7,5,5,4,3,6,0,0,0,0,0,0,0,0],"split_type":[0,0,0,0,0,0,0,0,0,0,0,0,0,0,0],"sum_hessian":[3E2,2.27E2,7.3E1,2.19E2,8E0,2.8E1,4.5E1,2.4E1,1.95E2,5E0,3E0,2.6E1,2E0,3E0,4.2E1],"tree_param":{"num_deleted":"0","num_feature":"10","num_nodes":"15","size_leaf_vector":"1"}},{"base_weights":[-6.735587E-2,-2.635728E0,4.045959E1,-2.7179354E-1,-5.189376E1,2.573002E0,5.483343E1,-3.8610226E-1,3.1143668E0,-1.0936514E1,-2.3035069E-1,-1.0602368E0,1.1811279E0,5.972141E0,-1.9111633E-1],"categories":[],"categories_nodes":[],"categories_segments":[],"categories_sizes":[],"default_left":[1,1,0,1,1,1,1,0,0,0,0,0,0,0,0],"id":38,"left_children":[1,3,5,7,9,11,13,-1,-1,-1,-1,-1,-1,-1,-1],"loss_changes":[3.143721E4,3.3055637E4,9.661275E3,3.0790227E4,3.6798336E4,8.555339E2,3.7199023E3,0E0,0E0,0E0,0E0,0E0,0E0,0E0,0E0],"parents":[2147483647,0,0,1,1,2,2,3,3,4,4,5,5,6,6],"right_children":[2,4,6,8,10,12,14,-1,-1,-1,-1,-1,-1,-1,-1],"split_conditions":[1.5536301E0,1.4222668E0,-3.1351745E-1,1.0213153E0,-1.1766391E0,2.6965395E-1,1.8941361E0,-3.8610226E-1,3.1143668E0,-1.0936514E1,-2.3035069E-1,-1.0602368E0,1.1811279E0,5.972141E0,-1.9111633E-1],"split_indices":[4,7,3,3,4,1,2,0,0,0,0,0,0,0,0],"split_type":[0,0,0,0,0,0,0,0,0,0,0,0,0,0,0],"sum_hessian":[3E2,2.83E2,1.7E1,2.71E2,1.2E1,5E0,1.2E1,2.44E2,2.7E1,5E0,7E0,2E0,3E0,1.1E1,1E0],"tree_param":{"num_deleted":"0","num_feature":"10","num_nodes":"15","size_leaf_vector":"1"}},{"base_weights":[-6.904697E-2,-2.5456656E1,3.9193091E0,-4.3522945E1,8.75978E0,8.3622344E-2,3.5834717E1,-6.226337E0,-1.8551466E0,-2.4361992E0,4.078658E0,7.7602806E0,-1.6019408E-1,-3.4840885E-1,5.1736445E0],"categories":[],"categories_nodes":[],"categories_segments":[],"categories_sizes":[],"default_left":[0,1,1,1,0,0,0,0,0,0,0,0,0,0,0],"id":39,"left_children":[1,3,5,7,9,11,13,-1,-1,-1,-1,-1,-1,-1,-1],"loss_changes":[3.0577473E4,2.5725977E4,3.1947975E4,1.1480277E4,1.6905408E4,3.069957E4,1.768689E4,0E0,0E0,0E0,0E0,0E0,0E0,0E0,0E0],"parents":[2147483647,0,0,1,1,2,2,3,3,4,4,5,5,6,6],"right_children":[2,4,6,8,10,12,14,-1,-1,-1,-1,-1,-1,-1,-1],"split_conditions":[-9.787919E-1,1.364939E-1,1.2590461E0,-2.854035E-1,5.5615686E-2,-8.930015E-1,-3.1079897E-1,-6.226337E0,-1.8551466E0,-2.4361992E0,4.078658E0,7.7602806E0,-1.6019408E-1,-3.4840885E-1,5.1736445E0],"split_indices":[6,0,8,1,4,6,5,0,0,0,0,0,0,0,0],"split_type":[0,0,0,0,0,0,0,0,0,0,0,0,0,0,0],"sum_hessian":[3E2,4E1,2.6E2,2.6E1,1.4E1,2.33E2,2.7E1,1.4E1,1.2E1,7E0,7E0,4E0,2.29E2,8E0,1.9E1],"tree_param":{"num_deleted":"0","num_feature":"10","num_nodes":"15","size_leaf_vector":"1"}}]},"name":"gbtree"},"learner_model_param":{"base_score":"[-6.037289E0]","boost_from_average":"1","num_class":"0","num_feature":"10","num_target":"1"},"objective":{"name":"reg:squarederror","reg_loss_param":{"scale_pos_weight":"1"}}},"version":[3,3,0]}