{"learner":{"attributes":{"scikit_learn":"{\"_estimator_type\": \"classifier\"}"},"feature_names":[],"feature_types":[],"gradient_booster":{"model":{"cats":{"enc":[],"feature_segments":[],"sorted_idx":[]},"gbtree_model_param":{"num_parallel_tree":"1","num_trees":"40"},"iteration_indptr":[0,1,2,3,4,5,6,7,8,9,10,11,12,13,14,15,16,17,18,19,20,21,22,23,24,25,26,27,28,29,30,31,32,33,34,35,36,37,38,39,40],"tree_info":[0,0,0,0,0,0,0,0,0,0,0,0,0,0,0,0,0,0,0,0,0,0,0,0,0,0,0,0,0,0,0,0,0,0,0,0,0,0,0,0],"trees":[{"base_weights":[-6.120271E-8,-1.0520602E0,1.2294481E0,6.8386686E-1,-1.2827115E0,7.5736165E-1,2.0794425E0,-1.0129432E-1,1.9370459E-1,-1.3595428E-1,4.2205923E-3,3.5871718E-2,2.0438294E-1,2.3811522E-1,1.8371092E-2],"categories":[],"categories_nodes":[],"categories_segments":[],"categories_sizes":[],"default_left":[0,0,0,0,0,0,0,0,0,0,0,0,0,0,0],"id":0,"left_children":[1,3,5,7,9,11,13,-1,-1,-1,-1,-1,-1,-1,-1],"loss_changes":[9.199042E1,1.6222214E1,1.1584862E1,1.2907159E1,3.5364952E0,1.0886643E1,5.932831E0,0E0,0E0,0E0,0E0,0E0,0E0,0E0,0E0],"parents":[2147483647,0,0,1,1,2,2,3,3,4,4,5,5,6,6],"right_children":[2,4,6,8,10,12,14,-1,-1,-1,-1,-1,-1,-1,-1],"split_conditions":[-1.3633403E-1,-3.8492508E0,1.2058727E0,-3.563797E-1,2.178372E-1,2.067746E0,2.3730125E0,-1.0129432E-1,1.9370459E-1,-1.3595428E-1,4.2205923E-3,3.5871718E-2,2.0438294E-1,2.3811522E-1,1.8371092E-2],"split_indices":[5,7,5,8,7,3,3,0,0,0,0,0,0,0,0],"split_type":[0,0,0,0,0,0,0,0,0,0,0,0,0,0,0],"sum_hessian":[6.912E1,3.7324802E1,3.1795202E1,4.1472E0,3.31776E1,2.16576E1,1.0137601E1,1.8432001E0,2.3040001E0,3.1334402E1,1.8432001E0,1.75104E1,4.1472E0,8.5248E0,1.6128001E0],"tree_param":{"num_deleted":"0","num_feature":"10","num_nodes":"15","size_leaf_vector":"1"}},{"base_weights":[3.9148466E-3,-9.823486E-1,1.0908489E0,6.245292E-1,-1.2065125E0,6.799357E-1,1.8118339E0,-9.672078E-2,1.742162E-1,-1.2818627E-1,3.943808E-3,-1.2487724E-2,1.1951691E-1,2.0607029E-1,1.718035E-2],"categories":[],"categories_nodes":[],"categories_segments":[],"categories_sizes":[],"default_left":[0,0,0,0,0,0,0,0,0,0,0,0,0,0,0],"id":1,"left_children":[1,3,5,7,9,11,13,-1,-1,-1,-1,-1,-1,-1,-1],"loss_changes":[7.5816956E1,1.4110394E1,8.735352E0,1.0933211E1,3.1376839E0,9.699249E0,4.385792E0,0E0,0E0,0E0,0E0,0E0,0E0,0E0,0E0],"parents":[2147483647,0,0,1,1,2,2,3,3,4,4,5,5,6,6],"right_children":[2,4,6,8,10,12,14,-1,-1,-1,-1,-1,-1,-1,-1],"split_conditions":[-1.3633403E-1,-3.8492508E0,1.2058727E0,-3.563797E-1,2.178372E-1,-1.3991549E0,2.3730125E0,-9.672078E-2,1.742162E-1,-1.2818627E-1,3.943808E-3,-1.2487724E-2,1.1951691E-1,2.0607029E-1,1.718035E-2],"split_indices":[5,7,5,8,7,4,3,0,0,0,0,0,0,0,0],"split_type":[0,0,0,0,0,0,0,0,0,0,0,0,0,0,0],"sum_hessian":[6.872492E1,3.6081486E1,3.2643436E1,4.198593E0,3.1882893E1,2.2030556E1,1.0612882E1,1.7874676E0,2.4111257E0,3.003752E1,1.845372E0,8.894563E0,1.3135993E1,8.991891E0,1.6209912E0],"tree_param":{"num_deleted":"0","num_feature":"10","num_nodes":"15","size_leaf_vector":"1"}},{"base_weights":[5.5972906E-3,-9.223853E-1,9.7442305E-1,4.6063268E-1,-1.1650002E0,5.046382E-1,1.4852577E0,-1.0209905E-1,1.68708E-1,-1.2433565E-1,3.6852774E-3,1.0317251E-2,1.6614892E-1,1.7143218E-1,-5.1313657E-2],"categories":[],"categories_nodes":[],"categories_segments":[],"categories_sizes":[],"default_left":[0,0,0,0,0,0,0,0,0,0,0,0,0,0,0],"id":2,"left_children":[1,3,5,7,9,11,13,-1,-1,-1,-1,-1,-1,-1,-1],"loss_changes":[6.2830173E1,1.2514736E1,7.4547997E0,1.2705824E1,2.9325485E0,8.80323E0,8.141335E0,0E0,0E0,0E0,0E0,0E0,0E0,0E0,0E0],"parents":[2147483647,0,0,1,1,2,2,3,3,4,4,5,5,6,6],"right_children":[2,4,6,8,10,12,14,-1,-1,-1,-1,-1,-1,-1,-1],"split_conditions":[-1.3633403E-1,-3.563494E0,8.430826E-1,-3.563797E-1,2.178372E-1,2.0575209E0,2.1331494E0,-1.0209905E-1,1.68708E-1,-1.2433565E-1,3.6852774E-3,1.0317251E-2,1.6614892E-1,1.7143218E-1,-5.1313657E-2],"split_indices":[5,7,5,8,7,3,8,0,0,0,0,0,0,0,0],"split_type":[0,0,0,0,0,0,0,0,0,0,0,0,0,0,0],"sum_hessian":[6.788509E1,3.46979E1,3.318719E1,5.0443196E0,2.9653582E1,1.8323763E1,1.4863427E1,2.3603702E0,2.6839492E0,2.780619E1,1.84739E0,1.4411633E1,3.912131E0,1.3462456E1,1.4009718E0],"tree_param":{"num_deleted":"0","num_feature":"10","num_nodes":"15","size_leaf_vector":"1"}},{"base_weights":[6.925285E-3,-9.6043766E-1,8.001941E-1,3.7006074E-1,-1.1524926E0,2.5962588E-1,1.2068584E0,-8.842615E-2,1.3594936E-1,-1.2446735E-1,-3.5570886E-2,-1.6033355E-2,1.3554548E-1,1.3730107E-1,-3.4093253E-2],"categories":[],"categories_nodes":[],"categories_segments":[],"categories_sizes":[],"default_left":[0,0,0,0,0,0,0,0,0,0,0,0,0,0,0],"id":3,"left_children":[1,3,5,7,9,11,13,-1,-1,-1,-1,-1,-1,-1,-1],"loss_changes":[5.2696213E1,8.333408E0,7.97987E0,6.985701E0,1.561161E0,8.257249E0,5.934286E0,0E0,0E0,0E0,0E0,0E0,0E0,0E0,0E0],"parents":[2147483647,0,0,1,1,2,2,3,3,4,4,5,5,6,6],"right_children":[2,4,6,8,10,12,14,-1,-1,-1,-1,-1,-1,-1,-1],"split_conditions":[-3.394029E-1,-3.8492508E0,5.325312E-1,-3.563797E-1,-5.7264733E-1,2.0575209E0,2.0390742E0,-8.842615E-2,1.3594936E-1,-1.2446735E-1,-3.5570886E-2,-1.6033355E-2,1.3554548E-1,1.3730107E-1,-3.4093253E-2],"split_indices":[5,7,5,8,5,3,8,0,0,0,0,0,0,0,0],"split_type":[0,0,0,0,0,0,0,0,0,0,0,0,0,0,0],"sum_hessian":[6.666889E1,2.9943335E1,3.672556E1,3.660143E0,2.6283192E1,1.6470362E1,2.0255196E1,1.6608931E0,1.9992499E0,2.3053934E1,3.229257E0,1.2524304E1,3.9460583E0,1.83936E1,1.8615959E0],"tree_param":{"num_deleted":"0","num_feature":"10","num_nodes":"15","size_leaf_vector":"1"}},{"base_weights":[6.55047E-3,-9.12705E-1,7.24133E-1,3.475991E-1,-1.1008276E0,3.4451798E-1,1.219758E0,-8.498762E-2,1.270573E-1,-1.19353615E-1,-3.327277E-2,-1.7041406E-2,1.068692E-1,1.4098874E-1,-4.702508E-2],"categories":[],"categories_nodes":[],"categories_segments":[],"categories_sizes":[],"default_left":[0,0,0,0,0,0,0,0,0,0,0,0,0,0,0],"id":4,"left_children":[1,3,5,7,9,11,13,-1,-1,-1,-1,-1,-1,-1,-1],"loss_changes":[4.441468E1,7.38183E0,6.6933327E0,6.1575403E0,1.4491081E0,8.685599E0,5.8057213E0,0E0,0E0,0E0,0E0,0E0,0E0,0E0,0E0],"parents":[2147483647,0,0,1,1,2,2,3,3,4,4,5,5,6,6],"right_children":[2,4,6,8,10,12,14,-1,-1,-1,-1,-1,-1,-1,-1],"split_conditions":[-3.394029E-1,-3.8492508E0,8.430826E-1,-3.563797E-1,-5.7264733E-1,4.662067E-1,2.1331494E0,-8.498762E-2,1.270573E-1,-1.19353615E-1,-3.327277E-2,-1.7041406E-2,1.068692E-1,1.4098874E-1,-4.702508E-2],"split_indices":[5,7,5,8,5,6,8,0,0,0,0,0,0,0,0],"split_type":[0,0,0,0,0,0,0,0,0,0,0,0,0,0,0],"sum_hessian":[6.532959E1,2.8520996E1,3.6808594E1,3.594222E0,2.4926775E1,2.1803623E1,1.50049715E1,1.59894E0,1.9952822E0,2.1747948E1,3.1788268E0,1.31896515E1,8.613971E0,1.3636581E1,1.3683902E0],"tree_param":{"num_deleted":"0","num_feature":"10","num_nodes":"15","size_leaf_vector":"1"}},{"base_weights":[5.9131538E-3,-8.6987406E-1,6.5736693E-1,-1.164484E0,-3.4004066E-2,4.4790673E-1,1.4907253E-1,-2.1867909E-2,-1.206271E-1,1.2326735E-1,-1.05775654E-1,3.165933E-3,1.0890682E-1],"categories":[],"categories_nodes":[],"categories_segments":[],"categories_sizes":[],"default_left":[0,0,0,0,0,0,0,0,0,0,0,0,0],"id":5,"left_children":[1,3,5,7,9,11,-1,-1,-1,-1,-1,-1,-1],"loss_changes":[3.7574738E1,6.8790417E0,5.92371E0,5.560436E-1,1.21343155E1,8.400581E0,0E0,0E0,0E0,0E0,0E0,0E0,0E0],"parents":[2147483647,0,0,1,1,2,2,3,3,4,4,5,5],"right_children":[2,4,6,8,10,12,-1,-1,-1,-1,-1,-1,-1],"split_conditions":[-3.394029E-1,3.9228952E-1,1.5064564E0,-2.392321E0,-2.3044038E0,2.8604215E-1,1.4907253E-1,-2.1867909E-2,-1.206271E-1,1.2326735E-1,-1.05775654E-1,3.165933E-3,1.0890682E-1],"split_indices":[5,8,7,6,7,6,0,0,0,0,0,0,0],"split_type":[0,0,0,0,0,0,0,0,0,0,0,0,0],"sum_hessian":[6.385652E1,2.7095364E1,3.6761158E1,1.9743464E1,7.351901E0,3.0605978E1,6.155178E0,1.0991226E0,1.864434E1,3.1948612E0,4.1570396E0,1.9194273E1,1.1411705E1],"tree_param":{"num_deleted":"0","num_feature":"10","num_nodes":"13","size_leaf_vector":"1"}},{"base_weights":[6.240139E-3,-6.7559886E-1,7.4107414E-1,-1.0899829E0,1.4074509E-1,4.165046E-2,9.3416715E-1,-1.1583543E-1,1.1450273E-2,1.4151905E-1,-3.6117967E-2,9.531279E-2,-4.8163153E-2,1.06258646E-1,-2.480524E-3],"categories":[],"categories_nodes":[],"categories_segments":[],"categories_sizes":[],"default_left":[0,0,0,0,0,0,0,0,0,0,0,0,0,0,0],"id":6,"left_children":[1,3,5,7,9,11,13,-1,-1,-1,-1,-1,-1,-1,-1],"loss_changes":[3.2310337E1,1.1470334E1,4.152237E0,1.9694786E0,8.282977E0,4.1605444E0,3.015541E0,0E0,0E0,0E0,0E0,0E0,0E0,0E0,0E0],"parents":[2147483647,0,0,1,1,2,2,3,3,4,4,5,5,6,6],"right_children":[2,4,6,8,10,12,14,-1,-1,-1,-1,-1,-1,-1,-1],"split_conditions":[-7.4564954E-3,3.9228952E-1,-6.897278E-1,9.080737E-1,-3.3425303E0,-1.1026981E0,2.1331494E0,-1.1583543E-1,1.1450273E-2,1.4151905E-1,-3.6117967E-2,9.531279E-2,-4.8163153E-2,1.06258646E-1,-2.480524E-3],"split_indices":[5,8,1,3,7,2,8,0,0,0,0,0,0,0,0],"split_type":[0,0,0,0,0,0,0,0,0,0,0,0,0,0,0],"sum_hessian":[6.2487484E1,3.2454323E1,3.0033161E1,2.1304668E1,1.1149655E1,6.7605877E0,2.3272573E1,2.0196531E1,1.1081356E0,2.6362875E0,8.513368E0,2.166111E0,4.594477E0,2.0428831E1,2.843742E0],"tree_param":{"num_deleted":"0","num_feature":"10","num_nodes":"15","size_leaf_vector":"1"}},{"base_weights":[7.104188E-3,-9.118141E-1,4.8453534E-1,2.857954E-1,-1.0792747E0,1.9363438E-1,1.097127E0,-6.440457E-2,9.4486915E-2,-1.5487199E-2,-1.1229264E-1,-1.420167E-2,1.440179E-1,1.470186E-1,-6.0245164E-2],"categories":[],"categories_nodes":[],"categories_segments":[],"categories_sizes":[],"default_left":[0,0,0,0,0,0,0,0,0,0,0,0,0,0,0],"id":7,"left_children":[1,3,5,7,9,11,13,-1,-1,-1,-1,-1,-1,-1,-1],"loss_changes":[2.7624163E1,4.626625E0,7.1699753E0,2.7117906E0,5.967827E-1,1.2464956E1,9.206936E0,0E0,0E0,0E0,0E0,0E0,0E0,0E0,0E0],"parents":[2147483647,0,0,1,1,2,2,3,3,4,4,5,5,6,6],"right_children":[2,4,6,8,10,12,14,-1,-1,-1,-1,-1,-1,-1,-1],"split_conditions":[-6.0484076E-1,-4.02033E0,6.46804E-1,-3.563797E-1,-2.392321E0,1.0628777E0,1.1135626E0,-6.440457E-2,9.4486915E-2,-1.5487199E-2,-1.1229264E-1,-1.420167E-2,1.440179E-1,1.470186E-1,-6.0245164E-2],"split_indices":[5,7,6,8,6,9,9,0,0,0,0,0,0,0,0],"split_type":[0,0,0,0,0,0,0,0,0,0,0,0,0,0,0],"sum_hessian":[6.0958294E1,2.0531399E1,4.04269E1,2.4320095E0,1.8099388E1,2.830284E1,1.2124059E1,1.0182432E0,1.4137664E0,1.0212168E0,1.7078173E1,2.29967E1,5.306139E0,1.0052497E1,2.0715618E0],"tree_param":{"num_deleted":"0","num_feature":"10","num_nodes":"15","size_leaf_vector":"1"}},{"base_weights":[7.473339E-3,-6.9390553E-1,5.719917E-1,3.392723E-1,-9.454907E-1,6.610256E-1,-1.0069292E-1,-8.6372845E-2,1.2971567E-1,-1.0394245E-1,9.59998E-3,4.0977906E-2,1.3587646E-1],"categories":[],"categories_nodes":[],"categories_segments":[],"categories_sizes":[],"default_left":[0,0,0,0,0,0,0,0,0,0,0,0,0],"id":8,"left_children":[1,3,5,7,9,11,-1,-1,-1,-1,-1,-1,-1],"loss_changes":[2.4395014E1,7.463869E0,5.4634733E0,8.1695E0,2.2876148E0,5.2127514E0,0E0,0E0,0E0,0E0,0E0,0E0,0E0],"parents":[2147483647,0,0,1,1,2,2,3,3,4,4,5,5],"right_children":[2,4,6,8,10,12,-1,-1,-1,-1,-1,-1,-1],"split_conditions":[-1.3633403E-1,-3.3425303E0,2.1706505E0,-3.563797E-1,2.178372E-1,7.600096E-1,-1.0069292E-1,-8.6372845E-2,1.2971567E-1,-1.0394245E-1,9.59998E-3,4.0977906E-2,1.3587646E-1],"split_indices":[5,7,6,8,7,6,0,0,0,0,0,0,0],"split_type":[0,0,0,0,0,0,0,0,0,0,0,0,0],"sum_hessian":[5.961027E1,2.6480589E1,3.3129684E1,5.1172366E0,2.1363352E1,3.1911562E1,1.2181208E0,2.3119586E0,2.805278E0,1.959778E1,1.7655722E0,2.4629944E1,7.281618E0],"tree_param":{"num_deleted":"0","num_feature":"10","num_nodes":"13","size_leaf_vector":"1"}},{"base_weights":[6.3732117E-3,-5.9337145E-1,5.8257574E-1,-1.0016251E0,1.483982E-1,2.7350044E-1,1.0949568E0,-1.07251644E-1,8.225574E-3,-5.2301206E-2,9.3349166E-2,-3.1500426E-3,1.18028216E-1,1.306921E-1,-7.0256772E-3],"categories":[],"categories_nodes":[],"categories_segments":[],"categories_sizes":[],"default_left":[0,0,0,0,0,0,0,0,0,0,0,0,0,0,0],"id":9,"left_children":[1,3,5,7,9,11,13,-1,-1,-1,-1,-1,-1,-1,-1],"loss_changes":[2.0742083E1,9.056531E0,4.5474663E0,1.5559864E0,6.4517097E0,5.685692E0,2.853775E0,0E0,0E0,0E0,0E0,0E0,0E0,0E0,0E0],"parents":[2147483647,0,0,1,1,2,2,3,3,4,4,5,5,6,6],"right_children":[2,4,6,8,10,12,14,-1,-1,-1,-1,-1,-1,-1,-1],"split_conditions":[-7.4564954E-3,3.9228952E-1,1.2058727E0,9.080737E-1,1.171891E0,8.187776E-1,2.3730125E0,-1.07251644E-1,8.225574E-3,-5.2301206E-2,9.3349166E-2,-3.1500426E-3,1.18028216E-1,1.306921E-1,-7.0256772E-3],"split_indices":[5,8,5,3,6,0,3,0,0,0,0,0,0,0,0],"split_type":[0,0,0,0,0,0,0,0,0,0,0,0,0,0,0],"sum_hessian":[5.802173E1,2.8415474E1,2.9606253E1,1.810214E1,1.0313335E1,1.9423508E1,1.0182746E1,1.7000692E1,1.1014475E0,5.7390947E0,4.57424E0,1.5256996E1,4.166511E0,8.512602E0,1.6701437E0],"tree_param":{"num_deleted":"0","num_feature":"10","num_nodes":"15","size_leaf_vector":"1"}},{"base_weights":[8.311473E-3,-8.2844394E-1,3.8469294E-1,2.5246996E-1,-9.895919E-1,1.4258185E-1,1.0286344E0,-3.5881132E-2,7.465771E-2,-1.04038395E-1,-1.1424703E-2,-2.8432006E-2,8.7212645E-2,1.2347207E-1,-6.588727E-3],"categories":[],"categories_nodes":[],"categories_segments":[],"categories_sizes":[],"default_left":[0,0,0,0,0,0,0,0,0,0,0,0,0,0,0],"id":10,"left_children":[1,3,5,7,9,11,13,-1,-1,-1,-1,-1,-1,-1,-1],"loss_changes":[1.8412916E1,3.409977E0,6.1380153E0,1.2194653E0,5.921364E-1,9.733602E0,2.5296211E0,0E0,0E0,0E0,0E0,0E0,0E0,0E0,0E0],"parents":[2147483647,0,0,1,1,2,2,3,3,4,4,5,5,6,6],"right_children":[2,4,6,8,10,12,14,-1,-1,-1,-1,-1,-1,-1,-1],"split_conditions":[-6.0484076E-1,-4.02033E0,1.2058727E0,-2.3894813E0,5.052264E-2,6.46804E-1,2.3730125E0,-3.5881132E-2,7.465771E-2,-1.04038395E-1,-1.1424703E-2,-2.8432006E-2,8.7212645E-2,1.2347207E-1,-6.588727E-3],"split_indices":[5,7,5,4,7,6,3,0,0,0,0,0,0,0,0],"split_type":[0,0,0,0,0,0,0,0,0,0,0,0,0,0,0],"sum_hessian":[5.6453053E1,1.7142187E1,3.9310863E1,2.150542E0,1.4991645E1,2.9456966E1,9.853899E0,1.0836861E0,1.066856E0,1.3991259E1,1.0003864E0,1.8967928E1,1.04890375E1,8.184716E0,1.6691831E0],"tree_param":{"num_deleted":"0","num_feature":"10","num_nodes":"15","size_leaf_vector":"1"}},{"base_weights":[8.94461E-3,-7.983262E-1,3.5554472E-1,2.4355265E-1,-9.605495E-1,1.8040967E-1,1.209072E0,-3.5604525E-2,7.277175E-2,-1.5655885E-2,-1.0127985E-1,-1.3472731E-2,7.969899E-2,1.315283E-1,3.588077E-2],"categories":[],"categories_nodes":[],"categories_segments":[],"categories_sizes":[],"default_left":[0,0,0,0,0,0,0,0,0,0,0,0,0,0,0],"id":11,"left_children":[1,3,5,7,9,11,13,-1,-1,-1,-1,-1,-1,-1,-1],"loss_changes":[1.5928433E1,3.1247158E0,5.732777E0,1.1596237E0,4.7161388E-1,6.7541504E0,1.2431908E-1,0E0,0E0,0E0,0E0,0E0,0E0,0E0,0E0],"parents":[2147483647,0,0,1,1,2,2,3,3,4,4,5,5,6,6],"right_children":[2,4,6,8,10,12,14,-1,-1,-1,-1,-1,-1,-1,-1],"split_conditions":[-6.0484076E-1,-4.02033E0,1.5064564E0,2.5266364E0,-2.0510406E0,6.46804E-1,8.132052E-1,-3.5604525E-2,7.277175E-2,-1.5655885E-2,-1.0127985E-1,-1.3472731E-2,7.969899E-2,1.315283E-1,3.588077E-2],"split_indices":[5,7,7,6,6,6,1,0,0,0,0,0,0,0,0],"split_type":[0,0,0,0,0,0,0,0,0,0,0,0,0,0,0],"sum_hessian":[5.491346E1,1.6103436E1,3.8810028E1,2.1019995E0,1.4001435E1,3.3207546E1,5.6024785E0,1.0572736E0,1.0447259E0,1.0982548E0,1.2903181E1,2.2492844E1,1.0714704E1,4.494177E0,1.1083016E0],"tree_param":{"num_deleted":"0","num_feature":"10","num_nodes":"15","size_leaf_vector":"1"}},{"base_weights":[1.0482622E-2,-5.222072E-1,4.8277447E-1,-9.33277E-1,1.5723439E-1,2.176407E-1,9.5122635E-1,-1.0450923E-1,-1.3516793E-2,-4.5005415E-2,8.426491E-2,-5.601307E-3,1.1526346E-1,1.1583381E-1,-8.510461E-3],"categories":[],"categories_nodes":[],"categories_segments":[],"categories_sizes":[],"default_left":[0,0,0,0,0,0,0,0,0,0,0,0,0,0,0],"id":12,"left_children":[1,3,5,7,9,11,13,-1,-1,-1,-1,-1,-1,-1,-1],"loss_changes":[1.3996678E1,7.451693E0,3.4541168E0,1.3258381E0,4.8392396E0,5.2126083E0,2.3215714E0,0E0,0E0,0E0,0E0,0E0,0E0,0E0,0E0],"parents":[2147483647,0,0,1,1,2,2,3,3,4,4,5,5,6,6],"right_children":[2,4,6,8,10,12,14,-1,-1,-1,-1,-1,-1,-1,-1],"split_conditions":[-7.4564954E-3,3.9228952E-1,1.2058727E0,2.178372E-1,1.171891E0,2.067746E0,2.3730125E0,-1.0450923E-1,-1.3516793E-2,-4.5005415E-2,8.426491E-2,-5.601307E-3,1.1526346E-1,1.1583381E-1,-8.510461E-3],"split_indices":[5,8,5,7,6,3,3,0,0,0,0,0,0,0,0],"split_type":[0,0,0,0,0,0,0,0,0,0,0,0,0,0,0],"sum_hessian":[5.3631905E1,2.5154684E1,2.847722E1,1.5439822E1,9.714862E0,1.9120193E1,9.357026E0,1.3271082E1,2.1687398E0,5.3330646E0,4.3817973E0,1.5518373E1,3.6018205E0,7.7003703E0,1.6566559E0],"tree_param":{"num_deleted":"0","num_feature":"10","num_nodes":"15","size_leaf_vector":"1"}},{"base_weights":[1.1791135E-2,-7.494848E-1,3.1085002E-1,2.373389E-2,-9.117674E-1,1.5030679E-1,1.1217251E0,-9.724261E-2,-1.1560567E-2,-1.414861E-2,7.2266944E-2,1.2246213E-1,3.2018106E-2],"categories":[],"categories_nodes":[],"categories_segments":[],"categories_sizes":[],"default_left":[0,0,0,0,0,0,0,0,0,0,0,0,0],"id":13,"left_children":[1,3,5,-1,7,9,11,-1,-1,-1,-1,-1,-1],"loss_changes":[1.2331509E1,2.6636114E0,4.890238E0,0E0,5.3132915E-1,5.7125983E0,1.2482309E-1,0E0,0E0,0E0,0E0,0E0,0E0],"parents":[2147483647,0,0,1,1,2,2,4,4,5,5,6,6],"right_children":[2,4,6,-1,8,10,12,-1,-1,-1,-1,-1,-1],"split_conditions":[-6.0484076E-1,-4.02033E0,1.5064564E0,2.373389E-2,1.1889133E0,6.46804E-1,8.132052E-1,-9.724261E-2,-1.1560567E-2,-1.414861E-2,7.2266944E-2,1.2246213E-1,3.2018106E-2],"split_indices":[5,7,7,0,0,6,1,0,0,0,0,0,0],"split_type":[0,0,0,0,0,0,0,0,0,0,0,0,0],"sum_hessian":[5.2141502E1,1.4281295E1,3.7860207E1,1.95156E0,1.2329735E1,3.2592632E1,5.267575E0,1.1251131E1,1.078603E0,2.2085934E1,1.0506699E1,4.200516E0,1.0670586E0],"tree_param":{"num_deleted":"0","num_feature":"10","num_nodes":"13","size_leaf_vector":"1"}},{"base_weights":[1.2834558E-2,-4.8056462E-1,4.2920336E-1,-8.913965E-1,1.5435365E-1,2.377341E-1,1.1077531E-1,-1.00954376E-1,-1.2642296E-2,-4.075906E-2,7.7234E-2,-3.6277186E-2,5.994423E-2],"categories":[],"categories_nodes":[],"categories_segments":[],"categories_sizes":[],"default_left":[0,0,0,0,0,0,0,0,0,0,0,0,0],"id":14,"left_children":[1,3,5,7,9,11,-1,-1,-1,-1,-1,-1,-1],"loss_changes":[1.0888261E1,6.467991E0,3.469016E0,1.2174196E0,3.9218016E0,5.360696E0,0E0,0E0,0E0,0E0,0E0,0E0,0E0],"parents":[2147483647,0,0,1,1,2,2,3,3,4,4,5,5],"right_children":[2,4,6,8,10,12,-1,-1,-1,-1,-1,-1,-1],"split_conditions":[-7.4564954E-3,3.9228952E-1,8.187776E-1,2.178372E-1,1.171891E0,6.4760715E-1,1.1077531E-1,-1.00954376E-1,-1.2642296E-2,-4.075906E-2,7.7234E-2,-3.6277186E-2,5.994423E-2],"split_indices":[5,8,0,7,6,5,0,0,0,0,0,0,0],"split_type":[0,0,0,0,0,0,0,0,0,0,0,0,0],"sum_hessian":[5.099673E1,2.3268847E1,2.7727882E1,1.3882223E1,9.386623E0,2.2678852E1,5.0490317E0,1.1748067E1,2.134156E0,5.0945377E0,4.292085E0,8.524156E0,1.41546955E1],"tree_param":{"num_deleted":"0","num_feature":"10","num_nodes":"13","size_leaf_vector":"1"}},{"base_weights":[1.2333309E-2,-7.020036E-1,2.7006787E-1,-9.2749006E-1,4.3642767E-2,1.21002376E-1,1.0496E0,-1.2148383E-2,-1.0064866E-1,-6.793405E-2,7.3961936E-2,-2.1305267E-2,5.507931E-2,1.15185134E-1,2.8537197E-2],"categories":[],"categories_nodes":[],"categories_segments":[],"categories_sizes":[],"default_left":[0,0,0,0,0,0,0,0,0,0,0,0,0,0,0],"id":15,"left_children":[1,3,5,7,9,11,13,-1,-1,-1,-1,-1,-1,-1,-1],"loss_changes":[9.529815E0,2.3487582E0,4.289006E0,5.517626E-1,2.5870023E0,4.8599987E0,1.3782835E-1,0E0,0E0,0E0,0E0,0E0,0E0,0E0,0E0],"parents":[2147483647,0,0,1,1,2,2,3,3,4,4,5,5,6,6],"right_children":[2,4,6,8,10,12,14,-1,-1,-1,-1,-1,-1,-1,-1],"split_conditions":[-6.0484076E-1,2.2087328E0,1.5064564E0,-1.8906425E0,3.6435738E-1,1.5240693E-1,8.132052E-1,-1.2148383E-2,-1.0064866E-1,-6.793405E-2,7.3961936E-2,-2.1305267E-2,5.507931E-2,1.15185134E-1,2.8537197E-2],"split_indices":[5,6,7,6,8,2,1,0,0,0,0,0,0,0,0],"split_type":[0,0,0,0,0,0,0,0,0,0,0,0,0,0,0],"sum_hessian":[4.9731964E1,1.2728875E1,3.7003086E1,9.58612E0,3.142755E0,3.2032852E1,4.9702353E0,1.0821995E0,8.503921E0,1.553194E0,1.5895611E0,1.8307571E1,1.3725281E1,3.9363546E0,1.0338808E0],"tree_param":{"num_deleted":"0","num_feature":"10","num_nodes":"15","size_leaf_vector":"1"}},{"base_weights":[1.2299117E-2,-4.4169626E-1,3.757051E-1,-8.5249597E-1,1.5013961E-1,1.963308E-1,1.0230497E0,-9.327137E-2,4.911603E-3,-3.6865145E-2,7.054513E-2,5.5177655E-2,-3.3775367E-2,1.111845E-1,3.238186E-2],"categories":[],"categories_nodes":[],"categories_segments":[],"categories_sizes":[],"default_left":[0,0,0,0,0,0,0,0,0,0,0,0,0,0,0],"id":16,"left_children":[1,3,5,7,9,11,13,-1,-1,-1,-1,-1,-1,-1,-1],"loss_changes":[8.362312E0,5.609638E0,3.065868E0,1.0192003E0,3.1663284E0,4.603224E0,4.210949E-3,0E0,0E0,0E0,0E0,0E0,0E0,0E0,0E0],"parents":[2147483647,0,0,1,1,2,2,3,3,4,4,5,5,6,6],"right_children":[2,4,6,8,10,12,14,-1,-1,-1,-1,-1,-1,-1,-1],"split_conditions":[-7.4564954E-3,3.9228952E-1,8.187776E-1,9.080737E-1,1.171891E0,-1.758544E-1,8.155523E-1,-9.327137E-2,4.911603E-3,-3.6865145E-2,7.054513E-2,5.5177655E-2,-3.3775367E-2,1.111845E-1,3.238186E-2],"split_indices":[5,8,0,3,6,0,7,0,0,0,0,0,0,0,0],"split_type":[0,0,0,0,0,0,0,0,0,0,0,0,0,0,0],"sum_hessian":[4.867956E1,2.1546518E1,2.7133045E1,1.2458508E1,9.088011E0,2.2266462E1,4.866582E0,1.1408942E1,1.0495653E0,4.872289E0,4.215722E0,1.3349158E1,8.917304E0,3.794608E0,1.0719737E0],"tree_param":{"num_deleted":"0","num_feature":"10","num_nodes":"15","size_leaf_vector":"1"}},{"base_weights":[1.3060855E-2,-2.5914404E-1,5.8872145E-1,-6.3069755E-1,2.4697128E-1,9.637922E-1,-1.4303203E-1,-9.3085E-2,2.3444025E-2,-1.4272757E-2,9.891664E-2,-2.303703E-3,1.1402517E-1,-8.285658E-2,7.1376376E-2],"categories":[],"categories_nodes":[],"categories_segments":[],"categories_sizes":[],"default_left":[0,0,0,0,0,0,0,0,0,0,0,0,0,0,0],"id":17,"left_children":[1,3,5,7,9,11,13,-1,-1,-1,-1,-1,-1,-1,-1],"loss_changes":[7.765673E0,6.489456E0,4.5027533E0,5.3347983E0,4.473076E0,1.8796911E0,4.26832E0,0E0,0E0,0E0,0E0,0E0,0E0,0E0,0E0],"parents":[2147483647,0,0,1,1,2,2,3,3,4,4,5,5,6,6],"right_children":[2,4,6,8,10,12,14,-1,-1,-1,-1,-1,-1,-1,-1],"split_conditions":[2.7420014E-1,6.676394E-1,1.0319874E0,5.84413E-1,9.900285E-2,-7.5026935E-1,1.8700975E-1,-9.3085E-2,2.3444025E-2,-1.4272757E-2,9.891664E-2,-2.303703E-3,1.1402517E-1,-8.285658E-2,7.1376376E-2],"split_indices":[7,8,4,1,2,8,6,0,0,0,0,0,0,0,0],"split_type":[0,0,0,0,0,0,0,0,0,0,0,0,0,0,0],"sum_hessian":[4.7584717E1,3.2681084E1,1.4903632E1,1.8703882E1,1.3977201E1,9.643579E0,5.2600536E0,1.3829794E1,4.874089E0,9.694617E0,4.2825847E0,1.5947225E0,8.048856E0,2.9403715E0,2.3196821E0],"tree_param":{"num_deleted":"0","num_feature":"10","num_nodes":"15","size_leaf_vector":"1"}},{"base_weights":[1.4290131E-2,-2.1438533E-1,6.398735E-1,-3.9517102E-1,9.734251E-1,8.131748E-1,-4.778811E-2,-1.0015656E-1,9.036491E-3,1.5801176E-3,1.2391515E-1,-7.451948E-3,1.04431145E-1],"categories":[],"categories_nodes":[],"categories_segments":[],"categories_sizes":[],"default_left":[0,0,0,0,0,0,0,0,0,0,0,0,0],"id":18,"left_children":[1,3,5,7,9,11,-1,-1,-1,-1,-1,-1,-1],"loss_changes":[6.941961E0,8.02577E0,2.903751E0,9.392628E0,1.2499828E0,2.4602447E0,0E0,0E0,0E0,0E0,0E0,0E0,0E0],"parents":[2147483647,0,0,1,1,2,2,3,3,4,4,5,5],"right_children":[2,4,6,8,10,12,-1,-1,-1,-1,-1,-1,-1],"split_conditions":[8.430826E-1,2.142262E0,2.1331494E0,1.6915679E-1,5.162551E-2,-1.7886988E0,-4.778811E-2,-1.0015656E-1,9.036491E-3,1.5801176E-3,1.2391515E-1,-7.451948E-3,1.04431145E-1],"split_indices":[5,3,8,6,2,6,0,0,0,0,0,0,0],"split_type":[0,0,0,0,0,0,0,0,0,0,0,0,0],"sum_hessian":[4.6567398E1,3.458318E1,1.1984217E1,3.0594051E1,3.9891276E0,1.0611464E1,1.3727529E0,1.3131313E1,1.7462738E1,1.0966147E0,2.892513E0,2.3321795E0,8.2792845E0],"tree_param":{"num_deleted":"0","num_feature":"10","num_nodes":"13","size_leaf_vector":"1"}},{"base_weights":[1.4798469E-2,-6.2988293E-1,2.2195552E-1,-8.6173606E-1,6.554385E-2,8.9625195E-2,9.4406706E-1,-9.048237E-3,-9.560161E-2,-6.1664056E-2,6.594133E-2,-2.1838969E-2,5.1762242E-2,1.0491808E-1,2.876244E-2],"categories":[],"categories_nodes":[],"categories_segments":[],"categories_sizes":[],"default_left":[0,0,0,0,0,0,0,0,0,0,0,0,0,0,0],"id":19,"left_children":[1,3,5,7,9,11,13,-1,-1,-1,-1,-1,-1,-1,-1],"loss_changes":[6.341062E0,1.9192076E0,3.3440914E0,5.486398E-1,1.9533651E0,4.2563124E0,7.443333E-2,0E0,0E0,0E0,0E0,0E0,0E0,0E0,0E0],"parents":[2147483647,0,0,1,1,2,2,3,3,4,4,5,5,6,6],"right_children":[2,4,6,8,10,12,14,-1,-1,-1,-1,-1,-1,-1,-1],"split_conditions":[-6.0484076E-1,2.2087328E0,1.5064564E0,-1.8149248E0,3.6435738E-1,2.251915E-1,7.426824E-1,-9.048237E-3,-9.560161E-2,-6.1664056E-2,6.594133E-2,-2.1838969E-2,5.1762242E-2,1.0491808E-1,2.876244E-2],"split_indices":[5,6,7,6,8,6,1,0,0,0,0,0,0,0,0],"split_type":[0,0,0,0,0,0,0,0,0,0,0,0,0,0,0],"sum_hessian":[4.5433865E1,1.0552729E1,3.4881138E1,7.7348175E0,2.817911E0,3.0428995E1,4.452141E0,1.055998E0,6.6788197E0,1.2935972E0,1.5243136E0,1.7979506E1,1.244949E1,3.321931E0,1.13021E0],"tree_param":{"num_deleted":"0","num_feature":"10","num_nodes":"15","size_leaf_vector":"1"}},{"base_weights":[1.4647491E-2,-1.5386522E-1,7.39924E-1,-3.2585523E-1,9.6493423E-1,9.843655E-1,-2.2662615E-2,-8.208137E-2,1.9809494E-2,-2.0765783E-3,1.2190222E-1,1.9131582E-2,1.08538926E-1],"categories":[],"categories_nodes":[],"categories_segments":[],"categories_sizes":[],"default_left":[0,0,0,0,0,0,0,0,0,0,0,0,0],"id":20,"left_children":[1,3,5,7,9,11,-1,-1,-1,-1,-1,-1,-1],"loss_changes":[5.677606E0,7.5818653E0,2.291573E0,8.845947E0,1.3489232E0,3.6717653E-1,0E0,0E0,0E0,0E0,0E0,0E0,0E0],"parents":[2147483647,0,0,1,1,2,2,3,3,4,4,5,5],"right_children":[2,4,6,8,10,12,-1,-1,-1,-1,-1,-1,-1],"split_conditions":[1.2058727E0,2.142262E0,2.3730125E0,4.662067E-1,5.162551E-2,-1.4228252E0,-2.2662615E-2,-8.208137E-2,1.9809494E-2,-2.0765783E-3,1.2190222E-1,1.9131582E-2,1.08538926E-1],"split_indices":[5,3,3,6,2,6,0,0,0,0,0,0,0],"split_type":[0,0,0,0,0,0,0,0,0,0,0,0,0],"sum_hessian":[4.452311E1,3.676815E1,7.7549586E0,3.2483322E1,4.2848277E0,6.1748905E0,1.5800679E0,1.6412443E1,1.607088E1,1.0663476E0,3.21848E0,1.0246918E0,5.150199E0],"tree_param":{"num_deleted":"0","num_feature":"10","num_nodes":"13","size_leaf_vector":"1"}},{"base_weights":[1.7110154E-2,-2.2037272E-1,5.1793844E-1,-5.7217735E-1,2.401468E-1,8.731594E-1,-1.8488507E-1,-8.681103E-2,2.5448749E-2,5.355036E-2,-6.831374E-2,-1.4743141E-2,1.0096742E-1,5.0189633E-2,-9.028854E-2],"categories":[],"categories_nodes":[],"categories_segments":[],"categories_sizes":[],"default_left":[0,0,0,0,0,0,0,0,0,0,0,0,0,0,0],"id":21,"left_children":[1,3,5,7,9,11,13,-1,-1,-1,-1,-1,-1,-1,-1],"loss_changes":[5.408811E0,5.143405E0,3.810784E0,4.5785565E0,4.207086E0,1.5260367E0,3.2800581E0,0E0,0E0,0E0,0E0,0E0,0E0,0E0,0E0],"parents":[2147483647,0,0,1,1,2,2,3,3,4,4,5,5,6,6],"right_children":[2,4,6,8,10,12,14,-1,-1,-1,-1,-1,-1,-1,-1],"split_conditions":[2.7420014E-1,6.676394E-1,1.0319874E0,5.84413E-1,7.426824E-1,-1.17356E0,1.5604066E0,-8.681103E-2,2.5448749E-2,5.355036E-2,-6.831374E-2,-1.4743141E-2,1.0096742E-1,5.0189633E-2,-9.028854E-2],"split_indices":[7,8,4,1,1,9,3,0,0,0,0,0,0,0,0],"split_type":[0,0,0,0,0,0,0,0,0,0,0,0,0,0,0],"sum_hessian":[4.351618E1,2.9898762E1,1.3617417E1,1.681263E1,1.3086132E1,8.8846035E0,4.732814E0,1.234366E1,4.4689693E0,1.023271E1,2.8534222E0,1.0387675E0,7.845836E0,2.572831E0,2.159983E0],"tree_param":{"num_deleted":"0","num_feature":"10","num_nodes":"15","size_leaf_vector":"1"}},{"base_weights":[1.4724669E-2,-5.894577E-1,1.9723134E-1,2.6644055E-2,-7.57074E-1,3.6777522E-2,6.9777614E-1,-8.3582975E-2,-8.0539575E-3,-1.5290021E-2,8.876843E-2,9.379097E-2,-2.0197676E-2],"categories":[],"categories_nodes":[],"categories_segments":[],"categories_sizes":[],"default_left":[0,0,0,0,0,0,0,0,0,0,0,0,0],"id":22,"left_children":[1,3,5,-1,7,9,11,-1,-1,-1,-1,-1,-1],"loss_changes":[4.94268E0,1.6944573E0,2.7343454E0,0E0,4.1015577E-1,4.5061893E0,1.9797802E0,0E0,0E0,0E0,0E0,0E0,0E0],"parents":[2147483647,0,0,1,1,2,2,4,4,5,5,6,6],"right_children":[2,4,6,-1,8,10,12,-1,-1,-1,-1,-1,-1],"split_conditions":[-6.0484076E-1,-4.02033E0,1.2058727E0,2.6644055E-2,-3.1410682E-1,2.067746E0,2.3730125E0,-8.3582975E-2,-8.0539575E-3,-1.5290021E-2,8.876843E-2,9.379097E-2,-2.0197676E-2],"split_indices":[5,7,5,0,7,3,3,0,0,0,0,0,0],"split_type":[0,0,0,0,0,0,0,0,0,0,0,0,0],"sum_hessian":[4.277018E1,9.405104E0,3.3365078E1,1.4436767E0,7.9614267E0,2.6078781E1,7.2862954E0,6.9203653E0,1.0410615E0,2.1995924E1,4.0828567E0,5.7178583E0,1.5684376E0],"tree_param":{"num_deleted":"0","num_feature":"10","num_nodes":"13","size_leaf_vector":"1"}},{"base_weights":[1.546068E-2,-2.2949342E-1,4.2256367E-1,-3.887979E-1,7.4045867E-1,5.941231E-1,-1.8027459E-1,-9.5095865E-2,2.8136414E-3,-5.5836528E-3,1.01720825E-1,3.193007E-2,1.0571911E-1,-8.393019E-2,6.293901E-2],"categories":[],"categories_nodes":[],"categories_segments":[],"categories_sizes":[],"default_left":[0,0,0,0,0,0,0,0,0,0,0,0,0,0,0],"id":23,"left_children":[1,3,5,7,9,11,13,-1,-1,-1,-1,-1,-1,-1,-1],"loss_changes":[4.368156E0,4.5199814E0,1.8075824E0,5.6943913E0,9.8414874E-1,1.3209438E0,2.881257E0,0E0,0E0,0E0,0E0,0E0,0E0,0E0,0E0],"parents":[2147483647,0,0,1,1,2,2,3,3,4,4,5,5,6,6],"right_children":[2,4,6,8,10,12,14,-1,-1,-1,-1,-1,-1,-1,-1],"split_conditions":[5.325312E-1,2.142262E0,8.132052E-1,1.6915679E-1,5.162551E-2,2.8604215E-1,1.2389463E0,-9.5095865E-2,2.8136414E-3,-5.5836528E-3,1.01720825E-1,3.193007E-2,1.0571911E-1,-8.393019E-2,6.293901E-2],"split_indices":[5,3,1,6,2,6,1,0,0,0,0,0,0,0,0],"split_type":[0,0,0,0,0,0,0,0,0,0,0,0,0,0,0],"sum_hessian":[4.1831074E1,2.6389046E1,1.5442026E1,2.3180971E1,3.2080746E0,1.2032267E1,3.40976E0,9.325875E0,1.3855096E1,1.0332713E0,2.1748033E0,8.611206E0,3.4210608E0,1.8595626E0,1.5501972E0],"tree_param":{"num_deleted":"0","num_feature":"10","num_nodes":"15","size_leaf_vector":"1"}},{"base_weights":[1.6847271E-2,-5.4886353E-1,1.8069594E-1,-7.904107E-1,8.9794494E-2,6.5101154E-2,8.5022676E-1,-9.0066835E-2,-7.149838E-3,-5.684043E-2,6.2293567E-2,7.359617E-2,-1.1056313E-2,9.624877E-2,2.5657607E-2],"categories":[],"categories_nodes":[],"categories_segments":[],"categories_sizes":[],"default_left":[0,0,0,0,0,0,0,0,0,0,0,0,0,0,0],"id":24,"left_children":[1,3,5,7,9,11,13,-1,-1,-1,-1,-1,-1,-1,-1],"loss_changes":[3.9885857E0,1.5629623E0,2.5210657E0,4.999323E-1,1.6005424E0,3.5544372E0,7.416034E-2,0E0,0E0,0E0,0E0,0E0,0E0,0E0,0E0],"parents":[2147483647,0,0,1,1,2,2,3,3,4,4,5,5,6,6],"right_children":[2,4,6,8,10,12,14,-1,-1,-1,-1,-1,-1,-1,-1],"split_conditions":[-6.0484076E-1,2.2087328E0,1.5064564E0,-3.3355415E-1,3.6435738E-1,-2.0763237E0,5.5769104E-1,-9.0066835E-2,-7.149838E-3,-5.684043E-2,6.2293567E-2,7.359617E-2,-1.1056313E-2,9.624877E-2,2.5657607E-2],"split_indices":[5,6,7,7,8,7,1,0,0,0,0,0,0,0,0],"split_type":[0,0,0,0,0,0,0,0,0,0,0,0,0,0,0],"sum_hessian":[4.096103E1,8.671528E0,3.22895E1,6.1194687E0,2.552059E0,2.8471174E1,3.8183267E0,5.0865393E0,1.0329295E0,1.1124822E0,1.4395766E0,5.246238E0,2.3224936E1,2.6886022E0,1.1297245E0],"tree_param":{"num_deleted":"0","num_feature":"10","num_nodes":"15","size_leaf_vector":"1"}},{"base_weights":[1.7383289E-2,-1.6011629E-1,5.0524247E-1,-3.0081424E-1,7.464891E-1,1.035509E-1,1.2001243E-1,-8.639148E-2,9.352013E-3,-7.904923E-3,1.01075195E-1,-7.8326784E-2,3.9228495E-2],"categories":[],"categories_nodes":[],"categories_segments":[],"categories_sizes":[],"default_left":[0,0,0,0,0,0,0,0,0,0,0,0,0],"id":25,"left_children":[1,3,5,7,9,-1,11,-1,-1,-1,-1,-1,-1],"loss_changes":[3.6595588E0,4.18663E0,2.176968E0,6.2095957E0,1.0529037E0,0E0,2.1902087E0,0E0,0E0,0E0,0E0,0E0,0E0],"parents":[2147483647,0,0,1,1,2,2,3,3,4,4,6,6],"right_children":[2,4,6,8,10,-1,12,-1,-1,-1,-1,-1,-1],"split_conditions":[8.430826E-1,2.142262E0,3.972356E-1,1.6915679E-1,5.162551E-2,1.035509E-1,-9.9806064E-1,-8.639148E-2,9.352013E-3,-7.904923E-3,1.01075195E-1,-7.8326784E-2,3.9228495E-2],"split_indices":[5,3,8,6,2,0,1,0,0,0,0,0,0],"split_type":[0,0,0,0,0,0,0,0,0,0,0,0,0],"sum_hessian":[4.032652E1,3.0061083E1,1.0265435E1,2.6601013E1,3.460069E0,3.6092706E0,6.656164E0,1.0465582E1,1.6135431E1,1.0089741E0,2.4510949E0,1.1069645E0,5.5492E0],"tree_param":{"num_deleted":"0","num_feature":"10","num_nodes":"13","size_leaf_vector":"1"}},{"base_weights":[1.7860603E-2,-1.8029846E-1,4.3451348E-1,7.648857E-2,-8.357926E-1,7.654821E-1,-2.1619475E-1,-4.0099114E-2,1.12652265E-1,-1.0471133E-1,1.4322914E-2,-1.1756957E-2,9.029382E-2,4.5159053E-2,-8.555545E-2],"categories":[],"categories_nodes":[],"categories_segments":[],"categories_sizes":[],"default_left":[0,0,0,0,0,0,0,0,0,0,0,0,0,0,0],"id":26,"left_children":[1,3,5,7,9,11,13,-1,-1,-1,-1,-1,-1,-1,-1],"loss_changes":[3.4190943E0,4.7985077E0,3.0373206E0,1.1044056E1,1.8053403E0,1.2057734E0,2.6387758E0,0E0,0E0,0E0,0E0,0E0,0E0,0E0,0E0],"parents":[2147483647,0,0,1,1,2,2,3,3,4,4,5,5,6,6],"right_children":[2,4,6,8,10,12,14,-1,-1,-1,-1,-1,-1,-1,-1],"split_conditions":[2.7420014E-1,6.125265E-1,1.0319874E0,8.819989E-1,9.758167E-1,-1.1488131E0,1.5604066E0,-4.0099114E-2,1.12652265E-1,-1.0471133E-1,1.4322914E-2,-1.1756957E-2,9.029382E-2,4.5159053E-2,-8.555545E-2],"split_indices":[7,9,4,6,0,9,3,0,0,0,0,0,0,0,0],"split_type":[0,0,0,0,0,0,0,0,0,0,0,0,0,0,0],"sum_hessian":[3.94628E1,2.7128042E1,1.2334759E1,2.0126776E1,7.0012665E0,8.059225E0,4.2755337E0,1.42603245E1,5.8664503E0,5.701133E0,1.3001336E0,1.1050137E0,6.9542117E0,2.2349267E0,2.0406072E0],"tree_param":{"num_deleted":"0","num_feature":"10","num_nodes":"15","size_leaf_vector":"1"}},{"base_weights":[1.6964622E-2,-1.1732491E-1,6.1037713E-1,-2.5196922E-1,7.5717926E-1,8.603763E-1,-2.1975216E-2,-6.956224E-2,1.8580083E-2,9.943071E-2,1.281672E-4,1.9344633E-2,9.601321E-2],"categories":[],"categories_nodes":[],"categories_segments":[],"categories_sizes":[],"default_left":[0,0,0,0,0,0,0,0,0,0,0,0,0],"id":27,"left_children":[1,3,5,7,9,11,-1,-1,-1,-1,-1,-1,-1],"loss_changes":[3.2193594E0,4.0822964E0,1.7353015E0,5.837404E0,8.3387995E-1,2.0876169E-1,0E0,0E0,0E0,0E0,0E0,0E0,0E0],"parents":[2147483647,0,0,1,1,2,2,3,3,4,4,5,5],"right_children":[2,4,6,8,10,12,-1,-1,-1,-1,-1,-1,-1],"split_conditions":[1.2058727E0,2.142262E0,2.3730125E0,4.662067E-1,2.5131698E0,-6.5002394E-1,-2.1975216E-2,-6.956224E-2,1.8580083E-2,9.943071E-2,1.281672E-4,1.9344633E-2,9.601321E-2],"split_indices":[5,3,3,6,8,1,0,0,0,0,0,0,0],"split_type":[0,0,0,0,0,0,0,0,0,0,0,0,0],"sum_hessian":[3.8500347E1,3.204976E1,6.4505873E0,2.8390451E1,3.659306E0,4.9295754E0,1.521012E0,1.3807939E1,1.4582514E1,2.545404E0,1.113902E0,1.0238302E0,3.905745E0],"tree_param":{"num_deleted":"0","num_feature":"10","num_nodes":"13","size_leaf_vector":"1"}},{"base_weights":[1.9308252E-2,-3.4964597E-1,2.2157185E-1,2.7404636E-1,-7.2964233E-1,2.9329744E-1,-6.8933316E-2,-6.517718E-2,7.443002E-2,-1.0029258E-1,3.4558542E-2,1.1812361E-2,1.0087635E-1],"categories":[],"categories_nodes":[],"categories_segments":[],"categories_sizes":[],"default_left":[0,0,0,0,0,0,0,0,0,0,0,0,0],"id":28,"left_children":[1,3,5,7,9,11,-1,-1,-1,-1,-1,-1,-1],"loss_changes":[2.9645207E0,3.5384946E0,1.8747795E0,3.123518E0,2.99895E0,2.9430711E0,0E0,0E0,0E0,0E0,0E0,0E0,0E0],"parents":[2147483647,0,0,1,1,2,2,3,3,4,4,5,5],"right_children":[2,4,6,8,10,12,-1,-1,-1,-1,-1,-1,-1],"split_conditions":[-8.975238E-2,-2.3044038E0,2.128656E0,4.599728E-2,2.178372E-1,1.0628777E0,-6.8933316E-2,-6.517718E-2,7.443002E-2,-1.0029258E-1,3.4558542E-2,1.1812361E-2,1.0087635E-1],"split_indices":[5,7,6,8,7,9,0,0,0,0,0,0,0],"split_type":[0,0,0,0,0,0,0,0,0,0,0,0,0],"sum_hessian":[3.76869E1,1.3086613E1,2.460029E1,5.06015E0,8.026463E0,2.3433155E1,1.1671351E0,1.5744438E0,3.485706E0,6.4534707E0,1.5729922E0,1.9760193E1,3.672961E0],"tree_param":{"num_deleted":"0","num_feature":"10","num_nodes":"13","size_leaf_vector":"1"}},{"base_weights":[1.6892402E-2,-1.084033E-1,5.73081E-1,-2.3002423E-1,6.9489497E-1,8.2444185E-1,-2.1362202E-2,-7.3396645E-2,1.2796715E-2,9.328901E-2,-1.6925877E-3,1.773872E-2,9.345849E-2],"categories":[],"categories_nodes":[],"categories_segments":[],"categories_sizes":[],"default_left":[0,0,0,0,0,0,0,0,0,0,0,0,0],"id":29,"left_children":[1,3,5,7,9,11,-1,-1,-1,-1,-1,-1,-1],"loss_changes":[2.704808E0,3.2656977E0,1.586293E0,5.2105308E0,7.660942E-1,2.3405004E-1,0E0,0E0,0E0,0E0,0E0,0E0,0E0],"parents":[2147483647,0,0,1,1,2,2,3,3,4,4,5,5],"right_children":[2,4,6,8,10,12,-1,-1,-1,-1,-1,-1,-1],"split_conditions":[1.2058727E0,2.142262E0,2.3730125E0,1.6915679E-1,2.5131698E0,-1.2584085E0,-2.1362202E-2,-7.3396645E-2,1.2796715E-2,9.328901E-2,-1.6925877E-3,1.773872E-2,9.345849E-2],"split_indices":[5,3,3,6,8,6,0,0,0,0,0,0,0],"split_type":[0,0,0,0,0,0,0,0,0,0,0,0,0],"sum_hessian":[3.692163E1,3.0790401E1,6.131229E0,2.7361471E1,3.42893E0,4.6102343E0,1.5209947E0,1.0927983E1,1.6433489E1,2.3369946E0,1.0919354E0,1.0503402E0,3.5598938E0],"tree_param":{"num_deleted":"0","num_feature":"10","num_nodes":"13","size_leaf_vector":"1"}},{"base_weights":[1.8774478E-2,-1.8604475E-1,3.4521335E-1,2.943775E-1,-4.1219932E-1,5.2163136E-1,-2.4052142E-1,7.418504E-2,-5.9352387E-2,-7.4359775E-2,2.8040651E-2,2.7123941E-2,9.530257E-2,-8.137609E-2,5.4026462E-2],"categories":[],"categories_nodes":[],"categories_segments":[],"categories_sizes":[],"default_left":[0,0,0,0,0,0,0,0,0,0,0,0,0,0,0],"id":30,"left_children":[1,3,5,7,9,11,13,-1,-1,-1,-1,-1,-1,-1,-1],"loss_changes":[2.5507503E0,2.6747618E0,1.6432453E0,3.6607113E0,3.971839E0,9.9491453E-1,2.2676952E0,0E0,0E0,0E0,0E0,0E0,0E0,0E0,0E0],"parents":[2147483647,0,0,1,1,2,2,3,3,4,4,5,5,6,6],"right_children":[2,4,6,8,10,12,14,-1,-1,-1,-1,-1,-1,-1,-1],"split_conditions":[5.325312E-1,-2.3044038E0,8.132052E-1,6.125265E-1,2.3047546E-1,2.8604215E-1,1.2389463E0,7.418504E-2,-5.9352387E-2,-7.4359775E-2,2.8040651E-2,2.7123941E-2,9.530257E-2,-8.137609E-2,5.4026462E-2],"split_indices":[5,7,1,9,7,6,1,0,0,0,0,0,0,0,0],"split_type":[0,0,0,0,0,0,0,0,0,0,0,0,0,0,0],"sum_hessian":[3.618949E1,2.25014E1,1.3688092E1,7.105485E0,1.5395914E1,1.0603772E1,3.0843196E0,4.833866E0,2.2716186E0,1.0363539E1,5.032376E0,7.740021E0,2.863751E0,1.7541907E0,1.3301289E0],"tree_param":{"num_deleted":"0","num_feature":"10","num_nodes":"15","size_leaf_vector":"1"}},{"base_weights":[1.8795406E-2,-7.0896596E-2,7.4085224E-1,8.550554E-2,-1.4365603E-1,8.695315E-2,1.899085E-2,-4.4358164E-2,1.1614217E-2],"categories":[],"categories_nodes":[],"categories_segments":[],"categories_sizes":[],"default_left":[0,0,0,0,0,0,0,0,0],"id":31,"left_children":[1,3,5,-1,7,-1,-1,-1,-1],"loss_changes":[2.4140658E0,2.369556E0,1.2670016E-1,0E0,2.5274134E0,0E0,0E0,0E0,0E0],"parents":[2147483647,0,0,1,1,2,2,4,4],"right_children":[2,4,6,-1,8,-1,-1,-1,-1],"split_conditions":[1.5064564E0,-3.9091125E0,-4.704684E-1,8.550554E-2,1.6915679E-1,8.695315E-2,1.899085E-2,-4.4358164E-2,1.1614217E-2],"split_indices":[7,4,6,0,6,0,0,0,0],"split_type":[0,0,0,0,0,0,0,0,0],"sum_hessian":[3.5464527E1,3.234814E1,3.1163878E0,1.5733637E0,3.0774775E1,2.0575624E0,1.0588253E0,1.3955896E1,1.6818878E1],"tree_param":{"num_deleted":"0","num_feature":"10","num_nodes":"9","size_leaf_vector":"1"}},{"base_weights":[2.1494554E-2,-2.8204456E-1,2.2827373E-1,-6.269925E-1,1.0541716E-1,7.3217995E-2,7.962391E-1,-8.215669E-2,5.3166277E-3,6.276485E-2,-3.2112163E-2,3.840208E-2,-3.60812E-2,3.0627599E-2,9.66826E-2],"categories":[],"categories_nodes":[],"categories_segments":[],"categories_sizes":[],"default_left":[0,0,0,0,0,0,0,0,0,0,0,0,0,0,0],"id":32,"left_children":[1,3,5,7,9,11,13,-1,-1,-1,-1,-1,-1,-1,-1],"loss_changes":[2.3351858E0,2.085204E0,1.8855131E0,1.1203926E0,1.9771287E0,2.626063E0,9.10511E-2,0E0,0E0,0E0,0E0,0E0,0E0,0E0,0E0],"parents":[2147483647,0,0,1,1,2,2,3,3,4,4,5,5,6,6],"right_children":[2,4,6,8,10,12,14,-1,-1,-1,-1,-1,-1,-1,-1],"split_conditions":[-7.4564954E-3,3.9228952E-1,8.187776E-1,2.178372E-1,-2.543332E0,-1.758544E-1,5.2381206E-2,-8.215669E-2,5.3166277E-3,6.276485E-2,-3.2112163E-2,3.840208E-2,-3.60812E-2,3.0627599E-2,9.66826E-2],"split_indices":[5,8,0,7,7,0,6,0,0,0,0,0,0,0,0],"split_type":[0,0,0,0,0,0,0,0,0,0,0,0,0,0,0],"sum_hessian":[3.5179108E1,1.4106964E1,2.1072145E1,7.135867E0,6.9710975E0,1.7439922E1,3.632223E0,5.386916E0,1.7489507E0,2.9220285E0,4.0490685E0,1.0229756E1,7.2101655E0,1.6599386E0,1.9722843E0],"tree_param":{"num_deleted":"0","num_feature":"10","num_nodes":"15","size_leaf_vector":"1"}},{"base_weights":[2.179753E-2,-5.3752875E-1,1.2395723E-1,-7.928063E-2,2.7189672E-3,3.650019E-2,7.069084E-1,5.3844202E-2,-1.0654825E-2,8.386223E-2,1.6755803E-2],"categories":[],"categories_nodes":[],"categories_segments":[],"categories_sizes":[],"default_left":[0,0,0,0,0,0,0,0,0,0,0],"id":33,"left_children":[1,3,5,-1,-1,7,9,-1,-1,-1,-1],"loss_changes":[2.0986984E0,8.403363E-1,1.5487072E0,0E0,0E0,2.0612617E0,1.4181876E-1,0E0,0E0,0E0,0E0],"parents":[2147483647,0,0,1,1,2,2,5,5,6,6],"right_children":[2,4,6,-1,-1,8,10,-1,-1,-1,-1],"split_conditions":[-1.1511836E0,2.2087328E0,1.5064564E0,-7.928063E-2,2.7189672E-3,-2.0763237E0,-4.704684E-1,5.3844202E-2,-1.0654825E-2,8.386223E-2,1.6755803E-2],"split_indices":[5,6,7,0,0,7,6,0,0,0,0],"split_type":[0,0,0,0,0,0,0,0,0,0,0],"sum_hessian":[3.4562584E1,4.679667E0,2.9882917E1,2.9446568E0,1.7350103E0,2.6908579E1,2.9743373E0,5.3548665E0,2.1553713E1,1.9445801E0,1.0297573E0],"tree_param":{"num_deleted":"0","num_feature":"10","num_nodes":"11","size_leaf_vector":"1"}},{"base_weights":[2.1621345E-2,-1.2143114E-1,4.0588686E-1,-2.3473169E-1,5.908411E-1,9.56177E-2,3.5273105E-2,-7.275512E-2,7.417381E-3,8.523591E-2,-7.453777E-3,-4.012522E-2,4.9572404E-2],"categories":[],"categories_nodes":[],"categories_segments":[],"categories_sizes":[],"default_left":[0,0,0,0,0,0,0,0,0,0,0,0,0],"id":34,"left_children":[1,3,5,7,9,-1,11,-1,-1,-1,-1,-1,-1],"loss_changes":[1.985567E0,2.272274E0,1.9620827E0,3.635366E0,7.443707E-1,0E0,1.5829817E0,0E0,0E0,0E0,0E0,0E0,0E0],"parents":[2147483647,0,0,1,1,2,2,3,3,4,4,6,6],"right_children":[2,4,6,8,10,-1,12,-1,-1,-1,-1,-1,-1],"split_conditions":[8.430826E-1,2.142262E0,3.972356E-1,1.6915679E-1,2.5131698E0,9.56177E-2,-2.5936157E-1,-7.275512E-2,7.417381E-3,8.523591E-2,-7.453777E-3,-4.012522E-2,4.9572404E-2],"split_indices":[5,3,8,6,8,0,9,0,0,0,0,0,0],"split_type":[0,0,0,0,0,0,0,0,0,0,0,0,0],"sum_hessian":[3.4224213E1,2.5438196E1,8.7860155E0,2.2525526E1,2.91267E0,2.9000368E0,5.885979E0,8.156928E0,1.4368598E1,1.8891519E0,1.023518E0,3.087488E0,2.7984912E0],"tree_param":{"num_deleted":"0","num_feature":"10","num_nodes":"13","size_leaf_vector":"1"}},{"base_weights":[2.3222264E-2,-2.5740403E-1,2.0897669E-1,3.8709238E-1,-4.223734E-1,6.177204E-2,7.5481457E-1,-1.4938978E-2,7.0443995E-2,-6.474113E-2,2.634111E-2,9.60454E-2,-6.8406514E-3,2.8080007E-2,9.1861084E-2],"categories":[],"categories_nodes":[],"categories_segments":[],"categories_sizes":[],"default_left":[0,0,0,0,0,0,0,0,0,0,0,0,0,0,0],"id":35,"left_children":[1,3,5,7,9,11,13,-1,-1,-1,-1,-1,-1,-1,-1],"loss_changes":[1.8575832E0,1.6764884E0,1.6707044E0,6.8782264E-1,1.9928846E0,2.1624455E0,8.760667E-2,0E0,0E0,0E0,0E0,0E0,0E0,0E0,0E0],"parents":[2147483647,0,0,1,1,2,2,3,3,4,4,5,5,6,6],"right_children":[2,4,6,8,10,12,14,-1,-1,-1,-1,-1,-1,-1,-1],"split_conditions":[-7.4564954E-3,-3.3425303E0,8.187776E-1,5.2304214E-1,2.178372E-1,-3.9091125E0,5.2381206E-2,-1.4938978E-2,7.0443995E-2,-6.474113E-2,2.634111E-2,9.60454E-2,-6.8406514E-3,2.8080007E-2,9.1861084E-2],"split_indices":[5,7,0,8,7,4,6,0,0,0,0,0,0,0,0],"split_type":[0,0,0,0,0,0,0,0,0,0,0,0,0,0,0],"sum_hessian":[3.360341E1,1.3230247E1,2.0373161E1,2.4219215E0,1.0808325E1,1.692256E1,3.4506023E0,1.0968798E0,1.3250417E0,8.180031E0,2.6282945E0,1.3341739E0,1.5588386E1,1.5832158E0,1.8673863E0],"tree_param":{"num_deleted":"0","num_feature":"10","num_nodes":"15","size_leaf_vector":"1"}},{"base_weights":[2.777079E-2,-4.7029907E-1,1.2451236E-1,-7.8209825E-2,1.1338863E-2,-5.2577055E-1,1.9322129E-1,-7.158717E-2,-7.5767203E-3,9.828522E-2,1.1845277E-2],"categories":[],"categories_nodes":[],"categories_segments":[],"categories_sizes":[],"default_left":[0,0,0,0,0,0,0,0,0,0,0],"id":36,"left_children":[1,3,5,-1,-1,7,9,-1,-1,-1,-1],"loss_changes":[1.7006506E0,1.135528E0,1.4119484E0,0E0,0E0,2.0850295E-1,1.4927665E0,0E0,0E0,0E0,0E0],"parents":[2147483647,0,0,1,1,2,2,5,5,6,6],"right_children":[2,4,6,-1,-1,8,10,-1,-1,-1,-1],"split_conditions":[-1.0086882E0,2.2087328E0,-2.1933267E0,-7.8209825E-2,1.1338863E-2,-1.2827348E0,-2.2308888E0,-7.158717E-2,-7.5767203E-3,9.828522E-2,1.1845277E-2],"split_indices":[5,6,9,0,0,6,6,0,0,0,0],"split_type":[0,0,0,0,0,0,0,0,0,0,0],"sum_hessian":[3.3079582E1,4.7521167E0,2.8327467E1,2.875912E0,1.8762046E0,2.071356E0,2.625611E1,1.0408441E0,1.0305121E0,1.2205547E0,2.5035555E1],"tree_param":{"num_deleted":"0","num_feature":"10","num_nodes":"11","size_leaf_vector":"1"}},{"base_weights":[2.3968985E-2,-7.8868374E-2,4.7727963E-1,-1.8364897E-1,5.967599E-1,7.4954647E-1,-2.6663307E-2,-4.9388077E-2,2.8412303E-2,-8.18274E-3,8.548613E-2,1.730681E-2,8.614259E-2],"categories":[],"categories_nodes":[],"categories_segments":[],"categories_sizes":[],"default_left":[0,0,0,0,0,0,0,0,0,0,0,0,0],"id":37,"left_children":[1,3,5,7,9,11,-1,-1,-1,-1,-1,-1,-1],"loss_changes":[1.6124867E0,2.1196766E0,1.4938025E0,3.818522E0,7.788644E-1,1.6947508E-1,0E0,0E0,0E0,0E0,0E0,0E0,0E0],"parents":[2147483647,0,0,1,1,2,2,3,3,4,4,5,5],"right_children":[2,4,6,8,10,12,-1,-1,-1,-1,-1,-1,-1],"split_conditions":[1.2058727E0,2.142262E0,2.3730125E0,8.819989E-1,5.8488876E-1,-1.2387549E0,-2.6663307E-2,-4.9388077E-2,2.8412303E-2,-8.18274E-3,8.548613E-2,1.730681E-2,8.614259E-2],"split_indices":[5,3,3,6,2,6,0,0,0,0,0,0,0],"split_type":[0,0,0,0,0,0,0,0,0,0,0,0,0],"sum_hessian":[3.2782425E1,2.7393904E1,5.388522E0,2.434631E1,3.0475953E0,3.9392216E0,1.4493005E0,1.4604573E1,9.741735E0,1.0279428E0,2.0196526E0,1.0541979E0,2.8850236E0],"tree_param":{"num_deleted":"0","num_feature":"10","num_nodes":"13","size_leaf_vector":"1"}},{"base_weights":[2.6104258E-2,-1.252909E-1,3.288895E-1,1.3772625E-1,-7.917453E-1,6.558859E-1,-2.8671408E-1,-2.8861294E-2,1.005543E-1,-1.0052182E-1,1.3785866E-2,1.05909206E-1,2.2831079E-2,3.6657944E-2,-8.348181E-2],"categories":[],"categories_nodes":[],"categories_segments":[],"categories_sizes":[],"default_left":[0,0,0,0,0,0,0,0,0,0,0,0,0,0,0],"id":38,"left_children":[1,3,5,7,9,11,13,-1,-1,-1,-1,-1,-1,-1,-1],"loss_changes":[1.5638859E0,4.1176825E0,2.4724767E0,6.6721783E0,1.452178E0,1.088388E0,1.9648607E0,0E0,0E0,0E0,0E0,0E0,0E0,0E0,0E0],"parents":[2147483647,0,0,1,1,2,2,3,3,4,4,5,5,6,6],"right_children":[2,4,6,8,10,12,14,-1,-1,-1,-1,-1,-1,-1,-1],"split_conditions":[2.7420014E-1,6.125265E-1,1.0319874E0,8.819989E-1,9.758167E-1,-1.758544E-1,1.5604066E0,-2.8861294E-2,1.005543E-1,-1.0052182E-1,1.3785866E-2,1.05909206E-1,2.2831079E-2,3.6657944E-2,-8.348181E-2],"split_indices":[7,9,4,6,0,0,3,0,0,0,0,0,0,0,0],"split_type":[0,0,0,0,0,0,0,0,0,0,0,0,0,0,0],"sum_hessian":[3.2217102E1,2.1868748E1,1.0348352E1,1.6249289E1,5.619459E0,6.71568E0,3.6326716E0,1.1343771E1,4.9055176E0,4.5038595E0,1.1155995E0,2.6961863E0,4.019494E0,1.8083993E0,1.8242724E0],"tree_param":{"num_deleted":"0","num_feature":"10","num_nodes":"15","size_leaf_vector":"1"}},{"base_weights":[2.609926E-2,7.853212E-2,-3.400654E-2,-2.1549453E-1,3.08581E-1,2.6205009E-2,-5.467322E-2,6.188479E-2,-2.7074924E-2],"categories":[],"categories_nodes":[],"categories_segments":[],"categories_sizes":[],"default_left":[0,0,0,0,0,0,0,0,0],"id":39,"left_children":[1,-1,3,5,7,-1,-1,-1,-1],"loss_changes":[1.5092846E0,0E0,1.9979082E0,3.4484909E0,2.1750817E0,0E0,0E0,0E0,0E0],"parents":[2147483647,0,0,2,2,3,3,4,4],"right_children":[2,-1,4,6,8,-1,-1,-1,-1],"split_conditions":[-3.9091125E0,7.853212E-2,2.7420014E-1,-7.077151E-1,1.0319874E0,2.6205009E-2,-5.467322E-2,6.188479E-2,-2.7074924E-2],"split_indices":[4,0,7,9,4,0,0,0,0],"split_type":[0,0,0,0,0,0,0,0,0],"sum_hessian":[3.148872E1,1.4248748E0,3.0063847E1,1.9895208E1,1.0168637E1,8.233649E0,1.1661559E1,6.5776753E0,3.5909617E0],"tree_param":{"num_deleted":"0","num_feature":"10","num_nodes":"9","size_leaf_vector":"1"}}]},"name":"gbtree"},"learner_model_param":{"base_score":"[3.6E-1]","boost_from_average":"1","num_class":"0","num_feature":"10","num_target":"1"},"objective":{"name":"binary:logistic","reg_loss_param":{"scale_pos_weight":"1"}}},"version":[3,3,0]}