tree
version=v4
num_class=3
num_tree_per_iteration=3
label_index=0
max_feature_idx=9
objective=multiclass num_class:3
feature_names=Column_0 Column_1 Column_2 Column_3 Column_4 Column_5 Column_6 Column_7 Column_8 Column_9
feature_infos=[-3.7525551970984372:3.73076090726128] [-5.1498859144060543:4.6236968901319351] [-4.587722472730654:5.1622889024134695] [-5.5235747091568967:6.1534353511825044] [-3.0195121558208253:2.9490944253087252] [-4.9531764284823092:3.253264609707303] [-3.8644262577078967:4.5139647491380117] [-6.6347540611308746:4.9157165774113096] [-2.9403886346642802:3.1377485336599937] [-5.4002729678698778:4.5145071173696856]
tree_sizes=852 950 751 875 862 762 876 766 769 875 774 766 878 874 770 877 874 768 771 873 767 872 875 772 772 875 769 768 767 773 878 876 873 770 771 769 769 774 771 872 766 875 879 769 881 873 772 875 770 769 876 875 866 875 875 869 873 876 865 774 675 867 770 878 657 775 672 661 867 670 666 776 674 870 773 881 668 778 668 764 666 672 670 770 878 666 775 670 567 667

Tree=0
num_leaves=7
num_cat=0
split_feature=2 3 1 6 1 2
split_gain=67.3709 42.0004 10.9435 18.1274 7.26121 0.512683
threshold=0.055950308394980504 0.039938418363841773 -1.0645284230847876 0.62918618666899939 0.64030205154292308 -0.50179073010288422
decision_type=2 2 2 2 2 2
left_child=2 -2 3 -1 -3 -4
right_child=1 4 5 -5 -6 -7
leaf_value=-1.204154606323526 -1.2275936635510352 -0.9405501366344392 -1.2275936635510352 -1.005988031581859 -1.0600044043743457 -1.1971228891552734
leaf_weight=12.799149602651598 7.8763997554779044 22.644649296998981 34.787432253360748 7.2200331091880789 6.5636664628982535 6.5636664628982535
leaf_count=39 24 69 106 22 20 20
internal_value=-1.12907 -1.02266 -1.19338 -1.13268 -0.967394 -1.22276
internal_weight=98.455 37.0847 61.3703 20.0192 29.2083 41.3511
internal_count=300 113 187 61 89 126
is_linear=0
shrinkage=1


Tree=1
num_leaves=8
num_cat=0
split_feature=0 1 7 6 3 2 0
split_gain=102.505 14.519 11.2185 3.22456 1.48781 2.76791 0.0858793
threshold=-0.038652849398798976 -0.04335814894548428 -2.4814910778349746 1.1549653832907181 1.3893703373698238 2.2006308923187903 -1.8991133340742747
decision_type=2 2 2 2 2 2 2
left_child=4 2 -2 -3 6 -6 -1
right_child=1 3 -4 -5 5 -7 -8
leaf_value=-1.1688164826348701 -0.95700335955320903 -0.95548760171509484 -1.1373785422887981 -0.88997728734586667 -1.0949373228216006 -1.1798197617559956 -1.1798197617559956
leaf_weight=9.0882001519203168 6.7320001125335693 16.493400275707248 7.068600118160246 13.800600230693815 7.0686001181602469 8.4150001406669599 32.313600540161133
leaf_count=27 20 49 21 41 21 25 96
internal_value=-1.07881 -0.964374 -1.04939 -0.925644 -1.16751 -1.14107 -1.1774
internal_weight=100.98 44.0946 13.8006 30.294 56.8854 15.4836 41.4018
internal_count=300 131 41 90 169 46 123
is_linear=0
shrinkage=1


Tree=2
num_leaves=6
num_cat=0
split_feature=3 0 6 3 6
split_gain=66.2993 34.6885 31.38 5.1644 1.77459
threshold=-0.36889024677619248 1.0581214518327959 -1.576048794331492 -1.1843525898212615 -0.21142538534530084
decision_type=2 2 2 2 2
left_child=1 3 -2 -1 -4
right_child=2 -3 4 -5 -6
leaf_value=-0.90508676967751667 -0.95848812600182487 -1.155995328217686 -1.1410157127824521 -0.99811018153031983 -1.1869199478380079
leaf_weight=20.768965780735016 7.3696330189704886 9.0445496141910535 10.384482890367506 8.3745829761028308 44.55278143286705
leaf_count=62 22 27 31 25 133
internal_value=-1.08866 -0.984912 -1.15225 -0.931818 -1.17824
internal_weight=100.495 38.1881 62.3069 29.1435 54.9373
internal_count=300 114 186 87 164
is_linear=0
shrinkage=1


Tree=3
num_leaves=7
num_cat=0
split_feature=2 3 1 6 2 2
split_gain=54.4294 32.1446 10.0627 15.1224 5.33842 0.475739
threshold=0.055950308394980504 0.039938418363841773 -1.0645284230847876 0.62918618666899939 0.96677466689642033 -0.50179073010288422
decision_type=2 2 2 2 2 2
left_child=2 -2 3 -1 -3 -4
right_child=1 4 5 -5 -6 -7
leaf_value=-0.070662902979982511 -0.09431528499431327 0.08882340757312282 -0.094425236673711263 0.10940507460611332 0.17246047723022212 -0.064555969829799484
leaf_weight=12.261493384838106 7.4542836546897879 13.299021661281587 32.978487640619278 7.5268386006355277 17.908093094825745 6.3608697950839987
leaf_count=39 24 38 106 22 51 20
internal_value=-9.63484e-06 0.0922535 -0.0603371 -0.00217089 0.136818 -0.0895956
internal_weight=97.7891 38.6614 59.1277 19.7883 31.2071 39.3394
internal_count=300 113 187 61 89 126
is_linear=0
shrinkage=0.1


Tree=4
num_leaves=7
num_cat=0
split_feature=0 1 0 6 3 3
split_gain=82.9713 10.4064 8.24226 1.98516 1.4211 0.304001
threshold=-0.038652849398798976 0.058538658570525988 0.96980366790380157 1.1549653832907181 2.2303725014417966 1.3893703373698238
decision_type=2 2 2 2 2 2
left_child=4 2 -2 -3 5 -1
right_child=1 3 -4 -5 -6 -7
leaf_value=-0.093719190247331816 -0.038820741940934128 0.10760938914578824 0.1099298892324781 0.1582241810036869 -0.042320854260459839 -0.0720993374310889
leaf_weight=39.265406966209412 8.0216396152973157 16.255265474319462 6.954479217529296 14.807849973440169 7.160962611436843 7.7949818968772879
leaf_count=123 24 46 20 41 22 24
internal_value=2.8428e-06 0.0987262 0.0302548 0.131738 -0.0838229 -0.0901381
internal_weight=100.261 46.0392 14.9761 31.0631 54.2214 47.0604
internal_count=300 131 44 87 169 147
is_linear=0
shrinkage=0.1


Tree=5
num_leaves=6
num_cat=0
split_feature=3 9 6 3 6
split_gain=53.1725 27.682 26.2831 2.75879 1.6403
threshold=-0.36889024677619248 -1.7458440565821471 -1.576048794331492 -1.7586690846761475 -0.21142538534530084
decision_type=2 2 2 2 2
left_child=1 -1 -2 -3 -4
right_child=2 3 4 -5 -6
leaf_value=-0.058161558625768217 0.11262340519558617 0.16945933848052519 -0.04862959177112762 0.10877489627031939 -0.093469580609789396
leaf_weight=9.5951352119445783 7.7408061921596518 13.949742406606672 10.112729102373121 16.181169480085376 42.209582388401031
leaf_count=29 22 39 31 46 133
internal_value=6.58622e-06 0.0897636 -0.0593591 0.13687 -0.084803
internal_weight=99.7892 39.726 60.0631 30.1309 52.3223
internal_count=300 114 186 85 164
is_linear=0
shrinkage=0.1


Tree=6
num_leaves=7
num_cat=0
split_feature=2 3 1 6 2 2
split_gain=44.9441 25.2194 9.20397 12.5216 4.22959 0.465332
threshold=0.055950308394980504 0.039938418363841773 -1.0645284230847876 0.62918618666899939 0.96677466689642033 -0.50179073010288422
decision_type=2 2 2 2 2 2
left_child=2 -2 3 -1 -3 -4
right_child=1 4 5 -5 -6 -7
leaf_value=-0.066623012904046264 -0.090471203539821049 0.076993862012520176 -0.091070785886942215 0.09709629190810852 0.15017658387299454 -0.060921006468125587
leaf_weight=11.70371386408806 6.9662291407585135 13.669617086648939 31.108320146799088 7.7748948633670798 18.702099829912186 6.1274283528327933
leaf_count=39 24 38 106 22 51 20
internal_value=-3.33718e-06 0.0821306 -0.0569727 -0.00127438 0.119274 -0.0861094
internal_weight=96.0523 39.3379 56.7144 19.4786 32.3717 37.2357
internal_count=300 113 187 61 89 126
is_linear=0
shrinkage=0.1


Tree=7
num_leaves=6
num_cat=0
split_feature=0 1 0 3 0
split_gain=68.5503 10.8698 4.6271 0.833114 0.236344
threshold=-0.17562638819439533 -0.96775936976269905 1.0581214518327959 2.2303725014417966 -1.8991133340742747
decision_type=2 2 2 2 2
left_child=3 -2 -3 4 -1
right_child=1 2 -4 -5 -6
leaf_value=-0.076021592262923557 -0.030034571350993539 0.073267336003620759 0.14013806720939015 -0.049791274778477966 -0.092625523115664743
leaf_weight=11.833774000406263 7.149217575788497 22.963651597499847 18.83442097902298 6.5613442957401267 31.109750330448151
leaf_count=39 22 64 51 21 103
internal_value=-7.0663e-06 0.0839103 0.1034 -0.0829793 -0.08805
internal_weight=98.4522 48.9473 41.7981 49.5049 42.9435
internal_count=300 137 115 163 142
is_linear=0
shrinkage=0.1


Tree=8
num_leaves=6
num_cat=0
split_feature=3 6 9 3 6
split_gain=43.4144 22.3555 21.6131 2.22385 1.60759
threshold=-0.36889024677619248 -1.576048794331492 -1.7458440565821471 -1.7586690846761475 -0.21142538534530084
decision_type=2 2 2 2 2
left_child=2 -2 -1 -4 -3
right_child=1 4 3 -5 -6
leaf_value=-0.054339156574175186 0.099721809437826214 -0.044423605186375843 0.14810393869079161 0.094514935465602287 -0.089678666202520518
leaf_weight=9.3016913831233961 7.9656961262226096 9.7769748270511609 14.445186972618101 16.692081660032276 39.815522134304047
leaf_count=29 22 31 39 46 133
internal_value=1.03706e-05 -0.0557797 0.0794183 0.119376 -0.0807568
internal_weight=97.9972 57.5582 40.439 31.1373 49.5925
internal_count=300 186 114 85 164
is_linear=0
shrinkage=0.1


Tree=9
num_leaves=7
num_cat=0
split_feature=2 3 1 1 6 5
split_gain=37.6138 17.5771 6.68671 6.12788 7.50385 0.14357
threshold=-0.21020281234937568 -0.36889024677619248 0.64030205154292308 -1.2664394744024403 0.2721287978179569 -2.5978732260495447
decision_type=2 2 2 2 2 2
left_child=3 -2 -3 4 -1 -5
right_child=1 2 -4 5 -6 -7
leaf_value=-0.07709043592045095 -0.087080376048420879 0.11428944673089624 0.015323612119281963 -0.070848462964148359 0.061836834719522019 -0.088458739259727595
leaf_weight=7.9733346998691541 6.4346499741077414 29.618428409099579 8.8723002970218641 5.5706308782100669 7.5876109302043915 27.401180744171143
leaf_count=28 24 81 26 20 22 99
internal_value=-3.55325e-05 0.0659026 0.0914773 -0.0610725 -0.00934866 -0.0854835
internal_weight=93.4581 44.9254 38.4907 48.5328 15.5609 32.9718
internal_count=300 131 107 169 50 119
is_linear=0
shrinkage=0.1


Tree=10
num_leaves=6
num_cat=0
split_feature=0 1 0 3 0
split_gain=56.9109 8.35128 3.80552 0.826097 0.246907
threshold=-0.17562638819439533 -0.96775936976269905 1.0581214518327959 2.2303725014417966 -1.8991133340742747
decision_type=2 2 2 2 2
left_child=3 -2 -3 4 -1
right_child=1 2 -4 -5 -6
leaf_value=-0.071873268741721105 -0.02663413071629013 0.064444339068204265 0.12472525554447428 -0.045521551027853963 -0.089372541738431982
leaf_weight=11.143029674887655 6.9587680101394644 23.263371139764786 19.047195047140121 6.2717793881893149 29.169745773077011
leaf_count=39 22 64 51 21 103
internal_value=-4.00954e-05 0.0748847 0.0915814 -0.079283 -0.0845355
internal_weight=95.8539 49.2693 42.3106 46.5846 40.3128
internal_count=300 137 115 163 142
is_linear=0
shrinkage=0.1


Tree=11
num_leaves=6
num_cat=0
split_feature=3 6 0 3 6
split_gain=36.1721 19.1559 17.7146 2.85674 1.58672
threshold=-0.36889024677619248 -1.576048794331492 1.0581214518327959 -1.1843525898212615 -0.21142538534530084
decision_type=2 2 2 2 2
left_child=2 -2 3 -1 -3
right_child=1 4 -4 -5 -6
leaf_value=0.12425220274512823 0.089443296878266826 -0.040652055252877989 -0.058356706498527082 0.058037210754848828 -0.08650142549233529
leaf_weight=23.039908111095425 8.0821603536605817 9.45513007044792 8.2997748553752881 9.0848210155963915 37.421694815158844
leaf_count=62 22 31 27 25 133
internal_value=7.51087e-05 -0.0527394 0.0718789 0.105527 -0.0772535
internal_weight=95.3835 54.959 40.4245 32.1247 46.8768
internal_count=300 186 114 87 164
is_linear=0
shrinkage=0.1


Tree=12
num_leaves=7
num_cat=0
split_feature=2 3 1 6 2 2
split_gain=31.8353 16.4553 7.76563 8.82966 3.66706 0.41016
threshold=0.055950308394980504 0.039938418363841773 -1.0645284230847876 0.62918618666899939 0.96677466689642033 -0.50179073010288422
decision_type=2 2 2 2 2 2
left_child=2 -2 3 -1 -3 -4
right_child=1 4 5 -5 -6 -7
leaf_value=-0.059670849284179664 -0.084505444782434505 0.057178774697971425 -0.085710821862676201 0.079494133726108626 0.12481358987486751 -0.056410043793937728
leaf_weight=10.594474852085115 5.9557901322841635 13.907800227403639 27.236590832471848 8.0031858086585981 18.924046337604523 5.7936725318431845
leaf_count=39 24 38 106 22 51 20
internal_value=-3.71004e-05 0.0684216 -0.0514696 0.000216426 0.096163 -0.0805713
internal_weight=90.4156 38.7876 51.6279 18.5977 32.8318 33.0303
internal_count=300 113 187 61 89 126
is_linear=0
shrinkage=0.1


Tree=13
num_leaves=7
num_cat=0
split_feature=0 3 0 3 2 0
split_gain=47.6547 7.67987 18.7146 0.784441 0.662665 0.256792
threshold=-0.17562638819439533 0.75262917959627995 0.78529447699861954 2.2303725014417966 -0.96827791749070069 -1.8991133340742747
decision_type=2 2 2 2 2 2
left_child=3 2 -2 5 -3 -1
right_child=1 4 -4 -5 -6 -7
leaf_value=-0.068089041385942239 -0.092013340417307174 0.13123423195931236 0.085179152896191893 -0.042623366556163868 0.093479331978581562 -0.086525458295166877
leaf_weight=10.466248035430906 8.2844647616148013 11.807093799114229 21.249221384525299 6.057845026254653 7.6680576503276816 27.15975147485733
leaf_count=39 26 32 58 21 21 103
internal_value=-7.38278e-05 0.0676206 0.0354751 -0.0760202 0.116369 -0.0813971
internal_weight=92.6927 49.0088 29.5337 43.6838 19.4752 37.626
internal_count=300 137 84 163 53 142
is_linear=0
shrinkage=0.1


Tree=14
num_leaves=6
num_cat=0
split_feature=3 6 0 6 3
split_gain=30.5915 19.8737 14.6118 2.83094 0.901096
threshold=-0.56509933951199132 -1.6953596116444478 1.0581214518327959 -0.21142538534530084 -1.6278246190921295
decision_type=2 2 2 2 2
left_child=2 -2 4 -3 -1
right_child=1 3 -4 -5 -6
leaf_value=0.11894408116436156 0.1014935759044118 -0.027366643601768131 -0.052337264296828417 -0.084555543524814203 0.083519992660576678
leaf_weight=16.173839688301086 7.7747484147548667 11.363609403371809 7.6207492649555197 36.324829876422882 12.914596468210222
leaf_count=44 21 37 26 137 35
internal_value=0.000110638 -0.0467583 0.0709239 -0.0709281 0.103217
internal_weight=92.1724 55.4632 36.7092 47.6884 29.0884
internal_count=300 195 105 174 79
is_linear=0
shrinkage=0.1


Tree=15
num_leaves=7
num_cat=0
split_feature=2 3 1 3 1 1
split_gain=26.727 12.3615 6.91557 5.65877 3.9675 0.479895
threshold=-0.048006595589714922 -0.29147357168476323 -1.2664394744024403 -1.1843525898212615 0.64030205154292308 -0.57496758475903154
decision_type=2 2 2 2 2 2
left_child=2 -2 3 -1 -3 -4
right_child=1 4 5 -5 -6 -7
leaf_value=-0.062090096705737167 -0.082303285790684716 0.10072435308249417 -0.050623812252349347 0.057309797790909806 0.020285682375978688 -0.084085536580840156
leaf_weight=7.3452973365783683 5.2687495350837699 26.546066552400589 5.1367471665143993 8.6361877024173719 7.9735915660858145 25.877675279974937
leaf_count=28 23 73 20 26 23 107
internal_value=5.57444e-05 0.0603681 -0.0510068 0.00243206 0.0821441 -0.0785435
internal_weight=86.7843 39.7884 46.9959 15.9815 34.5197 31.0144
internal_count=300 119 181 54 96 127
is_linear=0
shrinkage=0.1


Tree=16
num_leaves=7
num_cat=0
split_feature=0 3 0 3 2 0
split_gain=39.9316 6.49103 15.8552 0.782183 0.538506 0.274295
threshold=-0.17562638819439533 0.75262917959627995 0.78529447699861954 2.2303725014417966 -0.96827791749070069 -1.8991133340742747
decision_type=2 2 2 2 2 2
left_child=3 2 -2 5 -3 -1
right_child=1 4 -4 -5 -6 -7
leaf_value=-0.06441834724902043 -0.088977290589734179 0.12018713505953427 0.077023448944653003 -0.038950003703409536 0.085967935996178205 -0.084159513935847086
leaf_weight=9.7661286145448667 7.9216446280479458 11.5664379298687 21.024542719125748 5.7851796746253958 7.6342956125736228 25.199460104107857
leaf_count=39 26 32 58 21 21 103
internal_value=-0.000160262 0.0614988 0.0315944 -0.0730103 0.106581 -0.0786457
internal_weight=88.8977 48.1469 28.9462 40.7508 19.2007 34.9656
internal_count=300 137 84 163 53 142
is_linear=0
shrinkage=0.1


Tree=17
num_leaves=6
num_cat=0
split_feature=3 6 0 6 3
split_gain=25.5516 16.9819 11.816 2.72668 0.870863
threshold=-0.56509933951199132 -1.6953596116444478 1.0581214518327959 -0.21142538534530084 -1.6278246190921295
decision_type=2 2 2 2 2
left_child=2 -2 4 -3 -1
right_child=1 3 -4 -5 -6
leaf_value=0.10993351804372647 0.09263240407154931 -0.024867266905105156 -0.048411015836424057 -0.082027280853256043 0.074827619559270683
leaf_weight=15.755909442901611 7.7258805632591239 11.087157428264616 7.294423669576644 33.747850298881531 12.81240713596344
leaf_count=44 21 37 26 137 35
internal_value=0.000106411 -0.0442969 0.0651845 -0.0678923 0.0941891
internal_weight=88.4236 52.5609 35.8627 44.835 28.5683
internal_count=300 195 105 174 79
is_linear=0
shrinkage=0.1


Tree=18
num_leaves=6
num_cat=0
split_feature=2 1 2 3 1
split_gain=22.5491 12.9092 8.70147 2.03945 1.27212
threshold=0.95494003482259304 -0.70188058978757162 -0.90257192666642927 1.6719532677492628 1.0000000180025095e-35
decision_type=2 2 2 2 2
left_child=1 2 -1 -2 -3
right_child=3 4 -4 -5 -6
leaf_value=-0.044926172318632801 0.054349592977442643 -0.040365965622059602 0.066050974367840645 0.11715362213284441 -0.084630989701798984
leaf_weight=12.325780749320986 9.1896006166934985 8.8647134751081449 16.554191887378693 11.822604745626448 24.260357573628426
leaf_count=47 29 36 51 33 104
internal_value=0.000158661 -0.0301805 0.0186867 0.0896865 -0.0727851
internal_weight=83.0172 62.005 28.88 21.0122 33.1251
internal_count=300 238 98 62 140
is_linear=0
shrinkage=0.1


Tree=19
num_leaves=7
num_cat=0
split_feature=0 3 0 3 2 0
split_gain=33.5948 5.57467 13.5461 0.960131 0.4764 0.289689
threshold=-0.17562638819439533 0.75262917959627995 0.78529447699861954 2.3307266308915957 -0.96827791749070069 -1.8991133340742747
decision_type=2 2 2 2 2 2
left_child=3 2 -2 5 -3 -1
right_child=1 4 -4 -5 -6 -7
leaf_value=-0.061371894016024955 -0.086196623048977905 0.11182218695083963 0.070219294724772993 -0.028506482317886148 0.07929019741820946 -0.082176997867421608
leaf_weight=9.3134045302867872 7.5658215433359173 11.144015014171602 20.644211977720261 4.8096702247858039 7.5518701076507559 23.782650768756866
leaf_count=40 26 32 58 18 21 105
internal_value=-0.000243643 0.0563343 0.0282692 -0.0702552 0.0986815 -0.0763223
internal_weight=84.8116 46.9059 28.21 37.9057 18.6959 33.0961
internal_count=300 137 84 163 53 145
is_linear=0
shrinkage=0.1


Tree=20
num_leaves=6
num_cat=0
split_feature=3 6 9 3 3
split_gain=21.4138 13.5685 12.1147 1.48582 1.2094
threshold=-0.33747808533797069 -1.6953596116444478 -1.7458440565821471 0.1197901987231635 -1.7586690846761475
decision_type=2 2 2 2 2
left_child=2 -2 -1 -3 -4
right_child=1 3 4 -5 -6
leaf_value=-0.04858098606570907 0.083008994627715438 -0.02334319726337028 0.10754440393746241 -0.077560532617654387 0.067103526647616304
leaf_weight=8.7661132067441923 6.8954494297504416 5.973981946706771 13.312221646308897 32.846098735928535 16.635967344045643
leaf_count=31 19 23 39 141 47
internal_value=8.87384e-05 -0.0462562 0.0548149 -0.0692171 0.0850798
internal_weight=84.4298 45.7155 38.7143 38.8201 29.9482
internal_count=300 183 117 164 86
is_linear=0
shrinkage=0.1


Tree=21
num_leaves=7
num_cat=0
split_feature=2 1 3 1 6 0
split_gain=19.2136 9.72768 7.43235 4.16657 5.77692 0.00353216
threshold=-0.50179073010288422 1.134417342707055 -0.51784199532467212 -1.2664394744024403 0.2721287978179569 0.27741801244763825
decision_type=2 2 2 2 2 2
left_child=3 2 -2 4 -1 -5
right_child=1 -3 -4 5 -6 -7
leaf_value=-0.082394786101746775 -0.059093338989003291 -0.073371510463057857 0.0792900969134262 -0.081620356324916446 0.05212340424954677 -0.07911902805178328
leaf_weight=5.8558579385280591 4.3898108601570121 6.0424679219722739 33.493249595165253 10.844412982463838 7.0193798989057541 11.775782480835913
leaf_count=26 20 24 99 50 21 60
internal_value=0.000245501 0.04446 0.0632545 -0.0544699 -0.00905756 -0.0803182
internal_weight=79.421 43.9255 37.8831 35.4954 12.8752 22.6202
internal_count=300 143 119 157 47 110
is_linear=0
shrinkage=0.1


Tree=22
num_leaves=7
num_cat=0
split_feature=0 3 0 3 7 0
split_gain=28.2952 4.74845 11.8824 0.951163 0.432387 0.309351
threshold=-0.17562638819439533 0.88223676449673805 0.78529447699861954 2.3307266308915957 -1.0410808276064818 -1.8991133340742747
decision_type=2 2 2 2 2 2
left_child=3 2 -2 5 -3 -1
right_child=1 4 -4 -5 -6 -7
leaf_value=-0.058109036666363384 -0.077543615440443664 0.10873382684298703 0.066368735725894148 -0.025351929857742268 0.075796148675654665 -0.080419538164265447
leaf_weight=8.6715981960296649 7.8621775954961803 9.4480994939804095 21.228660136461258 4.6049742698669425 6.8934217095375052 21.937037527561188
leaf_count=40 28 28 61 18 20 105
internal_value=-0.000443037 0.051705 0.0274745 -0.0677241 0.0948396 -0.0740988
internal_weight=80.646 45.4324 29.0908 35.2136 16.3415 30.6086
internal_count=300 137 89 163 48 145
is_linear=0
shrinkage=0.1


Tree=23
num_leaves=6
num_cat=0
split_feature=3 6 0 6 3
split_gain=18.3146 12.6471 8.2294 2.65914 0.795893
threshold=-0.56509933951199132 -1.6953596116444478 1.0581214518327959 -0.21142538534530084 -1.6278246190921295
decision_type=2 2 2 2 2
left_child=2 -2 4 -3 -1
right_child=1 3 -4 -5 -6
leaf_value=0.097361856827810955 0.07921876547473676 -0.019261370539599615 -0.042207471551461977 -0.078163158753020781 0.062792728293292521
leaf_weight=14.479400038719177 7.4714706242084494 10.403846919536589 6.7318106293678275 29.109239384531975 12.332708239555359
leaf_count=44 21 37 26 137 35
internal_value=0.000201558 -0.0400936 0.0566425 -0.0626542 0.0814612
internal_weight=80.5285 46.9846 33.5439 39.5131 26.8121
internal_count=300 195 105 174 79
is_linear=0
shrinkage=0.1


Tree=24
num_leaves=6
num_cat=0
split_feature=2 1 6 3 1
split_gain=16.8522 10.4716 6.63176 1.74343 1.17252
threshold=0.95494003482259304 -0.70188058978757162 0.42680286628528613 1.6719532677492628 1.0000000180025095e-35
decision_type=2 2 2 2 2
left_child=1 2 -1 -2 -3
right_child=3 4 -4 -5 -6
leaf_value=-0.036665107929826454 0.046321646605221201 -0.036746080939486295 0.063237237576049266 0.10639631543410173 -0.081694536686964636
leaf_weight=12.271235734224321 8.6029225736856478 8.0173634737730044 14.491942569613455 11.017569065093992 21.017241150140762
leaf_count=53 29 36 45 33 104
internal_value=0.000339892 -0.027691 0.0174308 0.0800556 -0.0692829
internal_weight=75.4183 55.7978 26.7632 19.6205 29.0346
internal_count=300 238 98 62 140
is_linear=0
shrinkage=0.1


Tree=25
num_leaves=7
num_cat=0
split_feature=0 3 0 3 2 0
split_gain=23.8975 4.11063 10.0623 0.918563 0.483211 0.331061
threshold=-0.17562638819439533 0.75262917959627995 0.78529447699861954 2.3307266308915957 -0.96827791749070069 -1.8991133340742747
decision_type=2 2 2 2 2 2
left_child=3 2 -2 5 -3 -1
right_child=1 4 -4 -5 -6 -7
leaf_value=-0.054861916331285655 -0.081648929919917762 0.099940412135678447 0.059291380044251454 -0.023084917243253192 0.066003140526538467 -0.078850273525580258
leaf_weight=8.0561470985412615 6.8206053823232677 10.034474998712541 19.686233937740326 4.4460089504718772 7.2100797891616812 20.12547841668129
leaf_count=40 26 32 58 18 21 105
internal_value=-0.00055571 0.0477486 0.0230253 -0.0653284 0.085751 -0.0719928
internal_weight=76.379 43.7514 26.5068 32.6276 17.2446 28.1816
internal_count=300 137 84 163 53 145
is_linear=0
shrinkage=0.1


Tree=26
num_leaves=6
num_cat=0
split_feature=3 6 9 6 3
split_gain=15.518 10.0931 8.82906 1.43488 1.13431
threshold=-0.33747808533797069 -1.6953596116444478 -1.7458440565821471 -0.315743575987807 -1.7586690846761475
decision_type=2 2 2 2 2
left_child=2 -2 -1 -3 -4
right_child=1 3 4 -5 -6
leaf_value=-0.043456619863731602 0.071031727098496589 -0.02643243656540142 0.098262162028962888 -0.075514802809976189 0.057416708888045724
leaf_weight=8.1516508460044843 6.5805008709430686 7.7154412716627112 11.892209589481352 26.120355576276779 15.874935775995256
leaf_count=31 19 29 39 135 47
internal_value=0.00022022 -0.0422846 0.0480472 -0.0643227 0.0749101
internal_weight=76.3351 40.4163 35.9188 33.8358 27.7671
internal_count=300 183 117 164 86
is_linear=0
shrinkage=0.1


Tree=27
num_leaves=6
num_cat=0
split_feature=2 1 3 5 3
split_gain=14.5222 9.68742 6.10986 1.09773 0.976667
threshold=1.1504330361303541 -0.57496758475903154 -1.1843525898212615 -2.3430676513212614 1.6719532677492628
decision_type=2 2 2 2 2
left_child=1 2 -1 -3 -2
right_child=4 3 -4 -5 -6
leaf_value=-0.057538747347875188 0.050458098424559117 -0.024487420761952011 0.047467708457694213 -0.074839278740511023 0.1019369659106048
leaf_weight=7.6767288148403194 5.6803268939256695 5.352227836847308 19.918524250388145 22.664485551416874 10.494039356708525
leaf_count=38 20 27 67 115 33
internal_value=0.000457892 -0.0237985 0.0182559 -0.0652202 0.0838579
internal_weight=71.7863 55.612 27.5953 28.0167 16.1744
internal_count=300 247 105 142 53
is_linear=0
shrinkage=0.1


Tree=28
num_leaves=6
num_cat=0
split_feature=0 0 3 3 0
split_gain=20.3333 3.87764 7.19181 0.912726 0.352821
threshold=-0.17562638819439533 1.4895798235289737 0.75262917959627995 2.3307266308915957 -1.8991133340742747
decision_type=2 2 2 2 2
left_child=3 2 -2 4 -1
right_child=1 -3 -4 -5 -6
leaf_value=-0.051899970741728391 -0.020703307151481325 0.092459989886916269 0.077431344127906768 -0.02020789335592052 -0.077597786705150704
leaf_weight=7.5095899403095308 15.982738226652147 11.974758654832838 14.017267554998396 4.2516070306301108 18.515820823609829
leaf_count=40 54 38 45 18 105
internal_value=-0.000702873 0.044352 0.0251493 -0.0631651 -0.0701827
internal_weight=72.2518 41.9748 30 30.277 26.0254
internal_count=300 137 99 163 145
is_linear=0
shrinkage=0.1


Tree=29
num_leaves=6
num_cat=0
split_feature=3 6 0 6 3
split_gain=13.4071 9.38611 5.85915 2.49789 0.804358
threshold=-0.56509933951199132 -1.6953596116444478 1.0581214518327959 -0.21142538534530084 -1.6278246190921295
decision_type=2 2 2 2 2
left_child=2 -2 4 -3 -1
right_child=1 3 -4 -5 -6
leaf_value=0.089608872846661108 0.068644632019686333 -0.01550993095289146 -0.036351662741829903 -0.074997636346450527 0.053321249142495114
leaf_weight=12.868918269872669 7.0330865681171408 9.8685880154371244 6.2121886312961569 24.789656586945057 11.627835482358932
leaf_count=44 21 37 26 137 35
internal_value=0.000247423 -0.0366849 0.0503878 -0.0580591 0.0723843
internal_weight=72.4003 41.6913 30.7089 34.6582 24.4968
internal_count=300 195 105 174 79
is_linear=0
shrinkage=0.1


Tree=30
num_leaves=7
num_cat=0
split_feature=2 3 1 1 6 0
split_gain=12.7785 6.18565 4.1491 3.75475 4.58093 0.00329343
threshold=-0.50179073010288422 -1.076746363307892 0.83441925743052114 -1.2664394744024403 0.2721287978179569 0.27741801244763825
decision_type=2 2 2 2 2 2
left_child=3 -2 -3 4 -1 -5
right_child=1 2 -4 5 -6 -7
leaf_value=-0.079029749651565145 -0.076811973268025024 0.067610362039724967 -0.026655182301856983 -0.078575393028390672 0.048855874518816796 -0.075876400507465747
leaf_weight=4.7864983677864092 4.1511099711060515 28.927527993917465 5.5679967552423468 8.8307447284460086 6.7523360103368759 9.2640619799494726
leaf_count=26 25 97 21 50 21 60
internal_value=0.000634771 0.0385164 0.0523948 -0.0487685 -0.00419319 -0.0771936
internal_weight=68.2803 38.6466 34.4955 29.6336 11.5388 18.0948
internal_count=300 143 118 157 47 110
is_linear=0
shrinkage=0.1


Tree=31
num_leaves=7
num_cat=0
split_feature=0 0 3 6 1 3
split_gain=17.2554 3.54893 6.27818 0.930816 1.58984 0.00297547
threshold=-0.17562638819439533 1.4895798235289737 0.75262917959627995 -0.04802398661688511 -1.3015675921971985 -1.6278246190921295
decision_type=2 2 2 2 2 2
left_child=3 2 -2 5 -5 -1
right_child=1 -3 -4 4 -6 -7
leaf_value=-0.07435504802630348 -0.020154137791515064 0.088494951825620116 0.073090610243463514 -0.076916186142187176 -0.004266354115602413 -0.077579877245545104
leaf_weight=3.7329056262969962 15.758634909987451 11.353901490569113 13.327722281217573 5.931294210255146 6.1204827278852445 12.251825436949732
leaf_count=27 54 38 45 35 31 70
internal_value=-0.00071685 0.0410802 0.0225717 -0.0610055 -0.040021 -0.0768268
internal_weight=68.4768 40.4403 29.0864 28.0365 12.0518 15.9847
internal_count=300 137 99 163 66 97
is_linear=0
shrinkage=0.1


Tree=32
num_leaves=7
num_cat=0
split_feature=3 6 2 0 3 2
split_gain=11.3738 8.0832 6.64892 4.77667 0.799941 0.223405
threshold=-0.56509933951199132 -0.21142538534530084 0.80002261336736502 1.0581214518327959 -1.6278246190921295 0.88637642628504187
decision_type=2 2 2 2 2 2
left_child=3 2 -2 4 -1 -3
right_child=1 5 -4 -5 -6 -7
leaf_value=0.085542079417899319 0.067014651583176404 -0.078810217872715221 -0.064737708361927077 -0.032927934495931906 0.048507272700676785 -0.054897338678679089
leaf_weight=12.044929429888729 10.37515337765217 17.83488912880421 6.0719676762819281 5.9247086346149436 11.307461559772491 5.0027791261672965
leaf_count=44 34 102 24 26 35 35
internal_value=8.37969e-05 -0.0350774 0.0183742 0.047264 0.0676095 -0.0735719
internal_weight=68.5619 39.2848 16.4471 29.2771 23.3524 22.8377
internal_count=300 195 58 105 79 137
is_linear=0
shrinkage=0.1


Tree=33
num_leaves=6
num_cat=0
split_feature=2 1 6 5 3
split_gain=11.3942 7.96524 5.07683 1.14513 0.929738
threshold=1.1504330361303541 -0.46686219971179982 1.0100233070420042 -2.3430676513212614 1.6719532677492628
decision_type=2 2 2 2 2
left_child=1 2 -1 -3 -2
right_child=4 3 -4 -5 -6
leaf_value=-0.018374771969019196 0.043976115425818106 -0.020740171371672923 0.072456186876701981 -0.075276500564335602 0.096443753672824775
leaf_weight=16.322151273489002 5.2285273075103751 4.8379886075854328 9.8773490488529188 18.857618801295757 9.5391962826251966
leaf_count=77 20 27 33 110 33
internal_value=0.000708432 -0.0221288 0.015869 -0.0641417 0.0778675
internal_weight=64.6628 49.8951 26.1995 23.6956 14.7677
internal_count=300 247 110 137 53
is_linear=0
shrinkage=0.1


Tree=34
num_leaves=6
num_cat=0
split_feature=0 0 3 3 0
split_gain=14.7432 3.18151 5.3791 1.04912 0.430725
threshold=-0.17562638819439533 1.4895798235289737 0.23310322603254466 2.4005452435797014 -1.8991133340742747
decision_type=2 2 2 2 2
left_child=3 2 -2 4 -1
right_child=1 -3 -4 -5 -6
leaf_value=-0.044930608572237712 -0.030318402903771038 0.084896722639547978 0.058236281137760929 -0.008135316504423588 -0.075630658337028131
leaf_weight=6.3866868764162126 11.89115694910288 10.673315331339834 16.210337325930595 3.5136416405439368 16.066845335066319
leaf_count=40 42 38 57 16 107
internal_value=-0.000634056 0.0384177 0.0207643 -0.0589471 -0.0668983
internal_weight=64.742 38.7748 28.1015 25.9672 22.4535
internal_count=300 137 99 163 147
is_linear=0
shrinkage=0.1


Tree=35
num_leaves=6
num_cat=0
split_feature=3 6 9 6 3
split_gain=9.59129 7.19994 4.06515 2.2664 1.1271
threshold=-0.56509933951199132 -1.6953596116444478 -1.7458440565821471 0.30829761486347051 -1.6278246190921295
decision_type=2 2 2 2 2
left_child=2 -2 -1 -3 -4
right_child=1 3 4 -5 -6
leaf_value=-0.027850698120533451 0.06192118755365849 -0.021295662680217216 0.086910907018358616 -0.076741175892743499 0.041341251213165141
leaf_weight=6.1004458218812969 6.517463117837905 12.539317019283773 11.054755181074146 17.891203723847866 10.662952005863186
leaf_count=26 21 57 44 117 35
internal_value=-7.34816e-05 -0.0334648 0.0442767 -0.0538941 0.0645371
internal_weight=64.7661 36.948 27.8182 30.4305 21.7177
internal_count=300 195 105 174 79
is_linear=0
shrinkage=0.1


Tree=36
num_leaves=6
num_cat=0
split_feature=2 1 6 5 3
split_gain=9.93797 7.10578 4.14066 1.13708 0.911847
threshold=1.1504330361303541 -0.57496758475903154 1.0100233070420042 -2.4141305874976928 1.6719532677492628
decision_type=2 2 2 2 2
left_child=1 2 -1 -3 -2
right_child=4 3 -4 -5 -6
leaf_value=-0.015040472449471707 0.040799353589825303 -0.014586857987128655 0.070256689870073524 -0.071267054019473794 0.093886011466931762
leaf_weight=15.250436611473562 5.0530001223087302 4.3602640554308882 9.0794065147638303 18.799844756722454 8.9958846867084485
leaf_count=74 20 25 31 117 33
internal_value=0.000907558 -0.0209496 0.0167907 -0.0605961 0.0747922
internal_weight=61.5388 47.49 24.3298 23.1601 14.0489
internal_count=300 247 105 142 53
is_linear=0
shrinkage=0.1


Tree=37
num_leaves=6
num_cat=0
split_feature=0 6 3 3 0
split_gain=12.5916 3.13463 5.32006 1.21092 0.459401
threshold=-0.17562638819439533 -0.3961050938611706 0.75262917959627995 2.5016709542381199 -1.8991133340742747
decision_type=2 2 2 2 2
left_child=3 -2 -3 4 -1
right_child=1 2 -4 -5 -6
leaf_value=-0.042067007374222289 0.086574303180345841 -0.020140031001971107 0.067228231578592715 0.0020196705471277085 -0.074833428235599478
leaf_weight=5.973461821675305 9.1479910314083082 15.480019547045233 12.677411019802092 3.0356510281562796 15.08363725990057
leaf_count=40 28 60 49 14 109
internal_value=-0.000674648 0.0357185 0.0191961 -0.0570261 -0.0655383
internal_weight=61.3982 37.3054 28.1574 24.0928 21.0571
internal_count=300 137 109 163 149
is_linear=0
shrinkage=0.1


Tree=38
num_leaves=6
num_cat=0
split_feature=3 6 0 6 3
split_gain=8.31153 6.16448 4.4451 3.68926 0.421039
threshold=0.1197901987231635 -1.6953596116444478 1.0581214518327959 0.83772232188584594 0.75262917959627995
decision_type=2 2 2 2 2
left_child=2 -2 3 -1 -3
right_child=1 4 -4 -5 -6
leaf_value=0.067018069701557118 0.052442228294806159 -0.044568877946008272 -0.039187527323112932 -0.025708631198921507 -0.076184453761016263
leaf_weight=22.725977122783664 5.4079404473304775 5.848480977118018 7.0773133337497702 5.2893623262643805 15.056858792901037
leaf_count=86 18 35 36 19 106
internal_value=-0.000234959 -0.0427219 0.0316228 0.049511 -0.0673397
internal_weight=61.4059 26.3133 35.0927 28.0153 20.9053
internal_count=300 159 141 105 141
is_linear=0
shrinkage=0.1


Tree=39
num_leaves=7
num_cat=0
split_feature=2 1 1 6 5 7
split_gain=9.21224 4.67742 3.18154 4.42448 2.90722 0.00242753
threshold=-0.50179073010288422 1.134417342707055 -1.2664394744024403 1.0827125434207141 -2.3233615964534526 -1.3573835924545323
decision_type=2 2 2 2 2 2
left_child=2 4 3 -1 -2 -4
right_child=1 -3 5 -5 -6 -7
leaf_value=-0.062039770224922054 0.10779906173916572 -0.060421617384178596 -0.076675432654028791 0.06900766415332811 0.032578314322933101 -0.074044211130194867
leaf_weight=5.6910749748349208 6.6644528955221203 4.4366448745131484 5.8565478324890128 4.7073856294155121 22.434438213706017 8.7373406291007978
leaf_count=33 22 24 40 14 97 70
internal_value=0.00097387 0.0352232 -0.044983 -0.00271457 0.049806 -0.0751001
internal_weight=58.5279 33.5355 24.9923 10.3985 29.0989 14.5939
internal_count=300 143 157 47 119 110
is_linear=0
shrinkage=0.1


Tree=40
num_leaves=6
num_cat=0
split_feature=0 1 6 3 3
split_gain=10.8183 5.71951 2.80737 4.33322 1.87536
threshold=0.44481183426519361 1.293074122937468 -0.3961050938611706 -0.56509933951199132 1.3893703373698238
decision_type=2 2 2 2 2
left_child=1 4 -2 -4 -1
right_child=2 -3 3 -5 -6
leaf_value=-0.07373711929560188 0.10067474545465178 0.064239674860860768 -0.046230637054156344 0.059011101043438721 -0.01817987522516715
leaf_weight=19.039908774197105 7.2124226093292263 4.6072272211313239 5.6117923855781617 12.918789073824877 8.9233264699578267
leaf_count=131 23 21 21 51 53
internal_value=-0.000706221 -0.0389987 0.0477421 0.0271397 -0.0560083
internal_weight=58.3135 32.5705 25.743 18.5306 27.9632
internal_count=300 205 95 72 184
is_linear=0
shrinkage=0.1


Tree=41
num_leaves=7
num_cat=0
split_feature=3 6 2 9 3 2
split_gain=7.37355 6.00827 4.8684 3.10936 1.17272 0.272156
threshold=-0.56509933951199132 -0.21142538534530084 0.80002261336736502 -1.7458440565821471 -1.6278246190921295 0.88637642628504187
decision_type=2 2 2 2 2 2
left_child=3 2 -2 -1 -5 -3
right_child=1 5 -4 4 -6 -7
leaf_value=-0.024463751054571332 0.058513530921602955 -0.076493288790769318 -0.060901612603722594 0.083833355932446743 0.034910703096263769 -0.046377281108457617
leaf_weight=5.7375127077102688 9.5179215967655164 14.289304018020632 5.3235629200935355 9.7456977665424382 9.8539789617061579 3.7983456999063483
leaf_count=26 34 102 24 44 35 35
internal_value=-0.00027145 -0.0314761 0.0156799 0.0402832 0.0592369 -0.070169
internal_weight=58.2663 32.9291 14.8415 25.3372 19.5997 18.0876
internal_count=300 195 58 105 79 137
is_linear=0
shrinkage=0.1


Tree=42
num_leaves=7
num_cat=0
split_feature=2 1 6 3 7 2
split_gain=7.94349 6.0715 5.29751 1.32068 0.0425778 0.0095304
threshold=0.95494003482259304 1.0000000180025095e-35 0.42680286628528613 1.4563792221615015 0.076372614329581659 -0.50179073010288422
decision_type=2 2 2 2 2 2
left_child=1 2 -1 -2 -5 -3
right_child=3 5 -4 4 -6 -7
leaf_value=-0.041678783962978284 0.022643562504685591 -0.074038148115871769 0.047543730209240853 0.091566299180353986 0.078335224531345796 -0.079446330716670621
leaf_weight=12.545095853507521 5.2388015240430823 8.4505112022161466 14.172503523528574 4.8424035757780057 4.8864545524120331 5.3033464699983588
leaf_count=77 22 73 57 20 20 31
internal_value=0.00087962 -0.0221401 0.00564981 0.0631233 0.0849208 -0.0761235
internal_weight=55.4391 40.4715 26.7176 14.9677 9.72886 13.7539
internal_count=300 238 134 62 40 104
is_linear=0
shrinkage=0.1


Tree=43
num_leaves=6
num_cat=0
split_feature=0 1 6 3 3
split_gain=9.35018 4.85222 2.66432 3.40623 2.29238
threshold=0.44481183426519361 1.5508867365779377 -0.3961050938611706 -0.36889024677619248 1.3893703373698238
decision_type=2 2 2 2 2
left_child=1 4 -2 -4 -1
right_child=2 -3 3 -5 -6
leaf_value=-0.072309323988968929 0.097637297770023085 0.075697094909854795 -0.038372556510489569 0.05510562339359916 -0.010899944404702431
leaf_weight=18.039690949022777 6.9470602273941067 3.3636822104454032 5.7889807596802774 11.93416422605514 9.1681386157870275
leaf_count=135 23 15 22 50 55
internal_value=-0.000650873 -0.0376085 0.0451473 0.0245725 -0.0516164
internal_weight=55.2417 30.5715 24.6702 17.7231 27.2078
internal_count=300 205 95 72 190
is_linear=0
shrinkage=0.1


Tree=44
num_leaves=7
num_cat=0
split_feature=6 2 9 0 9 2
split_gain=6.21775 7.47391 4.00972 0.877715 0.498406 0.16715
threshold=1.0100233070420042 0.95494003482259304 -1.9416879867922672 0.91899430523368075 0.31185117530747886 1.0000000180025095e-35
decision_type=2 2 2 2 2 2
left_child=1 2 -1 5 -3 -2
right_child=3 4 -4 -5 -6 -7
leaf_value=-0.045620808685170849 -0.088890429357004419 -0.083006916322250018 0.053162759038221978 -0.024286442971329855 -0.029434304665304886 -0.059089190069783887
leaf_weight=4.7849530503153757 5.8279852420091611 5.7734752520918828 29.090845145285133 4.3817301616072646 2.4836389273405075 2.7797782868146896
leaf_count=23 35 34 130 35 19 24
internal_value=-0.000232392 0.0184159 0.0392096 -0.0607201 -0.0668929 -0.0792665
internal_weight=55.1224 42.1329 33.8758 12.9895 8.25711 8.60776
internal_count=300 206 153 94 53 59
is_linear=0
shrinkage=0.1


Tree=45
num_leaves=7
num_cat=0
split_feature=2 5 2 1 6 7
split_gain=7.19867 3.66129 4.41734 2.84078 3.34501 0.0020946
threshold=-0.50179073010288422 -1.7537054321612791 2.0019701497432849 -1.2664394744024403 1.0827125434207141 -1.3573835924545323
decision_type=2 2 2 2 2 2
left_child=3 -2 -3 4 -1 -5
right_child=1 2 -4 5 -6 -7
leaf_value=-0.057929010461675146 0.092191369105987755 -0.015599256313858396 0.08161344384038749 -0.075429670999651685 0.060606730540063929 -0.072803439290353628
leaf_weight=5.0014027282595652 7.6498387157917049 16.30606929957867 6.5526583790779105 5.1402982175350189 4.5432461202144623 7.4217496663331968
leaf_count=33 29 85 29 40 14 70
internal_value=0.000821751 0.032308 0.0122676 -0.0426312 -0.00150608 -0.0738781
internal_weight=52.6153 30.5086 22.8587 22.1067 9.54465 12.562
internal_count=300 143 114 157 47 110
is_linear=0
shrinkage=0.1


Tree=46
num_leaves=6
num_cat=0
split_feature=0 0 3 3 0
split_gain=8.16981 2.88572 3.98168 1.23273 0.535807
threshold=-0.17562638819439533 1.4895798235289737 0.93303187872374138 2.7278851567269187 -1.8991133340742747
decision_type=2 2 2 2 2
left_child=3 2 -2 4 -1
right_child=1 -3 -4 -5 -6
leaf_value=-0.034082619377589295 -0.020116573025789335 0.078344729363217874 0.063463287769212826 0.015581297205083791 -0.07287500168794786
leaf_weight=5.0679263472557112 14.915718652307989 8.9345342069864255 9.2251103818416578 2.3738789260387412 11.970733761787415
leaf_count=42 58 38 41 11 110
internal_value=-0.000433071 0.0297919 0.0118224 -0.0519307 -0.0613367
internal_weight=52.4879 33.0754 24.1408 19.4125 17.0387
internal_count=300 137 99 163 152
is_linear=0
shrinkage=0.1


Tree=47
num_leaves=7
num_cat=0
split_feature=3 6 2 1 2 2
split_gain=5.66462 4.64567 4.16284 2.55279 1.14435 0.287003
threshold=-0.51784199532467212 -0.21142538534530084 0.80002261336736502 1.293074122937468 -1.8859563455682342 0.88637642628504187
decision_type=2 2 2 2 2 2
left_child=3 2 -2 4 -1 -3
right_child=1 5 -4 -5 -6 -7
leaf_value=0.091830263326257044 0.051414399684588531 -0.074948054043910764 -0.067423787867370771 -0.032128359209948575 0.036838479791460189 -0.04168153589944603
leaf_weight=5.1805401593446776 9.0597283989191073 12.045267276465891 4.3692211583256713 4.4844867885112754 14.038550347089767 3.3049982190132132
leaf_count=24 34 100 23 20 64 35
internal_value=-0.000390712 -0.0302064 0.0127494 0.0358094 0.0516616 -0.0677856
internal_weight=52.4828 28.7792 13.4289 23.7036 19.2191 15.3503
internal_count=300 192 57 108 88 135
is_linear=0
shrinkage=0.1


Tree=48
num_leaves=6
num_cat=0
split_feature=2 1 6 3 1
split_gain=6.05986 5.05416 4.1236 0.912459 0.152058
threshold=1.1504330361303541 1.0000000180025095e-35 0.42680286628528613 1.6719532677492628 0.5094616544192323
decision_type=2 2 2 2 2
left_child=1 2 -1 -2 -3
right_child=3 4 -4 -5 -6
leaf_value=-0.034991459123253875 0.028400254414789113 -0.049251686720703319 0.045113351301941232 0.087035368408491187 -0.075550667433197632
leaf_weight=12.169269703328611 4.2441006898879987 2.8262772634625426 13.61711462587118 7.0836044549942017 9.8983647599816305
leaf_count=81 20 26 59 33 81
internal_value=0.00077297 -0.0181385 0.00730979 0.0650668 -0.0697094
internal_weight=49.8387 38.511 25.7864 11.3277 12.7246
internal_count=300 247 140 53 107
is_linear=0
shrinkage=0.1


Tree=49
num_leaves=6
num_cat=0
split_feature=0 1 6 3 3
split_gain=7.27002 3.80725 2.55297 3.31306 1.65873
threshold=0.44481183426519361 1.293074122937468 -0.3961050938611706 -0.56509933951199132 1.3893703373698238
decision_type=2 2 2 2 2
left_child=1 4 -2 -4 -1
right_child=2 -3 3 -5 -6
leaf_value=-0.070154129777574556 0.094158640314073741 0.055697442474943862 -0.044626052276549179 0.051360884927031704 -0.013411385567312223
leaf_weight=15.233643040061002 6.5111618340015438 3.9158105477690688 5.3295026794076028 11.054450705647463 7.7842838093638411
leaf_count=131 23 21 21 51 53
internal_value=-0.000240554 -0.0354574 0.0411884 0.0201375 -0.0509647
internal_weight=49.8289 26.9337 22.8951 16.384 23.0179
internal_count=300 205 95 72 184
is_linear=0
shrinkage=0.1


Tree=50
num_leaves=7
num_cat=0
split_feature=6 2 9 9 3 0
split_gain=5.0596 5.13296 3.2905 0.405311 0.0462069 0.00107618
threshold=1.546324055312275 0.95494003482259304 -1.9416879867922672 0.31185117530747886 0.16188114900124354 0.12898532396863852
decision_type=2 2 2 2 2 2
left_child=1 2 -1 -3 -2 -6
right_child=4 3 -4 -5 5 -7
leaf_value=-0.03790564282671146 -0.089017073193728355 -0.079961724602344963 0.042433959890048834 -0.030559529828247802 -0.073864032309489014 -0.070752923682294341
leaf_weight=6.1804338544607154 2.6630035787820807 4.8941581696271887 29.109495438635349 2.5136745721101761 2.3086529821157455 2.1448431126773357
leaf_count=33 16 34 147 22 21 27
internal_value=-0.000532725 0.0124783 0.0283638 -0.0631982 -0.0785967 -0.0723657
internal_weight=49.8143 42.6978 35.2899 7.40783 7.1165 4.4535
internal_count=300 236 180 56 64 48
is_linear=0
shrinkage=0.1


Tree=51
num_leaves=7
num_cat=0
split_feature=2 5 2 1 6 7
split_gain=5.57141 3.27987 3.65391 2.58189 2.65178 0.00167068
threshold=-0.50179073010288422 -1.7537054321612791 2.0019701497432849 -1.2664394744024403 1.0827125434207141 -1.3573835924545323
decision_type=2 2 2 2 2 2
left_child=3 -2 -3 4 -1 -5
right_child=1 2 -4 5 -6 -7
leaf_value=-0.054272956209109061 0.088511632554484868 -0.016324936781140414 0.077745201746781845 -0.074359741175343191 0.055374101089594632 -0.071834582360697674
leaf_weight=4.4525048360228556 7.039400793612006 15.03614863753319 5.6922413110733023 4.4774230271577835 4.3709863871335983 6.3161673769354802
leaf_count=33 29 85 29 40 14 70
internal_value=0.000714969 0.029536 0.00950775 -0.0400809 4.4069e-05 -0.0728821
internal_weight=47.3849 27.7678 20.7284 19.6171 8.82349 10.7936
internal_count=300 143 114 157 47 110
is_linear=0
shrinkage=0.1


Tree=52
num_leaves=7
num_cat=0
split_feature=0 3 2 6 3 3
split_gain=6.29665 4.73093 7.03302 2.54457 2.99123 0.47576
threshold=0.7262013923572016 1.2967975646122865 1.7786742475411872 0.2721287978179569 0.1197901987231635 0.23310322603254466
decision_type=2 2 2 2 2 2
left_child=1 5 -3 -2 -5 -1
right_child=3 2 -4 4 -6 -7
leaf_value=-0.076548691994042378 0.091158553087469382 0.077992244173339942 -0.081194710049676946 -0.032171828440882316 0.070116135200839286 -0.041497858780987794
leaf_weight=10.663434848189359 7.2888553738594082 7.4514695182442647 4.4227140620350838 6.1192963272333127 5.3657765239477158 6.08076387643814
leaf_count=99 27 38 35 24 29 48
internal_value=-5.81266e-05 -0.0295808 0.0187007 0.0449453 0.0156167 -0.0638198
internal_weight=47.3923 28.6184 11.8742 18.7739 11.4851 16.7442
internal_count=300 220 73 80 53 147
is_linear=0
shrinkage=0.1


Tree=53
num_leaves=7
num_cat=0
split_feature=3 6 2 0 0 3
split_gain=4.67903 5.23443 3.6036 2.73708 0.326653 0.0347885
threshold=-1.1843525898212615 0.42680286628528613 0.95494003482259304 1.012300531493884 -0.097754103407403523 -0.18844052165089878
decision_type=2 2 2 2 2 2
left_child=3 2 -2 4 -1 -3
right_child=1 5 -4 -5 -6 -7
leaf_value=0.05771823345464612 0.032232818246040219 -0.085701325940460094 -0.065483027648816472 -0.029497060771979628 0.093840050065520569 -0.072169400878067835
leaf_weight=7.7568459883332244 15.537471041083338 2.3731810972094509 4.98486129567027 3.7056589201092711 3.6965567469596854 9.5251214653253555
leaf_count=47 65 13 38 20 14 103
internal_value=-0.000654143 -0.0220975 0.0084977 0.0452067 0.0693765 -0.0748684
internal_weight=47.5797 32.4206 20.5223 15.1591 11.4534 11.8983
internal_count=300 219 103 81 61 116
is_linear=0
shrinkage=0.1


Tree=54
num_leaves=7
num_cat=0
split_feature=2 5 2 1 6 7
split_gain=4.71607 2.9361 3.1527 2.44476 2.24105 0.00112482
threshold=-0.50179073010288422 -1.7537054321612791 2.0019701497432849 -1.2664394744024403 1.0827125434207141 -1.3573835924545323
decision_type=2 2 2 2 2 2
left_child=3 -2 -3 4 -1 -5
right_child=1 2 -4 5 -6 -7
leaf_value=-0.051439616552902551 0.084811000681065243 -0.015612983321421428 0.075331719639287406 -0.073584415555608393 0.052034567746804594 -0.071414065889640457
leaf_weight=4.1158263087272662 6.694137021899226 14.575406987220051 5.1616703495383254 4.0676436088979244 4.2589630782604218 5.7827374376356584
leaf_count=33 29 85 29 40 14 70
internal_value=0.000596134 0.0275813 0.00817101 -0.0385394 0.00118173 -0.0723103
internal_weight=44.6564 26.4312 19.7371 18.2252 8.37479 9.85038
internal_count=300 143 114 157 47 110
is_linear=0
shrinkage=0.1


Tree=55
num_leaves=7
num_cat=0
split_feature=0 3 2 6 3 3
split_gain=5.47666 3.15581 4.65018 2.19072 2.75297 0.524063
threshold=0.44481183426519361 1.3893703373698238 1.7786742475411872 -0.3961050938611706 -0.56509933951199132 0.23310322603254466
decision_type=2 2 2 2 2 2
left_child=1 5 -3 -2 -5 -1
right_child=3 2 -4 4 -6 -7
leaf_value=-0.076028827282853359 0.08910647345329277 0.071404794020360249 -0.074835199212103035 -0.042759469078038778 0.047586485003070306 -0.036462811715913195
leaf_weight=9.3185707256197947 5.8726131319999721 5.4742847830057126 3.6071578413248062 5.0888529270887402 10.00144181400537 5.2245183512568465
leaf_count=95 23 30 34 21 51 46
internal_value=8.05569e-05 -0.0329333 0.0133181 0.0372861 0.0171194 -0.061815
internal_weight=44.5874 23.6245 9.08144 20.9629 15.0903 14.5431
internal_count=300 205 64 95 72 141
is_linear=0
shrinkage=0.1


Tree=56
num_leaves=7
num_cat=0
split_feature=6 2 5 9 3 0
split_gain=4.12524 3.74763 2.4808 0.384558 0.035069 0.000683366
threshold=1.546324055312275 0.95494003482259304 -2.3430676513212614 0.31185117530747886 0.16188114900124354 0.12898532396863852
decision_type=2 2 2 2 2 2
left_child=1 2 -1 -3 -2 -6
right_child=4 3 -4 -5 5 -7
leaf_value=-0.033761532140118879 -0.08690593765696443 -0.077500411642642528 0.038050425173535019 -0.026038444923391864 -0.072599526916326193 -0.069866289011345672
leaf_weight=5.8744735047221175 2.3789262548089019 4.0636163912713519 26.562487736344337 2.2594658881425858 1.9575733505189421 1.717124357819557
leaf_count=34 16 34 146 22 21 27
internal_value=-0.000674192 0.0113162 0.025045 -0.0591112 -0.0774463 -0.0713223
internal_weight=44.8137 38.76 32.437 6.32308 6.05362 3.6747
internal_count=300 236 180 56 64 48
is_linear=0
shrinkage=0.1


Tree=57
num_leaves=7
num_cat=0
split_feature=2 5 9 1 6 7
split_gain=4.09364 2.60448 2.82031 2.26346 1.92673 0.000801523
threshold=-0.50179073010288422 -1.7537054321612791 1.0976984859733256 -1.2664394744024403 1.0827125434207141 -1.3573835924545323
decision_type=2 2 2 2 2 2
left_child=3 -2 -3 4 -1 -5
right_child=1 2 -4 5 -6 -7
leaf_value=-0.049477266069100662 0.081130965848187742 -0.017137834981640451 0.06827880596943274 -0.072950070556795463 0.048386910237475385 -0.071035691199016746
leaf_weight=3.8930968493223208 6.3869960308074978 13.520002380013468 5.4132790565490714 3.7205386757850647 4.1629486083984375 5.306243706494568
leaf_count=33 29 84 30 40 14 70
internal_value=0.00039049 0.0259117 0.00728393 -0.0374372 0.00109389 -0.0718247
internal_weight=42.4031 25.3203 18.9333 17.0828 8.05605 9.02678
internal_count=300 143 114 157 47 110
is_linear=0
shrinkage=0.1


Tree=58
num_leaves=7
num_cat=0
split_feature=0 3 2 6 0 3
split_gain=4.8921 3.95917 5.34017 2.29404 2.82362 0.464566
threshold=0.7262013923572016 1.2967975646122865 1.7786742475411872 0.2721287978179569 1.4895798235289737 0.23310322603254466
decision_type=2 2 2 2 2 2
left_child=1 5 -3 -2 -5 -1
right_child=3 2 -4 4 -6 -7
leaf_value=-0.075266424721146433 0.087367719148252934 0.071288079511775349 -0.079253328969535519 -0.034272076320126625 0.069529729211009486 -0.038749230535024493
leaf_weight=9.0320364311337489 6.6634293049573925 6.8327804282307607 3.596750620752573 5.8195560649037343 4.7673253789544106 5.6713045910000792
leaf_count=99 27 38 35 28 25 48
internal_value=0.000393192 -0.0277536 0.019372 0.0414016 0.0124704 -0.0611812
internal_weight=42.3832 25.1329 10.4295 17.2503 10.5869 14.7033
internal_count=300 220 73 80 53 147
is_linear=0
shrinkage=0.1


Tree=59
num_leaves=6
num_cat=0
split_feature=3 6 2 2 3
split_gain=3.75564 5.4326 2.63489 0.535782 0.0693595
threshold=-1.6278246190921295 0.55713329641468357 0.95494003482259304 -1.5798090792364408 -0.33747808533797069
decision_type=2 2 2 2 2
left_child=3 2 -2 -1 -3
right_child=1 4 -4 -5 -6
leaf_value=0.088208515660834805 0.027686803077935546 -0.090910673397567365 -0.054380673496230408 0.03746716436702046 -0.071512494945933508
leaf_weight=3.5307142436504364 18.884845182299618 2.3961875140666962 4.9344070963561526 5.0679620578885061 7.9878287054598314
leaf_count=20 88 11 43 37 101
internal_value=-0.000776197 -0.0156284 0.0106857 0.0583021 -0.0759888
internal_weight=42.8019 34.2033 23.8193 8.59868 10.384
internal_count=300 243 131 57 112
is_linear=0
shrinkage=0.1


Tree=60
num_leaves=5
num_cat=0
split_feature=2 1 6 2
split_gain=3.67659 3.77489 2.93179 0.895476
threshold=2.0019701497432849 -0.10069539317050989 1.0000000180025095e-35 0.80002261336736502
decision_type=2 2 2 2
left_child=1 2 -1 -3
right_child=-2 3 -4 -5
leaf_value=-0.034495217216053801 0.076284380359243564 -0.072680970516391927 0.03864525860275228 -0.00046540577616872636
leaf_weight=8.7909002788364905 5.4760764464735976 9.223869498819111 14.553487207740543 2.1098488867282859
leaf_count=66 35 109 79 11
internal_value=0.000137884 -0.0118865 0.0111024 -0.0592376
internal_weight=40.1542 34.6781 23.3444 11.3337
internal_count=300 265 145 120
is_linear=0
shrinkage=0.1


Tree=61
num_leaves=7
num_cat=0
split_feature=0 3 2 6 3 9
split_gain=4.33288 3.51919 4.72685 2.19153 2.52114 0.543692
threshold=0.7262013923572016 1.2967975646122865 1.7786742475411872 0.2721287978179569 0.1197901987231635 -2.0689776354451883
decision_type=2 2 2 2 2 2
left_child=1 5 -3 -2 -5 -1
right_child=3 2 -4 4 -6 -7
leaf_value=-0.0064472607067023492 0.085803653931799256 0.068108316363202415 -0.078172378009653834 -0.033288973536068113 0.067074680337956952 -0.067173203827589054
leaf_weight=1.6805350184440602 6.3766089081764248 6.5279519557952863 3.3388503603637218 5.6718895733356458 4.4797360897064209 12.017711013555529
leaf_count=12 27 38 35 24 29 135
internal_value=0.000606106 -0.0269255 0.018608 0.0398592 0.0109998 -0.0597232
internal_weight=40.0933 23.565 9.8668 16.5282 10.1516 13.6982
internal_count=300 220 73 80 53 147
is_linear=0
shrinkage=0.1


Tree=62
num_leaves=6
num_cat=0
split_feature=6 9 9 3 0
split_gain=3.29722 3.15075 3.57734 0.0216828 0.00036407
threshold=1.546324055312275 1.0976984859733256 -2.6345805282435033 0.16188114900124354 0.12898532396863852
decision_type=2 2 2 2 2
left_child=1 2 -1 -2 -5
right_child=3 -3 -4 4 -6
leaf_value=-0.08152068271364879 -0.083698250338042068 -0.083491853635582911 0.030529916600516654 -0.071457861705405856 -0.06925940379471443
leaf_weight=3.1586547493934587 2.0806078389286986 3.2679360620677462 29.088057123124603 1.626910634338856 1.4027386903762815
leaf_count=22 16 25 189 21 27
internal_value=-0.000734461 0.0100723 0.0195543 -0.075838 -0.07044
internal_weight=40.6249 35.5146 32.2467 5.11026 3.02965
internal_count=300 236 211 64 48
is_linear=0
shrinkage=0.1


Tree=63
num_leaves=7
num_cat=0
split_feature=2 5 2 1 6 8
split_gain=3.29933 2.39671 2.82531 1.93125 1.45529 0.000639801
threshold=-0.50179073010288422 -2.4141305874976928 2.0019701497432849 -1.2664394744024403 1.0827125434207141 -0.78746115471213696
decision_type=2 2 2 2 2 2
left_child=3 -2 -3 4 -1 -5
right_child=1 2 -4 5 -6 -7
leaf_value=-0.046361939705939624 0.088096331937947456 -0.015272240470400876 0.074744345122163963 -0.072803042605267543 0.04197292284610625 -0.070645518661631546
leaf_weight=3.5427139140665513 4.6495142579078701 13.65590923279524 4.6822683289647093 1.7886446081101874 3.9383396059274673 5.9356795847415942
leaf_count=33 22 89 32 22 14 88
internal_value=6.62556e-05 0.0239703 0.0077116 -0.0360722 0.000141228 -0.0711451
internal_weight=38.1931 22.9877 18.3382 15.2054 7.48105 7.72432
internal_count=300 143 121 157 47 110
is_linear=0
shrinkage=0.1


Tree=64
num_leaves=5
num_cat=0
split_feature=0 1 3 8
split_gain=4.02808 3.16591 2.94412 0.5568
threshold=1.4895798235289737 1.293074122937468 1.3893703373698238 0.2452289881702526
decision_type=2 2 2 2
left_child=1 2 -1 -3
right_child=-2 3 -4 -5
leaf_value=-0.05801654044402782 0.071330255841622045 0.01896127160438546 0.017347270098352151 0.073300331005732869
leaf_weight=15.565431065857416 6.6484536230564109 4.8033195436000815 7.7717166990041724 3.104481615126133
leaf_count=153 38 25 66 18
internal_value=0.000650195 -0.0143895 -0.0329189 0.040294
internal_weight=37.8934 31.2449 23.3371 7.9078
internal_count=300 262 219 43
is_linear=0
shrinkage=0.1


Tree=65
num_leaves=6
num_cat=0
split_feature=3 6 2 2 3
split_gain=3.14933 4.46886 2.12751 0.432469 0.0424849
threshold=-1.6278246190921295 0.55713329641468357 0.95494003482259304 -1.5798090792364408 -0.48529999088353365
decision_type=2 2 2 2 2
left_child=3 2 -2 -1 -3
right_child=1 4 -4 -5 -6
leaf_value=0.084421178583085066 0.024872389111415618 -0.087400735728052792 -0.051422651819885694 0.036426789295701735 -0.070907466633666677
leaf_weight=3.2289624735713005 17.683248393237598 2.0182090699672699 4.6071797497570506 4.4856359884142867 6.9058598391711694
leaf_count=20 88 10 43 37 102
internal_value=-0.0006979 -0.0148379 0.00910307 0.0565149 -0.0746375
internal_weight=38.9291 31.2145 22.2904 7.7146 8.92407
internal_count=300 243 131 57 112
is_linear=0
shrinkage=0.1


Tree=66
num_leaves=5
num_cat=0
split_feature=2 1 6 2
split_gain=2.954 3.19707 2.33742 0.742594
threshold=2.0019701497432849 -0.10069539317050989 1.0000000180025095e-35 0.80002261336736502
decision_type=2 2 2 2
left_child=1 2 -1 -3
right_child=-2 3 -4 -5
leaf_value=-0.031848113967170508 0.073593604683106481 -0.071895935378009507 0.035827939274628177 -0.0033869181946394075
leaf_weight=8.1798590384423786 4.7395395413041106 7.9131145216524583 13.569832287728785 1.977585397660732
leaf_count=66 35 109 79 11
internal_value=-3.16891e-05 -0.0110603 0.0103756 -0.058198
internal_weight=36.3799 31.6404 21.7497 9.8907
internal_count=300 265 145 120
is_linear=0
shrinkage=0.1


Tree=67
num_leaves=5
num_cat=0
split_feature=0 1 3 8
split_gain=3.60884 2.72489 2.64679 0.52064
threshold=1.4895798235289737 1.293074122937468 1.3893703373698238 0.2452289881702526
decision_type=2 2 2 2
left_child=1 2 -1 -3
right_child=-2 3 -4 -5
leaf_value=-0.055658713370215745 0.069865422236181515 0.017509328362110603 0.01712570383773725 0.071310102673129164
leaf_weight=14.825209196656948 6.2731337994337073 4.6849317923188201 7.5358851999044409 2.9196728691458702
leaf_count=153 38 25 66 18
internal_value=0.000894416 -0.0135442 -0.0311297 0.0381653
internal_weight=36.2388 29.9657 22.3611 7.6046
internal_count=300 262 219 43
is_linear=0
shrinkage=0.1


Tree=68
num_leaves=7
num_cat=0
split_feature=3 6 9 0 2 6
split_gain=2.76934 3.4894 1.67518 1.53983 1.19148 0.345
threshold=-1.1843525898212615 -0.83190477808249363 -0.2593908871121397 1.012300531493884 -0.21020281234937568 0.49880348446533823
decision_type=2 2 2 2 2 2
left_child=3 4 -3 5 -2 -1
right_child=1 2 -4 -5 -6 -7
leaf_value=0.075733146073602153 0.07065984785592587 -0.018711969848715832 -0.083155625618580808 -0.020271221386966198 -0.0017240932657360234 0.03199508704750649
leaf_weight=5.7916895151138288 4.050802655518055 9.2466470301151293 7.1548468004912129 3.1067059040069571 5.1846010312438029 2.6189172938466072
leaf_count=50 22 88 80 20 29 11
internal_value=-0.000841351 -0.0191403 -0.0468243 0.0398911 0.0300247 0.0621139
internal_weight=37.1542 25.6369 16.4015 11.5173 9.2354 8.41061
internal_count=300 219 168 81 51 61
is_linear=0
shrinkage=0.1


Tree=69
num_leaves=5
num_cat=0
split_feature=2 1 3 2
split_gain=2.71901 2.85246 2.1419 0.706435
threshold=2.0019701497432849 1.0000000180025095e-35 1.2967975646122865 0.96677466689642033
decision_type=2 2 2 2
left_child=1 2 -1 -3
right_child=-2 3 -4 -5
leaf_value=0.022240725720960294 0.072710290872171457 -0.071812163620453659 -0.066011327494319913 0.0036224769178548836
leaf_weight=18.143606618046768 4.47583083808422 7.2554921042174083 3.241420865058898 1.4977220669388769
leaf_count=133 35 105 19 8
internal_value=-1.76713e-05 -0.0108185 0.00886398 -0.0589049
internal_weight=34.6141 30.1382 21.385 8.75321
internal_count=300 265 152 113
is_linear=0
shrinkage=0.1


Tree=70
num_leaves=5
num_cat=0
split_feature=0 1 3 4
split_gain=3.22454 2.2949 2.54022 0.259352
threshold=1.4895798235289737 1.293074122937468 -0.51784199532467212 -0.17812304309723948
decision_type=2 2 2 2
left_child=1 2 -1 -3
right_child=-2 3 -4 -5
leaf_value=-0.087060134911044515 0.068257238846407817 0.052094232973871127 -0.0087910615940960928 0.014025224838467699
leaf_weight=5.6324495226144835 5.9047187678515902 4.1212831623852253 15.718504276126623 3.1630107313394538
leaf_count=77 38 24 142 19
internal_value=0.000971416 -0.0129032 -0.0294387 0.0355638
internal_weight=34.54 28.6352 21.351 7.28429
internal_count=300 262 219 43
is_linear=0
shrinkage=0.1


Tree=71
num_leaves=6
num_cat=0
split_feature=3 6 6 6 3
split_gain=2.56674 3.71861 1.71193 0.372781 0.0345383
threshold=-1.6278246190921295 0.55713329641468357 -1.3514272511778838 -0.42666211642261892 -0.70381767298953346
decision_type=2 2 2 2 2
left_child=3 2 -2 -1 -3
right_child=1 4 -4 -5 -6
leaf_value=0.023008714770427593 0.052652894523057707 -0.087760608042538379 -0.010586936136092009 0.071431826054805067 -0.070484301443154471
leaf_weight=2.4938579462468624 6.0338120311498669 1.4199715107679365 14.731919061392547 4.3856534138321868 6.2526108715683213
leaf_count=29 36 7 95 28 105
internal_value=-0.000932702 -0.014192 0.0077884 0.0538782 -0.0736816
internal_weight=35.3178 28.4383 20.7657 6.87951 7.67258
internal_count=300 243 131 57 112
is_linear=0
shrinkage=0.1


Tree=72
num_leaves=5
num_cat=0
split_feature=2 1 6 2
split_gain=2.47964 2.55322 1.96931 0.705335
threshold=2.0019701497432849 -0.10069539317050989 0.42680286628528613 0.80002261336736502
decision_type=2 2 2 2
left_child=1 2 -1 -3
right_child=-2 3 -4 -5
leaf_value=-0.022816987177403599 0.071860823466116025 -0.071104375504412648 0.039110632109460974 -0.0021403925823335192
leaf_weight=9.9815106466412598 4.2261292710900298 6.6994624715298396 10.575864836573599 1.9046613425016401
leaf_count=83 35 109 62 11
internal_value=0.000273636 -0.0101009 0.00904205 -0.0558381
internal_weight=33.3876 29.1615 20.5574 8.60412
internal_count=300 265 145 120
is_linear=0
shrinkage=0.1


Tree=73
num_leaves=7
num_cat=0
split_feature=0 3 2 6 3 4
split_gain=2.91779 2.64466 3.34309 2.05028 2.20953 0.52621
threshold=0.7262013923572016 1.2967975646122865 1.7786742475411872 0.2721287978179569 -0.56509933951199132 0.67167092660401628
decision_type=2 2 2 2 2 2
left_child=1 5 -3 -2 -5 -1
right_child=3 2 -4 4 -6 -7
leaf_value=-0.069714507455123795 0.082540868428222836 0.061112358268094351 -0.075882110608368192 -0.057427600028733962 0.046834648316135229 -0.018218950513864747
leaf_weight=8.2422114331275242 5.5349779278039923 5.6366507634520513 2.6043660677969456 3.4407448321580878 4.9664010107517234 2.6135949436575165
leaf_count=112 27 38 35 15 38 35
internal_value=0.00049921 -0.0248929 0.0178187 0.0352793 0.00416383 -0.0573167
internal_weight=33.0389 19.0968 8.24102 13.9421 8.40715 10.8558
internal_count=300 220 73 80 53 147
is_linear=0
shrinkage=0.1


Tree=74
num_leaves=6
num_cat=0
split_feature=9 5 2 2 2
split_gain=2.40743 2.6442 1.88014 1.33577 0.363497
threshold=1.0976984859733256 -2.3430676513212614 0.95494003482259304 -1.2487005373792337 0.055950308394980504
decision_type=2 2 2 2 2
left_child=1 3 -3 -1 -2
right_child=4 2 -4 -5 -6
leaf_value=0.0016463521620768509 -0.11331162032234593 0.034690763679715561 -0.051076591141399466 -0.087932546499893766 -0.049379486924468946
leaf_weight=3.0647571291774511 1.6173770371824496 20.739044964313511 2.9151915013790122 3.6437625270336893 1.9756674282252786
leaf_count=27 13 163 36 32 29
internal_value=-0.000754788 0.00840489 0.0241206 -0.0470088 -0.078158
internal_weight=33.9558 30.3628 23.6542 6.70852 3.59304
internal_count=300 258 199 59 42
is_linear=0
shrinkage=0.1


Tree=75
num_leaves=7
num_cat=0
split_feature=0 6 9 6 2 9
split_gain=2.24671 2.5806 4.03982 1.66544 0.897878 0.790621
threshold=-0.097754103407403523 1.0000000180025095e-35 -1.6698671993638925 2.2120187400960369 1.0000000180025095e-35 -0.2229330838765225
decision_type=2 2 2 2 2 2
left_child=1 2 -1 4 -2 -3
right_child=3 5 -4 -5 -6 -7
leaf_value=0.10294828298255534 -0.076876056090939032 0.013535036638881262 -0.045051263791342416 0.031634197942743331 -0.012449338173766479 0.080500896899924165
leaf_weight=2.3759911805391338 6.0848521273583156 2.4588358104228973 8.2425655256956833 2.9929753504693499 3.3562949746847153 6.2302650734782201
leaf_count=11 83 20 89 23 28 46
internal_value=-0.000214044 0.0211361 -0.0119351 -0.0333665 -0.0539726 0.0615509
internal_weight=31.7418 19.3077 10.6186 12.4341 9.44115 8.6891
internal_count=300 166 100 134 111 66
is_linear=0
shrinkage=0.1


Tree=76
num_leaves=5
num_cat=0
split_feature=0 1 3 9
split_gain=2.70196 1.81251 2.23036 0.129118
threshold=1.4895798235289737 1.293074122937468 -0.51784199532467212 -1.2393626006994471
decision_type=2 2 2 2
left_child=1 2 -1 -3
right_child=-2 3 -4 -5
leaf_value=-0.085770408522873709 0.065415958909837563 0.019436948131569185 -0.0079604759421327258 0.047370637423394327
leaf_weight=4.9387927614152511 5.3953442610800257 3.4547859057784081 14.498095490038395 3.1758926548063746
leaf_count=77 38 19 142 24
internal_value=0.00100188 -0.0123302 -0.0277315 0.0328163
internal_weight=31.4629 26.0676 19.4369 6.63068
internal_count=300 262 219 43
is_linear=0
shrinkage=0.1


Tree=77
num_leaves=6
num_cat=0
split_feature=6 9 3 3 0
split_gain=2.158 2.20353 2.63854 0.0140786 0.000160472
threshold=1.546324055312275 -2.6345805282435033 -1.2214755414941953 -0.10718469367636617 -0.038652849398798976
decision_type=2 2 2 2 2
left_child=1 -1 -3 -2 -5
right_child=3 2 -4 4 -6
leaf_value=-0.079907120679000368 -0.082202240340963975 0.065114764118472737 -0.0037939236801636024 -0.070153938545497507 -0.068458934387254131
leaf_weight=2.581047426909211 1.3004482425749304 7.940639071166518 18.508661339059472 0.96610729023814257 1.324010647833346
leaf_count=22 10 67 147 17 37
internal_value=-0.000758042 0.00828748 0.0168939 -0.0738926 -0.069174
internal_weight=32.6209 29.0303 26.4493 3.59057 2.29012
internal_count=300 236 214 64 54
is_linear=0
shrinkage=0.1


Tree=78
num_leaves=5
num_cat=0
split_feature=2 1 3 4
split_gain=2.12628 2.15298 1.89172 0.037106
threshold=2.0019701497432849 0.5094616544192323 1.2967975646122865 -0.89970239148549835
decision_type=2 2 2 2
left_child=1 2 -1 -3
right_child=-2 3 -4 -5
leaf_value=0.017602036266748999 0.070642177819622259 -0.051893966041636458 -0.062996686426323653 -0.071197463162421842
leaf_weight=17.799333631992351 3.7415693141520014 1.3206658884882925 3.4816867150366297 4.048203954473137
leaf_count=153 35 19 27 66
internal_value=5.02099e-05 -0.0098607 0.00441566 -0.0664491
internal_weight=30.3915 26.6499 21.281 5.36887
internal_count=300 265 180 85
is_linear=0
shrinkage=0.1


Tree=79
num_leaves=6
num_cat=0
split_feature=0 3 6 3 3
split_gain=2.38704 2.36573 1.87349 1.80613 1.23143
threshold=0.7262013923572016 3.3658901132459591 0.2721287978179569 0.1197901987231635 0.23310322603254466
decision_type=2 2 2 2 2
left_child=1 4 -2 -4 -1
right_child=2 -3 3 -5 -6
leaf_value=-0.073200836438327005 0.080868899591716698 0.085188887959549819 -0.037526190697522603 0.060261619784725343 -0.01466856908568657
leaf_weight=5.6284695472568336 5.070674777030943 1.8025055900216091 4.5825006440281868 3.2131268978118896 9.9455079175531846
leaf_count=99 27 10 24 29 111
internal_value=0.00090543 -0.0232695 0.0335547 0.00277905 -0.0358223
internal_weight=30.2428 17.3765 12.8663 7.79563 15.574
internal_count=300 220 80 53 210
is_linear=0
shrinkage=0.1


Tree=80
num_leaves=5
num_cat=0
split_feature=9 9 6 2
split_gain=2.07116 2.17957 2.08288 0.336313
threshold=1.0976984859733256 -2.6345805282435033 1.546324055312275 0.11880034672242791
decision_type=2 2 2 2
left_child=1 -1 -3 -2
right_child=3 2 -4 -5
leaf_value=-0.077672320584986368 -0.11209508364851545 0.025816534453527426 -0.075036564284586604 -0.046971126792648567
leaf_weight=2.6985588278621497 1.4849699307233089 23.074614552780989 2.24722103960812 1.7016910463571546
leaf_count=30 14 189 39 28
internal_value=-0.00092635 0.00776147 0.0168662 -0.0773186
internal_weight=31.2071 28.0204 25.3218 3.18666
internal_count=300 258 228 42
is_linear=0
shrinkage=0.1


Tree=81
num_leaves=5
num_cat=0
split_feature=2 1 6 2
split_gain=1.97047 1.87525 1.75741 0.653008
threshold=1.7786742475411872 1.0000000180025095e-35 0.42680286628528613 0.96677466689642033
decision_type=2 2 2 2
left_child=1 2 -1 -3
right_child=-2 3 -4 -5
leaf_value=-0.024513263265067375 0.066663623557836157 -0.070536164296431739 0.036504131105048986 0.010035067346787337
leaf_weight=9.3786809965968221 3.8729146979749194 5.4121986543759695 9.5031492896378023 1.235547177493572
leaf_count=86 38 105 64 7
internal_value=0.000198205 -0.0098848 0.00619655 -0.0555612
internal_weight=29.4025 25.5296 18.8818 6.64775
internal_count=300 262 150 112
is_linear=0
shrinkage=0.1


Tree=82
num_leaves=5
num_cat=0
split_feature=0 3 2 1
split_gain=2.24514 1.50932 2.71226 1.70281
threshold=1.4895798235289737 0.23310322603254466 -0.80032207998266136 0.64030205154292308
decision_type=2 2 2 2
left_child=1 3 -3 -1
right_child=-2 2 -4 -5
leaf_value=-0.077323014152944222 0.062394305392900931 0.071488385117861195 -0.022230829758518464 0.0051407746196061753
leaf_weight=5.7299437280744367 4.8713145144283763 4.6671951226890114 9.1261785794049448 4.4477210510522127
leaf_count=96 38 42 98 26
internal_value=0.000503365 -0.0120739 0.00948047 -0.0412857
internal_weight=28.8424 23.971 13.7934 10.1777
internal_count=300 262 140 122
is_linear=0
shrinkage=0.1


Tree=83
num_leaves=6
num_cat=0
split_feature=9 5 2 2 9
split_gain=1.8616 1.99792 1.52813 1.20162 0.339721
threshold=1.0976984859733256 -2.3430676513212614 0.95494003482259304 -1.2487005373792337 1.423831132889368
decision_type=2 2 2 2 2
left_child=1 3 -3 -1 -2
right_child=4 2 -4 -5 -6
leaf_value=0.0043649318868045784 -0.11232213411269919 0.031895942675911913 -0.049288293312890641 -0.086404096526407681 -0.044761358456832823
leaf_weight=2.7303925063461065 1.3612566497176879 18.658815508708361 2.6475282609462729 3.1307550705969396 1.6421073824167249
leaf_count=27 12 163 36 32 30
internal_value=-0.000674357 0.00758466 0.021808 -0.0441197 -0.0753829
internal_weight=30.1709 27.1675 21.3063 5.86115 3.00336
internal_count=300 258 199 59 42
is_linear=0
shrinkage=0.1


Tree=84
num_leaves=7
num_cat=0
split_feature=0 6 9 6 2 3
split_gain=1.81662 1.69174 2.69891 1.51202 1.69702 0.594683
threshold=-1.3154738445131209 1.0000000180025095e-35 0.19744716668359968 0.30829761486347051 -1.2487005373792337 0.84104102721527729
decision_type=2 2 2 2 2 2
left_child=1 2 -1 5 -5 -2
right_child=3 -3 -4 4 -6 -7
leaf_value=0.051733126903001914 -0.073693470374968387 0.090444443792686638 -0.079103741259903229 -0.049405732518542293 0.031827434266564487 -0.0021789854345586096
leaf_weight=4.3617136739194411 5.1181029686704305 3.4383464641869068 2.4691373817622662 3.9996050745248821 7.203366775065656 1.5046130940318105
leaf_count=36 76 30 25 50 68 15
internal_value=-0.000266298 0.0332359 0.00443972 -0.0195666 0.00282615 -0.0574461
internal_weight=28.0949 10.2692 6.83085 17.8257 11.203 6.62272
internal_count=300 91 61 209 118 91
is_linear=0
shrinkage=0.1


Tree=85
num_leaves=5
num_cat=0
split_feature=0 3 1 6
split_gain=2.03115 1.40637 1.76732 0.18423
threshold=1.4895798235289737 -1.5498344589583721 0.058538658570525988 0.94444971250525989
decision_type=2 2 2 2
left_child=1 3 -3 -1
right_child=-2 2 -4 -5
leaf_value=-0.057436470407311514 0.061219524551522478 -0.033093268172055948 0.025735505269208397 -0.11206798404892633
leaf_weight=1.3697172282263701 4.6667198315262786 9.8224893156439084 10.636497953906654 1.1236438229680059
leaf_count=43 38 120 92 7
internal_value=0.00107808 -0.01115 -0.00250856 -0.0820564
internal_weight=27.6191 22.9523 20.459 2.49336
internal_count=300 262 212 50
is_linear=0
shrinkage=0.1


Tree=86
num_leaves=6
num_cat=0
split_feature=3 6 4 2 3
split_gain=1.72347 2.69023 1.48978 0.226946 0.012211
threshold=-1.6278246190921295 0.55713329641468357 -1.0861982327103001 -0.84078302583431352 -0.70381767298953346
decision_type=2 2 2 2 2
left_child=3 2 -2 -1 -3
right_child=1 4 -4 -5 -6
leaf_value=0.064921899354650314 -0.058551023208707365 -0.081140916488324638 0.019488264143954308 0.022095035940692162 -0.069616692999618687
leaf_weight=3.5413614362478256 2.9255355577915969 1.1487333625555036 14.930476095527409 1.9018380865454698 4.6065632244572035
leaf_count=35 22 7 109 22 105
internal_value=-0.000767314 -0.0124613 0.00670228 0.0499583 -0.0719169
internal_weight=29.0545 23.6113 17.856 5.4432 5.7553
internal_count=300 243 131 57 112
is_linear=0
shrinkage=0.1


Tree=87
num_leaves=5
num_cat=0
split_feature=2 3 9 4
split_gain=1.7176 1.68204 1.89589 0.254473
threshold=2.0019701497432849 1.2967975646122865 1.0976984859733256 1.0000000180025095e-35
decision_type=2 2 2 2
left_child=1 2 -1 -3
right_child=-2 3 -4 -5
leaf_value=-0.0092303101614620991 0.069088044596592721 -0.091063298022596634 0.080328266251837727 -0.043234901411335902
leaf_weight=16.56278872396798 3.1672118119895449 1.9829458110034455 2.7572360932826987 2.5339591130614281
leaf_count=194 35 26 21 24
internal_value=-0.000100291 -0.00929334 0.00355094 -0.0642318
internal_weight=27.0041 23.8369 19.32 4.5169
internal_count=300 265 215 50
is_linear=0
shrinkage=0.1


Tree=88
num_leaves=4
num_cat=0
split_feature=0 3 1
split_gain=1.80948 1.67109 1.57401
threshold=1.7199160368857256 3.3658901132459591 0.058538658570525988
decision_type=2 2 2
left_child=1 2 -1
right_child=-2 -3 -4
leaf_value=-0.04493249662328555 0.075620936166324593 0.083177839851446403 0.0089765382131432522
leaf_weight=10.039799032732853 2.8971556760370722 1.8485317938029755 11.760273924097417
leaf_count=155 26 11 108
internal_value=0.00102826 -0.00810998 -0.0158507
internal_weight=26.5458 23.6486 21.8001
internal_count=300 274 263
is_linear=0
shrinkage=0.1


Tree=89
num_leaves=5
num_cat=0
split_feature=9 9 2 2
split_gain=1.54756 1.83716 1.76244 0.299697
threshold=1.0976984859733256 -2.6345805282435033 1.1504330361303541 0.11880034672242791
decision_type=2 2 2 2
left_child=1 -1 -3 -2
right_child=3 2 -4 -5
leaf_value=-0.07746158257606553 -0.10922962608051451 0.024248926963017153 -0.071687161218852644 -0.042141833250573607
leaf_weight=2.347899283282465 1.2382010444998734 20.802371194586161 2.1090599447488776 1.440610548481345
leaf_count=30 14 194 34 28
internal_value=-0.000880071 0.00678445 0.0154177 -0.0731512
internal_weight=27.9381 25.2593 22.9114 2.67881
internal_count=300 258 228 42
is_linear=0
shrinkage=0.1


end of trees

feature_importances:
Column_3=120
Column_2=85
Column_6=81
Column_0=75
Column_1=53
Column_9=29
Column_5=13
Column_7=8
Column_4=5
Column_8=3

parameters:
[boosting: gbdt]
[objective: multiclass]
[metric: multi_logloss]
[tree_learner: serial]
[device_type: cpu]
[data_sample_strategy: bagging]
[data: ]
[valid: ]
[num_iterations: 30]
[learning_rate: 0.1]
[num_leaves: 31]
[num_threads: 16]
[seed: 42]
[deterministic: 0]
[force_col_wise: 0]
[force_row_wise: 0]
[histogram_pool_size: -1]
[max_depth: 3]
[min_data_in_leaf: 20]
[min_sum_hessian_in_leaf: 0.001]
[bagging_fraction: 1]
[pos_bagging_fraction: 1]
[neg_bagging_fraction: 1]
[bagging_freq: 0]
[bagging_seed: 400]
[bagging_by_query: 0]
[feature_fraction: 1]
[feature_fraction_bynode: 1]
[feature_fraction_seed: 30056]
[extra_trees: 0]
[extra_seed: 12879]
[early_stopping_round: 0]
[early_stopping_min_delta: 0]
[first_metric_only: 0]
[max_delta_step: 0]
[lambda_l1: 0]
[lambda_l2: 0]
[linear_lambda: 0]
[min_gain_to_split: 0]
[drop_rate: 0.1]
[max_drop: 50]
[skip_drop: 0.5]
[xgboost_dart_mode: 0]
[uniform_drop: 0]
[drop_seed: 17869]
[top_rate: 0.2]
[other_rate: 0.1]
[min_data_per_group: 100]
[max_cat_threshold: 32]
[cat_l2: 10]
[cat_smooth: 10]
[max_cat_to_onehot: 4]
[top_k: 20]
[monotone_constraints: ]
[monotone_constraints_method: basic]
[monotone_penalty: 0]
[feature_contri: ]
[forcedsplits_filename: ]
[refit_decay_rate: 0.9]
[cegb_tradeoff: 1]
[cegb_penalty_split: 0]
[cegb_penalty_feature_lazy: ]
[cegb_penalty_feature_coupled: ]
[path_smooth: 0]
[interaction_constraints: ]
[verbosity: -1]
[saved_feature_importance_type: 0]
[use_quantized_grad: 0]
[num_grad_quant_bins: 4]
[quant_train_renew_leaf: 0]
[stochastic_rounding: 1]
[linear_tree: 0]
[max_bin: 255]
[max_bin_by_feature: ]
[min_data_in_bin: 3]
[bin_construct_sample_cnt: 200000]
[data_random_seed: 175]
[is_enable_sparse: 1]
[enable_bundle: 1]
[use_missing: 1]
[zero_as_missing: 0]
[feature_pre_filter: 1]
[pre_partition: 0]
[two_round: 0]
[header: 0]
[label_column: ]
[weight_column: ]
[group_column: ]
[ignore_column: ]
[categorical_feature: ]
[forcedbins_filename: ]
[precise_float_parser: 0]
[parser_config_file: ]
[objective_seed: 16083]
[num_class: 3]
[is_unbalance: 0]
[scale_pos_weight: 1]
[sigmoid: 1]
[boost_from_average: 1]
[reg_sqrt: 0]
[alpha: 0.9]
[fair_c: 1]
[poisson_max_delta_step: 0.7]
[tweedie_variance_power: 1.5]
[lambdarank_truncation_level: 30]
[lambdarank_norm: 1]
[label_gain: ]
[lambdarank_position_bias_regularization: 0]
[eval_at: ]
[multi_error_top_k: 1]
[auc_mu_weights: ]
[num_machines: 1]
[local_listen_port: 12400]
[time_out: 120]
[machine_list_filename: ]
[machines: ]
[gpu_platform_id: -1]
[gpu_device_id: -1]
[gpu_use_dp: 0]
[num_gpu: 1]

end of parameters

pandas_categorical:null
