using System.Runtime.CompilerServices;

public static class CbBinModel
{
    private const int    TreeCount = 40;
    private const double Scale     = 1d;
    private const double Bias      = 0d;

    private static readonly int[]    SplitFeature    = [5, 6, 9, 5, 4, 5, 5, 2, 8, 2, 5, 1, 5, 1, 1, 5, 6, 9, 5, 8, 5, 5, 8, 2, 5, 3, 8, 3, 5, 4, 5, 6, 1, 7, 8, 6, 8, 7, 1, 5, 2, 7, 5, 9, 7, 7, 5, 4, 7, 7, 5, 7, 6, 9, 5, 8, 5, 5, 3, 8, 7, 9, 6, 8, 1, 5, 5, 7, 7, 7, 6, 9, 5, 3, 0, 6, 9, 7, 6, 9, 8, 8, 7, 9, 5, 3, 1, 5, 7, 5, 4, 9, 7, 7, 5, 3, 7, 6, 9, 5, 8, 8, 7, 5, 6, 5, 0, 2, 5, 7, 8, 7, 2, 3, 6, 9, 5, 6, 9, 5];
    private static readonly double[] SplitBorder     = [-0.59746718406677246d, -0.57488608360290527d, 0.30679610371589661d, -0.66382908821105957d, 2.7436747550964355d, 1.4616780281066895d, 0.001130854245275259d, 0.29502749443054199d, 1.75026535987854d, 1.1993323564529419d, 0.03203294426202774d, 0.26236885786056519d, -0.095647342503070831d, 0.8155474066734314d, 0.26868677139282227d, -0.11893816292285919d, 2.397730827331543d, 0.61036121845245361d, -0.005524052307009697d, -0.35466957092285156d, 1.1822669506072998d, 0.86361747980117798d, 1.4781984090805054d, 0.25169479846954346d, 1.0573509931564331d, 2.0555648803710938d, 0.46578675508499146d, 1.9769649505615234d, 0.51698923110961914d, 0.45109590888023376d, -0.11893816292285919d, 0.75358635187149048d, 0.70061123371124268d, 0.31687068939208984d, 0.9625321626663208d, 0.16891475021839142d, 0.56488066911697388d, -3.0847170352935791d, 0.59018373489379883d, 0.33606314659118652d, 1.594451904296875d, 0.69652330875396729d, -0.57396817207336426d, 2.9075360298156738d, -3.8891360759735107d, 0.66584432125091553d, -0.072326749563217163d, -1.9147137403488159d, -3.9734258651733398d, 0.39717605710029602d, -0.30798095464706421d, 0.38141775131225586d, 0.68637645244598389d, -0.08119499683380127d, 1.517289400100708d, -0.16909268498420715d, 0.37005871534347534d, 0.80965709686279297d, 2.3186712265014648d, 0.030083103105425835d, 1.5772862434387207d, 0.61036121845245361d, 0.2988278865814209d, 1.0420880317687988d, 0.019382217898964882d, 0.56497436761856079d, 1.2139111757278442d, 1.4815561771392822d, -0.46187317371368408d, 0.31687068939208984d, 0.78335601091384888d, 0.54170107841491699d, 1.1967488527297974d, 2.5273797512054443d, -0.92364221811294556d, 0.32317301630973816d, 0.94293081760406494d, 0.31687068939208984d, 0.75358635187149048d, 0.68223679065704346d, 0.46578675508499146d, 0.062531545758247375d, -3.0997459888458252d, -0.46970421075820923d, 1.2359799146652222d, 2.2032961845397949d, 0.99318587779998779d, -0.70123302936553955d, -3.258277416229248d, -1.2018046379089355d, -3.9963650703430176d, 0.11590138822793961d, -2.9289002418518066d, -3.8676583766937256d, -2.2328183650970459d, 3.909703254699707d, 1.4445772171020508d, 0.16266047954559326d, 0.64104104042053223d, 0.83928048610687256d, 0.45623642206192017d, 0.37961059808731079d, 1.4044287204742432d, -0.072326749563217163d, 2.4888663291931152d, 1.2139111757278442d, 0.83420765399932861d, 0.40346992015838623d, -0.072326749563217163d, -3.605750560760498d, -0.27258002758026123d, 1.5772862434387207d, 2.374990701675415d, -2.6127774715423584d, 0.2243179976940155d, 0.11893169581890106d, 1.1967488527297974d, 0.49261480569839478d, 0.64104104042053223d, 0.053282752633094788d];
    private static readonly int[]    TreeSplitOffset = [0, 3, 6, 9, 12, 15, 18, 21, 24, 27, 30, 33, 36, 39, 42, 45, 48, 51, 54, 57, 60, 63, 66, 69, 72, 75, 78, 81, 84, 87, 90, 93, 96, 99, 102, 105, 108, 111, 114, 117];
    private static readonly int[]    TreeDepth       = [3, 3, 3, 3, 3, 3, 3, 3, 3, 3, 3, 3, 3, 3, 3, 3, 3, 3, 3, 3, 3, 3, 3, 3, 3, 3, 3, 3, 3, 3, 3, 3, 3, 3, 3, 3, 3, 3, 3, 3];
    private static readonly double[] LeafValues      = [-0.13913043685581372d, -0.049056604504585266d, -0.086956523034883576d, 0.068421053651132088d, -0.058823530288303602d, 0.1219512213294099d, -0.15820895758137773d, -0.048000000715255738d, -0.14720353928078805d, -0.0056440900785686811d, 0d, 0.012743823392011968d, 0d, 0.11477278045853005d, 0d, 0d, -0.1305688664330269d, 0.05407796439296577d, -0.088488921321089653d, 0.068687620451325856d, -0.020233020581112454d, -0.034739012084941914d, 0.029442232420599505d, 0.063853045316683066d, -0.10167041958210145d, -0.062887227613014823d, 0.017886111652375872d, 0.08248201140983713d, -0.093992919898763252d, 0.003883987719608174d, 0.050984432845245044d, 0.034181908219287113d, -0.10823387143009675d, 0.03795991630325795d, 0d, 0d, -0.086466789795161397d, 0.064647764879140479d, -0.076366655734975392d, 0.01738168826079288d, -0.11675587287210551d, 0.029845605470633675d, 0.11209698238474047d, 0d, -0.10896480439575103d, 0.082011244579331607d, -0.085494534863773355d, -0.039220608329172506d, -0.12360431106765339d, 0.019557540522062794d, -0.049853489475266827d, 0.0057449000714570285d, 0d, 0.067469006575839124d, 0d, 0.077539944618849915d, -0.085910491724028468d, 0.096711249182674014d, -0.03537419979492086d, 0.0054794722286716216d, -0.043363377720323615d, 0.036215727225961093d, 0.091159361807379213d, 0.040764955565411216d, -0.090781535948496236d, 0.091000673049417807d, 0.02762599907945951d, 0.02361943923628192d, -0.016270200235380734d, 0.053732301946067047d, 0.064464638806857141d, -0.0048890758857220032d, -0.078375078499090534d, 0.073523130149416568d, 0.045988990411996916d, 0.032417493584954209d, -0.06090835654433812d, 0.0051945408871544967d, 0.076634914685865765d, -0.0064687517066122158d, -0.10034170769076547d, 0.0074436423113912169d, -0.047245610489346147d, 0.099864113396219784d, -0.087041109252238943d, 0.029356626247838243d, 0.029922403003418394d, 0.0038521491606579826d, -0.10537985973506953d, 0.031695108377404427d, -0.023481014654951098d, 0.039784072533863762d, -0.040567896687985439d, 0.091758532157623182d, 0.051204275321505399d, -0.0086244615690676436d, -0.068375475292419483d, 0.11112140817920378d, -0.052740543337765344d, 0.018053153318158741d, 0.011431607857705238d, 0.031176528613796287d, -0.013362323202269278d, -0.029914521669171676d, -0.065928467358028112d, 0.0053981279002230913d, 0.017856853751800125d, 0.059250475404698362d, 0.037216332710206301d, 0.082055289441643323d, -0.0041015654378303151d, -0.020784875607432557d, 0.036472619816841211d, 0.050966043812045017d, 0d, 0d, -0.099314302852875985d, 0.020273013588683782d, -0.019616225273087047d, 0.031415440489008607d, -0.039058808853678753d, 0.013048335222617297d, -0.020072141764725351d, 0.022265120884892214d, -0.068587804154846624d, 0.010563376644608985d, 0.037634351558347982d, 0.059358503608451019d, 0.073272522826750994d, -0.085143495119340953d, 0d, -0.0091936680536488669d, 0d, 0.0031260679298346149d, 0d, 0.053913235033239859d, -0.059131336906890548d, -0.0024461046404415463d, 0.11985885256370524d, 0.0092470524125986085d, -0.060636884243337762d, 0.053108703226549966d, -0.056689293670906249d, 0.048614840052784769d, -0.090906857903270522d, 0d, 0.0022576931183279818d, 0d, 0.044750356788385355d, 0.046831862377649996d, 0.0054520574558570385d, 0.06428280200337616d, -0.080218175885083468d, 0.084765602731507961d, 0.014696069631594793d, 0d, -0.0080911099128421413d, 0.032928977035836408d, 0.06607137673084329d, -0.011867269355209452d, -0.076590334428779439d, 0.056768505582994636d, 0.027176274141166197d, 0.0533066614778245d, 0.096951702989241079d, 0.010493500830750006d, -0.082031644611682969d, 0.025252067636322578d, -0.07480766751196001d, 0.063693601583386883d, -0.019857412030875359d, -0.024615318752651879d, 0.029086770458230132d, 0.036207684195558941d, 0.046147213753770434d, 0.014008492411284185d, -0.038340623928629601d, 0.063297171027329402d, 0d, 0d, -0.017885807601663497d, 0.029750564300502495d, 0.071462112480248571d, 0.051477074323321347d, -0.059520111422464821d, -0.0067631840591118346d, 0.11512215660219514d, 0.041738710206509232d, -0.02710183942760467d, 0.072628737767618606d, -0.067873380810198503d, 0.026868133004069501d, -0.015672230553888788d, 0.054101247834674952d, 0.031299599528111864d, -0.028036365948454364d, -0.03795608016933727d, 0.077139237035253855d, 0.057580386492865537d, 0d, -0.055927022684914333d, 0.061764393656392642d, -0.015544397674099092d, -0.066268722955046419d, -0.025495775184152889d, 0.074788491583937036d, 0.077876154429583844d, 0.014967504281659759d, -0.032393630402545018d, 0.050601806685220622d, -0.024203172662258972d, -0.043791358241225709d, -0.044703026942770355d, 0.11508555939623905d, 0.079275489907428942d, -0.037408609657033187d, -0.0080257841540415792d, 0.099949198396373076d, 0.016767271789524682d, -0.030200404884148765d, -0.042603685947505028d, 0.014794813573760638d, -0.050409877308381493d, 0.015964730984686079d, -0.029458587860054071d, 0.078898381510696267d, 0.078534452404599414d, 0.021325571209348408d, -0.028026702355694922d, 0.045149966396826099d, 0.0022046142061017912d, -0.046108031270831726d, 0.0016856508437509004d, 0d, -0.07149346197660629d, 0d, 0.020037793360042865d, 0.077558710189604266d, -0.037999163125352925d, 0.012322522806222241d, 0.0019826519634792293d, 0.093307563872055299d, 0d, -0.050422152756866047d, 0.016385121285997239d, -0.01444225868325801d, 0.03942004018700572d, -0.011534567082232465d, -0.010333303967817746d, -0.044487419658402076d, 0.064135331210078084d, -0.0067919427100290664d, 0d, 0d, 0d, 0.037274278538499538d, -0.061391854841736079d, 0.02412045042115148d, 0.066894809659963736d, 0.021344784658542389d, 0.034065616264385673d, 0.054276764410555192d, -0.063055542221606781d, 0.02777531139140969d, -0.054805579584283733d, 0.086038104871911728d, 0d, 0d, 0.03654240475504409d, 0.011845063217400521d, 0.011096185926362464d, 0.017489394025399511d, -0.057269161787962569d, 0.0041027394080180727d, 0.018718910891886327d, 0.071127890788635392d, 0.038478651599856743d, 0d, -0.030847735451027061d, 0d, -0.044451825984663886d, 0.063612812101304497d, 0.012932510494540837d, 0.020022779408594274d, 0.022896485486337749d, 0.0077496358765961381d, 0.018948389862708921d, 0.018694619371905009d, -0.031293469087780329d, 0d, -0.058339354727271579d, 0.033907998170679458d, 0.081243635002304027d, 0.0053658240280570306d, -0.037589527600676305d, 0.020668711104436282d, 0.0024733405752169562d, 0d, 0.010022237928373803d, 0d, -0.017321002125593447d, 0.067959686022517216d, 0.044420069482414545d, 0d, -0.078676141124420437d, 0.08589572149727917d, -0.0044545060748731333d, -0.031610310871767203d, 0.040606191568604483d, 0.038632710283847939d, 0.034512818488899269d, 0.0047396382023238114d, -0.069477653236295012d, 0.066857227113535242d, 0.01329183702192739d, -0.054453103434693818d, -0.015352288738432356d, 0.062311210694707173d, 0.051421680490187131d, 0.00066195155892065035d];
    private static readonly int[]    TreeLeafOffset  = [0, 8, 16, 24, 32, 40, 48, 56, 64, 72, 80, 88, 96, 104, 112, 120, 128, 136, 144, 152, 160, 168, 176, 184, 192, 200, 208, 216, 224, 232, 240, 248, 256, 264, 272, 280, 288, 296, 304, 312];

    // bit l set when feature[split[l]] > border[split[l]]
    [MethodImpl(MethodImplOptions.AggressiveInlining)]
    private static double EvalTree(int treeIdx, ReadOnlySpan<double> f)
    {
        int leafIdx     = 0;
        int splitOffset = TreeSplitOffset[treeIdx];
        int depth       = TreeDepth[treeIdx];
        for (int l = 0; l < depth; l++)
        {
            int s = splitOffset + l;
            if (f[SplitFeature[s]] > SplitBorder[s])
                leafIdx |= (1 << l);
        }
        return LeafValues[TreeLeafOffset[treeIdx] + leafIdx];
    }

    [MethodImpl(MethodImplOptions.AggressiveInlining)]
    public static double PredictScore(ReadOnlySpan<double> f)
    {
        double s = 0;
        for (int i = 0; i < TreeCount; i++)
            s += EvalTree(i, f);
        return Bias + Scale * s;
    }

    [MethodImpl(MethodImplOptions.AggressiveInlining)]
    public static double PredictProbability(ReadOnlySpan<double> f)
    {
        double x = PredictScore(f);
        return x >= 0
            ? 1.0 / (1.0 + Math.Exp(-x))
            : Math.Exp(x) / (1.0 + Math.Exp(x));
    }

    [MethodImpl(MethodImplOptions.AggressiveInlining)]
    public static int Predict(ReadOnlySpan<double> f)
        => PredictProbability(f) >= 0.5 ? 1 : 0;
}
