using System.Runtime.CompilerServices;

public static class CbModel
{
    private const int    TreeCount = 50;
    private const double Scale     = 1d;
    private const double Bias      = 6.6373748779296875d;

    private static readonly int[]    SplitFeature    = [3, 7, 1, 3, 7, 6, 3, 7, 3, 3, 0, 1, 3, 1, 1, 3, 3, 8, 3, 6, 7, 3, 7, 1, 1, 3, 8, 3, 9, 7, 3, 7, 1, 7, 6, 6, 3, 7, 3, 3, 7, 6, 3, 7, 6, 7, 6, 3, 7, 7, 3, 7, 3, 3, 3, 1, 8, 3, 7, 1, 1, 9, 1, 6, 7, 3, 3, 7, 7, 7, 6, 6, 3, 3, 0, 3, 6, 7, 6, 0, 7, 3, 1, 9, 3, 3, 7, 3, 7, 1, 4, 9, 3, 7, 1, 3, 3, 6, 7, 3, 0, 8, 7, 3, 1, 7, 1, 5, 3, 7, 1, 6, 3, 3, 3, 7, 6, 7, 3, 5, 3, 7, 4, 3, 7, 6, 7, 7, 3, 6, 7, 6, 7, 6, 4, 7, 9, 1, 6, 3, 7, 6, 3, 4, 3, 7, 6, 3, 3, 2];
    private static readonly double[] SplitBorder     = [-0.4325525164604187d, 0.66363370418548584d, 0.24717512726783752d, 0.10867640376091003d, 0.33804327249526978d, 0.064108081161975861d, -0.26087981462478638d, -0.41330218315124512d, 0.46543887257575989d, -0.61105155944824219d, 0.19547560811042786d, 0.63839066028594971d, -0.76207137107849121d, 0.849151611328125d, 0.64894485473632812d, -0.3159334659576416d, 1.2177107334136963d, 1.9139896631240845d, -0.3022867739200592d, 0.41667413711547852d, -0.029766365885734558d, 0.90575003623962402d, -0.41330218315124512d, 0.016994260251522064d, 0.73321998119354248d, -0.40997618436813354d, -0.83146864175796509d, 0.23629185557365417d, -0.057555012404918671d, 1.0314220190048218d, 0.61442995071411133d, 0.16900774836540222d, 0.016994260251522064d, -0.36388123035430908d, -0.28343147039413452d, 0.41667413711547852d, -1.1523549556732178d, -0.80608409643173218d, 0.52599775791168213d, -0.13843904435634613d, 0.36947548389434814d, 0.386322021484375d, 0.82454288005828857d, -0.41330218315124512d, -1.0595250129699707d, -0.38215744495391846d, -0.80737054347991943d, 0.37634146213531494d, 1.300667405128479d, -0.41330218315124512d, -1.2358617782592773d, 0.96924793720245361d, 0.42054402828216553d, -0.86721938848495483d, 0.82454288005828857d, -0.47737494111061096d, -0.80023396015167236d, -0.97792899608612061d, 0.39081168174743652d, -1.1581794023513794d, 0.85906660556793213d, 1.2028961181640625d, -0.58552283048629761d, 1.3172545433044434d, 0.17202317714691162d, -0.70876395702362061d, -0.67112177610397339d, 1.300667405128479d, -0.62815344333648682d, -1.0038187503814697d, -1.0191516876220703d, 0.55230557918548584d, 1.417900562286377d, -0.9286048412322998d, -0.59044444561004639d, 1.8206325769424438d, -0.52000570297241211d, -0.036159798502922058d, 1.2816001176834106d, 0.59622788429260254d, 1.0346922874450684d, 1.7168372869491577d, 0.80945253372192383d, -0.010574792511761189d, 0.93193548917770386d, -1.1840028762817383d, 1.0728614330291748d, -0.71709781885147095d, 0.63359296321868896d, -0.50697982311248779d, -1.7211487293243408d, 1.8952867984771729d, 1.0314849615097046d, 1.3078937530517578d, -0.6237339973449707d, 1.3624358177185059d, 1.5619605779647827d, 0.021318918094038963d, 1.3462338447570801d, 1.417900562286377d, -0.76337295770645142d, 0.56495130062103271d, -1.0090608596801758d, 1.0750992298126221d, -0.63205218315124512d, 1.3078937530517578d, 0.28676328063011169d, -0.75197374820709229d, -1.5771803855895996d, -1.1896681785583496d, 0.63638627529144287d, -0.82560765743255615d, 0.90575003623962402d, -0.73711514472961426d, -0.13843904435634613d, -0.86395895481109619d, -0.65715885162353516d, 0.52708446979522705d, 0.053308553993701935d, 0.75188064575195312d, 1.8206325769424438d, -0.98556840419769287d, 0.91154450178146362d, -1.5894194841384888d, 0.15513765811920166d, 1.1518560647964478d, -1.6589558124542236d, 0.48881626129150391d, -0.15279348194599152d, 0.64065766334533691d, 0.029606344178318977d, 0.021318918094038963d, 1.4458372592926025d, -0.97316920757293701d, -0.66095519065856934d, -1.0038187503814697d, 0.18448394536972046d, 0.63424921035766602d, -0.89396452903747559d, 0.59729421138763428d, 1.6434915065765381d, -0.92508184909820557d, 1.0314849615097046d, -1.2036113739013672d, -1.0061299800872803d, 1.0300775766372681d, -0.92508184909820557d, -0.89483010768890381d, 1.6065517663955688d, 0.61347031593322754d];
    private static readonly int[]    TreeSplitOffset = [0, 3, 6, 9, 12, 15, 18, 21, 24, 27, 30, 33, 36, 39, 42, 45, 48, 51, 54, 57, 60, 63, 66, 69, 72, 75, 78, 81, 84, 87, 90, 93, 96, 99, 102, 105, 108, 111, 114, 117, 120, 123, 126, 129, 132, 135, 138, 141, 144, 147];
    private static readonly int[]    TreeDepth       = [3, 3, 3, 3, 3, 3, 3, 3, 3, 3, 3, 3, 3, 3, 3, 3, 3, 3, 3, 3, 3, 3, 3, 3, 3, 3, 3, 3, 3, 3, 3, 3, 3, 3, 3, 3, 3, 3, 3, 3, 3, 3, 3, 3, 3, 3, 3, 3, 3, 3];
    private static readonly double[] LeafValues      = [-14.893039911969334d, -0.71048525592254186d, -2.5626386657521154d, 11.018311253921395d, -12.166465406514186d, 8.195981441080292d, 2.4936539485104965d, 13.295633954317797d, -14.610287165375055d, 0.99464092330331344d, 0.032374201442759917d, 9.7988651439804872d, -7.5270573090959561d, 5.0256960795799879d, 2.7827976950045263d, 16.965444865834893d, -14.506807744431256d, -3.9907169091314958d, -3.0754440599216748d, 4.4157153229204482d, 0d, 1.2849307173513658d, 0d, 12.733612363040683d, -12.535955251579997d, 1.6084861747732606d, -8.6458686887607747d, 2.1304009679569722d, -0.69354940084539696d, 8.7644490517742639d, -1.117151536368129d, 7.8408738292450906d, -11.220479061708961d, 1.161938390137444d, 0d, 0d, -4.5279210739295896d, 3.1368913578537598d, -0.38602450108940206d, 8.8240048976402221d, -6.2473282955636007d, 2.5295217683927764d, 0d, 11.084263839071465d, 2.0281804420505454d, 0.49487494497425716d, 0d, 0d, -12.374246909720084d, -2.0665844960568629d, -7.0266652839322923d, 2.6635201013719452d, -1.1350137985520414d, 5.066826332827044d, 1.1378744300028336d, 12.772454043887192d, -9.4839673471938273d, 0.67587456768392484d, -1.8838189678108108d, 8.2659006849745591d, -6.7848297530984398d, 4.62670251933889d, 3.4747935785040829d, 12.575188044249829d, -9.3549065475088913d, -3.4980742706922805d, -0.24747509095021311d, 6.1117947456003421d, -5.7946379690475212d, 0.69294634717453774d, 1.9628425343522959d, 7.5533235679171087d, -6.9409570397783105d, 5.0193436135333336d, -3.931963400509439d, 1.760577463565854d, 2.4620928719406505d, 7.7453640368992414d, 6.1836653374780024d, 9.3447096421949176d, -7.2506498484135991d, -0.35175686255387739d, 0.4607326129624863d, 7.3795627200493374d, -3.9937852694187388d, 6.7250326404427163d, 3.8983409584994244d, 10.439974431325393d, -7.1053676541316788d, 0.021686612439656913d, -5.0082267510147584d, 1.639109438458056d, 0d, 0d, -1.8983678401166511d, 5.8839964261958508d, -8.7845250132245045d, -6.2986948481507863d, -6.6349921820473536d, 0.83702393747815795d, 0d, -2.5046942243283308d, 0d, 7.2006466962357063d, -7.3540772454008119d, -0.95997502249868139d, 0.38736775880324337d, 5.3704541887290747d, -3.2810796476521107d, 2.8455257972790795d, 2.197323407871949d, 10.521654971252095d, -9.7172059917086333d, -1.5962919279695997d, -3.7755336044196919d, 1.1446418786581598d, -4.8960130976311778d, 3.5569042471341223d, 1.1901090718956546d, 8.5382247809923619d, -9.3599298449693791d, -3.8424138085301456d, -4.7465979958531603d, 0.8997146252955126d, -0.50722117831358049d, 0.70370023373363444d, -0.040387965881147216d, 6.7810990422077042d, -8.9822921821461712d, 0d, -4.7614394737999328d, 0.5475214973509217d, -2.1246212808674794d, 0d, 1.1416259593111151d, 7.6387079577776138d, -6.6825775393938276d, 1.04386233753002d, 0d, 0d, -1.5515398795004325d, 4.4053931270198401d, 2.4044704558302872d, 6.9213700235292421d, -4.0964887700914128d, 1.0656073024463233d, -2.6525376562318552d, 4.23291753447453d, -3.9979796681954789d, 2.4259337517802835d, 0.81886257272221885d, 6.0454688554920342d, -6.796416447000615d, -2.2723104986207914d, -0.72597827586446417d, -0.90047275341470767d, -6.4941041652015992d, -0.25945889282551748d, 0.12148275379126244d, 4.8755827418376345d, -3.275103186276985d, 0d, -1.0163505133887498d, 0d, -0.082380521150591843d, 4.0604540491216001d, 0.82060017723303158d, 2.237186725713594d, -5.9312152792957473d, -1.9532225189401824d, -0.29503832148776699d, 0d, -0.92677980763524148d, 3.1318406148170164d, 2.7960812814582936d, 8.8161837425029148d, -6.4206866400869078d, -2.1652376234590172d, 0d, 0d, -2.5315276403806144d, 1.2622722151057115d, 2.2929513767980447d, 6.0620513624388321d, -5.2020467725989858d, -3.3980504732239791d, -4.7835046654457285d, 0.33511774379255749d, 0d, 0d, -3.3773370425154847d, 3.4995115425266912d, -3.8588007222974672d, 0d, 0.56694438074684028d, 0.88623649338508526d, -3.1296984274116206d, 0d, 0.072961061710626732d, 7.6879535878399921d, -5.4354149039496757d, 2.0750435187382492d, -1.0650154182075522d, 4.1552719185978306d, -0.55307176219671172d, 3.7575595785437037d, 1.6996941976698881d, 6.2245415662499841d, -1.6979376890869149d, 3.0639618943021887d, -0.55096301813107951d, 2.4485619569336561d, 3.7336271706453421d, 4.892206516012787d, 2.3908346309801667d, 0d, -1.7244624488529754d, 4.1252692265844981d, 1.52815360132013d, 6.1087777422886074d, -0.48081204900623548d, 3.5436039091634832d, 2.6514731954709099d, 0d, -4.4622238849647591d, 0d, -1.0909783599722354d, 3.6303669142027837d, -0.040052582409682118d, 0d, 3.962686884628571d, 4.0781980581084776d, -3.8683468600201487d, -2.1298753622508655d, -0.61682368263241982d, 0.57450776980391494d, -3.3410711436227425d, 0.99015757606048038d, 0.81463274643776751d, 4.7152036511559858d, -4.0896917107443755d, -0.5756588810263995d, 0d, 0.82981323180456035d, -1.6786813812308847d, 4.0174588640552722d, 0d, 3.224708137806644d, -2.6051145173340586d, -0.48217378427123869d, -0.53507533102441807d, 5.273197958141421d, -0.1308550552656825d, 0d, 6.3842456513405272d, 3.3542105581735164d, -2.323970915674233d, 3.6206134816133178d, 0.25687372144070519d, 4.6578921946649361d, 1.1472622391359131d, 2.8809205582094153d, 5.9107006150381149d, 0d, -1.4543198794143835d, 1.4385124670097489d, -0.28122037940962935d, 4.517076860148542d, 3.2324322091798199d, -0.56213611274165032d, -0.62305558879876799d, 4.2404193670076742d, -3.7471043226515728d, -1.8381051378772779d, -0.063867501125808426d, -0.33034950491806031d, -4.179889067433403d, 0.81817938768487486d, 0d, 5.0728208527623586d, -2.7221174739212031d, -0.068128970933273122d, 2.0586216378705848d, 1.0712366133134794d, -0.69827956037167105d, 3.3126538849725407d, 0.23170204537832167d, 3.487398654098226d, -1.9949465361697005d, -4.5650998393598554d, -4.4955322618723432d, 0.2584700243182137d, 0d, -0.44892708721480251d, -1.5660641221052893d, 2.37241268841148d, -4.3837259672864199d, -0.97719563410943844d, 0d, 0d, -2.4148765618161474d, 0.49391857533918326d, 0.024660999833232729d, 3.4258895143021935d, -3.3945991352232721d, 0.86790585500128625d, -2.4933011665785885d, -1.3865423056924309d, -3.1695354144377808d, -2.0948059481635446d, -0.19627797363883923d, 2.5772380641188954d, -1.993109786856611d, 0.7302759494685197d, 0.43090573425617329d, 4.4095679335934559d, -1.0761369878779781d, -0.63853252596859167d, -1.2232573364197437d, 2.0352734906036143d, -3.4433693035111546d, 0d, -0.1112630860886431d, 4.0423528219130178d, -1.8377774826709907d, 0d, 1.7634547819799744d, 3.3863065541207926d, -4.1060808945278229d, -1.0356539198767674d, -1.5429011062739777d, 1.0203675301462891d, 0d, 1.5550953172618751d, 0d, 4.6728942945203089d, -3.74240659798711d, -1.2274214651048589d, 0d, 0.11954073836368763d, -1.6025229285626019d, 0.15217970957223642d, 0d, 2.8274490706172561d, -1.6817698279870743d, 0d, -0.33494313453651203d, 0d, -1.0084729613355143d, 0.56968702151754613d, 1.1889646173188679d, 3.2211866287265569d, -1.8445190379782412d, -0.0033694749200279331d, -1.4180443765112727d, 2.7251978203646936d, -3.0522962587786266d, 0.6735721624689972d, 0.55246938909589471d, 3.2040593211602251d, -3.0526769194169909d, -0.61642600906178391d, -2.3687078698224808d, 0.50376186628700226d, 0d, 1.4157408698709051d, 0.18204348510127361d, 1.5758727991120303d, -3.2947452797741326d, -0.33972231848800627d, -0.11334530274215868d, 1.6221940316834094d, 0.82451996141092743d, 3.5410671269083878d, 0d, 1.5629797098066949d, -0.77683905149034316d, -1.9565503566244729d, -0.81793548581291831d, 1.4265767778958509d, -2.4913868919484732d, 0.30371414511025768d, -0.22369620875377225d, 2.7631370445379093d, -5.106332270364291d, -1.3523188745509287d, 1.1124722008878607d, 0.53547447334335496d, -1.4043568303453171d, 0.32437037018666792d, -0.081865577367737058d, 2.3232086721414946d, -1.0158803506197631d, 0.1009968965453929d, 0d, 3.3706322769295434d, -2.5715382873245183d, 0.34837997482252425d, 0d, 1.8092509648955717d];
    private static readonly int[]    TreeLeafOffset  = [0, 8, 16, 24, 32, 40, 48, 56, 64, 72, 80, 88, 96, 104, 112, 120, 128, 136, 144, 152, 160, 168, 176, 184, 192, 200, 208, 216, 224, 232, 240, 248, 256, 264, 272, 280, 288, 296, 304, 312, 320, 328, 336, 344, 352, 360, 368, 376, 384, 392];

    // bit l set when feature[split[l]] >= border[split[l]]
    [MethodImpl(MethodImplOptions.AggressiveInlining)]
    private static double EvalTree(int treeIdx, ReadOnlySpan<double> f)
    {
        int leafIdx     = 0;
        int splitOffset = TreeSplitOffset[treeIdx];
        int depth       = TreeDepth[treeIdx];
        for (int l = 0; l < depth; l++)
        {
            int s = splitOffset + l;
            if (f[SplitFeature[s]] >= SplitBorder[s])
                leafIdx |= (1 << l);
        }
        return LeafValues[TreeLeafOffset[treeIdx] + leafIdx];
    }

    [MethodImpl(MethodImplOptions.AggressiveInlining)]
    public static double Predict(ReadOnlySpan<double> f)
    {
        double s = 0;
        for (int i = 0; i < TreeCount; i++)
            s += EvalTree(i, f);
        return Bias + Scale * s;
    }
}
