using System.Runtime.CompilerServices;

public static class CbNanModel
{
    private const int    TreeCount = 40;
    private const double Scale     = 1d;
    private const double Bias      = -6.0372891426086426d;

    private static readonly int[]    SplitFeature    = [3, 6, 4, 4, 3, 6, 8, 3, 6, 4, 0, 1, 4, 8, 1, 3, 8, 4, 3, 8, 0, 6, 8, 1, 8, 4, 8, 3, 4, 8, 3, 6, 1, 8, 6, 2, 8, 4, 3, 4, 2, 6, 8, 9, 6, 4, 6, 4, 6, 7, 3, 3, 0, 6, 4, 8, 8, 4, 9, 8, 0, 9, 6, 4, 4, 3, 0, 7, 7, 4, 6, 6, 3, 4, 0, 3, 0, 7, 6, 0, 4, 8, 1, 9, 3, 3, 5, 3, 4, 5, 4, 9, 0, 6, 4, 3, 3, 6, 9, 4, 8, 8, 6, 5, 4, 8, 0, 5, 4, 8, 8, 4, 0, 3, 6, 8, 8, 6, 8, 8];
    private static readonly double[] SplitBorder     = [-0.146832674741745d, -0.31344988942146301d, -0.74122965335845947d, -0.72498184442520142d, 0.21770384907722473d, -0.28450378775596619d, -0.34259036183357239d, 0.12613371014595032d, -0.52594614028930664d, -0.75830674171447754d, 0.053532935678958893d, 0.41577380895614624d, -0.38782981038093567d, -0.39770486950874329d, 0.42392653226852417d, -0.29596132040023804d, -0.23890383541584015d, 0.33916473388671875d, -0.27528756856918335d, -0.29260706901550293d, -0.43595945835113525d, 0.11768190562725067d, -0.39770486950874329d, -0.10343815386295319d, -0.14740030467510223d, -0.72498184442520142d, -0.62885069847106934d, -0.26749944686889648d, -0.45869123935699463d, 0.34546619653701782d, -1.2163808345794678d, 0.46618261933326721d, -0.88163799047470093d, -0.23890383541584015d, -0.65304911136627197d, -0.077300921082496643d, -0.791107177734375d, 0.48066842555999756d, -0.10567545890808105d, -0.75830674171447754d, -1.2107695341110229d, 0.62942004203796387d, -0.19357916712760925d, 1.6717286109924316d, 1.0149307250976562d, -0.19288676977157593d, -0.54171884059906006d, -0.96670866012573242d, 0.56215596199035645d, 1.3984634876251221d, -1.1912442445755005d, -0.1579367071390152d, 0.2343728244304657d, -0.98348855972290039d, -1.7719192504882812d, -0.1054006814956665d, 1.6721131801605225d, -0.74122965335845947d, 0.2984829843044281d, -0.32754722237586975d, -0.42631509900093079d, 0.61433029174804688d, -0.09308440238237381d, 0.24362389743328094d, 2.1155581474304199d, -0.74076569080352783d, -0.64462828636169434d, 0.79933375120162964d, -1.0488302707672119d, -2.0347824096679688d, -1.3248369693756104d, 0.23283186554908752d, -1.198958158493042d, -0.22690176963806152d, -0.8114733099937439d, -0.30852562189102173d, -0.64462828636169434d, -0.29615333676338196d, -1.6218240261077881d, 0.32337459921836853d, -0.80640733242034912d, 0.55553722381591797d, -1.3586364984512329d, -0.23048563301563263d, -1.2385207414627075d, -0.28203874826431274d, -0.20875966548919678d, -1.0702698230743408d, -1.368468165397644d, 0.3569830060005188d, 0.10738103091716766d, -1.2900228500366211d, -1.4553101062774658d, 0.0011243909830227494d, -0.69298481941223145d, -0.32352995872497559d, -0.90122991800308228d, -1.8174512386322021d, 0.63625180721282959d, -0.85803300142288208d, -0.8822484016418457d, 1.9726672172546387d, -1.4267408847808838d, 0.26635849475860596d, -0.55492979288101196d, -0.69947373867034912d, -0.61458653211593628d, 1.517400860786438d, -1.1883033514022827d, 1.841978907585144d, 0.93725621700286865d, -1.8177623748779297d, 0.20833349227905273d, -0.78757548332214355d, -1.8174512386322021d, -0.58582025766372681d, 1.141815185546875d, -0.079975098371505737d, 0.20256662368774414d, 2.4485101699829102d];
    private static readonly byte[]   SplitNanTrue    = [1, 1, 1, 1, 1, 1, 1, 1, 1, 1, 1, 1, 1, 1, 1, 1, 1, 1, 1, 1, 1, 1, 1, 1, 1, 1, 1, 1, 1, 1, 1, 1, 1, 1, 1, 1, 1, 1, 1, 1, 1, 1, 1, 1, 1, 1, 1, 1, 1, 1, 1, 1, 1, 1, 1, 1, 1, 1, 1, 1, 1, 1, 1, 1, 1, 1, 1, 1, 1, 1, 1, 1, 1, 1, 1, 1, 1, 1, 1, 1, 1, 1, 1, 1, 1, 1, 1, 1, 1, 1, 1, 1, 1, 1, 1, 1, 1, 1, 1, 1, 1, 1, 1, 1, 1, 1, 1, 1, 1, 1, 1, 1, 1, 1, 1, 1, 1, 1, 1, 1];
    private static readonly int[]    TreeSplitOffset = [0, 3, 6, 9, 12, 15, 18, 21, 24, 27, 30, 33, 36, 39, 42, 45, 48, 51, 54, 57, 60, 63, 66, 69, 72, 75, 78, 81, 84, 87, 90, 93, 96, 99, 102, 105, 108, 111, 114, 117];
    private static readonly int[]    TreeDepth       = [3, 3, 3, 3, 3, 3, 3, 3, 3, 3, 3, 3, 3, 3, 3, 3, 3, 3, 3, 3, 3, 3, 3, 3, 3, 3, 3, 3, 3, 3, 3, 3, 3, 3, 3, 3, 3, 3, 3, 3];
    private static readonly double[] LeafValues      = [-12.286502391792867d, -12.596204289036173d, -13.657034297498717d, -7.6567261505632507d, -15.209572722657112d, -0.22347347370546986d, -1.8273663736182852d, 9.610446932291179d, -10.934022506366729d, -10.835905152596942d, -11.220500386764005d, -0.29662476767788482d, -9.3989086315122474d, 0.7144104204799967d, -8.152739516953952d, 9.4061392750486785d, -11.723944222049562d, -9.4287531159049998d, -5.2150408875293213d, -1.1659176620238858d, -12.056319308605854d, 1.8397732415759551d, -2.2398050091562673d, 7.2361580304235362d, -12.169046416059116d, -1.0058378772029424d, -5.6440053002523491d, 3.2613302187067887d, -8.1527135246513591d, -1.7284020800219511d, -10.963758791952587d, 4.4135401572600337d, -6.990257188322639d, -6.2814494993207983d, -3.7480211865197504d, 5.671389665455548d, -13.959009651200251d, -3.6009326259624403d, -3.5584990714652296d, 3.4923969643464763d, -15.726876156745972d, -5.2985951931505753d, -6.7604831584003104d, 0.48601297099571256d, -6.0165285894770655d, 0.39597098657029889d, -1.3469928787048993d, 8.0457966837190913d, -10.359135225966398d, -3.9322313127559814d, -9.2068367994179816d, -0.28479488687575866d, -11.704002584023788d, -1.6328746863153469d, -0.15191272261735148d, 5.3676538563286185d, -9.4487452737912303d, -0.07368946361336913d, 0.15559977977226799d, 5.170140035389462d, -6.5773593625671607d, -5.4483267562666828d, -3.249515954646911d, 4.1478396076516111d, -10.036703519452685d, 0d, -5.3729222820059981d, 0d, -6.7782898298401184d, -6.8647733716950601d, 1.6244241949930047d, 3.3926784727555304d, -11.849669227897532d, -5.6361434292213639d, -5.9419034213591173d, 1.2551603631205701d, -0.11299816112136847d, -3.6802222229103014d, -2.5877665824748903d, 6.5957577057400236d, -1.8152957176436821d, -3.5595406176391933d, -1.4732178868571477d, 12.100201571979248d, -8.3748923370437556d, -2.4325622311730011d, -10.26621670825104d, 3.7331910397805945d, -4.1442392425533887d, 1.9342190424336296d, -1.7628731426454836d, 3.1231834191579768d, -3.1364714648640128d, -8.8725634364759323d, -4.241141943716463d, 2.9231279224323705d, -7.8109721747677643d, -7.1605529381870685d, -6.4660669994456583d, -0.049650652701056334d, -1.8600303548621036d, -0.32568898279190839d, -3.9459497429956052d, 5.9751479275042874d, -0.30628330084367783d, -2.0322315407024165d, -8.8074222497475247d, -1.0961998241696587d, 1.4337774341646308d, 8.3183641606490752d, -5.4696809136876547d, 3.8833164132111118d, -4.861662116312071d, -0.33042176752183594d, -1.4674558747170434d, -1.8860198471601797d, -3.200601789439192d, 5.1305841993726071d, 2.1626188002550228d, 3.7141487504105504d, -6.1683475811379127d, 0d, -6.1897971334968123d, 0d, -8.6775491039153092d, -2.5351058193418883d, 1.3327998089325981d, 2.7293335500809537d, -5.3105316807037877d, -4.5971654812703884d, -9.5959054586761301d, -6.6080874567991561d, -0.58619774378006573d, 4.0776722414133326d, -3.0041122340585047d, 1.8837806923033611d, -11.773957404168241d, -8.5643626308550598d, -4.510322818701443d, -0.96255728955580178d, -4.2952051812904068d, 0.89021567661070466d, -1.8274087036274698d, 3.7891480708392993d, -9.4627262674527621d, -1.8763542626307865d, -7.2995764911763672d, 2.8425507329001074d, 0d, 0d, -4.1718821848559795d, -0.2130309890609631d, -5.2674829019170879d, -1.8828858940487843d, -6.7036208325289284d, -1.2321723725125882d, -3.2681931476099093d, 1.6032601762622543d, -5.264160489721899d, 2.2487000931937011d, -10.599660982215971d, 0.12305334706857728d, -6.3870158371852943d, -0.94285520271745038d, 1.9457752320570723d, 0.78534214096947985d, -0.81035994851650872d, 2.8138515980967163d, -7.471805854393434d, 0.5164251999214825d, 0d, -5.5148256167489702d, -1.6205323657937487d, 6.8175450752228306d, 0d, -1.2351393486063968d, -6.1084424225291691d, 2.8206123601421256d, 0d, 0d, 1.4905641381853829d, 0.59290380516609631d, -6.3194266612376593d, -0.045472383130440754d, 0d, -6.3137497074755791d, -6.922828894822235d, -0.91396094661764538d, 0d, 0d, -6.3498214585416983d, 1.9680409102439773d, 0d, -4.2514427513450714d, -9.4789372790680666d, -2.3985581486284433d, -4.7080572033287709d, -2.6214841817273551d, -4.6462012274985502d, 2.9518047878418807d, -2.0451596636184983d, -1.4536998778607992d, -1.8717211404172107d, 4.1725653951931863d, -7.5843463906256448d, -0.92212098650702368d, -3.4740355724653207d, 0.85799740509234446d, -3.5306366442143955d, -6.5692919362300186d, -1.3151501907689298d, -2.9210241498771863d, -8.7611632112338853d, 0.63476412099830859d, -3.6311471142502252d, 1.9293176543396566d, -3.1277133163421205d, 7.1001036820601486d, -1.6017320857628174d, 0.83145993505039806d, 4.6463428066982386d, 6.0913145086681224d, -2.2641008632843529d, 0.89102360618722287d, -3.2375817516426859d, 0.7279843616356263d, 0d, -1.5703855053242604d, -7.3791443139610733d, -2.8532500267633636d, 0d, 2.3918522835883729d, -1.0921244102418886d, -3.9375212650545968d, -3.9609432377872134d, 0.56380836142367119d, -2.1707312501805585d, -8.7271693587778323d, -5.4252998353490467d, 1.8764790283204937d, -3.0358202964251157d, 0d, -3.5512243488959614d, -1.9258994696694285d, 1.1326171551002764d, -2.4241001954743453d, -2.7707586803803812d, 1.9227023944361434d, -4.0568788231042676d, -3.3179401576391787d, -6.678303563934084d, -0.60815467976886173d, -2.4694665383485579d, -2.7951592441337065d, -0.15868967056322769d, 3.1520390237397908d, 0d, -4.3605154479463284d, -4.3245526662981391d, 0.48140811177403775d, -0.4656394111838964d, -7.3366075043692085d, -2.632495624085998d, 1.4761008493250847d, -2.2294815626948061d, -3.1408227080713704d, -6.0577849582323324d, 2.4219208060620785d, 0d, 0d, -1.4449153185252681d, -1.2517706816592118d, 0.18934382599057556d, -3.1873687149385268d, -4.9356767884891726d, -1.3557886145302964d, -2.2511581415989532d, 0.69788728595258565d, -7.1374679683249314d, 1.4659394917226385d, 1.5308241337102992d, -3.8822323756679848d, -3.8009221252274714d, 1.4411436820337633d, -4.1387272419846468d, 0.12563866868423973d, -0.65372715887561006d, 0.92594477267678765d, -4.8761096339676699d, -0.66676502838771701d, 0d, 0d, -2.7945492867976096d, 7.3200319218188294d, -1.7986683352887887d, -1.0760540462066588d, 0d, -4.244861991412745d, -1.5535647446336402d, -1.3519794923627713d, -1.3215548067625971d, -0.76472528956532615d, -6.5094372271934393d, 1.6377247409702935d, 0.26707997242361181d, -2.5487341566467934d, -2.4587980603683621d, 0.81155708330690757d, 0d, 0d, -8.3063981346738984d, 1.0353769327284037d, -1.9760338576704772d, -0.91322946971794572d, 0.65352878361957023d, 3.9735659872435991d, 0d, 0d, -3.7388837236917025d, -0.33266794595745808d];
    private static readonly int[]    TreeLeafOffset  = [0, 8, 16, 24, 32, 40, 48, 56, 64, 72, 80, 88, 96, 104, 112, 120, 128, 136, 144, 152, 160, 168, 176, 184, 192, 200, 208, 216, 224, 232, 240, 248, 256, 264, 272, 280, 288, 296, 304, 312];

    // bit l set when feature[split[l]] > border[split[l]]
    [MethodImpl(MethodImplOptions.AggressiveInlining)]
    private static double EvalTree(int treeIdx, ReadOnlySpan<double> f)
    {
        int leafIdx     = 0;
        int splitOffset = TreeSplitOffset[treeIdx];
        int depth       = TreeDepth[treeIdx];
        for (int l = 0; l < depth; l++)
        {
            int s = splitOffset + l;
            double v = f[SplitFeature[s]];
            bool bit = double.IsNaN(v) ? SplitNanTrue[s] == 1 : v > SplitBorder[s];
            if (bit)
                leafIdx |= (1 << l);
        }
        return LeafValues[TreeLeafOffset[treeIdx] + leafIdx];
    }

    [MethodImpl(MethodImplOptions.AggressiveInlining)]
    public static double Predict(ReadOnlySpan<double> f)
    {
        double s = 0;
        for (int i = 0; i < TreeCount; i++)
            s += EvalTree(i, f);
        return Bias + Scale * s;
    }
}
